tree
version=v3
num_class=1
num_tree_per_iteration=1
label_index=0
max_feature_idx=191
objective=regression
feature_names=0 1 2 3 4 5 6 7 8 9 10 11 12 13 14 15 16 17 18 19 20 21 22 23 24 25 26 27 28 29 30 31 32 33 34 35 36 37 38 39 40 41 42 43 44 45 46 47 48 49 50 51 52 53 54 55 56 57 58 59 60 61 62 63 64 65 66 67 68 69 70 71 72 73 74 75 76 77 78 79 80 81 82 83 84 85 86 87 88 89 90 91 92 93 94 95 96 97 98 99 100 101 102 103 104 105 106 107 108 109 110 111 112 113 114 115 116 117 118 119 120 121 122 123 124 125 126 127 128 129 130 131 132 133 134 135 136 137 138 139 140 141 142 143 144 145 146 147 148 149 150 151 152 153 154 155 156 157 158 159 160 161 162 163 164 165 166 167 168 169 170 171 172 173 174 175 176 177 178 179 180 181 182 183 184 185 186 187 188 189 190 191
feature_infos=[230:9091] [12:4567] [2:6100] [0:42] [0:37] [211:10067] [38:4283] [1:166] [0:159] [0:1125] [0:59] [0:38] [0:48] [0:25] [0:99] [0:66] [0:18] [0:44] [0:17] [191:7311] [36:4040] [0:5261] [0:3534] [0:4579] [0:1328] [0:2170] [0:91] [0:130] [0:2174] [0:2189] [0:566] [0:228] [0:46] [0:600] [0:3479] [191:7310] [36:4040] [0:5261] [0:3534] [0:4579] [0:1328] [0:2170] [0:91] [0:130] [0:2174] [0:2189] [0:566] [0:228] [0:46] [0:600] [0:3479] [39:3445] [2.7324840764331211:21.25454545454545] [10:2818] [1.8302558051784696:189.6621826870807] [1:6] [0.49714616757051278:36.610402599407479] [13452:1210508] [65797.576335877864:3157276.5539733577] [65864.526717557252:3157388.2604501606] [8.423293675641828:282.61244695898159] [113.70992366412214:3734.2466999445369] [19.251908396946565:643.86733222407099] [63626.783202252162:1545223.3443937181] [63631.924177016808:1545218.0259529904] [14.770675283608362:6854.3294468022177] [59.864916717840629:2240.0041909307038] [9.9268153508934542:376.97290108547458] [47035:3529205] [47118.5:3529271] [1:203] [100.5:3731] [21:788.5] [106:872805] [252:872921] [0:32] none none [229452:5405033] [229548:5405146] [153:447470] [207:7592] [35:1296] [47083:3529205] [47162:3529271] [1:203] [101:3731] [21:789] [3:7] [6:36] [6:36] [4:64] [2.9900000000000002:1230.7280000000001] [0.017000000000000001:0.43149999999999999] [0.070813658614876707:1.6610000000000007] [0.18401149997754451:26.954932118764848] [78.659999999999982:2460.7949999999942] [7:468] [1:198] [1:117] [0:147] [0:66] [0:93] [10.608333333333333:982.5] [8.7308110170459123:902.26825279403477] [2:182] [1:982.5] [37:4536] [1:4536] [1:1103] [1:132.36363636363637] [0:424.09698719214521] [1:25] [1:2939] [1:125] [1:528] [0.62762762762762758:133.39731643682444] [3:1683] [6:2983] [35:1305] [3.774509803921569:6.5409836065573774] [1:2] [9:47] [1:19] [1:19] [2:4] [3:6] [4:9] [171:6205] [1:76] [37.966666666666669:1316] [1:1316] [63:1723] [3:1494] [1:1316] [11:1316] [21:1316] [43:1316] [204:7437] [7.4146341463414638:234] [1:234] [12:305] [1:271] [1:234] [2.5:234] [4:234] [8.75:234] [35:1305] [1:25] [77.799999999999997:3117] [1:3117] [163:3872] [4:3117] [1:3117] [1:3117] [17.5:3117] [42.5:3117] [207:7584] [13.652173913043478:689.5] [1:609] [28:2470] [1:609] [1:2470] [1:609] [4:609] [15:893] [35:3820] [0.0026455026455025998:1] [-1:0.99470899470899476] [0.0026455026455025998:1] [0:565] [0:1085] [0:302] [35:1303] [0:1] [0:1] [0:0.77637130801687759] [0:3.3809523809523809] [0:161.5] [0:399] [0.1575237515308755:6.8673052123403178] [0.1160472319008904:1.6566068515497554] [8:258] [2:155] [0.063995803778656102:0.96637023560696755] [0.063995803778656102:0.96637023560696755] [3.0270810810810813:242.6565555555556] [2.6070000000000002:65.813999999999993] [15.727188065399501:809.87522358557044] [0:11376] [0:6206] [1:4703]
tree_sizes=1293 1396 1357 1399 1386 1362 1418 1420 1369 1378 1394 1377 1371 1363 1368 1359 1383 1395 1396 1380 1395 1383 1400 1395 1380 1407 1378 1406 1395 1385 1385 1357 1395 1412 1382 1388 1395 1379 1417 1387 1394 1373 1412 1411 1422 1382 1401 1356 1400 1419 1390 1434 1423 1412 1401 1442 1375 1411 1386 1416 1426 1384 1372 1396 1390 1404 1403 1441 1398 1420 1402 1435 1386 1403 1439 1418 1430 1370 1406 1419 1408 1414 1407 1407 1411 1366 1433 1423 1373 1411 1415 1401 1417 1446 1414 1417 1391 1440 1383 1399 1409 1399 1420 1403 1436 1402 1423 1433 1459 1413 1392 1413 1395 1461 1424 1408 1396 1406 1392 1415 1411 1397 1391 1395 1414 1428 1384 1365 1407 1440 1430 1429 1409 1387 1412 1431 1417 1433 1411 1394 1406 1415 1423 1388 1379 1365 1424 1403 1399 1389 1422 1455 1406 1386 1406 1394 1394 1429 1412 1402 1446 1407 1407 1399 1402 1441 1433 1413 1405 1418 1396 1392 1434 1419 1429 1419 1377 1398 1429 1442 1436 1422 1406 1469 1391 1424 1426 1458 1418 1435 1394 1386 1381 1412 1414 1389 1410 1386 1470 1450 1407 1429 1411 1410 1400 1432 1380 1416 1410 1438 1407 1412 1378 1410 1407 1409 1410 1403 1416 1396 1417 1379 1466 1390 1427 1436 1427 1410 1402 1428 1430 1451 1409 1450 1379 1403 1425 1424 1444 1427 1456 1446 1424 1447 1442 1437 1407 1438 1397 1405 1409 1443 1404 1397 1414 1398 1397 1457 1449 1483 1425 1455 1431 1452 1436 1391 1421 1450 1424 1382 1454 1425 1404 1461 1432 1437 1441 1391 1455 1476 1399 1448 1443 1423 1424 1523 1385 1440 1406 1415 1471 1462 1423 1449 1479 1463 1431 1456 1435 1453 1429 1475 1419 1434 1486 1416 1409 1446 1440 1410 1455 1419 1475 1423 1431 1431 1448 1416 1443 1393 1396 1442 1393 1445 1444 1439 1447 1435 1402 1440 1429 1382 1462 1411 1497 1438 1414 1455 1462 1470 1416 1455 1425 1440 1492 1437 1470 1434 1423 1418 1464 1460 1405 1420 1429 1425 1423 1413 1388 1418 1434 1408 1408 1462 1417 1422 1440 1396 1474 1453 1427 1462 1451 1442 1439 1436 1421 1445 1454 1445 1427 1414 1414 1438 1439 1428 1405 1424 1458 1421 1438 1459 1443 1410 1469 1461 1403 1450 1432 1463 1424 1426 1363 1458 1408 1475 1487 1494 1413 1410 1451 1412 1445 1445 1431 1407 1455 1401 1442 1416 1420 1393 1476 1437 1410 1425 1415 1442 1428 1411 1405 1455 1468 1437 1494 1427 1426 1388 1414 1442 1468 1419 1478 1451 1455 1417 1439 1423 1427 1473 1451 1432 1447 1407 1396 1472 1414 1433 1448 1432 1422 1464 1439 1498 1442 1481 1418 1435 1454 1466 1409 1443 1412 1444 1447 1452 1445 1426 1425 1398 1528 1457 1455 1400 1429 1438 1471 1424 1393 1442 1456 1435 1444 1450 1412 1467 1430 1457 1432 1428 1400 1443 1417 1457 1425 1480 1464 1407 1454 1425 1443 1425 1424 1409 1406 1470 1446 1449 1450 1459 1453 1454 1411 1390 1406 1466 1473 1413 1421 1432 1428 1481 1418 1411 1436 1460 1455 1456 1436 1439 1398 1386 1426 1431 1445 1375 1416 1456 1420 1425 1428 1439 1453 1400 1399 1422 1455 1444 1399 1441 1416 1437 1435 1416 1453 1432 1427 1457 1376 1430 1432 1442 1473 1412 1431 1418 1432 1433 1441 1418 1392 1399 1437 1506 1454 1445 1408 1429 1413 1420 1413 1397 1461 1505 1429 1452 1386 1474 1455 1409 1462 1419 1409 1451 1467 1389 1414 1450 1447 1457 1440 1468 1409 1425 1454 1437 1442 1449 1411 1398 1423 1474 1462 1445 1467 1440 1492 1466 1381 1447 1430 1424 1450 1423 1408 1458 1488 1414 1412 1438 1436 1423 1408 1459 1425 1454 1455 1449 1417 1381 1484 1471 1425 1424 1448 1358 1402 1485 1399 1430 1447 1380 1386 1424 1470 1462 1449 1461 1469 1393 1481 1417 1437 1423 1445 1455 1433 1413 1382 1436 1436 1493 1392 1482 1404 1443 1448 1487 1453 1416 1471 1440 1436 1431 1439 1401 1494 1507 1403 1478 1466 1444 1430 1498 1426 1462 1386 1453 1424 1380 1487 1435 1425 1457 1486 1474 1462 1506 1437 1473 1450 1491 1453 1431 1470 1436 1426 1407 1403 1441 1409 1458 1420 1449 1427 1407 1442 1468 1426 1425 1443 1431 1431 1434 1450 1432 1380 1473 1397 1427 1374 1426 1395 1535 1462 1443 1452 1401 1474 1464 1434 1465 1419 1437 1412 1425 1440 1466 1390 1407 1448 1401 1442 1485 1441 1454 1437 1473 1444 1386 1458 1471 1482 1484 1425 1433 1455 1443 1471 1472 1449 1424 1410 1435 1403 1440 1419 1488 1448 1430 1457 1432 1396 1459 1478 1503 1472 1387 1389 1438 1492 1404 1488 1459 1427 1463 1439 1444 1466 1429 1444 1420 1433 1439 1406 1470 1483 1459 1481 1416 1489 1458 1493 1435 1456 1458 1536 1473 1475 1468 1430 1437 1467 1427 1445 1445 1461 1476 1502 1433 1460 1426 1499 1497 1483 1427 1479 1448 1455 1451 1449 1521 1416 1505 1418 1488 1506 1434 1485 1432 1488 1425 1431 1472 1462 1473 1469 1477 1469 1466 1392 1424 1440 1423 1434 1466 1444 1437 1438 1453 1414 1417 1463 1458 1528 1423 1513 1424 1476 1426 1471 1433 1489 1455 1440 1467 1448 1484 1472 1523 1443 1437 1416 1425 1501 1429 1459 1444 1413 1442 1386 1474 1439 1468 1489 1470 1497 1466 1468 1474 1453 1427 1483 1450 1431 1413 1427 1514 1419 1451 1440 1478 1468 1462 1411 1448 1464 1442 1396 1432 1451 1474 1465 1436 1417 1416 1506 1472 1503 1503 1395 1487 1476 1462 1427 1451 1454 1410 1402 1438 1479 1437 1477 1469 1481 1480 1453 1408 1423 1435 1498 1467 1413 1408 1431 1504 1450 1438 1425 1454 1475 1466 1401 1476 1487 1494 1475 1417 1503 1470 1395 1425 1454 1511 1461 1432 1444 1472 1502 1450 1476 1435 1462 1484 1460 1490 1443 1425 1448 1442 1417 1440 1430 1501 1464 1412 1434 1398 1515 1488 1464 1473 1467 1493 1438 1504 1489 1454 1427 1426 1433 1451 1498 1476 1497 1483 1432 1451 1464 1451 1411 1495 1403 1413 1415 1530 1420 1454 1435 1458 1484 1403 1451 1447 1459 1483 1467 1492 1427 1481 1489 1463 1458 1484 1479 1457 1423 1470 1475 1424 1568 1442 1429 1426 1557 1437 1421 1473 1457 1474 1449 1417 1460 1490 1381 1414 1445 1485 1500 1491 1533 1414 1421 1473 1543 1475 1499 1478 1407 1435 1446 1511 1508 1465 1494 1464 1425 1474 1420 1441 1480 1435 1462 1470 1456 1427 1508 1442 1485 1429 1463 1483 1479 1519 1454 1396 1470 1454 1423 1426 1410 1447 1445 1482 1428 1444 1441 1463 1441 1388 1387 1431 1414 1419 1476 1453 1459 1458 1443 1483 1468 1450 1460 1428 1471 1504 1451 1475 1447 1507 1458 1478 1506 1456 1445 1413 1472 1459 1459 1443 1454 1498 1494 1466 1444 1432 1441 1464 1497 1430 1433 1461 1447 1479 1399 1429 1458 1438 1499 1469 1484 1427 1406 1522 1416 1413 1437 1514 1419 1453 1443 1523 1428 1474 1497 1439 1489 1437 1443 1476 1463 1432 1475 1483 1471 1462 1485 1466 1438 1419 1430 1505 1475 1446 1451 1468 1439 1459 1480 1442 1482 1500 1417 1443 1466 1473 1444 1546 1489 1462 1481 1459 1491 1529 1431 1432 1472 1425 1447 1475 1482 1504 1455 1506 1445 1515 1511 1496 1468 1492 1455 1409 1470 1515 1409 1481 1466 1486 1501 1460 1506 1502 1495 1459 1478 1503 1467 1460 1450 1474 1491 1514 1408 1462 1462 1478 1457 1434 1407 1431

Tree=0
num_leaves=14
num_cat=0
split_feature=157 147 5 98 35 27 27 167 127 98 127 157 27
split_gain=746.104 98.3603 90.5448 43.9893 36.0028 31.4568 26.5779 21.6674 15.7099 14.2333 14.0943 13.4913 8.62119
threshold=1789.5000000000002 434.50000000000006 1272.5000000000002 48.500000000000007 2940.0000000000005 7.5000000000000009 2.5000000000000004 0.057189542483660101 6.1250000000000009 72.500000000000014 5.8750000000000009 2079.5000000000005 19.500000000000004
decision_type=2 2 2 2 2 2 2 2 2 2 2 2 2
left_child=2 5 6 -4 7 9 -1 -3 11 -2 -6 -7 -9
right_child=1 4 3 -5 10 8 -8 12 -10 -11 -12 -13 -14
leaf_value=3.6906223826902109 3.7095848941807978 3.7010387010353667 3.707255160799293 3.7005154342510358 3.7150655314983401 3.7100485869226256 3.6990295301353728 3.7152374517261326 3.7177476895719548 3.6986425758497248 3.7235925169239041 3.7151443545689826 3.7195812188220758
leaf_weight=90 61 10.999999999999998 316 226 29 123 119 108 139 22 297 166 147
leaf_count=90 61 11 316 226 29 123 119 108 139 22 297 166 147
internal_value=3.7109 3.717 3.70193 3.70444 3.72024 3.71325 3.69541 3.71705 3.71453 3.70668 3.72283 3.71298 3.71774
internal_weight=0 1103 751 542 592 511 209 266 428 83 326 289 255
internal_count=1854 1103 751 542 592 511 209 266 428 83 326 289 255
is_linear=0
shrinkage=1


Tree=1
num_leaves=14
num_cat=0
split_feature=138 8 119 138 8 138 93 138 8 174 99 155 119
split_gain=759.14 88.2532 87.3333 43.8991 36.926 18.1903 16.0022 14.46 13.8812 13.6468 13.5548 13.1834 9.18827
threshold=1746.5000000000002 3.5000000000000004 434.50000000000006 1359.0000000000002 25.500000000000004 2011.0000000000002 0.093500000000000014 3169.5000000000005 5.5000000000000009 0.63642857142857157 24.500000000000004 356.25000000000006 204.50000000000003
decision_type=2 2 2 2 2 2 2 2 2 2 2 2 2
left_child=1 9 5 6 11 -2 -3 -6 -7 12 -5 -4 -1
right_child=2 3 4 10 7 8 -8 -9 -10 -11 -12 -13 -14
leaf_value=-0.020692575874342166 3.7045049714457826e-05 -0.0064777135227300298 -0.0057758342505231921 -0.0026193859777231747 0.0087040278230510817 -0.0060283015541046153 -0.012549053541313256 0.01323402108141844 0.0051346965647275072 -0.024022154023952386 -0.0079794840779793003 0.0059626927543879552 -0.013399581245296856
leaf_weight=30 210 91 13.999999999999998 245 166 15.999999999999998 169 228 279 27 87 181 111
leaf_count=30 210 91 14 245 166 16 169 228 279 27 87 181 111
internal_value=0 -0.00895387 0.00622028 -0.00683603 0.00927154 0.00266108 -0.0104251 0.0113262 0.00452858 -0.0164147 -0.00402464 0.00511897 -0.0149544
internal_weight=0 760 1094 592 589 505 260 394 295 168 332 195 141
internal_count=1854 760 1094 592 589 505 260 394 295 168 332 195 141
is_linear=0
shrinkage=0.0116629


Tree=2
num_leaves=14
num_cat=0
split_feature=157 81 43 157 27 120 99 43 157 157 149 99 120
split_gain=711.973 107.95 91.5396 36.6454 30.0924 22.1442 19.5599 18.4573 18.0173 18.0145 17.1555 14.8684 11.6159
threshold=1789.5000000000002 2871.0000000000005 2.5000000000000004 1396.0000000000002 7.5000000000000009 4.4866718342914984 24.500000000000004 12.500000000000002 2092.5000000000005 1164.0000000000002 262.16666666666669 18.500000000000004 4.458603896103897
decision_type=2 2 2 2 2 2 2 2 2 2 2 2 2
left_child=2 4 9 11 6 -3 -2 -7 -6 -1 -5 -4 -10
right_child=1 5 3 10 8 7 -8 -9 12 -11 -12 -13 -14
leaf_value=-0.022512493543678815 0.00096054039955918529 0.0056927610670508295 -0.0069719416750171773 -0.011833581852584608 0.0010509428713232174 0.0011205695239539029 -0.0098705326644957445 0.012990718849991839 0.0017230662270265036 -0.013975569059910382 -0.0033202969274695594 -0.012556962884903208 0.0064836486847556531
leaf_weight=52 68 90 119 36 175 19 34 292 88 96 305 143 337
leaf_count=52 68 90 119 36 175 19 34 292 88 96 305 143 337
internal_value=0 0.00596367 -0.00875887 -0.00674096 0.0032057 0.0107912 -0.00264992 0.012266 0.00420137 -0.016978 -0.00421992 -0.0100213 0.00549828
internal_weight=0 1103 751 603 702 401 102 311 600 148 341 262 425
internal_count=1854 1103 751 603 702 401 102 311 600 148 341 262 425
is_linear=0
shrinkage=0.0116629


Tree=3
num_leaves=14
num_cat=0
split_feature=138 138 157 120 43 138 43 91 185 91 99 176 95
split_gain=724.628 102.774 82.2338 32.4621 27.8066 20.4284 17.2655 15.3129 15.1957 11.6612 14.4752 11.0817 9.42971
threshold=1746.5000000000002 2450.5000000000005 1245.0000000000002 4.4866718342914984 9.5000000000000018 3341.0000000000005 7.5000000000000009 6.5000000000000009 0.52719590266058114 6.5000000000000009 22.500000000000004 0.37768226261565724 2.3036212523428548
decision_type=2 2 2 2 2 2 2 2 2 2 2 2 2
left_child=2 6 7 12 9 -5 8 -1 -2 -4 11 -11 -3
right_child=1 3 4 5 -6 -7 -8 -9 -10 10 -12 -13 -14
leaf_value=-0.021113012952288325 -0.011429082253021253 0.0055213233363453993 -0.015494986351741707 0.0089671560244213092 -0.0037831528965704994 0.01410838378189521 0.0030598350069159265 -0.013474156903478363 0.00025771167200177165 -0.0047399715622830421 -0.011132124511740196 -0.016006822608630379 -0.0048636980995471722
leaf_weight=48 21 137 33 282 266 168 419 141 54 137 122 12.999999999999998 12.999999999999998
leaf_count=48 21 137 33 282 266 168 419 141 54 137 122 13 13
internal_value=0 0.00607723 -0.00874799 0.00932082 -0.00654015 0.0108872 0.00213724 -0.0154165 -0.00301517 -0.00894392 -0.0081478 -0.00571886 0.00462016
internal_weight=0 1094 760 600 571 450 494 189 75 305 272 150 150
internal_count=1854 1094 760 600 571 450 494 189 75 305 272 150 150
is_linear=0
shrinkage=0.0116629


Tree=4
num_leaves=14
num_cat=0
split_feature=147 128 128 93 138 57 136 171 138 136 8 138 161
split_gain=650.841 122.143 103.791 26.2387 25.7127 18.0591 15.6005 13.86 14.6035 13.157 17.5627 13.0727 9.95793
threshold=325.50000000000006 1055.0000000000002 2036.0000000000002 0.088500000000000009 1137.5000000000002 577497.00000000012 107.25000000000001 97.500000000000014 1746.5000000000002 60.750000000000007 2.5000000000000004 2019.0000000000002 204.50000000000003
decision_type=2 2 2 2 2 2 2 2 2 2 2 2 2
left_child=1 4 9 -3 -1 6 -4 -5 -9 -2 -11 -12 -6
right_child=2 3 5 7 12 -7 -8 8 -10 10 11 -13 -14
leaf_value=-0.019056906360186501 -0.0067485764759414226 -0.0018329333573997341 0.0063527221730004914 -0.012379209825215461 -0.010913422612605941 0.013338088765036917 0.010592728536210832 -0.0068322643318442554 0.0026604654763341686 -0.0086423577701861942 -1.3303307694868538e-05 0.0043921621344261922 -0.022339487644080103
leaf_weight=90 23 262 261 53 189 120 216 185 25 19 142 258 10.999999999999998
leaf_count=90 23 262 261 53 189 120 216 185 25 19 142 258 11
internal_value=0 -0.00780219 0.00612008 -0.00444596 -0.0138771 0.00929184 0.00827326 -0.00704838 -0.00570157 0.00183561 0.00230732 0.00282804 -0.0115443
internal_weight=0 815 1039 525 290 597 477 263 210 442 419 400 200
internal_count=1854 815 1039 525 290 597 477 263 210 442 419 400 200
is_linear=0
shrinkage=0.0116629


Tree=5
num_leaves=14
num_cat=0
split_feature=81 81 147 27 27 8 96 130 142 97 97 135 81
split_gain=643.014 101.335 79.6992 33.9661 28.3921 25.1077 21.9052 21.0287 14.7036 14.7029 13.0566 12.8472 11.6644
threshold=1794.5000000000002 2871.0000000000005 232.50000000000003 2.5000000000000004 7.5000000000000009 27.500000000000004 1040.7365 72.332894736842107 35.500000000000007 216.50000000000003 76.500000000000014 54.125000000000007 2176.5000000000005
decision_type=2 2 2 2 2 2 2 2 2 2 2 2 2
left_child=2 4 3 -1 6 9 -2 -4 -9 -3 -5 -7 -6
right_child=1 5 7 10 12 11 -8 8 -10 -11 -12 -13 -14
leaf_value=-0.018117705311142734 0.0011813318362567716 0.0071020318731023716 -0.012008085751591915 -0.0044978791499244693 0.0019754309469904724 0.0070117963696181848 -0.010309254645579517 -0.003578337776994974 -0.013607941750918982 -0.0065798784311494937 -0.011526136727573359 0.013316251878475441 0.0053330210614302691
leaf_weight=105 67 96 52 46 233 54 34 372 21 11.999999999999998 166 240 356
leaf_count=105 67 96 52 46 233 54 34 372 21 12 166 240 356
internal_value=0 0.00573752 -0.00822231 -0.0126914 0.00302533 0.0103922 -0.00268692 -0.0050381 -0.00411511 0.00558007 -0.0100021 0.0121591 0.00400508
internal_weight=0 1092 762 317 690 402 101 445 393 108 212 294 589
internal_count=1854 1092 762 317 690 402 101 445 393 108 212 294 589
is_linear=0
shrinkage=0.0116629


Tree=6
num_leaves=14
num_cat=0
split_feature=128 128 35 138 138 97 120 154 22 93 52 138 130
split_gain=682.567 110.273 71.7969 23.3406 21.0369 16.9568 15.8597 15.5011 13.9745 13.9149 10.4301 9.96395 6.97705
threshold=1407.5000000000002 2036.0000000000002 1093.0000000000002 3069.5000000000005 1359.0000000000002 68.500000000000014 4.4866718342914984 68.375000000000014 1.0000000180025095e-35 0.10425000000000001 4.3791633156770855 1137.5000000000002 165.88888888888891
decision_type=2 2 2 2 2 2 2 2 2 2 2 2 2
left_child=2 8 11 10 5 -4 -5 -6 -2 -9 -3 -1 -7
right_child=1 3 4 6 7 12 -8 9 -10 -11 -12 -13 -14
leaf_value=-0.018903337014194933 -0.0092889542648148891 -0.00093846527845083789 -0.0027213249529697749 0.0063540425859400194 -0.016629282039607299 -0.010446654655758759 0.012842882693612443 -0.0026112564321050138 0.002121111700519799 -0.0076857788930096314 0.0073989910255613019 -0.013008236089107006 -0.019012400686291113
leaf_weight=76 14.999999999999998 22 40 66 14.999999999999998 178 231 198 523 117 278 81 13.999999999999998
leaf_count=76 15 22 40 66 15 178 231 198 523 117 278 81 14
internal_value=0 0.00563232 -0.0088911 0.00908331 -0.00694245 -0.00963417 0.0114017 -0.00504936 0.00180251 -0.00449672 0.00678722 -0.0158644 -0.0110734
internal_weight=0 1135 719 597 562 232 297 330 538 315 300 157 192
internal_count=1854 1135 719 597 562 232 297 330 538 315 300 157 192
is_linear=0
shrinkage=0.0116629


Tree=7
num_leaves=14
num_cat=0
split_feature=157 128 35 120 94 166 38 166 38 35 157 148 99
split_gain=634.855 107.112 80.2033 28.4146 28.1241 18.9394 18.1215 15.5047 12.5402 11.9781 10.8842 8.81353 7.71237
threshold=1789.5000000000002 2036.0000000000002 1146.0000000000002 4.4644097955244595 0.35383262126211285 539.50000000000011 14.500000000000002 571.50000000000011 1.0000000180025095e-35 962.00000000000011 2092.5000000000005 6.5000000000000009 24.500000000000004
decision_type=2 2 2 2 2 2 2 2 2 2 2 2 2
left_child=2 5 9 -3 11 8 -6 -5 -2 -1 -10 -4 -8
right_child=1 3 4 7 6 -7 12 -9 10 -11 -12 -13 -14
leaf_value=-0.020010580405817244 -0.0084282797829110315 0.0040309621274743652 -0.002802027663103761 0.0084799742015736288 -0.013319739191563538 -0.01168346111579166 -0.0046895865742068764 0.012764366154732915 0.00047382733146655425 -0.013131475215325907 0.0040110023214623616 -0.013462650688079763 -0.0091106809328769817
leaf_weight=45 14.999999999999998 125 252 273 78 13.999999999999998 115 199 218 149 259 10.999999999999998 101
leaf_count=45 15 125 252 273 78 14 115 199 218 149 259 11 101
internal_value=0 0.0056314 -0.00827096 0.00897739 -0.00602097 0.00168329 -0.00849983 0.0102869 0.00206426 -0.0147293 0.00239472 -0.00324916 -0.0067579
internal_weight=0 1103 751 597 557 506 294 472 492 194 477 263 216
internal_count=1854 1103 751 597 557 506 294 472 492 194 477 263 216
is_linear=0
shrinkage=0.0116629


Tree=8
num_leaves=14
num_cat=0
split_feature=157 157 27 128 35 99 8 128 120 8 94 136 146
split_gain=620.136 96.0611 82.6827 36.2583 27.2213 18.3707 17.729 16.8697 15.072 9.49678 8.48186 8.18811 8.31451
threshold=1789.5000000000002 2473.5000000000005 2.5000000000000004 1076.5000000000002 2940.0000000000005 24.500000000000004 10.500000000000002 963.50000000000011 4.5467418054713429 27.500000000000004 0.3551879554717628 71.250000000000014 33.125000000000007
decision_type=2 2 2 2 2 2 2 2 2 2 2 2 2
left_child=2 6 7 10 8 -5 11 -1 -3 -6 -4 -2 -13
right_child=1 4 3 5 9 -7 -8 -9 -10 -11 -12 12 -14
leaf_value=-0.020203136784158651 -0.00991818672729999 0.0024066837734481156 -0.006335097100308342 -0.0026080117983685452 0.0070523465206214506 -0.0081200084141377013 0.002875329559408417 -0.012297630463727895 0.0080208341616569787 0.011858936623290328 -0.011702581159547119 0.00022831423223387576 -0.010585756374875906
leaf_weight=69 17 104 55 283 71 116 380 79 174 267 149 79 10.999999999999998
leaf_count=69 17 104 55 283 71 116 380 79 174 267 149 79 11
internal_value=0 0.00556573 -0.00817452 -0.00625672 0.00862604 -0.00421104 0.0016944 -0.0159859 0.00592122 0.01085 -0.0102566 -0.0024984 -0.00109411
internal_weight=0 1103 751 603 616 399 487 148 278 338 204 107 90
internal_count=1854 1103 751 603 616 399 487 148 278 338 204 107 90
is_linear=0
shrinkage=0.0116629


Tree=9
num_leaves=14
num_cat=0
split_feature=157 157 43 94 43 43 94 157 66 66 138 7 100
split_gain=605.758 93.8341 80.7658 33.3701 31.4162 21.4435 16.5348 15.7202 13.4077 12.7973 10.4366 7.82688 7.62427
threshold=1789.5000000000002 2473.5000000000005 2.5000000000000004 0.3551879554717628 25.500000000000004 7.5000000000000009 0.25188206391719814 1164.0000000000002 843.07794745502042 387.29945051964489 2011.0000000000002 38.500000000000007 20.500000000000004
decision_type=2 2 2 2 2 2 2 2 2 2 2 2 2
left_child=2 5 7 -4 6 12 -3 -1 -6 -5 -7 -8 -2
right_child=1 4 3 9 8 10 11 -9 -10 -11 -12 -13 -14
leaf_value=-0.02096974617381131 -0.00084165204857586428 0.0069606370659180293 -0.0032064454450002125 -0.011480447979077987 0.007653814969439455 0.00050561715995533748 0.002035201332791222 -0.012994662894044046 0.012324538760952292 -0.0067800656785476166 0.0043204062864378393 -0.0085589510968539992 -0.0080955044215286747
leaf_weight=52 49 191 277 134 129 164 45 96 239 192 241 11.999999999999998 33
leaf_count=52 49 191 277 134 129 164 45 96 239 192 241 12 33
internal_value=0 0.00550082 -0.00807921 -0.00618376 0.00852545 0.00167463 0.00531561 -0.0157996 0.010688 -0.00871295 0.00277599 -0.000195345 -0.00376322
internal_weight=0 1103 751 603 616 487 248 148 368 326 405 57 82
internal_count=1854 1103 751 603 616 487 248 148 368 326 405 57 82
is_linear=0
shrinkage=0.0116629


Tree=10
num_leaves=14
num_cat=0
split_feature=66 43 81 157 67 8 8 97 157 93 81 154 175
split_gain=556.92 96.5706 71.6813 39.2091 28.6979 23.1354 20.6335 14.147 12.0748 9.58597 9.3753 9.18405 9.83305
threshold=539.06010159868003 6.5000000000000009 2871.0000000000005 1213.5000000000002 73.952151538623255 27.500000000000004 4.5000000000000009 216.50000000000003 1898.0000000000002 0.087250000000000008 1665.5000000000002 68.375000000000014 0.41952380952380958
decision_type=2 2 2 2 2 2 2 2 2 2 2 2 2
left_child=1 3 6 -1 -3 7 9 -4 -8 -2 -6 -5 -13
right_child=2 4 5 11 10 -7 8 -9 -10 -11 -12 12 -14
leaf_value=-0.017241416536188239 0.0019891914980482515 -0.0071925739639125729 0.0066925054486499319 -0.016203197075306586 -0.0039042398975524047 0.011514883193822585 -0.0016917787582791783 -0.0067282057933137716 0.0044909193357490192 -0.010584219147454889 6.7771120157715211e-05 -0.012110494096152157 -0.0065293753224668219
leaf_weight=112 13.999999999999998 195 96 21 137 294 47 11.999999999999998 497 20 197 60 152
leaf_count=112 14 195 96 21 137 294 47 12 497 20 197 60 152
internal_value=0 -0.00676874 0.00603648 -0.0115693 -0.00363745 0.00981877 0.00340549 0.00519953 0.00395653 -0.00540564 -0.00156129 -0.00884129 -0.00811028
internal_weight=0 874 980 345 529 402 578 108 544 34 334 233 212
internal_count=1854 874 980 345 529 402 578 108 544 34 334 233 212
is_linear=0
shrinkage=0.0116629


Tree=11
num_leaves=14
num_cat=0
split_feature=157 157 128 8 93 43 120 43 119 155 98 8 120
split_gain=578.592 89.8487 84.1327 29.7613 27.6386 20.5042 20.0288 18.2544 14.9445 14.3106 13.4819 12.4375 12.4246
threshold=1789.5000000000002 2473.5000000000005 1021.0000000000001 13.500000000000002 0.092500000000000013 7.5000000000000009 4.4866718342914984 2.5000000000000004 530.50000000000011 378.75000000000006 58.500000000000007 3.5000000000000004 4.8266612477138802
decision_type=2 2 2 2 2 2 2 2 2 2 2 2 2
left_child=2 5 7 9 -4 10 -5 -1 -8 -3 -2 -6 -7
right_child=1 3 4 6 11 12 8 -9 -10 -11 -12 -13 -14
leaf_value=-0.017749733409317712 -0.00064051809783034254 -0.010643400370790871 -0.0026347366999233896 0.0049367248794284667 -0.013992071559140904 0.0013670785434000824 0.008251027481159745 -0.011056857594930738 0.012635180292540182 0.0036693281956824745 -0.011033859358030709 -0.0069101934942059576 0.0058202042534400951
leaf_weight=93 58 10.999999999999998 263 112 40 283 208 138 216 69 24 217 122
leaf_count=93 58 11 263 112 40 283 208 138 216 69 24 217 122
internal_value=0 0.00537604 -0.00789599 0.00833574 -0.00529356 0.00163199 0.00932615 -0.013753 0.0104851 0.00169817 -0.00368541 -0.0080137 0.00270896
internal_weight=0 1103 751 616 520 487 536 231 424 80 82 257 405
internal_count=1854 1103 751 616 520 487 536 231 424 80 82 257 405
is_linear=0
shrinkage=0.0116629


Tree=12
num_leaves=14
num_cat=0
split_feature=157 128 19 120 106 128 128 142 128 157 98 137 128
split_gain=565.177 95.8549 71.3665 26.3896 18.7887 18.256 17.9494 14.9989 10.8432 10.0699 9.60249 9.44624 9.75537
threshold=1789.5000000000002 2036.0000000000002 1091.5000000000002 4.4866718342914984 21.250000000000004 1441.0000000000002 2689.0000000000005 35.500000000000007 1317.5000000000002 1164.0000000000002 47.500000000000007 86.250000000000014 1686.0000000000002
decision_type=2 2 2 2 2 2 2 2 2 2 2 2 2
left_child=2 5 9 -3 -4 -2 -5 8 10 -1 -6 -7 -13
right_child=1 3 4 6 7 11 -8 -9 -10 -11 -12 12 -14
leaf_value=-0.018300959302041845 -0.01029577059507066 0.0041275606914223219 -0.0090493386713325821 0.0078226716090437822 -0.0039335212326500535 -0.0044611497838459345 0.012509067378876431 -0.0153384273951671 -0.0010598862641326759 -0.012205634291025735 -0.0085882313373193478 0.0004703897203478804 0.0038952216572834485
leaf_weight=69 17 144 190 256 197 29 197 17 111 80 87 201 259
leaf_count=69 17 144 190 256 197 29 197 17 111 80 87 201 259
internal_value=0 0.00531335 -0.00780392 0.00847863 -0.00601465 0.00157846 0.00986131 -0.00461458 -0.00415214 -0.0150308 -0.00536023 0.00199182 0.00239901
internal_weight=0 1103 751 597 602 506 453 412 395 149 284 489 460
internal_count=1854 1103 751 597 602 506 453 412 395 149 284 489 460
is_linear=0
shrinkage=0.0116629


Tree=13
num_leaves=14
num_cat=0
split_feature=119 119 35 8 43 155 43 19 19 83 185 8 175
split_gain=544.399 81.5061 78.4149 31.2688 20.8537 17.5082 13.7333 12.7089 10.7643 10.7369 10.7181 10.0888 8.98369
threshold=324.50000000000006 239.50000000000003 2821.5000000000005 3.5000000000000004 8.5000000000000018 291.25000000000006 9.5000000000000018 2258.0000000000005 1351.5000000000002 640681.00000000012 0.53444002544611835 27.500000000000004 0.25842389100640667
decision_type=2 2 2 2 2 2 2 2 2 2 2 2 2
left_child=1 3 4 12 10 8 -7 -6 -3 -5 -2 -4 -1
right_child=2 5 11 9 7 6 -8 -9 -10 -11 -12 -13 -14
leaf_value=-0.020397144761366011 -0.0063775619369687486 -0.01606266441788479 0.0062913534094469828 -0.0054130062497890936 0.0021561558609241491 -0.0053845358816367759 -0.00075758223761766624 0.0057713212941733413 -0.0059057303817648997 -0.010399653917214794 0.0012083123575279964 0.010683159284481833 -0.013664891677028815
leaf_weight=39 40 21 93 90 256 146 217 274 44 170 69 306 89
leaf_count=39 40 21 93 90 256 146 217 274 44 170 69 306 89
internal_value=0 -0.00712798 0.00560335 -0.0109994 0.00306993 -0.00361784 -0.00261901 0.00402545 -0.0091922 -0.00867438 -0.00157516 0.00966008 -0.0157194
internal_weight=0 816 1038 388 639 428 363 530 65 260 109 399 128
internal_count=1854 816 1038 388 639 428 363 530 65 260 109 399 128
is_linear=0
shrinkage=0.0116629


Tree=14
num_leaves=14
num_cat=0
split_feature=173 82 35 8 8 8 17 35 8 136 8 147 99
split_gain=536.069 82.9923 74.6331 28.4793 17.8123 17.6385 17.299 11.6501 11.5243 9.90104 8.79981 9.58195 8.07374
threshold=325.50000000000006 222.50000000000003 2821.5000000000005 8.5000000000000018 2.5000000000000004 13.500000000000002 1.5000000000000002 2215.5000000000005 1.5000000000000002 76.750000000000014 27.500000000000004 530.50000000000011 18.500000000000004
decision_type=2 2 2 2 2 2 2 2 2 2 2 2 2
left_child=1 4 5 8 -1 6 -2 -7 -3 -4 -11 -12 -6
right_child=2 3 9 -5 12 7 -8 -9 -10 10 11 -13 -14
leaf_value=-0.016754114940325904 0.00099614387696948478 -0.015096014857831462 0.004112042831598892 -0.0024995488991348268 -0.0071185491751670259 0.0021388261835295509 -0.01297827960923946 0.0059045517233679073 -0.0068921070970584392 0.0067272256489561682 0.0077575967860404171 0.0125269328608102 -0.012221787237721412
leaf_weight=86 162 27 41 358 68 194 12.999999999999998 264 171 79 81 198 112
leaf_count=86 162 27 41 358 68 194 13 264 171 79 81 198 112
internal_value=0 -0.00702698 0.00559691 -0.00446319 -0.0123849 0.00310643 -4.25854e-05 0.00430982 -0.00801257 0.00954743 0.0101694 0.0111432 -0.0102953
internal_weight=0 822 1032 556 266 633 175 458 198 399 358 279 180
internal_count=1854 822 1032 556 266 633 175 458 198 399 358 279 180
is_linear=0
shrinkage=0.0116629


Tree=15
num_leaves=14
num_cat=0
split_feature=81 81 128 128 93 127 157 127 27 147 8 73 144
split_gain=510.509 81.4102 80.5425 28.7635 26.0797 15.9707 15.7352 13.5039 18.9952 12.8143 12.6627 11.8152 10.7519
threshold=1794.5000000000002 2871.0000000000005 1021.0000000000001 1417.5000000000002 0.092500000000000013 6.1250000000000009 1164.0000000000002 5.8750000000000009 22.500000000000004 409.50000000000006 3.5000000000000004 16402.500000000004 11.625000000000002
decision_type=2 2 2 2 2 2 2 2 2 2 2 2 2
left_child=2 3 6 -2 -4 9 -1 11 12 -5 -6 -3 -9
right_child=1 7 4 5 10 -7 -8 8 -10 -11 -12 -13 -14
leaf_value=-0.017260422325979484 -0.01043402815652736 -0.0040960399243042999 -0.0022795884052976599 0.00024006930634471496 -0.013313938161743092 0.0062002751193733271 -0.010850608795867562 -0.001349915657950927 0.01144950261709384 0.0039836571353470546 -0.0063316986201806926 0.0082893315478094025 0.0078967885501432696
leaf_weight=81 22 18 268 256 42 170 147 25 280 242 224 25 54
leaf_count=81 22 18 268 256 42 170 147 25 280 242 224 25 54
internal_value=0 0.00511222 -0.00732638 0.00268124 -0.00484816 0.00311359 -0.0131294 0.00928426 0.0100242 0.00205952 -0.00743534 0.00310288 0.0049697
internal_weight=0 1092 762 690 534 668 228 402 359 498 266 43 79
internal_count=1854 1092 762 690 534 668 228 402 359 498 266 43 79
is_linear=0
shrinkage=0.0116629


Tree=16
num_leaves=14
num_cat=0
split_feature=35 5 35 138 154 138 9 138 83 138 147 147 136
split_gain=496.855 74.8075 69.1327 24.8577 20.06 23.1276 16.3964 15.849 14.1372 12.2867 11.2853 9.71356 8.35509
threshold=1774.5000000000002 1286.0000000000002 2940.0000000000005 1635.0000000000002 308.50000000000006 2270.0000000000005 30.500000000000004 1137.5000000000002 378994.00000000006 1252.5000000000002 427.50000000000006 281.50000000000006 69.250000000000014
decision_type=2 2 2 2 2 2 2 2 2 2 2 2 2
left_child=1 7 4 8 11 -6 10 -1 -3 -10 -4 -2 -11
right_child=2 3 6 -5 5 -7 -8 -9 9 12 -12 -13 -14
leaf_value=-0.017253416683674853 -0.0086494012514007849 -0.0013655484941952408 0.0022573425653894352 -0.0010385805692800737 0.0014250454404921261 0.0062252779791644487 -0.0026354025700618274 -0.010626869221068201 -0.011898459584384895 -0.010486117526719742 0.010399800427852306 0.00043356804978421604 -0.0052122360740157019
leaf_weight=73 18 63 25 167 246 307 14.999999999999998 151 66 51 321 144 207
leaf_count=73 18 63 25 167 246 307 15 151 66 51 321 144 207
internal_value=0 -0.00710045 0.00513381 -0.00480025 0.00303287 0.00409021 0.00929432 -0.012788 -0.00642313 -0.00740611 0.00981191 -0.000575863 -0.00625578
internal_weight=0 778 1076 554 715 553 361 224 387 324 346 162 258
internal_count=1854 778 1076 554 715 553 361 224 387 324 346 162 258
is_linear=0
shrinkage=0.0116629


Tree=17
num_leaves=14
num_cat=0
split_feature=35 81 82 138 142 138 81 164 38 2 164 52 145
split_gain=485.335 76.6977 70.8961 22.2351 21.3067 24.3549 17.9743 14.4105 12.6527 11.3666 13.1496 11.162 7.7411
threshold=1774.5000000000002 2871.0000000000005 222.50000000000003 1635.0000000000002 41.500000000000007 2011.0000000000002 1177.5000000000002 37.250000000000007 14.500000000000002 89.500000000000014 94.750000000000014 4.8284228644160967 12.750000000000002
decision_type=2 2 2 2 2 2 2 2 2 2 2 2 2
left_child=2 4 6 7 5 -2 -1 -4 -9 10 -3 -11 -7
right_child=1 9 3 -5 -6 12 -8 8 -10 11 -12 -13 -14
leaf_value=-0.016428731836212074 -0.00056085842319854827 -0.0066748469329069382 -0.016073897567731334 -0.0010341807291158009 -0.012715864577930953 -0.00016859145704078884 -0.0098653887334821111 -0.010525790703325584 -0.0045655931080766385 0.007535107345234238 0.0072347782587132156 0.011737823671196712 0.0048653702835470764
leaf_weight=84 191 11.999999999999998 19 168 11.999999999999998 46 176 59 272 155 40 194 426
leaf_count=84 191 12 19 168 12 46 176 59 272 155 40 194 426
internal_value=0 0.00507394 -0.00701766 -0.00452277 0.0026736 0.00295262 -0.0119872 -0.00619688 -0.00562879 0.00911387 0.00402177 0.00987205 0.00437457
internal_weight=0 1076 778 518 675 663 260 350 331 401 52 349 472
internal_count=1854 1076 778 518 675 663 260 350 331 401 52 349 472
is_linear=0
shrinkage=0.0116629


Tree=18
num_leaves=14
num_cat=0
split_feature=82 173 0 136 46 142 173 0 142 173 173 139 132
split_gain=472.148 73.6288 69.2303 26.5157 21.3883 17.8976 16.4044 14.007 13.7408 12.5459 10.843 10.7873 9.51901
threshold=321.50000000000006 215.50000000000003 3383.5000000000005 69.250000000000014 26.500000000000004 35.500000000000007 255.50000000000003 1230.5000000000002 42.500000000000007 530.50000000000011 400.50000000000006 14.726495726495726 358.50000000000006
decision_type=2 2 2 2 2 2 2 2 2 2 2 2 2
left_child=1 7 8 -3 9 6 -5 -1 10 -4 -2 -11 -9
right_child=2 3 4 5 -6 -7 -8 12 -10 11 -12 -13 -14
leaf_value=-0.018647431140107803 0.0011666856238440608 -0.010140926015875842 0.0062923120084217776 -0.0055783634693985975 -0.0063125185695649113 -0.013169598345088214 -0.0011018875379386105 -0.010146592167447984 -0.010467584253304135 0.0024646365510409113 0.0043384532095240387 0.010970741916388745 -0.018567021151329355
leaf_weight=44 308 101 166 196 12.999999999999998 25 258 143 10.999999999999998 22 280 266 21
leaf_count=44 308 101 166 196 13 25 258 143 11 22 280 266 21
internal_value=0 -0.00684558 0.00506015 -0.00471011 0.00842631 -0.00356445 -0.00303482 -0.0127989 0.00243545 0.0088488 0.00267731 0.0103215 -0.0112273
internal_weight=0 788 1066 580 467 479 454 208 599 454 588 288 164
internal_count=1854 788 1066 580 467 479 454 208 599 454 588 288 164
is_linear=0
shrinkage=0.0116629


Tree=19
num_leaves=14
num_cat=0
split_feature=19 157 51 120 7 149 157 168 19 98 157 98 98
split_gain=463.513 79.9698 63.9262 27.8932 21.825 17.4986 15.894 14.7137 12.8772 12.603 12.5177 13.5105 10.2709
threshold=1773.0000000000002 2473.5000000000005 277.50000000000006 4.4866718342914984 12.500000000000002 282.62500000000006 1402.5000000000002 -1.0000000180025095e-35 2969.5000000000005 43.500000000000007 1158.0000000000002 34.500000000000007 54.500000000000007
decision_type=2 2 2 2 2 2 2 2 2 2 2 2 2
left_child=2 4 7 -3 -2 -4 9 -1 -5 -7 -9 -12 -8
right_child=1 3 5 8 -6 6 12 10 -10 -11 11 -13 -14
leaf_value=-0.019013633253354586 -0.014911882891381345 0.0034277590258565676 -0.010293513351090832 0.0068832369189856402 0.0017004955956297072 -0.0033230574242248327 -0.0010960621124254807 -0.015732906490075322 0.010844575915724144 -0.011153223990442017 -0.004610001455503861 -0.011104470235370551 -0.0060935072604618064
leaf_weight=30 10.999999999999998 154 59 194 454 55 251 48 264 57 63 142 72
leaf_count=30 11 154 59 194 454 55 251 48 264 57 63 142 72
internal_value=0 0.00495305 -0.0068657 0.00772325 0.00130675 -0.0043331 -0.00352406 -0.0112857 0.00916718 -0.00731007 -0.0103677 -0.00910966 -0.00221063
internal_weight=0 1077 777 612 465 494 435 283 458 112 253 205 323
internal_count=1854 1077 777 612 465 494 435 283 458 112 253 205 323
is_linear=0
shrinkage=0.0116629


Tree=20
num_leaves=14
num_cat=0
split_feature=157 82 173 120 99 157 96 120 27 173 80 96 38
split_gain=472.145 61.5219 59.4227 35.7773 23.3688 14.2405 14.0785 17.7785 16.5444 13.7976 12.7614 12.0659 9.64539
threshold=1789.5000000000002 433.50000000000006 215.50000000000003 4.4866718342914984 22.500000000000004 1164.0000000000002 1016.3845 4.7759955939671253 6.5000000000000009 582.00000000000011 499.50000000000006 1262.4930000000018 1.0000000180025095e-35
decision_type=2 2 2 2 2 2 2 2 2 2 2 2 2
left_child=2 6 5 11 10 -1 7 -2 -8 -5 -4 -3 -6
right_child=1 3 4 9 12 -7 8 -9 -10 -11 -12 -13 -14
leaf_value=-0.016478038291482131 0.00086771744232136297 0.0037183334901255524 -0.0090335416053385111 0.0075398732534531759 -0.017190997079284228 -0.010103689965404708 -0.0089151563911570898 0.0059062784746091211 0.0010984679535249869 0.011860320610874798 -0.0025800539728959506 -0.0088933552699285989 -0.0077057122687261169
leaf_weight=77 240 162 48 261 15.999999999999998 126 32 158 75 164 317 10.999999999999998 167
leaf_count=77 240 162 48 261 16 126 32 158 75 164 317 11 167
internal_value=0 0.00485633 -0.00713283 0.00738756 -0.00513549 -0.0125233 0.0018586 0.00286837 -0.0018963 0.00920772 -0.0034294 0.00291503 -0.00853715
internal_weight=0 1103 751 598 548 203 505 398 107 425 365 173 183
internal_count=1854 1103 751 598 548 203 505 398 107 425 365 173 183
is_linear=0
shrinkage=0.0116629


Tree=21
num_leaves=14
num_cat=0
split_feature=67 82 81 157 98 27 149 27 19 27 136 104 98
split_gain=429.879 82.5421 61.3138 33.5038 25.3171 19.5887 16.5901 10.1767 9.81794 9.76641 9.50589 8.761 8.73007
threshold=98.491200523588489 256.50000000000006 2871.0000000000005 1164.0000000000002 34.500000000000007 12.500000000000002 352.69047619047626 2.5000000000000004 2216.5000000000005 6.5000000000000009 69.750000000000014 86.391030261827666 58.500000000000007
decision_type=2 2 2 2 2 2 2 2 2 2 2 2 2
left_child=1 3 6 -1 -5 11 -2 -3 -8 -6 -9 -4 -10
right_child=2 7 5 4 9 -7 8 10 12 -11 -12 -13 -14
leaf_value=-0.016146649451006464 -0.0031602190170344239 -0.0087703051777386996 -0.0077636464794014013 -0.0038789184043986932 -0.012170695427497951 0.0094994556582279135 0.0016828081470861003 -0.0066664119344965363 0.0055787357831084041 -0.0076020783820833554 -0.00075082786848367259 0.0046170934114539578 -0.00046357749061391886
leaf_weight=81 57 28 11.999999999999998 138 139 367 239 42 267 118 307 22 37
leaf_count=81 57 28 12 138 139 367 239 42 267 118 307 22 37
internal_value=0 -0.0060838 0.00518404 -0.00931256 -0.00791023 0.00871489 0.0028239 -0.00200666 0.00345234 -0.0100741 -0.00146332 0.000242721 0.00484301
internal_weight=0 853 1001 476 395 401 600 377 543 257 349 34 304
internal_count=1854 853 1001 476 395 401 600 377 543 257 349 34 304
is_linear=0
shrinkage=0.0116629


Tree=22
num_leaves=14
num_cat=0
split_feature=138 119 138 27 98 128 116 81 142 43 135 154 27
split_gain=472.726 71.6442 48.4969 28.8528 23.4304 17.3798 11.7747 11.3963 11.3655 10.9857 7.83557 7.9649 7.82752
threshold=1635.0000000000002 427.50000000000006 1168.5000000000002 25.500000000000004 48.500000000000007 1736.5000000000002 1.0817640666341706 2913.0000000000005 36.500000000000007 2.5000000000000004 56.875000000000007 317.62500000000006 6.5000000000000009
decision_type=2 2 2 2 2 2 2 2 2 2 2 2 2
left_child=2 5 9 6 8 12 -3 -5 -4 -1 -8 -12 -2
right_child=1 3 4 7 -6 -7 10 -9 -10 -11 11 -13 -14
leaf_value=-0.016793318146902776 -0.0039709466821803395 -0.0062354168106808208 -0.003594289602340863 0.0058387745800603198 -0.0090545996401721965 0.0040309840673163778 0.0012472479917614437 0.010515837030874378 -0.015673407047116329 -0.010334415488685156 -0.00010384984688920162 0.0069862128815923229 0.00061795455019295466
leaf_weight=79 61 13.999999999999998 282 97 225 215 64 265 10.999999999999998 66 25 155 295
leaf_count=79 61 14 282 97 225 215 64 265 11 66 25 155 295
internal_value=0 0.00439382 -0.00789331 0.00713895 -0.00622369 0.00141282 0.00415758 0.00926321 -0.00404903 -0.0138557 0.00475471 0.00600101 -0.000168222
internal_weight=0 1191 663 620 518 571 258 362 293 145 244 180 356
internal_count=1854 1191 663 620 518 571 258 362 293 145 244 180 356
is_linear=0
shrinkage=0.0116629


Tree=23
num_leaves=14
num_cat=0
split_feature=81 19 157 93 81 157 139 177 38 175 93 54 191
split_gain=425.945 65.2692 65.2205 25.212 20.6261 13.7347 12.655 10.8424 10.7583 10.1215 9.00012 8.31659 8.26434
threshold=1828.0000000000002 1181.5000000000002 2473.5000000000005 0.092500000000000013 3117.5000000000005 1164.0000000000002 12.074866310160429 1.0595048629531389 6.5000000000000009 0.39630551831279665 0.10950000000000001 2.6867959542598943 565.50000000000011
decision_type=2 2 2 2 2 2 2 8 2 2 2 2 2
left_child=1 5 6 -3 7 -1 -2 10 -8 -5 -4 12 -6
right_child=2 3 4 9 11 -7 8 -9 -10 -11 -12 -13 -14
leaf_value=-0.015943692009783159 -0.0069850812281902312 -0.0019951669539400338 0.0062874647212011877 -0.011345764147057787 -0.0036434219875696918 -0.0097879737017243507 -0.0053724192801131295 -0.0056121592968558856 0.002367133080027554 -0.0057752288005214628 -0.00075525162871434 0.010261363794003459 0.0082861060294973244
leaf_weight=73 23 294 284 56 11.999999999999998 153 26 11.999999999999998 399 215 27 257 23
leaf_count=73 23 294 284 56 12 153 26 12 399 215 27 257 23
internal_value=0 -0.00648058 0.00482209 -0.0043612 0.00728775 -0.0117779 0.00143693 0.00525575 0.00189322 -0.00692737 0.00567571 0.00953467 0.00419335
internal_weight=0 791 1063 565 615 226 448 323 425 271 311 292 35
internal_count=1854 791 1063 565 615 226 448 323 425 271 311 292 35
is_linear=0
shrinkage=0.0116629


Tree=24
num_leaves=14
num_cat=0
split_feature=67 67 119 120 81 98 10 119 52 120 98 46 43
split_gain=400.856 70.1801 46.5442 32.3187 27.2139 16.1891 11.9336 11.748 11.4193 9.93736 9.6518 8.50552 7.21064
threshold=98.491200523588489 72.731525225485242 434.50000000000006 4.4866718342914984 1177.5000000000002 61.500000000000007 3.5000000000000004 584.50000000000011 4.7108978726625796 4.8135294117647067 26.500000000000004 18.500000000000004 16.500000000000004
decision_type=2 2 2 2 2 2 2 2 2 2 2 2 2
left_child=1 4 8 11 -1 9 10 -5 -2 -3 -6 -4 -7
right_child=2 5 3 7 6 12 -8 -9 -10 -11 -12 -13 -14
leaf_value=-0.015292575742876086 -0.00087212313373820046 -0.0029199149225167188 0.0035496781066052898 0.0073108487854848612 -0.0043713606122529648 -0.009089884353627245 -0.0036027200997780407 0.011331303840370783 0.0033117474466988145 0.0012626054483119912 -0.010210018186159677 -0.0062638194057936065 -0.0012508968343468855
leaf_weight=85 129 254 155 260 48 67 70 160 284 111 197 12.999999999999998 21
leaf_count=85 129 254 155 260 48 67 70 160 284 111 197 13 21
internal_value=0 -0.00587486 0.00500596 0.0071137 -0.00943495 -0.00273082 -0.00785324 0.0088431 0.0020047 -0.0016477 -0.00906692 0.00278913 -0.00722098
internal_weight=0 853 1001 588 400 453 315 420 413 365 245 168 88
internal_count=1854 853 1001 588 400 453 315 420 413 365 245 168 88
is_linear=0
shrinkage=0.0116629


Tree=25
num_leaves=14
num_cat=0
split_feature=35 128 128 22 19 128 189 27 177 9 38 128 105
split_gain=405.593 71.4973 71.4368 20.6792 15.9722 14.0905 12.2509 10.7196 10.5881 9.80527 8.90681 9.27234 8.23612
threshold=1774.5000000000002 2036.0000000000002 1021.0000000000001 14.500000000000002 2945.5000000000005 1176.5000000000002 295.00000000000006 11.500000000000002 0.05648904360244561 30.500000000000004 1.0000000180025095e-35 1686.0000000000002 51.500000000000007
decision_type=2 2 2 2 2 2 2 2 10 2 2 2 2
left_child=2 5 6 -4 7 -2 -1 12 -5 -6 -7 -12 -3
right_child=1 4 3 8 9 10 -8 -9 -10 -11 11 -13 -14
leaf_value=-0.01772859067650899 -0.0085494719094739192 0.0038552693741968581 -0.0088265708030809062 -0.0088291446068746934 0.0094104971030389006 -0.0074591473850713508 -0.010621381756180557 0.0062732510959424741 -0.0024659467917237249 -0.0017777392420546716 -5.4670600684234507e-05 0.0033667137744213833 -0.0063642818877688457
leaf_weight=40 19 29 103 39 321 13.999999999999998 191 218 405 10.999999999999998 181 266 17
leaf_count=40 19 29 103 39 321 14 191 218 405 11 181 266 17
internal_value=0 0.00463836 -0.00641536 -0.00411822 0.00733635 0.00128799 -0.0118538 0.00519376 -0.00302543 0.00903943 0.00169397 0.00198115 7.53132e-05
internal_weight=0 1076 778 547 596 480 231 264 444 332 461 447 46
internal_count=1854 1076 778 547 596 480 231 264 444 332 461 447 46
is_linear=0
shrinkage=0.0116629


Tree=26
num_leaves=14
num_cat=0
split_feature=19 138 157 136 43 43 179 157 61 134 106 154 168
split_gain=395.886 67.9496 56.4923 24.6279 20.1198 16.5446 13.7519 11.3397 11.1234 11.0801 10.2454 9.95483 9.2329
threshold=1773.0000000000002 2379.5000000000005 1245.0000000000002 69.250000000000014 25.500000000000004 7.5000000000000009 1.2433300876338853 2042.0000000000002 1349.8021332754608 126.50000000000001 16.250000000000004 317.62500000000006 1.0000000180025095e-35
decision_type=2 2 2 2 2 2 8 2 2 2 2 2 2
left_child=2 5 12 -4 11 -2 -5 -7 -6 -10 -8 -3 -1
right_child=1 4 3 6 8 7 10 -9 9 -11 -12 -13 -14
leaf_value=-0.017836864230929596 -0.0045866076734176276 -0.00098867110977075433 -0.0092537414552110453 -0.0078338454631180256 0.0055233075026152687 -0.00036462074273287126 -0.0080940097656636081 0.0036741259577164516 0.0080617737262572448 0.01286980329585939 -0.001865858374582531 0.0054842297582105137 -0.010836950424160326
leaf_weight=31 60 38 123 79 104 162 40 227 161 110 353 215 151
leaf_count=31 60 38 123 79 104 162 40 227 161 110 353 215 151
internal_value=0 0.00457743 -0.00634515 -0.00460536 0.00705447 0.00111252 -0.00339351 0.00199198 0.00876949 0.0100145 -0.00250036 0.00451162 -0.0120314
internal_weight=0 1077 777 595 628 449 472 389 375 271 393 253 182
internal_count=1854 1077 777 595 628 449 472 389 375 271 393 253 182
is_linear=0
shrinkage=0.0116629


Tree=27
num_leaves=14
num_cat=0
split_feature=19 19 147 27 93 27 128 98 128 137 135 128 137
split_gain=386.707 59.0592 53.6035 23.8311 20.8594 18.8063 17.142 15.0833 10.4408 10.1455 9.60576 8.3586 8.19153
threshold=1773.0000000000002 1181.5000000000002 434.50000000000006 19.500000000000004 0.079250000000000015 2.5000000000000004 1653.0000000000002 47.500000000000007 2359.5000000000005 91.125000000000014 54.125000000000007 1176.5000000000002 86.250000000000014
decision_type=2 2 2 2 2 2 2 2 2 2 2 2 2
left_child=1 5 6 9 -3 -1 11 -6 -5 -4 -10 -2 -8
right_child=2 4 3 8 7 -7 12 -9 10 -11 -12 -13 -14
leaf_value=-0.015153619982435832 -0.0084300680887076547 -0.001290109933973012 -0.0078690993892789607 0.0052654988885319515 -0.0028698312288787911 -0.0084061356258592745 -0.0053073348326734956 -0.0079502450915560161 0.0050915739919110605 0.0037498897302142686 0.010304828621037994 -0.00027369665476481027 0.003822993100550572
leaf_weight=96 19 210 10.999999999999998 116 130 136 13.999999999999998 205 59 141 263 169 285
leaf_count=96 19 210 11 116 130 136 14 205 59 141 263 169 285
internal_value=0 -0.00627117 0.00452405 0.00688799 -0.00417274 -0.0111996 0.00165979 -0.00597929 0.00826892 0.00290757 0.00935025 -0.00109926 0.00339486
internal_weight=0 777 1077 590 545 232 487 335 438 152 322 188 299
internal_count=1854 777 1077 590 545 232 487 335 438 152 322 188 299
is_linear=0
shrinkage=0.0116629


Tree=28
num_leaves=14
num_cat=0
split_feature=157 66 157 171 22 22 130 154 155 12 156 12 9
split_gain=395.345 53.8807 50.263 16.6814 16.5315 15.2788 14.5498 13.5963 10.7712 10.6883 9.80898 9.77042 9.37484
threshold=1789.5000000000002 794.83238650111264 1245.0000000000002 236.50000000000003 14.500000000000002 1.0000000180025095e-35 73.140866873065036 302.37500000000006 281.75000000000006 1.0000000180025095e-35 633.25000000000011 1.0000000180025095e-35 1.5000000000000002
decision_type=2 2 2 2 2 2 2 2 2 2 2 2 2
left_child=2 5 12 -3 -4 -2 8 -7 -6 10 -5 -9 -1
right_child=1 3 4 9 6 7 -8 11 -10 -11 -12 -13 -14
leaf_value=-0.017839167368483348 -0.0080941164887422846 -0.0027833339432184754 -0.0089503627809084749 0.00013792760772692806 -0.017001367147659877 -0.00034572321260893771 -0.0028945075109081224 0.0020937133816882956 -0.0062063099486469346 0.0097675733644140544 0.0075744389627594748 0.0052355274131117811 -0.010620483967998983
leaf_weight=29 18 19 105 33 15.999999999999998 148 382 273 59 256 90 266 160
leaf_count=29 18 19 105 33 16 148 382 273 59 256 90 266 160
internal_value=0 0.00444379 -0.00652703 0.00787459 -0.00477672 0.00250668 -0.00381726 0.00278478 -0.00851404 0.00840926 0.0055804 0.00364453 -0.0117302
internal_weight=0 1103 751 398 562 705 457 687 75 379 123 539 189
internal_count=1854 1103 751 398 562 705 457 687 75 379 123 539 189
is_linear=0
shrinkage=0.0116629


Tree=29
num_leaves=14
num_cat=0
split_feature=81 81 19 120 27 27 27 157 120 68 154 96 62
split_gain=372.253 59.2321 53.681 21.5696 19.811 18.7469 18.1189 15.3001 13.0174 8.56501 7.95381 6.95516 6.89231
threshold=1794.5000000000002 2871.0000000000005 1181.5000000000002 4.7963419073040532 9.5000000000000018 12.500000000000002 2.5000000000000004 2161.0000000000005 4.4866718342914984 576419.00000000012 196.87500000000003 564.81949999999767 101.20842686822225
decision_type=2 2 2 2 2 2 2 2 2 2 2 2 2
left_child=2 3 6 7 9 -3 -1 -2 -7 -4 -9 -8 -11
right_child=1 5 4 -5 -6 8 11 10 -10 12 -12 -13 -14
leaf_value=-0.014974570428594625 -0.0015613316326374633 -0.00022875362944437043 -0.0033598489692393792 0.005474443401704855 -0.0020767465662844473 0.0043638134793266298 -0.0033090946526559092 -0.0040803956660527795 0.0098152991833479336 -0.015833359724155987 0.0032103632705257601 -0.0096984308094153707 -0.0073046511472921903
leaf_weight=93 196 35 79 204 277 75 30 22 292 13.999999999999998 268 103 166
leaf_count=93 196 35 79 204 277 75 30 22 292 14 268 103 166
internal_value=0 0.00436533 -0.00625624 0.00229172 -0.00424562 0.00792401 -0.0110237 0.000955407 0.00870177 -0.00656455 0.00265671 -0.00825861 -0.00797004
internal_weight=0 1092 762 690 536 402 226 486 367 259 290 133 180
internal_count=1854 1092 762 690 536 402 226 486 367 259 290 133 180
is_linear=0
shrinkage=0.0116629


Tree=30
num_leaves=14
num_cat=0
split_feature=36 173 36 138 138 43 43 138 97 30 138 150 171
split_gain=269.323 87.4704 52.3732 45.6654 26.9879 23.9275 14.9524 14.2868 11.9415 8.9998 8.86228 8.70481 8.14727
threshold=393.50000000000006 325.50000000000006 285.50000000000006 3069.5000000000005 1462.5000000000002 4.5000000000000009 16.500000000000004 2332.5000000000005 76.500000000000014 18.500000000000004 1789.0000000000002 215.50000000000003 94.500000000000014
decision_type=2 2 2 2 2 2 2 2 2 2 2 2 2
left_child=2 6 5 7 -4 12 -2 -3 -7 -9 -6 -5 -1
right_child=1 3 4 11 10 8 -8 9 -10 -11 -12 -13 -14
leaf_value=-0.014878408503251436 -0.0085217123258758756 0.0013210132311585858 -0.0068035946077670282 0.004607830960504977 -0.0020353667456512745 -0.001228916433493711 -0.00061774056448251952 0.0051287914659649859 -0.0080500821953214726 -0.0047431455399352491 0.0023851926001302371 0.0097184522301367923 -0.0092246217496244742
leaf_weight=83 76 292 152 56 218 50 57 354 116 12.999999999999998 86 241 60
leaf_count=83 76 292 152 56 218 50 57 354 116 13 86 241 60
internal_value=0 0.00372548 -0.00530376 0.00495842 -0.00279122 -0.00901091 -0.00513558 0.0032468 -0.00599647 0.00477862 -0.000784419 0.0087555 -0.0125083
internal_weight=0 1089 765 956 456 309 133 659 166 367 304 297 143
internal_count=1854 1089 765 956 456 309 133 659 166 367 304 297 143
is_linear=0
shrinkage=0.0116629


Tree=31
num_leaves=14
num_cat=0
split_feature=173 173 0 27 43 120 97 27 120 27 98 173 128
split_gain=365.208 58.511 51.303 24.6971 18.5011 17.5363 15.0937 12.8894 12.4854 11.5664 10.553 9.22235 8.88528
threshold=325.50000000000006 215.50000000000003 3383.5000000000005 11.500000000000002 7.5000000000000009 4.4866718342914984 180.50000000000003 3.5000000000000004 4.7963419073040532 2.5000000000000004 30.500000000000004 582.00000000000011 1417.5000000000002
decision_type=2 2 2 2 2 2 2 2 2 2 2 2 2
left_child=1 7 4 9 6 -4 -2 -1 -6 -3 -9 -7 -5
right_child=2 3 5 12 8 11 -8 10 -10 -11 -12 -13 -14
leaf_value=-0.014049026762491616 0.00016088353636036011 -0.010688300045816118 0.0030304747157571116 -0.0027215461777287107 0.00201580713555091 0.0070140224146934349 -0.010989165057430035 -0.0022520965563288917 0.0061823890005196563 -0.0050720033390858248 -0.010484350103624061 0.010747510139809768 0.0018933815662082129
leaf_weight=103 66 61 94 195 349 202 22 29 136 275 79 163 80
leaf_count=103 66 61 94 195 349 202 22 29 136 275 79 163 80
internal_value=0 -0.00580013 0.00461953 -0.0039711 0.00229178 0.007525 -0.00262713 -0.0110953 0.00318456 -0.00609243 -0.00827549 0.00868202 -0.00137862
internal_weight=0 822 1032 611 573 459 88 211 485 336 108 365 275
internal_count=1854 822 1032 611 573 459 88 211 485 336 108 365 275
is_linear=0
shrinkage=0.0116629


Tree=32
num_leaves=14
num_cat=0
split_feature=35 35 0 94 9 42 66 8 91 155 82 66 177
split_gain=345.962 54.4335 48.9248 19.0798 17.1629 13.6434 13.5445 12.9828 12.2829 10.4434 8.4109 8.08259 10.4209
threshold=1774.5000000000002 1183.5000000000002 3383.5000000000005 0.28628814981994755 30.500000000000004 11.500000000000002 1065.0601160246429 3.5000000000000004 6.5000000000000009 279.25000000000006 256.50000000000006 625.32195637883069 0.09991394148020652
decision_type=2 2 2 2 2 2 2 2 2 2 2 2 10
left_child=1 8 5 -3 6 -2 11 -5 -1 -7 -9 -4 -13
right_child=2 3 4 7 -6 9 -8 10 -10 -11 -12 12 -14
leaf_value=-0.014987313323412499 -0.010216361773048729 -0.00067458533186518519 0.00045297951816499529 -0.010848430181155135 -0.0047676987146471114 -0.0035775323198968564 0.010647625378730992 -0.0065070586241044647 -0.0089861276467691053 0.0027406404558145223 -0.0027293639010777184 0.00063539640965201607 0.0075965247657458152
leaf_weight=64 11.999999999999998 171 30 51 15.999999999999998 38 133 152 170 554 170 33 260
leaf_count=64 12 171 30 51 16 38 133 152 170 554 170 33 260
internal_value=0 -0.00592507 0.0042838 -0.00390126 0.00709711 0.002085 0.00751381 -0.00538014 -0.0106289 0.00233482 -0.00451319 0.00622259 0.00681293
internal_weight=0 778 1076 544 472 604 456 373 234 592 322 323 293
internal_count=1854 778 1076 544 472 604 456 373 234 592 322 323 293
is_linear=0
shrinkage=0.0116629


Tree=33
num_leaves=14
num_cat=0
split_feature=138 81 138 93 138 8 97 97 95 120 175 174 57
split_gain=372.881 63.4601 39.5278 21.2276 19.9464 15.7735 9.09726 8.68358 10.7852 9.76462 8.52788 7.81185 7.16113
threshold=1635.0000000000002 2871.0000000000005 1137.5000000000002 0.10425000000000001 2011.0000000000002 27.500000000000004 209.50000000000003 198.50000000000003 1.4711984614358753 4.4495662825288109 0.32637915543575924 0.027278580626699054 505288.00000000006
decision_type=2 2 2 2 2 2 2 2 2 2 2 2 2
left_child=2 4 -1 11 10 6 12 9 -9 -6 -2 -4 -3
right_child=1 5 3 -5 7 -7 -8 8 -10 -11 -12 -13 -14
leaf_value=-0.014196348639163808 -0.0081306510447124117 0.0027424193342786602 -0.013323897071630224 -0.0081777811686877967 0.00058795620204354871 0.0090902520344113818 -0.0057155040395819763 0.0023246263787076709 -0.0089222468696106162 0.0049287832603269674 0.00014093096348642651 -0.0033086195506851577 0.0095394378008312585
leaf_weight=90 18 62 10.999999999999998 280 89 293 11.999999999999998 42 15.999999999999998 340 287 282 32
leaf_count=90 18 62 11 280 89 293 12 42 16 340 287 282 32
internal_value=0 0.00390225 -0.00701042 -0.00588116 0.00199115 0.00769521 0.0038373 0.00345588 -0.000778 0.00402853 -0.000347341 -0.00368574 0.00505872
internal_weight=0 1191 663 573 792 399 106 487 58 429 305 293 94
internal_count=1854 1191 663 573 792 399 106 487 58 429 305 293 94
is_linear=0
shrinkage=0.0116629


Tree=34
num_leaves=14
num_cat=0
split_feature=119 173 35 137 22 97 35 174 109 155 61 61 162
split_gain=337.555 54.2412 50.7854 17.5629 12.8725 12.0575 11.9832 11.7209 10.6261 10.0552 9.14136 8.57846 9.20263
threshold=322.50000000000006 215.50000000000003 2821.5000000000005 97.125000000000014 14.500000000000002 184.50000000000003 2234.0000000000005 0.63642857142857157 34.500000000000007 457.25000000000006 562.58314693588329 2229.5153100496927 228.00000000000003
decision_type=2 2 2 2 2 2 2 2 2 2 2 2 2
left_child=1 7 5 -3 8 6 -2 10 -5 -4 -1 12 -11
right_child=2 3 9 4 -6 -7 -8 -9 -10 11 -12 -13 -14
leaf_value=-0.013411636817131535 0.0013634515705517438 -0.0075285087981687678 0.0030155349189096444 -0.010977961265441542 -0.0019052438175965213 -0.0015270502353689512 0.0048008231421226436 -0.017369206187293543 -0.0021744395428710218 0.0081472566942368159 -0.0077801998374599111 0.013782185183636109 -0.0027056008102054312
leaf_weight=58 288 137 55 43 385 93 265 31 33 297 122 36 10.999999999999998
leaf_count=58 288 137 55 43 385 93 265 31 33 297 122 36 11
internal_value=0 -0.00565614 0.00437843 -0.00386181 -0.00277168 0.00235746 0.00301094 -0.0107403 -0.00715809 0.00764998 -0.00959646 0.00839047 0.0077592
internal_weight=0 809 1045 598 461 646 553 211 76 399 180 344 308
internal_count=1854 809 1045 598 461 646 553 211 76 399 180 344 308
is_linear=0
shrinkage=0.0116629


Tree=35
num_leaves=14
num_cat=0
split_feature=173 173 128 128 93 96 54 57 174 128 154 169 154
split_gain=333.258 53.7345 48.3611 21.2759 13.5408 11.7347 11.524 12.0624 11.4492 10.4262 7.39475 7.17689 7.17229
threshold=325.50000000000006 215.50000000000003 2284.0000000000005 1337.5000000000002 0.094250000000000014 1262.4930000000018 3.0183178812533304 539116.00000000012 0.63642857142857157 944.50000000000011 302.37500000000006 0.080128205128205107 367.25000000000006
decision_type=2 2 2 2 2 2 2 2 2 2 2 2 2
left_child=1 8 5 4 11 10 7 12 9 -1 -2 -3 -4
right_child=2 3 6 -5 -6 -7 -8 -9 -10 -11 -12 -13 -14
leaf_value=-0.012885133299016792 1.429285775706875e-05 -0.011428347959239615 -0.0027236709671273579 -0.00041946588350731987 -0.0071818234491929592 -0.0055562319027695891 0.0087161780617822492 0.0096833882918139578 -0.017166745111133492 -0.0071618891765912775 0.003281351686290142 -0.0024791478655392021 0.004321719639640822
leaf_weight=73 119 12.999999999999998 27 180 224 25 290 45 31 107 454 194 72
leaf_count=73 119 13 27 180 224 25 290 45 31 107 454 194 72
internal_value=0 -0.00554063 0.00441282 -0.00378784 -0.00519427 0.00226162 0.00737648 0.00467704 -0.010615 -0.00948457 0.00260305 -0.00304258 0.0023991
internal_weight=0 822 1032 611 431 598 434 144 211 180 573 207 99
internal_count=1854 822 1032 611 431 598 434 144 211 180 573 207 99
is_linear=0
shrinkage=0.0116629


Tree=36
num_leaves=14
num_cat=0
split_feature=87 8 43 35 96 35 98 51 155 186 165 163 175
split_gain=271.648 57.8526 54.7249 26.3382 25.4258 16.4177 12.5225 11.5447 12.5717 8.022 7.49107 6.91949 11.0287
threshold=161.50000000000003 26.500000000000004 2.5000000000000004 1351.5000000000002 1033.1175000000017 1701.5000000000002 25.500000000000004 538.00000000000011 457.25000000000006 8.2814308377539785 71.750000000000014 30.250000000000004 0.34701732673267333
decision_type=2 2 2 2 2 2 2 2 2 2 2 2 2
left_child=2 4 -1 6 5 -2 -4 -3 -9 -10 -7 -6 -13
right_child=1 7 3 -5 11 10 -8 8 9 -11 -12 12 -14
leaf_value=-0.012026738962214966 -0.0025449902636252952 0.0024865665662417275 -0.002476712444941145 -0.0017856480915177304 -0.012611511098323126 -0.0040255452549574685 -0.0082003646337123533 0.0030427623886729927 0.009991077498832877 0.0065091072487679568 0.0036733574492652517 -0.012486197543414556 -0.0013451119645314382
leaf_weight=139 78 83 71 344 10.999999999999998 18 195 80 171 191 371 13.999999999999998 88
leaf_count=139 78 83 71 344 11 18 195 80 171 191 371 14 88
internal_value=0 0.00367527 -0.00542261 -0.00391726 0.00113605 0.00233738 -0.00667326 0.00648018 0.00722976 0.00815459 0.00331669 -0.00382745 -0.00287715
internal_weight=0 1105 749 610 580 467 266 525 442 362 389 113 102
internal_count=1854 1105 749 610 580 467 266 525 442 362 389 113 102
is_linear=0
shrinkage=0.0116629


Tree=37
num_leaves=14
num_cat=0
split_feature=173 43 35 35 43 93 93 94 1 12 57 35 172
split_gain=318.682 62.1237 45.556 25.4422 16.0128 14.055 8.57849 8.34475 8.16772 8.1352 7.2583 7.1841 6.85723
threshold=325.50000000000006 2.5000000000000004 2821.5000000000005 1351.5000000000002 8.5000000000000018 0.087250000000000008 0.095250000000000015 0.35383262126211285 181.50000000000003 1.0000000180025095e-35 321329.00000000006 2215.5000000000005 96.500000000000014
decision_type=2 2 2 2 2 2 2 2 2 2 2 2 2
left_child=1 8 4 6 5 -2 -3 -5 -1 12 -7 -6 -4
right_child=2 3 9 7 11 10 -8 -9 -10 -11 -12 -13 -14
leaf_value=-0.013890314014790774 0.0023016489254058491 -0.0034802769559620552 0.0029173029511164426 -0.000671792495356066 0.0016646381795470593 -0.0031697106698265472 -0.0079455281441334 -0.0041845842023612873 -0.0078673254318993666 0.0085206387536742208 -0.012615292752222529 0.0044188662005842285 0.0086832474950278658
leaf_weight=108 57 84 81 246 229 36 194 147 43 275 15.999999999999998 295 43
leaf_count=108 57 84 81 246 229 36 194 147 43 275 16 295 43
internal_value=0 -0.00541812 0.00431523 -0.0038967 0.00236941 -0.00169695 -0.00659698 -0.00198612 -0.0121769 0.00740171 -0.00608125 0.00321549 0.00491854
internal_weight=0 822 1032 671 633 109 278 393 151 399 52 524 124
internal_count=1854 822 1032 671 633 109 278 393 151 399 52 524 124
is_linear=0
shrinkage=0.0116629


Tree=38
num_leaves=14
num_cat=0
split_feature=66 43 86 171 157 128 9 171 130 127 118 130 81
split_gain=298.101 58.7522 31.8361 21.2225 18.1082 16.1073 14.0462 10.7633 10.3287 12.27 9.08669 9.06727 7.68269
threshold=539.06010159868003 6.5000000000000009 1413.5000000000002 97.500000000000014 1419.0000000000002 1400.5000000000002 28.500000000000004 200.50000000000003 64.001461988304115 6.3750000000000009 177.50000000000003 67.601515151515159 2176.5000000000005
decision_type=2 2 2 2 2 2 2 2 2 2 2 2 2
left_child=1 3 5 -1 -3 -2 7 -4 -7 12 -9 -5 -10
right_child=2 4 6 11 -6 8 -8 10 9 -11 -12 -13 -14
leaf_value=-0.012394825533937207 -0.0090608844338387305 -0.0056185896144135047 -0.0036220415575671486 -0.01168429160857022 -0.0010116603001705598 -0.0055385868083353378 -0.0056727664906630225 0.0057784276887197245 5.702473831616217e-05 0.0061672055468919573 0.0097618162206951353 -0.0053319857665857923 0.0034175421038918413
leaf_weight=131 14.999999999999998 172 10.999999999999998 37 357 18 10.999999999999998 134 132 162 187 177 310
leaf_count=131 15 172 11 37 357 18 11 134 132 162 187 177 310
internal_value=0 -0.0049523 0.00441624 -0.00869672 -0.00250989 0.00287332 0.00728107 0.00771085 0.00316153 0.00342113 0.00809969 -0.00643162 0.00241422
internal_weight=0 874 980 345 529 637 343 332 622 604 321 214 442
internal_count=1854 874 980 345 529 637 343 332 622 604 321 214 442
is_linear=0
shrinkage=0.0116629


Tree=39
num_leaves=14
num_cat=0
split_feature=81 43 81 173 43 97 146 30 94 43 189 184 177
split_gain=297.201 49.6922 47.7021 19.0704 16.8224 15.5322 11.9766 12.7971 11.2345 10.2073 9.44164 7.93448 6.66879
threshold=1794.5000000000002 2.5000000000000004 2871.0000000000005 252.50000000000003 7.5000000000000009 76.500000000000014 16.875000000000004 25.500000000000004 0.27819482837704235 25.500000000000004 1116.5000000000002 0.52719590266058114 0.023875354511041703
decision_type=2 2 2 2 2 2 2 2 2 2 2 2 10
left_child=1 10 4 5 8 -3 -4 9 -2 -8 -1 -10 -6
right_child=2 3 6 -5 12 -7 7 -9 11 -11 -12 -13 -14
leaf_value=-0.013533228019690518 0.0019799222741797764 -0.0015395662723668197 -0.0021977757437087911 -0.0019209922840701316 -0.0038209635462613969 -0.0074798851881972932 0.0049283654467482171 -0.0048562646557642657 -0.01091154849735626 0.0091520978448971502 -0.0070866812444065896 -0.0020360062808767697 0.0030265471512640986
leaf_weight=105 45 79 18 286 20 248 111 10.999999999999998 24 262 44 32 569
leaf_count=105 45 79 18 286 20 248 111 11 24 262 44 32 569
internal_value=0 -0.00559016 0.00390048 -0.00412131 0.00203958 -0.00604523 0.00709407 0.00752997 -0.00235727 0.00789573 -0.0116313 -0.00584383 0.00279376
internal_weight=0 762 1092 613 690 327 402 384 101 373 149 56 589
internal_count=1854 762 1092 613 690 327 402 384 101 373 149 56 589
is_linear=0
shrinkage=0.0116629


Tree=40
num_leaves=14
num_cat=0
split_feature=119 119 157 120 8 136 142 97 82 8 95 177 8
split_gain=294.55 47.8469 42.5999 22.104 20.0358 18.6998 11.2645 10.6422 10.131 8.95206 8.85764 8.74604 8.36158
threshold=326.50000000000006 239.50000000000003 2473.5000000000005 4.4866718342914984 3.5000000000000004 69.250000000000014 35.500000000000007 76.500000000000014 563.50000000000011 2.5000000000000004 2.2559681899887245 0.3530663329161452 4.5000000000000009
decision_type=2 2 2 2 2 2 2 2 2 2 2 8 2
left_child=1 4 9 10 11 12 -7 -6 -5 -2 -4 -1 -3
right_child=2 5 3 8 7 6 -8 -9 -10 -11 -12 -13 -14
leaf_value=-0.0063102189874821224 -0.0067589344874063881 -0.016793340305549919 0.0031743697806191954 0.0059519305326982139 -0.0017571441295709674 -0.0011062047797804645 -0.010559573747878909 -0.0075379543587046237 0.0094784354185718806 0.0016447736696430031 -0.0065482480401150775 -0.013606238835339259 -0.0062641563813764945
leaf_weight=29 18 12.999999999999998 140 271 55 356 18 205 188 399 13.999999999999998 99 49
leaf_count=29 18 13 140 271 55 356 18 205 188 399 14 99 49
internal_value=0 -0.00519759 0.00415768 0.00611396 -0.00817683 -0.00254588 -0.00156192 -0.00631568 0.00739686 0.00128151 0.0022892 -0.0119551 -0.00847764
internal_weight=0 824 1030 613 388 436 374 260 459 417 154 128 62
internal_count=1854 824 1030 613 388 436 374 260 459 417 154 128 62
is_linear=0
shrinkage=0.0116629


Tree=41
num_leaves=14
num_cat=0
split_feature=61 94 43 61 173 97 22 137 173 164 9 61 154
split_gain=257.103 58.6992 40.1674 27.6929 20.1202 18.7614 11.1364 10.2666 9.70299 7.45961 6.94483 6.88434 6.79198
threshold=923.18720276334659 0.33457299161124704 11.500000000000002 1378.6182106960443 215.50000000000003 180.50000000000003 1.0000000180025095e-35 86.250000000000014 275.50000000000006 66.750000000000014 1.5000000000000002 562.58314693588329 251.50000000000003
decision_type=2 2 2 2 2 2 2 2 2 2 2 2 2
left_child=1 7 5 -4 10 9 -6 -1 -9 -2 -3 -12 -8
right_child=2 4 3 -5 6 -7 12 8 -10 -11 11 -13 -14
leaf_value=-0.0072464167016130275 -0.0055420904515431496 -0.016815927511393238 0.003404317526417944 0.0078127687960233907 -0.012567163435804295 -0.0068966563631530885 -0.0073321381965057728 -0.002964854239854747 0.00089444654861753673 0.0028158136104039933 -0.013114575129807874 -0.0077388157970155486 -0.0036097948556658662
leaf_weight=35 17 21 453 339 28 51 101 147 223 99 50 93 197
leaf_count=35 17 21 453 339 28 51 101 147 223 99 50 93 197
internal_value=0 -0.00449596 0.00419547 0.00529153 -0.00721139 -0.00100198 -0.00553397 -0.00121022 -0.000638641 0.00158943 -0.0105442 -0.00962054 -0.00487209
internal_weight=0 895 959 792 490 167 326 405 370 116 164 143 298
internal_count=1854 895 959 792 490 167 326 405 370 116 164 143 298
is_linear=0
shrinkage=0.0116629


Tree=42
num_leaves=14
num_cat=0
split_feature=173 128 128 99 128 180 128 144 149 110 22 149 155
split_gain=284.735 57.9275 41.8427 16.2899 12.8686 10.3935 9.63993 8.99651 8.94919 7.50296 7.20531 6.68838 6.40904
threshold=325.50000000000006 1021.0000000000001 2036.0000000000002 22.500000000000004 1407.5000000000002 2.2453263509134502 944.50000000000011 23.625000000000004 338.33333333333343 2.8266237251744504 5.5000000000000009 357.16666666666669 457.25000000000006
decision_type=2 2 2 2 2 2 2 2 2 2 2 2 2
left_child=1 6 7 9 10 8 -1 11 -4 -3 -5 -2 -7
right_child=2 3 5 4 -6 12 -8 -9 -10 -11 -12 -13 -14
leaf_value=-0.012697501315426372 -0.0023186059556710502 -0.0042695863230192135 -0.0058089627055876456 -0.01155318399710344 0.00042837843437346063 0.0033355657946963174 -0.0079493035395540555 -0.0090762568686284049 0.0045618990765726062 -0.00060799862071696047 -0.0058031518805698326 0.0021456325403871163 0.0077737383025596645
leaf_weight=101 52 107 11.999999999999998 38 38 51 138 10.999999999999998 193 264 136 372 341
leaf_count=101 52 107 12 38 38 51 138 11 193 264 136 372 341
internal_value=0 -0.00512146 0.00407888 -0.00313869 -0.00571778 0.00608352 -0.00995707 0.00132732 0.00395389 -0.00166446 -0.00706052 0.00159782 0.00719675
internal_weight=0 822 1032 583 212 597 239 435 205 371 174 424 392
internal_count=1854 822 1032 583 212 597 239 435 205 371 174 424 392
is_linear=0
shrinkage=0.0116629


Tree=43
num_leaves=14
num_cat=0
split_feature=128 147 38 120 177 98 128 128 189 147 154 30 135
split_gain=300.873 36.9084 28.1686 26.1151 18.5569 16.1179 14.4087 9.93836 8.66027 7.64678 8.04778 7.57435 6.36385
threshold=1407.5000000000002 434.50000000000006 14.500000000000002 4.4866718342914984 0.03730206055787446 74.500000000000014 944.50000000000011 1771.0000000000002 1128.5000000000002 610.50000000000011 193.37500000000003 18.500000000000004 62.625000000000007
decision_type=2 2 2 2 10 2 2 2 2 2 2 2 2
left_child=2 7 8 11 -4 6 -6 -2 -1 10 -5 -3 -8
right_child=1 3 4 9 5 -7 12 -9 -10 -11 -12 -13 -14
leaf_value=-0.011596438313241248 0.00024739148702460241 0.0025952954280863525 -0.011121840146488919 -0.0027224452383153553 -0.0097783306061343059 -0.0087867492088723811 -0.0039199008014708841 0.0034597410350861017 -0.0060348523012449234 0.0096121419629878208 0.0066599027554163906 -0.006663424227930299 -0.00085381964377182103
leaf_weight=125 324 156 53 12.999999999999998 38 76 168 220 55 134 275 12.999999999999998 204
leaf_count=125 324 156 53 13 38 76 168 220 55 134 275 13 204
internal_value=0 0.00373922 -0.00590325 0.00575705 -0.0045686 -0.00385337 -0.0029383 0.00154676 -0.00989838 0.00730857 0.00623591 0.00188187 -0.00223889
internal_weight=0 1135 719 591 539 486 410 544 180 422 288 169 372
internal_count=1854 1135 719 591 539 486 410 544 180 422 288 169 372
is_linear=0
shrinkage=0.0116629


Tree=44
num_leaves=14
num_cat=0
split_feature=128 128 22 8 127 99 46 8 46 38 61 127 27
split_gain=293.898 46.8515 27.5153 17.5696 13.8911 12.3122 12.1661 14.7507 9.49243 8.69993 7.81011 9.85742 7.33146
threshold=1407.5000000000002 2036.0000000000002 14.500000000000002 6.5000000000000009 6.1250000000000009 26.500000000000004 26.500000000000004 23.500000000000004 1.0000000180025095e-35 1.0000000180025095e-35 2229.5153100496927 5.8750000000000009 1.5000000000000002
decision_type=2 2 2 2 2 2 2 2 2 2 2 2 2
left_child=2 4 12 8 9 -5 7 -3 -4 -2 11 -9 -1
right_child=1 6 3 5 -6 -7 -8 10 -10 -11 -12 -13 -14
leaf_value=-0.013157818665864129 -0.0092198924272160459 0.003202156492427952 -0.016713305374754923 -0.0017457513795459479 0.0045877493273840412 -0.0066764336752933202 -0.0056690481717465054 4.9184056233096489e-05 -0.0067091707630139927 0.00046881615069737704 0.012534263888941403 0.0073602014111069083 -0.0081348651321588097
leaf_weight=59 12.999999999999998 163 13.999999999999998 266 126 93 11.999999999999998 27 166 399 36 359 121
leaf_count=59 13 163 14 266 126 93 12 27 166 399 36 359 121
internal_value=0 0.00369561 -0.00583442 -0.00451534 0.00119918 -0.0030236 0.00594506 0.00618363 -0.00748938 0.000162481 0.00733482 0.00684909 -0.00978296
internal_weight=0 1135 719 539 538 359 597 585 180 412 422 386 180
internal_count=1854 1135 719 539 538 359 597 585 180 412 422 386 180
is_linear=0
shrinkage=0.0116629


Tree=45
num_leaves=14
num_cat=0
split_feature=66 173 19 43 43 137 120 98 61 125 66 19 162
split_gain=254.856 50.0819 31.5209 21.2254 18.9468 14.005 11.0569 10.9866 8.87044 8.04894 7.50192 6.55038 6.52841
threshold=539.06010159868003 215.50000000000003 2945.5000000000005 9.5000000000000018 3.5000000000000004 85.125000000000014 4.4866718342914984 48.500000000000007 562.58314693588329 2.3750000000000004 930.18254886935949 1211.0000000000002 298.50000000000006
decision_type=2 2 2 2 2 2 2 2 2 2 2 2 2
left_child=1 8 4 7 -2 -6 9 -3 -1 -4 -8 -5 -7
right_child=2 3 6 11 5 12 10 -9 -10 -11 -12 -13 -14
leaf_value=-0.012970405242146999 -0.0060880419296514268 -0.0032124617070525851 0.0083033203430540811 -0.0064315301110537734 -0.0050588497596051616 0.003564791366895019 0.005434936879552499 -0.0076211941625626868 -0.0078578669572648748 -0.00014245909619512494 0.0093474189880749393 -0.00065236672607580813 -0.0054993758784782536
leaf_weight=71 33 164 23 29 28 554 107 145 133 46 178 332 10.999999999999998
leaf_count=71 33 164 23 29 28 554 107 145 133 46 178 332 11
internal_value=0 -0.00457908 0.00408332 -0.00303818 0.00251002 0.00298883 0.00686493 -0.00528192 -0.00963869 0.00267275 0.0078793 -0.00111719 0.00338798
internal_weight=0 874 980 670 626 593 354 309 204 69 285 361 565
internal_count=1854 874 980 670 626 593 354 309 204 69 285 361 565
is_linear=0
shrinkage=0.0116629


Tree=46
num_leaves=14
num_cat=0
split_feature=138 138 138 127 130 38 27 128 127 100 166 141 149
split_gain=280.765 50.5693 31.651 16.1089 14.9051 14.928 13.6284 12.4254 8.97411 8.01184 7.43783 6.31279 5.64736
threshold=1635.0000000000002 2379.5000000000005 1137.5000000000002 5.8750000000000009 72.707407407407416 14.500000000000002 7.5000000000000009 2798.5000000000005 6.1250000000000009 22.500000000000004 299.50000000000006 67.500000000000014 421.25000000000006
decision_type=2 2 2 2 2 2 2 2 2 2 2 2 2
left_child=2 6 -1 12 10 11 9 -5 -8 -2 -4 -6 -3
right_child=1 3 4 7 5 -7 8 -9 -10 -11 -12 -13 -14
leaf_value=-0.012513489688125707 -0.00077826340767297715 -0.0061772015096820971 -0.0076112052100357772 0.0050892156149513644 -0.0067891193361309197 -0.0029958206982758783 0.00069550652220423887 0.0087798880054845759 0.004359757342285637 -0.0079082460423359948 -0.015841204033046334 -0.014927635722470318 0.0020710395523853091
leaf_weight=90 65 13.999999999999998 89 370 97 354 341 187 124 32 18 14.999999999999998 58
leaf_count=90 65 14 89 370 97 354 341 187 124 32 18 15 58
internal_value=0 0.00338603 -0.00608325 0.00565765 -0.00507274 -0.00417069 0.000843323 0.00632869 0.00167298 -0.00313246 -0.00899901 -0.00788217 0.000464707
internal_weight=0 1191 663 629 573 466 562 557 465 97 107 112 72
internal_count=1854 1191 663 629 573 466 562 557 465 97 107 112 72
is_linear=0
shrinkage=0.0116629


Tree=47
num_leaves=14
num_cat=0
split_feature=81 43 27 96 93 81 128 43 157 120 81 120 107
split_gain=247.963 43.7854 36.7348 23.4321 23.2767 18.0802 10.4498 10.3458 9.0535 7.79935 6.77245 10.5117 6.12578
threshold=1828.0000000000002 2.5000000000000004 25.500000000000004 1016.3845 0.10575000000000001 2913.0000000000005 1194.5000000000002 10.500000000000002 1164.0000000000002 4.5263863773357453 2419.0000000000005 4.7759955939671253 230.50000000000003
decision_type=2 2 2 2 2 2 2 2 2 2 2 2 2
left_child=1 8 3 10 -3 -4 -6 12 -1 -7 11 -2 -5
right_child=2 4 5 7 6 9 -8 -9 -10 -11 -12 -13 -14
leaf_value=-0.014538293289350067 0.00020916961045835557 -0.0016987159020259272 0.003472677167938234 -0.0013516047248496844 -0.0079145672939550573 0.0040722056872530702 -0.0031500544918261226 0.00048209027102370442 -0.0085189996719695019 0.0091139144706717037 0.0046036348517427489 0.0051886928709284335 -0.0089837406569566059
leaf_weight=52 184 368 198 23 174 52 98 69 99 214 201 84 38
leaf_count=52 184 368 198 23 174 52 98 69 99 214 201 84 38
internal_value=0 -0.00494473 0.00367904 0.00177051 -0.00361145 0.00614247 -0.00619862 -0.00261025 -0.010594 0.00812903 0.00298506 0.00177053 -0.00610891
internal_weight=0 791 1063 599 640 464 272 130 151 266 469 268 61
internal_count=1854 791 1063 599 640 464 272 130 151 266 469 268 61
is_linear=0
shrinkage=0.0116629


Tree=48
num_leaves=14
num_cat=0
split_feature=157 8 35 128 137 128 137 127 8 101 155 91 174
split_gain=252.506 40.4704 39.1615 19.7145 13.4472 11.7371 9.17492 9.07913 7.78695 7.45187 7.11604 7.04708 6.09128
threshold=1789.5000000000002 2.5000000000000004 2821.5000000000005 1055.0000000000002 85.125000000000014 1686.0000000000002 109.62500000000001 6.1250000000000009 2.5000000000000004 9.5000000000000018 291.25000000000006 6.5000000000000009 0.34162541254125417
decision_type=2 2 2 2 2 2 2 2 2 2 2 2 2
left_child=1 11 4 9 -2 7 -4 12 -7 -3 -5 -1 -6
right_child=2 3 6 10 5 8 -8 -9 -10 -11 -12 -13 -14
leaf_value=-0.014576428639047866 -0.00468050440913996 -0.0038826192556401435 0.001922062809317498 -0.0058900522999303772 -0.00066058217819809305 -0.0055588046580919833 0.0071325411006049645 0.004296687573499965 0.0035917320101029786 -0.0087746529297445565 -0.0019391567611576151 -0.0089599242467025587 -0.008475428303951758
leaf_weight=51 40 64 53 75 141 12.999999999999998 350 50 441 126 359 76 14.999999999999998
leaf_count=51 40 64 53 75 141 13 350 50 441 126 359 76 15
internal_value=0 -0.00521643 0.0035513 -0.00399454 0.00188356 0.00228165 0.00644765 -2.68149e-05 0.00332929 -0.00712785 -0.00262236 -0.0112179 -0.00141352
internal_weight=0 751 1103 624 700 660 403 206 454 190 434 127 156
internal_count=1854 751 1103 624 700 660 403 206 454 190 434 127 156
is_linear=0
shrinkage=0.0116629


Tree=49
num_leaves=14
num_cat=0
split_feature=82 27 71 82 98 27 104 155 189 157 162 131 98
split_gain=232.177 51.9585 29.1222 23.567 17.5025 15.5929 10.6158 9.91231 9.8108 7.46409 7.31509 6.86142 5.82615
threshold=330.50000000000006 2.5000000000000004 1412.7500000000002 256.50000000000006 26.500000000000004 11.500000000000002 105.44376382814391 457.25000000000006 1788.0000000000002 1164.0000000000002 228.00000000000003 33.500000000000007 72.500000000000014
decision_type=2 2 2 2 2 2 2 2 2 2 2 2 2
left_child=1 9 7 4 -3 6 -4 -2 -9 -1 -7 -6 -13
right_child=2 3 5 -5 11 10 -8 8 -10 -11 -12 12 -14
leaf_value=-0.014235288320965777 0.00031802875134345716 -0.00094095372158116387 -0.010143091651331608 -0.00095126252341520519 -0.0088213213862969736 0.0076131820773117278 0.0045628230396639402 0.00048028180128457151 0.0043739460650453659 -0.0088045381429608157 -0.0016623760233926306 -0.0034356883374503698 -0.0088512230803849123
leaf_weight=52 220 93 12.000000000000002 337 124 303 14.999999999999998 120 331 103 11.999999999999998 94 38
leaf_count=52 220 93 12 337 124 303 15 120 331 103 12 94 38
internal_value=0 -0.00452992 0.00376029 -0.00315157 -0.00527579 0.0065303 -0.00197178 0.00234818 0.00333822 -0.0106285 0.00725944 -0.00684999 -0.00499644
internal_weight=0 841 1013 686 349 342 27 671 451 155 315 256 132
internal_count=1854 841 1013 686 349 342 27 671 451 155 315 256 132
is_linear=0
shrinkage=0.0116629


Tree=50
num_leaves=14
num_cat=0
split_feature=119 35 35 27 120 43 120 97 98 135 99 130 125
split_gain=234.717 41.8792 35.051 18.934 15.5593 11.7948 11.553 7.88722 7.64954 7.45356 7.27707 7.22199 7.19816
threshold=326.50000000000006 1204.5000000000002 2821.5000000000005 9.5000000000000018 4.4495662825288109 2.5000000000000004 4.4866718342914984 75.500000000000014 88.500000000000014 61.875000000000007 27.500000000000004 70.490740740740748 2.3750000000000004
decision_type=2 2 2 2 2 2 2 2 2 2 2 2 2
left_child=1 5 4 10 -2 -1 12 -7 9 -5 11 -3 -4
right_child=2 3 6 8 -6 7 -8 -9 -10 -11 -12 -13 -14
leaf_value=-0.011787977669258589 -0.0008320827091853522 -0.0093382449273843818 0.0073968410341771285 -0.0031419683365249622 0.0031842549343167508 -0.0019041955967593388 0.0073954758642258154 -0.0081063212591226987 -0.010090167862292318 0.00072921489793400607 -0.0080723447556253439 -0.0028908492421805404 -0.00011544049608683708
leaf_weight=98 186 28 26 103 445 37 321 114 11.999999999999998 197 83 152 52
leaf_count=98 186 28 26 103 445 37 321 114 12 197 83 152 52
internal_value=0 -0.00463982 0.00371138 -0.00290915 0.00200021 -0.00863546 0.00641706 -0.00658766 -0.000965553 -0.000599664 -0.00521426 -0.00389515 0.00238847
internal_weight=0 824 1030 575 631 249 399 151 312 300 263 180 78
internal_count=1854 824 1030 575 631 249 399 151 312 300 263 180 78
is_linear=0
shrinkage=0.0116629


Tree=51
num_leaves=14
num_cat=0
split_feature=128 138 138 8 10 22 22 175 9 128 128 163 8
split_gain=251.498 38.9436 33.1555 13.577 11.9093 11.3305 10.4504 11.8451 6.83703 8.80434 6.6294 6.24689 7.71668
threshold=1407.5000000000002 2379.5000000000005 1252.5000000000002 23.500000000000004 1.0000000180025095e-35 1.0000000180025095e-35 14.500000000000002 0.96073126411477816 32.500000000000007 2654.0000000000005 938.50000000000011 54.625000000000007 11.500000000000002
decision_type=2 2 2 2 2 2 2 2 2 2 2 2 2
left_child=2 5 4 11 10 -2 -4 -8 9 -5 -1 12 -3
right_child=1 3 6 8 -6 -7 7 -9 -10 -11 -12 -13 -14
leaf_value=-0.014337552375430882 -0.0093289774030106097 -0.0099436747926000581 -0.0071912669335773959 0.0050254184645570068 -0.0061563593546908879 0.0013043542296300862 -0.0021720635266935674 -0.012751438242217205 -0.0022300298478549131 0.008342918892760896 -0.0090267529024505352 0.0036443737599760038 0.0022078309833857964
leaf_weight=52 13.999999999999998 11.000000000000002 83 218 134 492 351 14.999999999999998 11.999999999999998 218 84 150 20
leaf_count=52 14 11 83 218 134 492 351 15 12 218 84 150 20
internal_value=0 0.00341862 -0.00539723 0.00535628 -0.00862711 0.00100964 -0.0034545 -0.00260651 0.00644558 0.00668467 -0.0110597 0.00265919 -0.00210396
internal_weight=0 1135 719 629 270 506 449 366 448 436 136 181 31
internal_count=1854 1135 719 629 270 506 449 366 448 436 136 181 31
is_linear=0
shrinkage=0.0116629


Tree=52
num_leaves=14
num_cat=0
split_feature=19 35 35 94 7 137 127 81 147 127 12 94 159
split_gain=221.619 36.4296 31.4368 18.5518 17.9903 12.8513 9.80954 11.3339 8.77981 8.20597 8.18397 6.23417 6.14658
threshold=1773.0000000000002 1093.0000000000002 2940.0000000000005 0.28628814981994755 12.500000000000002 85.125000000000014 6.1250000000000009 2176.5000000000005 427.50000000000006 5.8750000000000009 1.0000000180025095e-35 0.32242730158730187 25.500000000000004
decision_type=2 2 2 2 2 2 2 2 2 2 2 2 2
left_child=1 -1 4 -3 -2 11 7 -7 -4 -10 -5 -6 -8
right_child=2 3 8 10 5 6 12 -9 9 -11 -12 -13 -14
leaf_value=-0.0097462560627903146 -0.012138997762956625 -0.00031744661282815339 7.3289979328920363e-05 -0.0056291631179146715 -0.0012005129260934837 -0.00060616542301051917 0.00072785087639645535 0.0030667500100608814 0.00083717137093283767 0.007335788272618415 -0.0018302909286269256 -0.012133837767123644 0.006080335512721362
leaf_weight=158 11.999999999999998 180 29 339 20.000000000000004 178 37 319 29 303 100 10.999999999999998 139
leaf_count=158 12 180 29 339 20 178 37 319 29 303 100 11 139
internal_value=0 -0.00474761 0.00342469 -0.0034713 0.00200953 0.00225114 0.00258947 0.00175112 0.00623098 0.00676851 -0.00476415 -0.00508799 0.00495585
internal_weight=0 777 1077 619 716 704 673 497 361 332 439 31 176
internal_count=1854 777 1077 619 716 704 673 497 361 332 439 31 176
is_linear=0
shrinkage=0.0116629


Tree=53
num_leaves=14
num_cat=0
split_feature=35 35 66 7 127 27 81 91 155 69 134 62 27
split_gain=216.766 35.7196 32.0377 16.2954 12.5495 12.4908 12.1724 10.1666 9.77962 7.68682 6.48286 6.32564 6.21324
threshold=1774.5000000000002 1204.5000000000002 930.18254886935949 12.500000000000002 6.1250000000000009 9.5000000000000018 2176.5000000000005 6.5000000000000009 276.50000000000006 585094.75000000012 71.500000000000014 101.80749860274742 26.500000000000004
decision_type=2 2 2 2 2 2 2 2 2 2 2 2 2
left_child=1 7 3 -2 6 9 -5 -1 -8 -3 -7 -11 -4
right_child=2 5 12 4 -6 10 8 -9 -10 11 -12 -13 -14
leaf_value=-0.012292399437392578 -0.010628089824754145 -0.0019293167285712506 0.0035078078961043998 -0.00075248584802911449 0.0048714200048691498 -0.0038090824727938779 -0.0061358393712135119 -0.0069254554769673637 0.0031616013595991408 -0.014285987598603717 0.00015147535969313312 -0.0055192025015138738 0.0081393690329435511
leaf_weight=65 12.999999999999998 90 50 195 225 83 15.999999999999998 185 389 11.999999999999998 174 169 188
leaf_count=65 13 90 50 195 225 83 16 185 389 12 174 169 188
internal_value=0 -0.00469014 0.00339073 0.00231796 0.0025223 -0.00297009 0.0016411 -0.00832203 0.0027938 -0.00471703 -0.0011274 -0.00610231 0.0071671
internal_weight=0 778 1076 838 825 528 600 250 405 271 257 181 238
internal_count=1854 778 1076 838 825 528 600 250 405 271 257 181 238
is_linear=0
shrinkage=0.0116629


Tree=54
num_leaves=14
num_cat=0
split_feature=81 128 93 157 128 8 30 127 127 8 12 177 177
split_gain=211.789 40.1172 33.5033 19.3146 14.4745 13.5454 9.7938 9.30083 8.33494 8.23154 7.55876 7.54706 7.46624
threshold=1794.5000000000002 2036.0000000000002 0.092500000000000013 1164.0000000000002 1417.5000000000002 23.500000000000004 3.5000000000000004 6.1250000000000009 5.8750000000000009 8.5000000000000018 1.0000000180025095e-35 0.09991394148020652 0.043073593073593007
decision_type=2 2 2 2 2 2 2 2 2 2 2 10 10
left_child=2 4 6 -4 -2 11 -1 -6 -7 -5 -11 -3 -8
right_child=1 5 3 9 7 8 12 -9 -10 10 -12 -13 -14
leaf_value=-0.0071374452942052219 -0.0078023784461158574 -0.0026941570153012377 -0.012916690947621825 -0.0074590240221062993 0.00040140576196194181 0.00058996006310213468 -0.010515109274475291 0.0042876730365393927 0.0068713701329446526 -0.0055845253331512938 -0.00031382917597001092 0.003688744474497243 -0.00072045485516519217
leaf_weight=42 25 31 61 200 362 31 10.999999999999998 109 400 123 53 134 272
leaf_count=42 25 31 61 200 362 31 11 109 400 123 53 134 272
internal_value=0 0.00329254 -0.00471911 -0.00682814 0.000841807 0.00533182 -0.00188275 0.00130111 0.00641985 -0.00583954 -0.00399809 0.00248877 -0.00110215
internal_weight=0 1092 762 437 496 596 325 471 431 376 176 165 283
internal_count=1854 1092 762 437 496 596 325 471 431 376 176 165 283
is_linear=0
shrinkage=0.0116629


Tree=55
num_leaves=14
num_cat=0
split_feature=138 0 91 93 96 155 35 153 186 154 93 138 22
split_gain=230.837 38.202 27.3174 16.7943 10.6459 9.67425 9.39678 8.40004 7.65437 6.89826 6.47644 6.20864 5.94465
threshold=1635.0000000000002 3383.5000000000005 6.5000000000000009 0.10425000000000001 1262.4930000000018 457.25000000000006 2224.5000000000005 1439.5000000000002 24.097264705882356 89.250000000000014 0.078500000000000014 3069.5000000000005 15.500000000000002
decision_type=2 2 2 2 2 2 2 2 2 2 2 2 2
left_child=2 4 -1 9 6 10 -2 11 -5 -4 -3 -7 -6
right_child=1 5 3 8 12 7 -8 -9 -10 -11 -12 -13 -14
leaf_value=-0.011731745120387653 0.00067539088103293497 0.0036243328083446834 -0.011699095917232144 -0.0061532079048929973 -0.012011373420198732 0.0046793843945580563 0.0034861593901300237 -0.0031972482695601353 -0.014458786913645955 -0.0022880871562431459 -0.0048186743065572512 0.0078010908794530869 -0.001584719128071115
leaf_weight=84 437 54 10.999999999999998 271 10.999999999999998 134 257 11.999999999999998 15.999999999999998 281 15.999999999999998 247 23
leaf_count=84 437 54 11 271 11 134 257 12 16 281 16 247 23
internal_value=0 0.00307019 -0.00551597 -0.0046137 0.00140415 0.00568941 0.00171647 0.00640099 -0.00661744 -0.00264364 0.00169235 0.0067037 -0.00496546
internal_weight=0 1191 663 579 728 463 694 393 287 292 70 381 34
internal_count=1854 1191 663 579 728 463 694 393 287 292 70 381 34
is_linear=0
shrinkage=0.0116629


Tree=56
num_leaves=14
num_cat=0
split_feature=119 43 43 19 96 119 127 163 93 83 157 21 93
split_gain=204.991 44.8517 25.929 17.8531 15.1278 11.9214 8.04343 7.92285 7.02246 6.89643 6.24925 6.21612 6.04553
threshold=326.50000000000006 2.5000000000000004 25.500000000000004 1351.5000000000002 1262.4930000000018 427.50000000000006 5.8750000000000009 63.625000000000007 0.12350000000000001 352201.50000000006 2042.0000000000002 181.50000000000003 0.064250000000000015
decision_type=2 2 2 2 2 2 2 2 2 2 2 2 2
left_child=1 11 4 9 7 -4 -7 -2 -5 -3 -9 -1 -12
right_child=2 3 5 8 -6 6 -8 10 -10 -11 12 -13 -14
leaf_value=-0.011550971130865751 8.3723811169113756e-05 -0.00095349982878210578 0.0019538141311472397 -0.00071809298088459689 -0.0072584507806155978 0.00060972006302548946 0.0070180664602251999 4.3897951028134841e-05 -0.0047463111619640121 -0.0060861721993651736 0.0053782526763915643 -0.0062589831114911922 0.002081262736903274
leaf_weight=109 167 42 100 323 24 29 333 72 72 236 165 42 140
leaf_count=109 167 42 100 323 24 29 333 72 72 236 165 42 140
internal_value=0 -0.00433611 0.00346837 -0.00304685 0.00179912 0.00552024 0.00650502 0.00219913 -0.00145278 -0.0053112 0.00313588 -0.0100806 0.00386542
internal_weight=0 824 1030 673 568 462 362 544 395 278 377 151 305
internal_count=1854 824 1030 673 568 462 362 544 395 278 377 151 305
is_linear=0
shrinkage=0.0116629


Tree=57
num_leaves=14
num_cat=0
split_feature=138 138 43 120 30 120 97 173 43 137 20 177 155
split_gain=220.694 39.3374 27.6039 13.013 12.4262 14.6619 10.3265 9.68592 8.49484 8.36274 6.77726 5.62531 5.47508
threshold=1635.0000000000002 2379.5000000000005 2.5000000000000004 4.7759955939671253 26.500000000000004 4.4866718342914984 64.500000000000014 582.00000000000011 1.5000000000000002 97.875000000000014 245.50000000000003 0.030989630162440801 420.25000000000006
decision_type=2 2 2 2 2 2 2 2 2 2 2 10 2
left_child=2 3 10 8 5 11 -4 12 -2 -8 -1 -3 -7
right_child=1 4 6 -5 -6 7 9 -9 -10 -11 -12 -13 -14
leaf_value=-0.012859206490887953 -0.0080392970056838309 -0.005960613476804248 -0.00066547897712786761 0.0033874552535032394 -0.0062690181381587357 0.00070553499268291597 -0.0073114268747034679 0.0085990809896765146 -4.4726389256372983e-05 -0.0037766700810237491 -0.0077664046821525785 0.0026974207904593497 0.0056088622563883247
leaf_weight=60 19 10.999999999999998 96 176 12.999999999999998 35 134 159 367 285 88 138 273
leaf_count=60 19 11 96 176 13 35 134 159 367 285 88 138 273
internal_value=0 0.00300196 -0.00539342 0.000759314 0.00500549 0.00524376 -0.00411709 0.00626021 -0.00043885 -0.00490762 -0.00983301 0.00205694 0.00505206
internal_weight=0 1191 663 562 629 616 515 467 386 419 148 149 308
internal_count=1854 1191 663 562 629 616 515 467 386 419 148 149 308
is_linear=0
shrinkage=0.0116629


Tree=58
num_leaves=14
num_cat=0
split_feature=173 91 120 61 98 120 61 82 149 146 143 72 97
split_gain=198.42 35.8981 30.0166 21.0154 18.6781 15.989 10.0857 7.48488 6.92701 6.78621 5.82474 5.41065 5.29142
threshold=325.50000000000006 6.5000000000000009 4.4680327009747414 1335.3010927150915 47.500000000000007 5.0092921356802913 642.3379766416291 256.50000000000006 262.16666666666669 28.375000000000004 23.500000000000004 271.50000000000006 146.50000000000003
decision_type=2 2 2 2 2 2 2 2 2 2 2 2 2
left_child=1 -1 9 -4 6 7 -3 -6 -9 11 -5 -2 -11
right_child=2 4 3 10 5 -7 -8 8 -10 12 -12 -13 -14
leaf_value=-0.011183177710484011 -0.00034545150090371443 -0.0046904598156602539 0.0029492123885078818 0.0056246493978288322 -0.0082108339083817906 0.00017757842517311792 -0.00068119125255558684 -0.012602887165352235 -0.0026850593166698471 -0.0003878167653458766 0.0088652695132504216 0.0034361449816764297 -0.0085134772346959018
leaf_weight=91 155 119 438 194 171 54 302 10.999999999999998 74 24 124 77 20
leaf_count=91 155 119 438 194 171 54 302 11 74 24 124 77 20
internal_value=0 -0.00427539 0.00340488 0.00460669 -0.00341507 -0.00558775 -0.00181484 -0.00680419 -0.00397206 0.000112523 0.00688902 0.000909381 -0.0040855
internal_weight=0 822 1032 756 731 310 421 256 85 276 318 232 44
internal_count=1854 822 1032 756 731 310 421 256 85 276 318 232 44
is_linear=0
shrinkage=0.0116629


Tree=59
num_leaves=14
num_cat=0
split_feature=128 157 27 120 94 135 128 27 1 148 38 38 175
split_gain=210.7 35.8935 28.0507 12.0743 10.2731 9.53754 8.46645 8.4319 8.14158 7.00857 6.65062 6.24139 5.55366
threshold=1374.0000000000002 2473.5000000000005 2.5000000000000004 4.7759955939671253 0.35383262126211285 61.125000000000007 1021.0000000000001 19.500000000000004 181.50000000000003 9.5000000000000018 1.0000000180025095e-35 14.500000000000002 0.52425893635571064
decision_type=2 2 2 2 2 2 2 2 2 2 2 2 2
left_child=2 3 8 10 -4 9 -6 -7 -1 -3 -2 -8 -5
right_child=1 5 4 12 6 7 11 -9 -10 -11 -12 -13 -14
leaf_value=-0.011304552521116257 -0.0092710137931603116 0.0033859101406092094 -0.0020110634680890883 -0.00026372776467413597 -0.008015300224733804 0.0029283285476605107 -0.0072627390821582132 0.0067596099543219112 -0.0052442930094963071 -0.0047063876315755924 -7.2765505719538158e-05 -0.0026591588433596378 0.0044439609112576686
leaf_weight=108 10.999999999999998 159 226 45 103 102 55 336 42 15.999999999999998 363 148 140
leaf_count=108 11 159 226 45 103 102 55 336 42 16 363 148 140
internal_value=0 0.00299895 -0.00515438 0.000861333 -0.00389787 0.00494802 -0.00529087 0.00586778 -0.00960916 0.00264507 -0.000343994 -0.00390745 0.00329839
internal_weight=0 1172 682 559 532 613 306 438 150 175 374 203 185
internal_count=1854 1172 682 559 532 613 306 438 150 175 374 203 185
is_linear=0
shrinkage=0.0116629


Tree=60
num_leaves=14
num_cat=0
split_feature=128 128 138 99 127 46 138 113 117 137 94 171 98
split_gain=205.815 36.2536 25.9831 15.2992 11.025 10.9947 10.1882 9.99466 8.39036 7.22904 7.09495 7.30987 6.57047
threshold=1374.0000000000002 2036.0000000000002 1137.5000000000002 25.500000000000004 6.1250000000000009 26.500000000000004 3487.0000000000005 19.500000000000004 35.500000000000007 86.250000000000014 0.31404365755552383 106.50000000000001 38.500000000000007
decision_type=2 2 2 2 2 2 2 2 2 2 2 2 2
left_child=2 4 -1 7 10 6 9 12 -5 -3 -2 -12 -4
right_child=1 5 3 8 -6 -7 -8 -9 -10 -11 11 -13 -14
leaf_value=-0.010933086247985785 0.00097176566850945166 -0.0043711762200188634 -0.0034254115209124279 -0.012042868601315296 0.0037609861984238598 -0.0060635287653730933 0.0075134109395237772 -0.0013927919179050005 -0.0057640349849172401 0.00446083774167059 -0.011341166600193646 -0.0014320128271194696 -0.0082454240206226732
leaf_weight=90 301 12.999999999999998 111 36 137 11.999999999999998 180 237 149 392 10.999999999999998 126 59
leaf_count=90 301 13 111 36 137 12 180 237 149 392 11 126 59
internal_value=0 0.00296397 -0.00509428 -0.00420616 0.000873588 0.00497708 0.0052039 -0.00294145 -0.00698743 0.00417692 -2.94344e-05 -0.00222972 -0.00509951
internal_weight=0 1172 682 592 575 597 585 407 185 405 438 137 170
internal_count=1854 1172 682 592 575 597 585 407 185 405 438 137 170
is_linear=0
shrinkage=0.0116629


Tree=61
num_leaves=14
num_cat=0
split_feature=128 35 128 99 43 96 120 120 0 8 145 117 128
split_gain=201.043 32.6758 27.2296 14.4502 13.1621 13.0706 9.96239 9.81678 7.73847 7.37493 7.34932 6.71955 6.65788
threshold=1374.0000000000002 2821.5000000000005 1015.5000000000001 25.500000000000004 13.500000000000002 989.25999999999544 4.4866718342914984 4.7930932035538465 2916.5000000000005 2.5000000000000004 11.750000000000002 35.500000000000007 2564.5000000000005
decision_type=2 2 2 2 2 2 2 2 2 2 2 2 2
left_child=2 4 9 10 5 -2 -3 -6 -7 -1 -4 -5 -8
right_child=1 6 3 11 7 8 12 -9 -10 -11 -12 -13 -14
leaf_value=-0.01111039674143011 0.00099268958089932012 0.0018803029737001849 -0.0065925742756312621 -0.011620945166322677 0.0013942432974271045 -0.0028076146481736505 0.0040734187946384146 0.0047588262579899357 -0.012025080666835284 -0.006744274563574547 -0.0012966450897184943 -0.0052160219481509921 0.0076675649309678948
leaf_weight=82 186 78 41 28 329 55 103 184 15.999999999999998 148 273 110 221
leaf_count=82 186 78 41 28 329 55 103 184 16 148 273 110 221
internal_value=0 0.0029294 -0.00503489 -0.00337191 0.00152206 -0.000631955 0.00562462 0.00260135 -0.00488867 -0.00830206 -0.0019888 -0.00651761 0.00652557
internal_weight=0 1172 682 452 770 257 402 513 71 230 314 138 324
internal_count=1854 1172 682 452 770 257 402 513 71 230 314 138 324
is_linear=0
shrinkage=0.0116629


Tree=62
num_leaves=14
num_cat=0
split_feature=66 8 81 81 96 43 120 135 68 20 188 8 120
split_gain=174.741 35.2221 23.9761 16.184 13.5147 14.4965 9.86333 8.62953 7.63799 7.50068 8.40576 6.53875 5.8108
threshold=539.06010159868003 3.5000000000000004 3058.5000000000005 1488.5000000000002 1038.2374999999952 10.500000000000002 4.7857865063209779 54.125000000000007 624537.75000000012 245.50000000000003 200.14220857573241 35.500000000000007 4.8380748259430755
decision_type=2 2 2 2 2 2 2 2 2 2 2 2 2
left_child=1 9 4 8 6 -6 -2 -4 -3 -1 -11 -9 -10
right_child=2 3 7 -5 5 -7 -8 11 12 10 -12 -13 -14
leaf_value=-0.01167261256090865 0.0018132684307229485 -0.0022117940596367096 0.0019650780727286481 -0.0010029366588801608 -0.0072328715702025936 0.001353339625177159 0.0051609119263256653 0.0045560078453149968 -0.0070785359254560377 -0.0079717433222905934 0.0014513864447968209 0.0083982917566209365 -0.0025892438093254367
leaf_weight=65 362 120 58 379 39 85 179 97 152 90 14.999999999999998 160 53
leaf_count=65 362 120 58 379 39 85 179 97 152 90 15 160 53
internal_value=0 -0.00379174 0.00338104 -0.00264088 0.00212517 -0.001347 0.00292122 0.00603172 -0.0045505 -0.00855633 -0.00662461 0.00694889 -0.0059187
internal_weight=0 874 980 704 665 124 541 315 325 170 105 257 205
internal_count=1854 874 980 704 665 124 541 315 325 170 105 257 205
is_linear=0
shrinkage=0.0116629


Tree=63
num_leaves=14
num_cat=0
split_feature=189 82 150 93 173 183 173 93 91 12 159 164 169
split_gain=145.466 45.5436 31.3853 15.6551 13.644 12.1781 10.9558 8.01335 7.70662 7.32545 6.51555 5.46709 6.12611
threshold=1917.5000000000002 256.50000000000006 205.50000000000003 0.088500000000000009 434.50000000000006 30.500000000000004 304.50000000000006 0.093500000000000014 6.5000000000000009 1.5000000000000002 52.500000000000007 85.750000000000014 0.13392857142857142
decision_type=2 2 2 2 2 2 2 2 2 2 2 2 2
left_child=1 3 6 -1 -4 -5 -2 10 -9 -6 -3 -8 -13
right_child=2 7 4 5 9 -7 11 8 -10 -11 -12 12 -14
leaf_value=-0.0026118532637271715 -0.0041613978860540971 -0.0020856069449319433 0.0023158166686252386 -0.011224531286054077 0.0042794207073149643 -0.0060393364250069933 -9.809642535523998e-05 -0.010811715609379704 -0.0020585394235588914 0.0073416552079500364 0.0015662310497195132 0.0060575723597512251 -0.0007051325482813844
leaf_weight=128 66 100 229 85 208 225 147 14.999999999999998 155 218 198 52 28
leaf_count=128 66 100 229 85 208 225 147 15 155 218 198 52 28
internal_value=0 -0.00334203 0.00319336 -0.00604497 0.00461265 -0.00746196 2.01235e-05 -0.000812004 -0.00283251 0.00584695 0.000340395 0.00123657 0.00368974
internal_weight=0 906 948 438 655 310 293 468 170 426 298 227 80
internal_count=1854 906 948 438 655 310 293 468 170 426 298 227 80
is_linear=0
shrinkage=0.0116629


Tree=64
num_leaves=14
num_cat=0
split_feature=119 8 62 157 94 99 52 137 149 157 171 12 61
split_gain=171.129 36.1491 19.5859 14.8997 13.9893 10.1327 9.86344 8.79796 8.05893 7.98591 7.63143 6.68764 6.59674
threshold=326.50000000000006 3.5000000000000004 281.35658437998512 1481.5000000000002 0.31609527991479208 13.500000000000002 4.830668717288412 84.125000000000014 268.16071428571433 2473.5000000000005 90.500000000000014 1.5000000000000002 2385.8042141277533
decision_type=2 2 2 2 2 2 2 2 2 2 2 2 2
left_child=1 10 4 5 9 -3 12 -6 -5 -2 -1 -11 -4
right_child=2 3 6 8 7 -7 -8 -9 -10 11 -12 -13 -14
