tree
version=v3
num_class=1
num_tree_per_iteration=1
label_index=0
max_feature_idx=191
objective=binary sigmoid:1
feature_names=0 1 2 3 4 5 6 7 8 9 10 11 12 13 14 15 16 17 18 19 20 21 22 23 24 25 26 27 28 29 30 31 32 33 34 35 36 37 38 39 40 41 42 43 44 45 46 47 48 49 50 51 52 53 54 55 56 57 58 59 60 61 62 63 64 65 66 67 68 69 70 71 72 73 74 75 76 77 78 79 80 81 82 83 84 85 86 87 88 89 90 91 92 93 94 95 96 97 98 99 100 101 102 103 104 105 106 107 108 109 110 111 112 113 114 115 116 117 118 119 120 121 122 123 124 125 126 127 128 129 130 131 132 133 134 135 136 137 138 139 140 141 142 143 144 145 146 147 148 149 150 151 152 153 154 155 156 157 158 159 160 161 162 163 164 165 166 167 168 169 170 171 172 173 174 175 176 177 178 179 180 181 182 183 184 185 186 187 188 189 190 191
feature_infos=[428:8666] [0:4567] [3:6100] [0:42] [0:37] [366:8621] [85:3999] [1:166] [0:159] [0:1125] [0:59] [0:38] [0:48] [0:25] [0:99] [0:44] [0:34] [0:44] [0:17] [343:7009] [78:2483] [0:5261] [0:3549] [0:4579] [1:1328] [0:2170] [0:91] [0:130] [0:2174] [0:2189] [0:566] [0:158] [0:46] [0:326] none [342:7009] [78:2483] [0:5261] [0:3549] [0:4579] [1:1328] [0:2170] [0:91] [0:130] [0:2174] [0:2189] [0:566] [0:158] [0:46] [0:326] none [79:3445] [2.7324840764331211:30.759656652360515] [10:2818] [1.8302558051784696:189.6621826870807] [1:6] [0.49714616757051278:36.610402599407479] [13452:1210508] [116852.14595660748:3157276.5539733577] [116938.70414201183:3157388.2604501606] [8.423293675641828:282.61244695898159] [136.38839285714286:3734.2466999445369] [33.28720238095238:643.86733222407099] [63626.783202252162:1545223.3443937181] [63631.924177016808:1545218.0259529904] [17.171909289612294:6854.3294468022177] [114.68810687633176:2240.0041909307038] [20.825360793367132:376.97290108547458] [111961:3529205] [112032:3529271] [0:203] [100.5:3731] [33:788.5] [106:872805] [252:872921] [0:32] none none [229452:5405033] [229548:5405146] [153:447470] [396:7592] [72:1296] [111961:3529205] [112032:3529271] [0:203] [101:3731] [33:789] [3:7] [6:36] [6:36] [4:64] [2.9900000000000002:1230.7280000000001] [0:0.42499999999999999] [0.068888888888888597:1.6610000000000007] [0.18401149997754451:30.76267351292498] [137.4860000000001:2460.7949999999942] [7:458] [3:198] [1:82] [0:103] [0:66] [0:93] [9.8958333333333339:982.5] [8.7308110170459123:966.86727803423639] [2:182] [1:982.5] [37:4536] [1:4536] [1:1784] [1:132.36363636363637] [0:424.09698719214521] [1:8] [1:2939] [1:125] [1:453] [0.30173092053501183:133.39731643682444] [6:1683] [17:2983] [72:1305] [3.7640449438202248:6.0294117647058822] none [9:47] [1:19] [1:19] [2:3] [3:5.5] [4:8] [318:6205] [1:76] [37.878787878787882:1316] [1:1316] [76:1723] [3:1494] [1:1316] [11:1316] [35:1316] [48:1316] [383:7437] [7.5151515151515156:234] [1:234] [14:305] [1:271] [1:234] [3:234] [7:234] [9:234] [72:1305] [1:23] [69.5:3117] [1:3117] [163:3872] [4:3117] [1:3117] [1:3117] [17.5:3117] [71:3117] [396:7584] [12.77777777777778:615.33333333333337] [1:609] [28:1703] [1:609] [1:1703] [1:609] [8:609] [13:893] [72:2216] [0.027027027027027001:1] [-1:0.94594594594594605] [0.027027027027027001:1] [0:565] [0:1085] [0:302] [72:1303] [0:1] [0:1] [0:1] [0:4.4358974358974361] [0:161.5] [0:399] [0.352426894043181:5.6750517349004781] [0.1160472319008904:1.6566068515497554] [8:258] [2:155] [0.10835578584918359:0.87018656686430029] [0.10835578584918359:0.87018656686430029] [3.0426406250000002:182.96225000000001] [2.6070000000000002:65.813999999999993] [15.727188065399501:891.45599380389433] [0:8927] [0:6725] [1:4703]
tree_sizes=2366 2518 2513 2499 2510 2525 2517 2515 2517 2511 2494 2521 2509 2527 2515 2520 2510 2513 2526 2494 2527 2517 2511 2509 2517 2513 2513 2513 2515 2512

Tree=0
num_leaves=22
num_cat=0
split_feature=5 174 173 127 22 136 96 84 22 183 8 187 120 56 159 54 32 65 163 142 129
split_gain=304.598 71.3875 57.4142 46.7249 41.7241 31.6635 28.3784 24.0791 23.8102 26.8221 23.7277 21.2533 15.6065 12.5041 11.8306 9.25434 7.20199 15.2669 4.90635 3.78381 3.38456
threshold=1271.5000000000002 0.62160377358490571 261.50000000000006 5.8750000000000009 39.500000000000007 55.250000000000007 1064.6714999999981 646950.00000000012 5.5000000000000009 50.500000000000007 1.5000000000000002 3.9272500000000004 4.097852596151502 1.38113500567532 51.500000000000007 4.7349116283957144 1.5000000000000002 47.813136963486151 17.500000000000004 42.500000000000007 17.500000000000004
decision_type=2 2 2 2 2 2 2 2 2 2 2 2 2 2 2 2 2 2 2 2 2
left_child=1 3 5 4 14 -2 13 -8 -9 -10 -5 -12 -4 -7 -1 18 17 -13 -14 -20 -15
right_child=2 -3 12 10 -6 6 7 8 9 -11 11 16 15 20 -16 -17 -18 -19 19 -21 -22
leaf_value=-2.3519046008989366 -2.3520688827849665 -2.3519366294246757 -2.352190796735472 -2.3520781442689693 -2.3522014519964021 -2.3522044618685989 -2.3523023999569865 -2.3520219451032434 -2.3521091515724186 -2.3523023999569865 -2.3521326423643782 -2.3521392893075506 -2.3522331646709964 -2.3522989127882541 -2.3520474899274406 -2.352222452593562 -2.3523026182039537 -2.3523023438385855 -2.3522998930355477 -2.3522492704438021 -2.3522447965508273
leaf_weight=1.5867386758327513 1.5867386758327509 2.5387818813323966 1.9834233447909344 1.9834233447909344 1.8247494772076605 3.0148034840822246 1.7454125434160221 1.5867386758327482 2.3007710799574852 1.745412543416023 2.6181188151240331 1.5867386758327486 1.5867386758327473 9.4410951212048513 1.745412543416023 2.3007710799574843 2.8561296164989471 1.5867386758327482 97.425754696130753 2.062760278582572 1.904086410999297
leaf_count=20 20 32 25 25 23 38 22 20 29 22 33 20 20 119 22 29 36 20 1228 26 24
internal_value=-2.35226 -2.35212 -2.35228 -2.35215 -2.35206 -2.35223 -2.35224 -2.35218 -2.35214 -2.35219 -2.35219 -2.35222 -2.35229 -2.35227 -2.35198 -2.3523 -2.35226 -2.35222 -2.3523 -2.3523 -2.35229
internal_weight=0 18.3268 128.685 15.788 5.1569 23.3251 21.7383 7.37833 5.63292 4.04618 10.6311 8.64773 105.359 14.36 3.33215 103.376 6.02961 3.17348 101.075 99.4885 11.3452
internal_count=1853 231 1622 199 65 294 274 93 71 51 134 109 1328 181 42 1303 76 40 1274 1254 143
is_linear=0
shrinkage=1


Tree=1
num_leaves=22
num_cat=0
split_feature=27 171 87 178 22 181 156 150 131 2 95 146 106 149 52 187 153 95 152 187 120
split_gain=283.445 88.0781 74.9018 49.6162 39.2976 34.4296 28.8193 27.4242 27.7973 25.3039 25.2221 16.2789 13.154 12.0629 18.6907 11.2195 8.21035 7.40665 6.04691 5.10387 3.39702
threshold=2.5000000000000004 131.50000000000003 125.50000000000001 0.072299651567944212 10.500000000000002 0.85503744019725281 335.12500000000006 89.500000000000014 34.500000000000007 51.500000000000007 2.8598008102989341 14.125000000000002 20.250000000000004 340.81250000000006 4.410177817652337 4.2010000000000014 511.50000000000006 2.5901538133986164 353.50000000000006 3.2050000000000005 4.3936087401636819
decision_type=2 2 2 10 2 2 2 2 2 2 2 2 2 2 2 2 2 2 2 2 2
left_child=1 3 4 -1 9 10 -3 8 -6 -2 -5 15 -8 14 -13 -4 20 -11 -16 -15 -9
right_child=2 6 11 5 7 -7 12 16 -10 17 -12 13 -14 19 18 -17 -18 -19 -20 -21 -22
leaf_value=0.00037124252518601992 0.00022696387849307925 0.00018314849153694318 0.00012287941551841967 1.3280916340484513e-06 0.0001853858938589725 0.00029663055440831888 9.9404046189825618e-05 2.9005587963531382e-05 -1.6700667201445344e-05 5.5391664326295314e-06 0.00020446384963313305 0.00012288643358224216 -2.9837519021187949e-05 2.9010251807896652e-05 -3.0447146574604835e-05 -1.6700114864933418e-05 6.5328958761981735e-05 0.00011515566186849338 4.803778974178194e-05 -3.8000111248244011e-05 -2.9421267447296519e-05
leaf_weight=2.6187416836619359 2.2217331081628826 1.8249274343252171 1.586799651384353 1.7454995736479761 2.3008652180433304 1.9837299510836599 1.5868812799453733 1.5868440493941296 1.5867861956357954 1.5868170708417895 1.6663045138120649 1.5867333710193623 3.4908975809812546 1.5867441818118084 7.2989558726549131 1.5867553725838659 1.7455374225974072 1.9042203575372694 1.6660887300968168 93.932388156652451 9.9170760437846166
leaf_count=33 28 23 20 22 29 25 20 20 20 20 21 20 44 20 92 20 22 24 21 1184 125
internal_value=0 0.000153884 -1.73778e-05 0.000237907 4.3924e-05 0.000173004 5.61872e-05 1.566e-05 0.000102654 0.000128537 0.000100828 -3.02088e-05 1.03623e-05 -3.27012e-05 5.00486e-06 5.27862e-05 -9.79309e-06 6.56118e-05 -1.57521e-05 -3.68767e-05 -2.1277e-05
internal_weight=0 14.917 132.094 8.01428 22.8499 5.39553 6.90271 17.1371 3.88765 5.71277 3.4118 109.244 5.07778 106.071 10.5518 3.17356 13.2495 3.49104 8.96504 95.5191 11.5039
internal_count=1853 188 1665 101 288 68 87 216 49 72 43 1377 64 1337 133 40 167 44 113 1204 145
is_linear=0
shrinkage=3.72423e-05


Tree=2
num_leaves=22
num_cat=0
split_feature=5 27 173 166 171 93 179 127 96 1 187 30 164 175 99 143 65 56 93 9 40
split_gain=304.493 94.2459 57.4084 41.4022 41.2705 30.3644 29.9656 27.7087 17.912 31.3438 17.7589 15.1926 13.567 12.1395 14.876 7.34234 7.32959 3.87165 3.81672 7.13569 5.3708
threshold=1271.5000000000002 2.5000000000000004 261.50000000000006 273.50000000000006 126.50000000000001 0.10525000000000001 1.5506933393953173 5.8750000000000009 1116.5999999999983 261.50000000000006 3.8572500000000005 8.5000000000000018 34.500000000000007 0.30949056240369804 17.500000000000004 14.500000000000002 47.308117140108365 1.3156206509998196 0.092500000000000013 16.500000000000004 11.500000000000002
decision_type=2 2 2 2 2 2 8 2 2 2 2 2 2 2 2 2 2 2 2 2 2
left_child=1 4 3 5 6 17 -1 -3 11 -10 -9 -7 -4 14 -14 -8 -12 -2 -15 20 -20
right_child=2 7 12 -5 -6 8 15 10 9 -11 16 -13 13 18 -16 -17 -18 -19 19 -21 -22
leaf_value=0.00019342146806224837 2.9005745271263754e-05 0.00017215463747376233 7.5941510355340749e-05 0.00017217682984599123 0.00011020548233991973 -1.2932041151581408e-05 0.00031044613985878398 0.00012767132821699443 2.2656596585226717e-05 0.00024914127542422773 4.4180292295107654e-05 0.00012287027185470709 -4.0224509941677169e-05 -3.9822005969621267e-05 0.00011509066651764744 0.00042774382234498211 -4.0469485500528108e-05 -3.3296311705249442e-05 1.2279852955036639e-05 3.9724190853861491e-05 -3.8435646432963711e-05
leaf_weight=2.3809193372726458 1.5868407040834487 2.618725158274172 1.5868262127041806 2.6184576600790015 2.4599464014172554 4.0461905971169454 1.5875887647271159 1.9838062301278112 1.7456520795822146 1.6664131358265875 2.6183608695864677 1.5868860408663747 1.7453156113624566 78.301155656576157 1.6660961136221883 1.587534002959728 3.094193197786808 10.075662858784197 3.4906875863671365 2.3007274642586699 16.263327732682228
leaf_count=30 20 33 20 33 31 51 20 25 22 21 33 20 22 987 21 20 39 127 44 29 205
internal_value=0 0.000142007 -2.02297e-05 3.26151e-05 0.000237847 1.49196e-05 0.00029418 6.74321e-05 6.61568e-05 0.00013356 3.16707e-05 2.51539e-05 -3.19391e-05 -3.35983e-05 3.53459e-05 0.000369417 -1.49948e-06 -2.47355e-05 -3.59517e-05 -2.21666e-05 -2.94245e-05
internal_weight=0 18.3311 128.68 23.3261 8.01599 20.7076 5.55604 10.3151 9.04514 3.41207 7.69636 5.63308 105.354 103.767 3.41141 3.17512 5.71255 11.6625 100.356 22.0547 19.754
internal_count=1853 231 1622 294 101 261 70 130 114 43 97 71 1328 1308 43 40 72 147 1265 278 249
is_linear=0
shrinkage=3.72423e-05


Tree=3
num_leaves=22
num_cat=0
split_feature=5 27 128 157 98 7 147 73 22 118 51 166 22 117 98 149 27 99 114 20 117
split_gain=304.44 94.204 59.4198 52.8116 46.4022 32.2911 21.8363 19.7093 26.5625 18.093 15.1738 12.9672 10.8 9.89462 14.4112 8.56326 8.97642 13.7065 7.60937 3.49569 2.14825
threshold=1271.5000000000002 2.5000000000000004 1262.5000000000002 1162.5000000000002 47.500000000000007 25.500000000000004 211.50000000000003 4449.5000000000009 2.5000000000000004 63.500000000000007 348.50000000000006 210.50000000000003 12.500000000000002 65.500000000000014 79.500000000000014 216.73333333333335 3.5000000000000004 21.500000000000004 3.5000000000000004 292.50000000000006 114.50000000000001
decision_type=2 2 2 2 2 2 2 2 2 2 2 2 2 2 2 2 2 2 10 2 2
left_child=1 3 4 11 12 6 -6 -3 -9 -5 -7 -1 -2 14 19 -4 17 -17 -10 -8 -14
right_child=2 7 15 9 5 10 13 8 18 -11 -12 -13 20 -15 -16 16 -18 -19 -20 -21 -22
leaf_value=0.00040898973351820262 6.5331783929755097e-05 0.00014913600273926069 5.2470877763628001e-05 9.292360071323014e-05 0.00016270395886926962 0.0002636367022573653 -2.1518028495740232e-05 0.00016976035979456044 -3.1153066130218466e-05 0.00024904048440881787 9.9402922954250686e-05 0.00026350231451607642 -4.0684603775891255e-05 -2.9317021819976226e-05 0.00014631876803348297 -4.0399856369395946e-05 -3.689885487715138e-05 9.014733957933495e-05 6.0714998640505727e-05 5.2471885631366291e-05 5.5414346978189267e-06
leaf_weight=1.9849352389574071 1.7454927638173128 2.9361318498849851 1.5868764519691456 2.7778921872377396 1.8252664133906353 1.5870584324002259 1.9835343286395057 1.5872054174542425 3.9674315303564072 1.6669842228293417 1.5868935883045194 1.587749660015106 9.6786764040589315 3.3323980495333672 1.587036646902561 2.538620524108409 96.069108486175537 1.9835188612341879 1.8248906061053274 1.5868600457906721 1.5867459774017323
leaf_count=25 22 37 20 35 23 20 25 20 50 21 20 20 122 42 20 32 1211 25 23 20 20
internal_value=0 0.000141985 -2.02292e-05 0.000237791 2.94454e-05 7.78603e-05 4.57695e-05 6.74259e-05 3.47812e-05 0.000151698 0.000181839 0.000344619 -2.06741e-05 2.05122e-05 5.28974e-05 -3.31219e-05 -3.4482e-05 1.6647e-05 -2.04082e-06 1.10948e-05 -3.40872e-05
internal_weight=0 18.3332 128.678 8.01756 26.5 13.489 10.3151 10.3157 7.37953 4.44488 3.17395 3.57268 13.0109 8.48983 5.15743 102.178 100.591 4.52214 5.79232 3.57039 11.2654
internal_count=1853 231 1622 101 334 170 130 130 93 56 40 45 164 107 65 1288 1268 57 73 45 142
is_linear=0
shrinkage=3.72423e-05


Tree=4
num_leaves=22
num_cat=0
split_feature=19 93 10 132 157 60 22 95 93 92 154 22 70 171 35 143 156 64 30 164 135
split_gain=326.306 70.1187 53.1757 44.8664 42.4153 26.5486 25.927 22.6953 20.0107 19.9587 17.5935 35.2473 14.9054 11.4777 16.8172 11.0444 10.158 8.10667 6.37074 5.13933 4.35105
threshold=1113.5000000000002 0.092500000000000013 1.0000000180025095e-35 147.50000000000003 1162.5000000000002 108.29321545809405 29.500000000000004 2.7513288565192364 0.15150000000000002 99.049000000000021 229.12500000000003 18.500000000000004 98.250000000000014 96.500000000000014 1285.5000000000002 17.500000000000004 471.25000000000006 430571.53227906686 16.500000000000004 37.500000000000007 42.625000000000007
decision_type=2 2 2 2 2 2 2 2 2 2 2 2 2 2 2 2 2 2 2 2 2
left_child=2 19 4 10 -1 8 12 13 -6 -9 -3 -12 -4 14 -5 -11 -13 -8 20 -2 -15
right_child=1 3 6 7 5 -7 17 9 -10 15 11 16 -14 18 -16 -17 -18 -19 -20 -21 -22
leaf_value=0.00034146715564562191 2.9005042355396562e-05 0.00018532175102322024 0.00021765169171859982 -4.022509018543053e-05 0.00019316236461852835 0.00028698466729899823 -4.0225781563509991e-05 0.00017196543545805026 5.5209676429741704e-06 -2.6188920644658955e-05 0.00021668077147258416 -4.0374712382997275e-05 7.0339730648565744e-05 2.9010269052498561e-05 0.00011519988322206534 9.0131987656748156e-05 6.8320280050574903e-05 7.5914970234101345e-05 4.3992449837475566e-05 -3.8266251476647451e-05 -3.4866192105343759e-05
leaf_weight=3.0175705477595312 1.5868557542562474 2.3015057817101461 2.3017812818288808 1.7455250099301367 1.5876047387719157 1.5876136049628256 1.7457740157842638 1.7458053603768338 1.5873878374695776 2.6182740703225136 1.5872264578938482 2.3802504315972328 1.6667997762560842 1.5867437645793021 2.1424291059374809 1.9837441220879553 2.3803509250283241 1.5871743485331533 1.7455874085426319 89.085692897439003 19.039606221020222
leaf_count=38 20 29 29 22 20 20 22 22 20 33 20 30 21 20 27 25 30 20 22 1123 240
internal_value=0 -1.87598e-05 0.000164103 2.14756e-05 0.00023193 0.000162315 9.16933e-05 1.44292e-06 9.96593e-05 6.46634e-05 9.68845e-05 6.46633e-05 0.000156031 -1.38026e-05 4.51713e-05 2.3742e-05 1.37698e-05 1.479e-05 -2.40953e-05 -3.70782e-05 -2.99049e-05
internal_weight=0 131.93 15.0817 41.257 7.78018 4.76261 7.30153 32.6077 3.17499 6.34782 8.64933 6.34783 3.96858 26.2599 3.88795 4.60202 4.7606 3.33295 22.3719 90.6725 20.6263
internal_count=1853 1663 190 520 98 60 92 411 40 80 109 80 50 331 49 58 60 42 282 1143 260
is_linear=0
shrinkage=3.72423e-05


Tree=5
num_leaves=22
num_cat=0
split_feature=128 48 128 98 174 177 92 117 3 38 161 61 143 156 56 93 127 144 59 94 179
split_gain=297.377 82.8591 56.2953 51.007 42.7525 42.4626 35.9279 38.5439 23.0607 28.1469 16.457 14.2255 11.7139 10.7724 16.0874 9.71557 7.5168 6.21328 5.40413 3.28246 6.65222
threshold=1020.5000000000001 1.0000000180025095e-35 1262.5000000000002 47.500000000000007 0.21932654216185624 0.79944134078212303 53.214500000000008 45.500000000000007 1.0000000180025095e-35 31.500000000000004 68.500000000000014 758.1459123729345 19.500000000000004 353.25000000000006 1.7646576081794758 0.15750000000000003 5.1250000000000009 24.125000000000004 929886.21973567328 0.31525152770071679 0.9102219835302543
decision_type=2 2 2 2 2 10 2 2 2 2 2 2 2 2 2 2 2 2 2 2 8
left_child=1 4 3 16 -1 12 11 -8 9 10 -3 18 -6 14 -4 -11 -2 19 -5 -15 -21
right_child=2 8 13 6 5 -7 7 -9 -10 15 -12 -13 -14 17 -16 -17 -18 -19 -20 20 -22
leaf_value=4.8005080127682327e-05 5.2470070330656078e-05 9.5033584961559453e-05 0.00011507662144182876 -3.0082161987866054e-05 0.00027977343498324835 0.00013473448075681407 0.00025740479551383301 6.0345846319588011e-05 -2.7023803329287777e-05 -4.0249582835424631e-05 0.00024016306105510292 0.00012284684702221294 0.00040518037564496212 -4.0293204313750761e-05 -4.0311099509931505e-05 8.1083660931574643e-05 -3.3991380187747949e-05 2.5838136021404557e-05 5.2462328127640341e-05 4.803072617896751e-05 -2.9759062185461717e-05
leaf_weight=1.6666742041707054 1.5868896096944833 2.4605312719941121 1.6662422567605966 3.5705575197935087 3.0174554660916328 2.5404832288622856 2.6193688735365868 2.9362873435020447 2.7770792022347441 1.8249030038714411 1.9847729429602621 1.5871074348688123 1.6678522676229475 77.659403398633003 2.0627533048391342 1.8254357948899267 11.106639519333838 2.2212988808751097 1.5870155617594717 1.6662150993943239 16.976326160132885
leaf_count=21 20 31 21 45 38 32 33 37 35 23 25 20 21 979 26 23 140 28 20 21 214
internal_value=0 0.000134395 -2.08758e-05 2.9207e-05 0.000218758 0.000258007 8.32703e-05 0.000153434 6.53063e-05 9.70988e-05 0.000160057 2.53291e-05 0.000324634 -3.31273e-05 2.8862e-05 2.01599e-05 -2.31052e-05 -3.54834e-05 -4.49318e-06 -3.6908e-05 -2.27539e-05
internal_weight=0 19.7652 127.246 24.9939 8.89247 7.22579 12.3003 5.55566 10.8727 8.09564 4.4453 6.74468 4.68531 102.252 3.729 3.65034 12.6935 98.5232 5.15757 96.3019 18.6425
internal_count=1853 249 1604 315 112 91 155 70 137 102 56 85 59 1289 47 46 160 1242 65 1214 235
is_linear=0
shrinkage=3.72423e-05


Tree=6
num_leaves=22
num_cat=0
split_feature=19 38 148 22 120 118 102 47 120 93 89 22 138 26 184 72 147 46 137 184 171
split_gain=326.184 59.2538 51.2158 42.8422 41.1517 39.5006 38.5662 30.0399 28.1413 23.9965 15.298 15.0857 14.43 24.9302 11.5356 5.83852 8.78596 5.06049 4.54313 4.28823 3.45001
threshold=1113.5000000000002 10.500000000000002 2.5000000000000004 37.500000000000007 4.5183045080305364 72.500000000000014 20.500000000000004 18.500000000000004 4.0798923923923924 0.092500000000000013 13.500000000000002 6.5000000000000009 1497.5000000000002 23.500000000000004 0.50624711407393097 172.50000000000003 329.50000000000006 9.5000000000000018 106.75000000000001 0.66537105456734202 173.50000000000003
decision_type=2 2 2 2 2 2 2 2 2 2 2 2 2 2 2 2 2 2 2 2 2
left_child=2 5 -1 4 6 -2 -4 -7 -3 -10 -5 -6 13 14 -11 16 20 19 -9 -16 -14
right_child=1 8 3 10 11 7 -8 18 9 12 -12 -13 15 -15 17 -17 -18 -19 -20 -21 -22
leaf_value=0.00031393348385827221 0.00018041605241498365 0.00011514394630159961 0.00034502775728879897 -2.525233431756787e-05 0.00016963940112292447 0.00012948842626996749 0.00013247834644631445 2.3519027317948952e-05 -3.9462332727006533e-05 9.9364944651304479e-05 0.00012281300386629072 1.5027755637277476e-05 1.4081897005200047e-05 0.0001541957386107478 -4.0599139950713726e-05 -3.7594724347507986e-05 7.1378822710913643e-05 4.8019842504874759e-05 -4.0569019304546789e-05 2.9004694760703868e-05 -4.0533547728819121e-05
leaf_weight=2.6218520849943152 2.857625149190425 1.9043595939874638 2.7001342102885229 2.4602265208959571 1.5880996137857439 2.6187845095992071 2.1436789557337761 2.3013647049665451 85.193295828998089 1.5873108804225911 1.587427385151386 1.9842303544282911 2.6972780451178568 1.9049131199717511 5.2364907041192037 11.978575333952902 1.9834168478846548 1.6664098873734472 4.521837905049324 1.5868631973862646 3.8871078193187714
leaf_count=33 36 24 34 31 20 33 27 29 1074 20 20 25 34 24 66 151 25 21 57 20 49
internal_value=0 -1.8759e-05 0.000164048 0.000132438 0.000180347 5.90547e-05 0.00025117 2.22193e-05 -2.67678e-05 -2.90719e-05 3.25783e-05 8.40379e-05 -1.82892e-06 3.06199e-05 7.16135e-06 -2.07995e-05 2.56828e-06 -9.96441e-06 -1.88103e-05 -2.42688e-05 -1.80127e-05
internal_weight=0 131.926 15.0856 12.4638 8.41614 12.2996 4.84381 9.44199 119.626 117.722 4.04765 3.57233 32.5284 11.982 10.0771 20.5464 8.5678 8.48976 6.8232 6.82335 6.58439
internal_count=1853 1663 190 157 106 155 61 119 1508 1484 51 45 410 151 127 259 108 107 86 86 83
is_linear=0
shrinkage=3.72423e-05


Tree=7
num_leaves=22
num_cat=0
split_feature=19 27 38 2 93 38 155 179 128 132 138 93 128 128 73 159 176 67 164 159 38
split_gain=326.12 106.296 59.2487 51.239 29.1193 24.5661 23.2288 20.1276 18.9341 17.2874 17.1468 15.822 19.8887 11.107 9.41195 8.57297 7.32707 4.59043 2.81483 1.69643 3.69687
threshold=1113.5000000000002 2.5000000000000004 10.500000000000002 62.500000000000007 0.16975000000000004 33.500000000000007 147.50000000000003 2.1802777777777784 1262.5000000000002 120.50000000000001 1141.5000000000002 0.10050000000000002 1020.5000000000001 1106.0000000000002 1377.5000000000002 47.500000000000007 0.34598733676296006 73.803441956164576 59.750000000000007 12.500000000000002 39.500000000000007
decision_type=2 2 2 2 2 2 2 8 2 2 2 2 2 2 2 2 2 2 2 2 2
left_child=1 4 3 15 10 7 -4 -3 13 -8 -1 19 -13 -5 -14 -2 17 -16 -7 20 -11
right_child=2 5 6 8 -6 18 9 -9 -10 11 -12 12 14 -15 16 -17 -18 -19 -20 -21 -22
leaf_value=0.00038610666708884992 0.00011502052471319132 4.961364101934128e-05 0.00010795383511266094 1.9361106895752036e-05 0.00015971892667975983 2.8988739624470845e-05 6.0347511147814074e-05 0.00020089058810677279 -4.0576197349033964e-05 2.9017426131536145e-05 0.00024001821089655672 0.0001228305757577615 5.935813291550141e-05 0.00014626544951768913 1.7499538889494578e-05 0.00023235922663253247 4.2588417494396042e-05 -3.6122404754150122e-05 -4.0199272435730543e-05 -3.9870382146526442e-05 -3.4527669137533024e-05
leaf_weight=2.701995037496089 1.6668261438608163 2.4609206542372686 1.7460283786058415 2.4604375287890417 2.2238857001066208 1.5872050300240519 2.9362409487366667 2.46141067892313 4.680327944457531 1.5865904763340939 1.9857814162969587 1.5872612595558191 2.2215078175067928 1.5874789282679556 2.5390768200159135 1.905141122639179 2.2216695323586455 16.182981252670288 1.6664916947484014 82.494098171591759 6.1079180836677551
leaf_count=34 21 31 22 31 28 20 37 31 59 20 25 20 28 20 32 24 28 204 21 1040 77
internal_value=0 0.00016402 -1.87586e-05 5.90497e-05 0.000271584 7.29678e-05 -2.67674e-05 0.000125461 1.03041e-05 -2.87713e-05 0.000324439 -3.10565e-05 -4.63646e-06 6.93734e-05 -1.34131e-05 0.000177884 -2.11788e-05 -2.87981e-05 -6.14918e-06 -3.82967e-05 -2.1298e-05
internal_weight=0 15.0877 131.924 12.3002 6.91166 8.17603 119.623 4.92233 8.72824 117.877 4.68778 114.941 24.7525 4.04792 23.1652 3.57197 20.9437 18.7221 3.2537 90.1886 7.69451
internal_count=1853 190 1663 155 87 103 1508 62 110 1486 59 1449 312 51 292 45 264 236 41 1137 97
is_linear=0
shrinkage=3.72423e-05


Tree=8
num_leaves=22
num_cat=0
split_feature=8 157 82 1 98 182 179 161 132 7 22 127 102 104 93 155 112 157 1 54 176
split_gain=267.88 108.231 80.3518 48.228 36.3021 27.8442 30.0584 23.2217 15.6298 13.7001 12.7716 11.7105 11.6409 10.8957 13.6625 10.5075 21.5008 8.9924 6.81293 6.75602 2.50096
threshold=3.5000000000000004 1162.5000000000002 255.50000000000003 147.50000000000003 48.500000000000007 72.500000000000014 10.368727050183603 72.500000000000014 200.50000000000003 20.500000000000004 7.5000000000000009 5.1250000000000009 18.500000000000004 44.701654020603719 0.14650000000000002 281.25000000000006 1.2500000000000002 1202.0000000000002 157.50000000000003 4.7349116283957144 0.31876047393643608
decision_type=2 2 2 2 2 2 8 2 2 2 2 2 2 2 2 2 8 2 2 2 2
left_child=1 8 4 7 10 -6 17 12 -1 -8 -2 -12 -3 14 -5 16 -4 -7 -19 20 -17
right_child=2 3 15 13 5 6 9 -9 -10 -11 11 -13 -14 -15 -16 19 -18 18 -20 -21 -22
leaf_value=0.00024967116624901713 9.2641865095985512e-05 0.00016511460068040765 0.00012191796050868986 0.00014625416001471539 0.00022665185235336158 8.6590181529322874e-05 7.2036561218321191e-05 0.00025574658081763005 0.00040362840083883836 0.00020142474023721103 7.5898879288819826e-05 -3.3052395724451161e-05 2.8967578181501085e-05 -2.9036113675810225e-05 -1.1747766484738156e-06 -3.8674140322735598e-05 -3.1520858246251177e-05 5.2433665284875175e-05 -4.0506466829719692e-05 3.0956371246360401e-05 -1.6204148702429953e-05
leaf_weight=2.3044212013483079 1.6672781929373766 1.9847529456019386 1.8250664100050915 1.5875725969672205 1.6672875508666027 1.7465017586946459 2.3019055277109155 2.3828111365437508 1.5898633748292921 2.3022313266992569 1.5873854458332051 9.7580313608050329 1.5876586884260175 3.2528155893087387 1.9048912301659582 88.678467437624931 4.1253016963601112 1.5874820724129675 3.4916527941823006 2.0628062561154357 7.6150832548737517
leaf_count=29 21 25 23 20 21 22 29 30 20 29 20 123 20 41 24 1118 52 20 44 26 96
internal_value=0 0.000140932 -1.7933e-05 8.81573e-05 4.04785e-05 8.42532e-05 6.33934e-05 0.000165416 0.000312788 0.000136951 -3.50567e-06 -1.7722e-05 0.000104884 1.98017e-05 6.55666e-05 -3.25637e-05 1.53793e-05 1.36317e-05 -1.12657e-05 -3.54741e-05 -3.69073e-05
internal_weight=0 16.5948 130.416 12.7005 26.1098 13.0971 11.4298 5.95522 3.89428 4.60414 13.0127 11.3454 3.57241 6.74528 3.49246 104.307 5.95037 6.82564 5.07913 98.3564 96.2936
internal_count=1853 209 1644 160 329 165 144 75 49 58 164 143 45 85 44 1315 75 86 64 1240 1214
is_linear=0
shrinkage=3.72423e-05


Tree=9
num_leaves=22
num_cat=0
split_feature=19 93 32 132 43 3 102 22 95 162 85 92 177 73 139 161 5 164 72 73 103
split_gain=326.001 70.1055 53.0744 44.8439 44.4064 30.3767 26.4725 25.8919 22.6857 20.3541 44.4972 19.946 17.1265 14.1844 8.10465 7.72868 7.2157 5.13864 5.05805 8.35649 2.17385
threshold=1113.5000000000002 0.092500000000000013 1.0000000180025095e-35 147.50000000000003 2.5000000000000004 1.0000000180025095e-35 21.500000000000004 29.500000000000004 2.7513288565192364 72.500000000000014 87.500000000000014 99.049000000000021 0.70717010577423289 5463.5000000000009 15.893796992481205 88.500000000000014 1422.5000000000002 37.500000000000007 116.25000000000001 1468.0000000000002 31.212606837606838
decision_type=2 2 2 2 2 2 2 2 2 2 2 2 10 2 2 2 2 2 2 2 2
left_child=2 17 4 5 6 9 -1 13 12 10 -3 -10 18 -4 -9 -14 -13 -2 -5 -20 -19
right_child=1 3 7 8 -6 -7 -8 14 11 -11 -12 16 15 -15 -16 -17 -18 20 19 -21 -22
leaf_value=0.00036724384556966556 2.8998807176160278e-05 0.00022141903139868521 0.00023565007121683788 2.8284487467442445e-05 0.00011933632732189842 -1.10677765446903e-05 0.0001817807112416104 7.5890322872326199e-05 0.00017188643088692881 0.00024016011894172065 -2.2951887725299087e-05 -4.0170797849413283e-05 0.00012281527538179036 9.276251153994402e-05 -4.0226385971688798e-05 1.2901626793861877e-05 5.7698853561349106e-05 3.34372045011005e-06 4.8035568503894666e-05 -3.8752399332329774e-05 -3.9069405923433926e-05
leaf_weight=3.1007110029458982 1.5869893357157696 1.984634280204771 1.7477172389626505 2.1425809860229554 3.0173656344413757 2.5391301438212395 1.6687640175223348 1.5874977335333826 1.7464411184191693 1.9847934097051618 2.1428637802600861 1.5874302387237547 1.5874059051275247 2.2234787121415138 1.7459915056824682 2.0628708377480507 3.0152275338768959 1.6658022254705418 1.6661284342408205 18.800312593579292 87.407119549810886
leaf_count=39 20 25 22 27 38 32 21 20 22 25 27 20 20 28 22 26 38 21 21 237 1102
internal_value=0 -1.87579e-05 0.000163967 2.14712e-05 0.000231693 9.68502e-05 0.000302565 9.16342e-05 1.44195e-06 0.000141839 9.43172e-05 6.46413e-05 -1.38019e-05 0.000155899 1.47803e-05 6.09698e-05 2.37324e-05 -3.7077e-05 -2.59173e-05 -3.16393e-05 -3.82653e-05
internal_weight=0 131.92 15.0915 41.2598 7.78684 8.65142 4.76948 7.30469 32.6084 6.11229 4.1275 6.3491 26.2593 3.9712 3.33349 3.65028 4.60266 90.6599 22.609 20.4664 89.0729
internal_count=1853 1663 190 520 98 109 60 92 411 77 52 80 331 50 42 46 58 1143 285 258 1123
is_linear=0
shrinkage=3.72423e-05


Tree=10
num_leaves=22
num_cat=0
split_feature=5 8 93 82 177 7 38 190 2 110 178 98 137 159 133 166 52 1 92 120 74
split_gain=304.075 80.4552 61.146 39.2354 38.5526 36.1768 22.9649 30.2962 22.8767 20.469 16.4868 15.6789 15.0196 9.16517 8.78993 6.87938 5.45237 5.29619 3.80602 2.33027 1.95155
threshold=1271.5000000000002 2.5000000000000004 0.092500000000000013 255.50000000000003 0.60850416399743767 25.500000000000004 42.500000000000007 1.5000000000000002 48.500000000000007 2.6489196197061369 0.81892697466467979 81.500000000000014 84.875000000000014 16.500000000000004 179.50000000000003 255.50000000000003 4.3481841661395757 103.50000000000001 115.71900000000001 4.097852596151502 1937.5000000000002
decision_type=2 2 2 2 8 2 2 2 2 10 10 2 2 2 2 2 2 2 2 2 2
left_child=1 4 17 5 -1 8 7 -3 -4 -9 -6 15 -5 -8 16 -10 -14 -2 20 -19 -18
right_child=2 6 3 12 10 -7 13 9 11 -11 -12 -13 14 -15 -16 -17 18 19 -20 -21 -22
leaf_value=0.00013299323056623121 1.4084153800371553e-05 0.00026326882649793648 0.00016966173873486024 7.992810343338276e-05 0.00037031111563394454 0.00019335822438287057 7.5895516881617779e-05 0.00014899477890013867 -4.0566230226586172e-05 9.5946287238172798e-06 0.00021628436842208566 9.5008246365292678e-05 3.3833626538730734e-05 -4.0361722550639399e-05 4.9663762487434854e-05 4.8010090398829233e-05 0 5.5452170746429842e-06 1.9903890194498138e-05 -3.9470240740260578e-05 -4.0720925349101316e-05
leaf_weight=2.7802056446671513 2.6971751078963271 1.5889520272612552 1.587934412062167 2.4599504619836834 2.6246137842535973 2.6996510103344908 1.5874295681715014 2.9382684752345085 4.4435716569423658 2.9373540803790092 1.5896338894963262 2.460976354777813 1.9832723587751449 2.3014947548508644 2.4596187099814406 1.6665844768285749 1.8245738446712554 1.5866273641586293 1.8248459696769703 85.738532900810242 15.229983396828173
leaf_count=35 34 20 20 31 33 34 20 37 56 37 20 31 25 29 31 21 23 20 23 1081 192
internal_value=0 0.000141835 -2.02264e-05 1.89441e-05 0.000241263 7.20898e-05 8.04932e-05 0.000118732 3.9766e-05 7.94732e-05 0.000312452 1.55848e-05 -7.52448e-06 6.84425e-06 -1.67909e-05 -1.62465e-05 -2.46725e-05 -3.70506e-05 -3.08704e-05 -3.86412e-05 -3.63605e-05
internal_weight=0 18.348 128.663 38.641 6.99445 12.8587 11.3535 7.46457 10.1591 5.87562 4.21425 8.57113 25.7822 3.88892 23.3223 6.11016 20.8627 90.0223 18.8794 87.3252 17.0546
internal_count=1853 231 1622 487 88 162 143 94 128 74 53 108 325 49 294 77 263 1135 238 1101 215
is_linear=0
shrinkage=3.72423e-05


Tree=11
num_leaves=22
num_cat=0
split_feature=67 27 19 38 93 141 2 177 157 188 120 172 40 184 38 120 57 1 169 183 108
split_gain=270.913 136.138 70.9759 41.2799 24.8334 34.0656 24.3596 23.1193 22.9781 16.9527 22.5759 11.8688 11.8654 11.6131 9.00805 12.6571 5.47135 5.04431 4.84464 4.57741 1.50098
threshold=74.110705285282506 2.5000000000000004 1113.5000000000002 4.5000000000000009 0.092500000000000013 23.500000000000004 51.500000000000007 0.044068276503660513 1162.5000000000002 179.84283169594843 4.3630735212824776 10.500000000000002 6.5000000000000009 0.50321245564364514 25.500000000000004 4.6697393179559832 267154.00000000006 84.000000000000014 0.13392857142857142 24.500000000000004 12.500000000000002
decision_type=2 2 2 2 2 2 2 10 2 2 2 2 2 2 2 2 2 2 2 2 2
left_child=1 2 8 6 17 -6 -3 -5 11 12 -11 -1 -7 -9 15 -15 -12 -2 -16 -14 -21
right_child=4 3 -4 7 5 9 -8 13 -10 10 16 -13 19 14 18 -17 -18 -19 -20 20 -22
leaf_value=0.00040635776962313772 2.5690711219926756e-05 0.0002632447463029779 5.7643764482950445e-05 0.00015052373392987847 0.00016964387896118831 5.9346793282351582e-05 8.2325379397627649e-05 9.5541641554461613e-05 0.0001991900839852611 0.00016976305148104753 5.2482268765487849e-05 0.00027092744831218383 2.9006867345359139e-05 9.2879387518466836e-05 2.5814374679251394e-05 -1.6403852112193301e-05 -4.0291301227796976e-05 -3.9415574242391608e-05 -3.6063047512724146e-05 -7.9887320619269204e-06 -4.0723664824795655e-05
leaf_weight=1.8300051689147934 1.6659917533397663 1.5890761464834238 3.0168446078896523 1.746796272695067 1.5880664959549928 2.2217490747571054 3.0170048698782921 1.905002243816855 3.099558062851429 1.5871855318546284 1.5866911485791209 1.908309072256088 1.5868166312575365 2.7787824720144298 2.2220434397459021 3.0947994813323021 1.9830836132168768 82.324962727725506 8.0925118923187238 2.3007842525839832 15.865174680948256
leaf_count=23 21 20 38 22 20 28 38 24 39 20 20 24 20 35 28 39 25 1038 102 29 200
internal_value=0 9.16442e-05 0.000208527 4.44853e-05 -2.78898e-05 1.97311e-06 0.000144959 2.1109e-05 0.000274952 -7.80599e-06 5.29064e-05 0.000337498 -2.20985e-05 8.55982e-06 -1.61671e-06 3.51331e-05 6.72296e-07 -3.81125e-05 -2.26383e-05 -3.13089e-05 -3.66314e-05
internal_weight=0 34.3007 9.85472 24.446 112.711 28.7196 4.60608 19.8399 6.83787 27.1315 5.15696 3.73831 21.9745 18.0931 16.1881 5.87358 3.56977 83.991 10.3146 19.7528 18.166
internal_count=1853 432 124 308 1421 362 58 250 86 342 65 47 277 228 204 74 45 1059 130 249 229
is_linear=0
shrinkage=3.72423e-05


Tree=12
num_leaves=22
num_cat=0
split_feature=35 8 38 116 175 156 98 190 132 92 31 97 69 70 19 98 103 180 57 152 169
split_gain=325.817 82.2571 59.2321 38.8105 28.383 28.1288 23.808 29.5066 17.3978 13.902 19.4217 11.1223 8.92525 8.8916 8.18083 17.261 17.6866 14.4201 8.87535 4.23479 3.7331
threshold=1113.5000000000002 2.5000000000000004 10.500000000000002 1.3500797725848217 0.64447286160841155 247.25000000000003 23.500000000000004 20.500000000000004 120.50000000000001 39.161000000000008 16.500000000000004 120.50000000000001 844960.25000000012 82.500000000000014 1674.5000000000002 47.500000000000007 28.458608058608061 1.3062719444806399 184727.50000000003 190.50000000000003 0.057189542483660101
decision_type=2 2 2 2 2 2 2 2 2 2 2 2 2 2 2 2 2 2 2 2 2
left_child=1 4 3 -2 12 -4 -3 -8 -7 -5 -11 -9 -1 -12 15 19 -17 18 -18 -10 -16
right_child=2 6 5 9 -6 8 7 11 14 10 13 -13 -14 -15 20 16 17 -19 -20 -21 -22
leaf_value=0.00036006715120478355 0.00018623961203024939 -2.1526436266059618e-05 0.00011509022957037513 -3.074933807978857e-05 0.00013714904438366743 6.0318252285416524e-05 0.00023354094388990571 0.00014217707725024101 1.7384545895882529e-05 0.00014984748870511917 7.5877779826544463e-05 2.4005178039874017e-05 0.00024842907628670866 -4.0329193596980142e-05 1.0925605482141705e-05 -3.202912961680879e-05 9.9380726724303619e-05 0.00015968255441723092 -1.1965150687385748e-05 -4.0729542867851078e-05 -3.8523791855098931e-05
leaf_weight=2.784584052860736 2.6202623173594466 1.9842425063252429 1.9049982950091351 3.8081107735633832 1.6687725856900213 2.9370560720562926 2.3041730523109436 1.8264823034405706 1.9039059579372466 2.1437093466520309 1.5876623764634135 2.8587648794054985 1.6704568788409231 2.1423186436295509 2.1417420431971541 4.3642791062593442 1.5871374383568762 1.6669937148690221 2.61822909116745 17.687670558691025 82.799676991999149
leaf_count=35 33 25 24 48 21 37 29 23 24 27 20 36 21 27 27 55 20 21 33 223 1044
internal_value=0 0.000163885 -1.87567e-05 5.9034e-05 0.000269197 -2.67656e-05 9.19055e-05 0.000124247 -2.90699e-05 2.45045e-05 6.04931e-05 7.02837e-05 0.000318435 8.87412e-06 -3.1366e-05 -1.45332e-05 2.4604e-05 6.68588e-05 2.9828e-05 -3.50322e-05 -3.72655e-05
internal_weight=0 15.0975 131.914 12.3021 6.12381 119.612 8.97366 6.98942 117.707 9.6818 5.87369 4.68525 4.45504 3.72998 114.77 29.8282 10.2366 5.87236 4.20537 19.5916 84.9414
internal_count=1853 190 1663 155 77 1508 113 88 1484 122 74 59 56 47 1447 376 129 74 53 247 1071
is_linear=0
shrinkage=3.72423e-05


Tree=13
num_leaves=22
num_cat=0
split_feature=138 48 132 0 35 23 84 108 93 183 129 22 61 94 97 107 22 156 7 54 170
split_gain=293.562 90.0148 58.7222 45.3404 31.7798 27.3825 24.0476 23.8166 22.1423 25.0995 21.906 21.7079 21.0923 11.0307 10.5485 22.1525 8.92117 5.89681 3.67587 3.22319 2.56385
threshold=1231.0000000000002 1.0000000180025095e-35 120.50000000000001 1244.0000000000002 1366.5000000000002 1.0000000180025095e-35 932630.50000000012 67.500000000000014 0.10525000000000001 31.500000000000004 11.500000000000002 4.5000000000000009 589.31295036343465 0.31525152770071679 167.50000000000003 292.50000000000006 189.50000000000003 353.25000000000006 15.500000000000002 2.9779049029190134 48.500000000000007
decision_type=2 2 2 2 2 2 2 2 2 2 2 2 2 2 2 2 2 2 2 2 2
left_child=1 3 -2 -1 6 10 11 -8 19 -10 -5 -4 -11 17 -15 16 18 -6 -16 -3 -13
right_child=2 8 4 5 13 -7 7 -9 9 12 -12 20 -14 14 15 -17 -18 -19 -20 -21 -22
leaf_value=0.00035364094133155742 0.00013929152812442835 2.8960589359168074e-05 0.00012270997036134264 0.00019290220497885033 1.751004666200008e-05 0.00024724760772578595 3.2131636728659694e-05 0.00021655058847758757 0.00022641061177467421 0.00013301942974706932 1.2776986281090493e-06 4.2405499014332776e-06 -1.2835579153398836e-05 -3.0621414380133638e-05 2.8997017214339699e-05 0.00014630441865836859 7.5929258544806709e-05 -3.9861418968364786e-05 -3.4446484948239513e-05 -4.0345937190905767e-05 -4.0621421038567708e-05
leaf_weight=2.5466893315315264 3.0966089889407149 1.5878083854913696 1.5884022116661061 1.5893403738737109 2.5386504828929892 3.099575586616993 2.5402185618877402 1.5880162641406057 1.6687691509723661 2.7797966226935387 1.7473970279097555 2.4596888422965986 2.6994765028357506 14.753327511250975 1.5870276540517787 1.5871556550264347 1.5869869068264959 81.764847509562969 6.0292467474937439 2.2218573316931725 5.9503326192498207
leaf_count=32 39 20 20 20 32 39 32 20 21 35 22 31 34 186 20 20 20 1031 76 28 75
internal_value=0 0.00013285 -2.08477e-05 0.000220283 -2.48557e-05 0.000167358 2.76874e-05 0.000103313 6.10826e-05 9.97448e-05 9.28477e-05 -3.44127e-06 6.09848e-05 -3.16218e-05 -1.01298e-05 1.77974e-05 -4.26047e-06 -3.81222e-05 -2.10984e-05 -1.12045e-05 -2.73849e-05
internal_weight=0 19.9407 127.071 8.983 123.974 6.43631 14.1267 4.12823 10.9577 7.14804 3.33674 9.99842 5.47927 109.847 25.5437 10.7904 9.20326 84.3035 7.61627 3.80967 8.41002
internal_count=1853 251 1602 113 1563 81 178 52 138 90 42 126 69 1385 322 136 116 1063 96 48 106
is_linear=0
shrinkage=3.72423e-05


Tree=14
num_leaves=22
num_cat=0
split_feature=5 174 93 22 10 57 188 73 63 118 109 69 141 150 81 139 51 166 9 120 110
split_gain=303.866 70.9232 61.1378 37.4382 36.0851 34.7725 30.5427 27.5042 27.2458 26.6996 22.9506 22.8767 20.1899 16.6191 8.27792 7.29297 6.41417 5.45342 6.17004 4.87143 3.43634
threshold=1271.5000000000002 0.62160377358490571 0.092500000000000013 17.500000000000004 1.0000000180025095e-35 186670.50000000003 130.03213982018409 10120.000000000002 442092.85524044378 78.500000000000014 29.500000000000004 588811.50000000012 28.500000000000004 197.50000000000003 1248.5000000000002 14.271498771498772 355.50000000000006 230.50000000000003 16.500000000000004 4.097852596151502 2.257321110262287
decision_type=2 2 2 2 2 2 2 2 2 2 2 2 2 2 2 2 2 2 2 2 10
left_child=1 4 19 6 5 11 9 10 -8 -4 -6 -1 13 -5 -13 -9 -15 -14 -19 -2 -21
right_child=2 -3 3 12 7 -7 8 15 -10 -11 -12 14 17 16 -16 -17 -18 18 -20 20 -22
leaf_value=0.00021900208125052336 2.5691915162869421e-05 0.0003243196081466364 0.0001307512872784746 0.0001193668975652252 4.3909703468355185e-05 0.00031001391156116356 7.032167358089895e-05 6.5242920394475109e-05 0.00028684990901197842 -3.00826326087639e-05 0.00023558754004951023 3.2658461678143536e-06 4.3960722587294367e-05 5.2558120041705906e-05 0.00012265697202654981 -2.9047815627841249e-05 -4.0328577178224903e-05 -3.2383379168104681e-05 2.7876737963180424e-05 -5.1162604510793063e-06 -3.988741616083891e-05
leaf_weight=2.1464047804474857 1.6659633144736279 2.5472089499235144 2.3823554068803769 3.0168046578764942 1.7472105771303161 1.9079990237951276 1.6670605316758158 1.7468988075852392 1.588258199393749 3.5706693753600121 1.7481066286563871 1.6684854850172999 1.7462094575166727 1.9843357279896734 1.5889040976762769 3.2551896944642067 2.1420404314994812 17.847165644168857 2.6977136135101309 4.2037920802831641 84.142431803047657
leaf_count=27 21 32 30 38 22 24 21 22 20 45 22 21 22 25 20 41 27 225 34 53 1061
internal_value=0 0.000141749 -2.02247e-05 1.89413e-05 0.000112268 0.000172995 8.4481e-05 5.98981e-05 0.000176272 3.41199e-05 0.000140058 0.000124428 -1.52962e-06 5.29212e-05 6.18048e-05 3.68795e-06 4.10405e-06 -1.90223e-05 -2.44232e-05 -3.70497e-05 -3.82439e-05
internal_weight=0 18.3564 128.655 38.6426 15.8092 7.31179 9.20834 8.49741 3.25532 5.95302 3.49532 5.40379 29.4343 7.14318 3.25739 5.00209 4.12638 22.2911 20.5449 90.0122 88.3462
internal_count=1853 231 1622 487 199 92 116 107 41 75 44 68 371 90 41 63 52 281 259 1135 1114
is_linear=0
shrinkage=3.72423e-05


Tree=15
num_leaves=22
num_cat=0
split_feature=51 8 128 159 68 99 17 127 23 81 136 114 59 156 93 141 22 142 74 74 117
split_gain=296.512 106.428 48.2947 47.4808 43.9585 36.7683 29.7802 28.3409 19.2711 19.8875 19.1881 18.6418 11.4702 15.2762 9.03209 11.0697 8.90584 6.68162 7.92306 4.14772 3.65698
threshold=274.50000000000006 3.5000000000000004 1262.5000000000002 71.500000000000014 564208.50000000012 25.500000000000004 1.5000000000000002 5.8750000000000009 7.5000000000000009 1426.5000000000002 64.750000000000014 2.5000000000000004 881404.1684752038 429.12500000000006 0.092500000000000013 26.500000000000004 14.500000000000002 33.500000000000007 1613.0000000000002 31512.500000000004 95.500000000000014
decision_type=2 2 2 2 2 2 2 2 2 2 2 10 2 2 2 2 2 2 2 2 2
left_child=1 3 5 4 -1 10 7 -3 9 -7 -2 -6 19 -14 -4 -16 -12 18 -17 -9 -20
right_child=2 6 14 -5 11 8 -8 12 -10 -11 16 -13 13 -15 15 17 -18 -19 20 -21 -22
leaf_value=0.0003144857012442315 0.00010787581517776612 0.00015273947369502373 -3.9364258355982723e-05 0.00035573515799343423 4.7557128243704358e-05 7.6141219211885841e-05 0.00020414022140043757 -4.0574854806947795e-05 1.9047090923774151e-05 0.00023221593279631239 4.5644424188119009e-05 0.00020399944587125139 -1.6715695943116119e-05 0.00014614700628463065 7.1336759631415844e-05 5.2475787010127039e-05 -3.7268041726396545e-05 5.2464112024695209e-05 -4.0720189472999556e-05 2.8960372564812674e-05 1.0927364572251896e-05
leaf_weight=1.9887912273406998 1.7469190508127237 2.3040757849812499 79.380525857210159 2.6271485760807991 2.9396432712674141 2.8580797836184493 1.6684684231877316 4.6033135876059514 3.0957431867718697 1.9061256423592565 2.143073856830596 1.6694114580750463 1.5876269638538363 1.5884622633457182 1.9841335266828561 1.5867965742945731 10.86711674928665 1.5869864895939816 15.149272225797178 1.587813153862953 2.1416747346520415
leaf_count=25 22 29 1001 33 37 36 21 58 39 24 27 21 20 20 25 20 137 20 191 20 27
internal_value=0 0.00012421 -2.25219e-05 0.000221507 0.000167905 2.66821e-05 5.68506e-05 3.57092e-05 9.17559e-05 0.000138795 -7.91219e-06 0.000104437 6.81714e-06 6.44334e-05 -3.34601e-05 -1.25392e-05 -2.35353e-05 -2.07193e-05 -2.69235e-05 -2.25839e-05 -3.42667e-05
internal_weight=0 22.5648 124.446 9.22499 6.59785 22.6171 13.3398 11.6713 7.85995 4.76421 14.7571 4.60905 9.36722 3.17609 101.829 22.4489 13.0102 20.4647 18.8777 6.19113 17.2909
internal_count=1853 284 1569 116 83 285 168 147 99 60 186 58 118 40 1284 283 164 258 238 78 218
is_linear=0
shrinkage=3.72423e-05


Tree=16
num_leaves=22
num_cat=0
split_feature=138 43 38 6 164 6 27 106 17 0 70 130 135 189 143 188 138 56 101 174 163
split_gain=293.428 96.3981 55.4286 46.0959 44.4812 26.2857 21.787 24.8164 21.3984 20.6628 19.9136 16.6268 14.4754 8.69075 8.20056 8.00874 6.97035 10.3375 12.8632 5.4914 5.29486
threshold=1231.0000000000002 2.5000000000000004 1.5000000000000002 274.50000000000006 25.750000000000004 315.00000000000006 4.5000000000000009 16.250000000000004 1.5000000000000002 1244.0000000000002 89.250000000000014 86.73879142300197 68.125000000000014 873.00000000000011 13.500000000000002 112.87783859618902 1601.0000000000002 1.3338745045186164 17.500000000000004 0.15162493828210069 40.125000000000007
decision_type=2 2 2 2 2 2 2 2 2 2 2 2 2 2 2 2 2 2 2 2 2
left_child=1 3 5 9 -4 -2 7 -6 10 -1 11 -3 -5 -9 -12 -7 17 18 -8 -15 -19
right_child=2 8 4 12 6 15 16 13 -10 -11 14 -13 -14 19 -16 -17 -18 20 -20 -21 -22
leaf_value=0.00037298719941904239 0.00021427580898985318 0.00019306976087016847 0.00016963406812842022 4.7882755083243869e-05 0.00015047704403997302 -1.8894688643090498e-05 9.0815006739523277e-05 7.5876206627901018e-05 0.00018286673985269081 0.00021226623285503429 4.958517890884698e-05 4.4106803372972511e-05 0.00020392140495082851 3.0955883321274765e-05 -4.0486870918918172e-05 9.0093098501523052e-05 -3.8238985004403762e-05 2.582152776638935e-05 -4.0226716102062242e-05 -4.0598459284850562e-05 -3.5642759938085118e-05
leaf_weight=2.7876059785485285 1.7481681555509556 1.7474648132920245 1.5881390422582615 1.668867275118828 1.7472133487462986 1.7457721158862116 2.5394246503710773 1.5876829773187617 1.8271832019090641 1.90918443351984 2.4616605415940285 2.620518371462822 1.6699346676468847 2.0628194287419319 3.2542446479201317 1.9843147993087766 88.18276409804821 2.2218191623687771 1.7461099103093145 5.2356936037540436 14.674602165818213
leaf_count=35 22 22 20 21 22 22 32 20 23 24 31 33 21 26 41 25 1112 28 22 66 185
internal_value=0 0.000132797 -2.08466e-05 0.000232522 -2.60741e-05 9.49946e-05 -2.86726e-05 2.21641e-05 6.54352e-05 0.000307872 4.4058e-05 0.000103929 0.000126224 -2.95737e-06 -1.52503e-06 3.88243e-05 -3.36243e-05 -1.43666e-05 3.71962e-05 -2.0241e-05 -2.75026e-05
internal_weight=0 19.9467 127.065 8.03559 121.586 5.47826 119.998 10.6334 11.9111 4.69679 10.0839 4.36798 3.3388 8.8862 5.71591 3.73009 109.365 21.182 4.28553 7.29851 16.8964
internal_count=1853 251 1602 101 1533 69 1513 134 150 59 127 55 42 112 72 47 1379 267 54 92 213
is_linear=0
shrinkage=3.72423e-05


Tree=17
num_leaves=22
num_cat=0
split_feature=5 27 82 157 187 38 130 116 85 61 116 148 22 22 59 97 93 188 61 38 116
split_gain=303.715 93.7118 56.3333 52.4418 29.7821 26.6865 26.9886 25.7648 25.3569 24.1318 22.0835 19.7325 17.7654 13.2856 11.1427 8.91787 5.41861 11.1839 11.8706 3.90764 3.45077
threshold=1271.5000000000002 2.5000000000000004 255.50000000000003 1162.5000000000002 4.5645000000000016 2.5000000000000004 82.684065934065941 2.5188998530005944 83.500000000000014 723.36344069097424 2.4942995092954332 12.500000000000002 15.500000000000002 1.5000000000000002 920667.88743740844 102.50000000000001 0.10125000000000002 168.09481000512923 903.94863924573258 201.00000000000003 1.9608823144762804
decision_type=2 2 2 2 2 2 2 2 2 2 2 2 2 2 2 2 2 2 2 2 2
left_child=1 3 4 15 8 -3 7 -7 12 20 -5 13 -2 -4 -6 -1 -15 19 -19 -18 -10
right_child=2 5 11 10 14 6 -8 -9 9 -11 -12 -13 -14 16 -16 -17 17 18 -20 -21 -22
leaf_value=0.00040472795145255885 0.00024875141447046936 0.00018430793573298606 4.3124659226572903e-05 8.898462439343824e-05 -3.0772947421731287e-05 0.00020245107494220796 -2.4112321410210067e-05 3.2977729906982e-06 2.8971710904716565e-05 0.00015050772601335423 0.00026289227639547674 9.9358071713955229e-05 8.8178868527072753e-05 -3.90248295954839e-05 5.8342043973248157e-05 0.00028400829388344669 -3.7899418406555622e-05 0.00011506775651388522 -2.0708134205711843e-05 1.9908780402703583e-05 -4.0413066806326016e-05
leaf_weight=1.7530829608440419 1.6686242893338223 2.146352916955947 3.0950984284281722 2.8620548099279404 7.5366045832633954 1.9862699881196006 4.5250654816627502 1.6673844531178472 1.5875700041651724 1.7469392418861387 1.5908948630094526 1.5873863622546185 2.3025200515985489 85.244566150009632 2.6199046969413757 1.8314150795340536 13.245960444211962 1.6663344725966447 1.9036371260881422 1.8247086256742466 2.6188040748238564
leaf_count=22 21 27 39 36 95 25 57 21 20 22 20 20 29 1075 33 23 167 21 24 23 33
internal_value=0 0.000141687 -2.02236e-05 0.000237091 3.70568e-05 6.73233e-05 3.65011e-05 0.000111836 8.29465e-05 3.41161e-05 0.000151341 -3.08273e-05 0.000155901 -3.27682e-05 -7.68907e-06 0.000343335 -3.50388e-05 -1.67579e-05 4.23965e-05 -3.08354e-05 -1.39943e-05
internal_weight=0 18.3625 128.649 8.03745 20.081 10.3251 8.17872 3.65365 9.92446 5.95331 4.45295 108.568 3.97114 106.98 10.1565 3.5845 103.885 18.6406 3.56997 15.0707 4.20637
internal_count=1853 231 1622 101 253 130 103 46 125 75 56 1369 50 1349 128 45 1310 235 45 190 53
is_linear=0
shrinkage=3.72423e-05


Tree=18
num_leaves=22
num_cat=0
split_feature=35 38 174 43 118 120 38 163 93 173 184 100 150 64 151 156 114 54 67 70 176
split_gain=325.471 59.2072 52.2351 50.674 39.4172 28.1296 23.7108 30.9611 23.3505 17.7772 26.1458 15.9792 11.7324 11.4185 7.52851 5.73787 5.36663 3.84633 2.50191 4.62563 8.90701
threshold=1113.5000000000002 10.500000000000002 0.62160377358490571 2.5000000000000004 72.500000000000014 4.0798923923923924 28.500000000000004 49.125000000000007 0.16975000000000004 261.50000000000006 0.48222356508367809 30.500000000000004 121.00000000000001 430571.53227906686 479.50000000000006 323.75000000000006 1.5000000000000002 4.2191077186123573 97.576685782071777 86.500000000000014 0.28104886316030014
decision_type=2 2 2 2 2 2 2 2 2 2 2 2 2 2 2 2 10 2 2 2 2
left_child=2 4 3 8 -2 -3 7 -5 -1 10 -7 14 13 -12 -6 -11 -8 -14 19 20 -17
right_child=1 5 -4 6 11 9 16 -9 -10 15 12 -13 17 -15 -16 18 -18 -19 -20 -21 -22
leaf_value=0.00029125731391216759 0.00018016129786302656 0.00011509732315229103 0.00032064801299888575 0.0002631079084204831 6.0648657785887302e-05 0.00013456773984587769 -4.0274196230179703e-05 5.5346464020260944e-05 0.00012153918664232565 2.1380361327535677e-05 0.0001088284701192888 0.00010951967387974178 -3.4444360538950905e-05 -1.9850519267704974e-05 -2.6797717211084458e-05 -2.2796642702654141e-05 5.2408523465340888e-05 2.5664699139048972e-05 -4.0262640859828999e-05 -3.8206788010833337e-05 7.5962368419815558e-05
leaf_weight=3.0251513049006444 2.8608572706580153 1.9049138948321331 2.4700199440121642 1.5897817164659498 1.8260357454419116 1.9057489559054399 1.9051380679011347 2.7014491185545921 1.829215385019779 2.3805521354079238 1.9847223237156897 2.2233537212014198 11.899995803833006 1.8254199400544164 5.3947250619530678 6.2655268013477352 1.587891489267349 1.6666043177247036 73.347888216376305 14.829625740647314 1.5865527689456937
leaf_count=38 36 24 31 20 23 24 24 34 23 30 25 28 150 23 68 79 20 21 925 187 20
internal_value=0 -1.87544e-05 0.00016373 0.000132983 5.90094e-05 -2.67635e-05 7.39057e-05 0.000132549 0.00022751 -2.9068e-05 3.58493e-06 2.22042e-05 -1.07252e-05 4.6925e-05 -4.54805e-06 -3.54759e-05 1.57995e-06 -2.69882e-05 -3.68955e-05 -2.59637e-05 -2.71684e-06
internal_weight=0 131.903 15.1086 12.6386 12.305 119.598 7.78426 4.29123 4.85437 117.693 19.2825 9.44411 17.3767 3.81014 7.22076 98.4101 3.49303 13.5666 96.0296 22.6817 7.85208
internal_count=1853 1663 190 159 155 1508 98 54 61 1484 243 119 219 48 91 1241 44 171 1211 286 99
is_linear=0
shrinkage=3.72423e-05


Tree=19
num_leaves=22
num_cat=0
split_feature=0 138 98 38 127 43 183 134 23 178 40 54 109 184 145 156 43 74 22 54 176
split_gain=294.694 77.797 62.5262 49.9578 43.1337 42.2699 29.1903 27.4733 20.5919 16.1512 15.8063 17.852 21.4587 11.853 11.7109 11.6109 15.1933 6.46983 6.45682 5.74794 4.09789
threshold=1396.5000000000002 1542.5000000000002 47.500000000000007 35.500000000000007 5.6250000000000009 3.5000000000000004 47.500000000000007 44.500000000000007 30.500000000000004 0.072299651567944212 12.500000000000002 3.4183439526193324 19.500000000000004 0.62110952156125154 11.750000000000002 353.25000000000006 11.500000000000002 6440.0000000000009 1.0000000180025095e-35 3.1969139808810838 0.31876047393643608
decision_type=2 2 2 2 2 2 2 2 2 10 2 2 2 2 2 2 2 2 2 2 2
left_child=3 2 14 4 17 -6 7 -4 10 -5 -9 12 -12 19 -2 16 -3 -1 -17 -8 -20
right_child=1 15 6 9 5 -7 13 8 -10 -11 11 -13 -14 -15 -16 18 -18 -19 20 -21 -22
leaf_value=0.00036769380938754862 7.5851293542247153e-05 0.00011504234152430538 0.00026323104394027828 0.00015022362275057553 0.00025293890033363547 4.4068808134329216e-05 4.3920798129748638e-05 0.00022633382323483772 -5.5840455509344972e-06 2.7894573070516393e-06 0.00023555897103305843 0 4.7944024210283681e-05 0.00010137505386714322 -3.0511877073965027e-05 2.8285829208679145e-05 -4.0249185929270515e-05 0.00026252549800573702 -3.9069226815863578e-05 -4.0470167264158101e-05 -9.6871482041991357e-06
leaf_weight=1.912033356726168 1.5880100652575517 1.6665989458560937 1.589146733283999 1.74948040395975 2.7858749181032181 2.6216352507472038 1.7469927668571461 1.6692412942647914 2.1434426605701447 2.5413714796304703 1.7482845932245257 1.8259666040539739 1.6677681207656858 1.8267926946282385 14.595626235008238 2.142541676759719 1.8247527331113813 1.5927917584776876 87.46116478741169 3.0946511328220367 7.2169933319091788
leaf_count=24 20 21 20 22 35 33 22 21 27 32 22 23 21 23 184 27 23 20 1103 39 91
internal_value=0 -1.65633e-05 3.25645e-05 0.00016786 0.00021817 0.00015186 8.17716e-05 0.000120067 9.48301e-05 6.31318e-05 0.000126113 9.40077e-05 0.000144253 2.04983e-05 -2.00143e-05 -3.29776e-05 3.36021e-05 0.00032019 -3.53886e-05 -9.81815e-06 -3.68398e-05
internal_weight=0 133.808 33.4959 13.2032 8.91234 5.40751 17.3123 10.6439 9.0547 4.29085 6.91126 5.24202 3.41605 6.66844 16.1836 100.312 3.49135 3.50483 96.8207 4.84164 94.6782
internal_count=1853 1687 422 166 112 68 218 134 114 54 87 66 43 84 204 1265 44 44 1221 61 1194
is_linear=0
shrinkage=3.72423e-05


Tree=20
num_leaves=22
num_cat=0
split_feature=35 173 98 174 22 85 182 120 106 128 81 141 109 134 69 93 133 111 144 111 108
split_gain=325.348 56.6627 54.6822 52.1824 43.0895 31.7254 38.2141 27.5062 26.2976 25.8411 25.0002 19.0316 18.6038 13.9879 12.0392 10.4682 12.2755 5.51265 7.52505 4.36541 3.39068
threshold=1113.5000000000002 261.50000000000006 48.500000000000007 0.62160377358490571 37.500000000000007 83.500000000000014 119.50000000000001 4.0798923923923924 20.750000000000004 934.50000000000011 1461.5000000000002 29.500000000000004 13.500000000000002 90.500000000000014 950299.50000000012 0.092500000000000013 179.50000000000003 2.0694122543963318 7.3750000000000009 2.8331699372894041 17.500000000000004
decision_type=2 2 2 2 2 2 2 2 2 2 2 2 2 2 2 2 2 8 2 10 2
left_child=3 2 19 4 8 6 12 -3 13 -10 14 -6 -4 -1 -7 -9 17 -17 -19 -2 -20
right_child=1 7 5 -5 11 10 -8 15 9 -11 -12 -13 -14 -15 -16 16 -18 18 20 -21 -22
leaf_value=4.5533148250835259e-05 1.7491456231042466e-05 0.00012280872871679458 0.00031555157176245158 0.00032047338178375548 0.00012167323779570901 -4.0536185752615017e-05 1.7324051433641565e-05 -3.9834514948142645e-05 0.00035937367628063307 0.00017292371538934367 0.00015403051040629006 -4.0348500728282433e-05 0.00014209610454267479 0.00018340409919204468 6.4702491456443173e-05 2.9955412606382573e-05 6.8303180913557952e-05 4.8030296983245538e-05 7.3590537430918201e-06 -3.6961329025069662e-05 -4.0721781699262895e-05
leaf_weight=2.145705506205557 2.5394046455621746 1.5874677747488011 1.6693255305290216 2.4711998403072348 1.8277448788285244 3.8893643468618375 1.9057516753673551 79.52696892619133 1.672601133584976 2.7834444791078568 1.9064939394593237 2.2230612635612488 1.827272444963455 1.9888646602630613 2.4619011357426643 2.6184358000755372 2.3807098641991606 1.6662227511405969 2.3004117086529758 9.9949885159730893 15.623809114098547
leaf_count=27 32 20 21 31 23 49 24 1003 21 35 24 28 23 25 31 33 30 21 29 126 197
internal_value=0 -1.87536e-05 3.02624e-05 0.000163675 0.000132943 8.18232e-05 0.000152048 -3.09095e-05 0.000180183 0.000243137 3.57615e-05 3.25179e-05 0.000225194 0.000112093 1.04034e-07 -3.32628e-05 -1.1969e-05 -2.06181e-05 -2.74275e-05 -2.58517e-05 -3.44967e-05
internal_weight=0 131.899 26.1945 15.1126 12.6414 13.6601 5.40235 105.704 8.59062 4.45605 8.25776 4.05081 3.4966 4.13457 6.35127 104.117 24.5896 22.2089 19.5904 12.5344 17.9242
internal_count=1853 1663 330 190 159 172 68 1333 108 56 104 51 44 52 80 1313 310 280 247 158 226
is_linear=0
shrinkage=3.72423e-05


Tree=21
num_leaves=22
num_cat=0
split_feature=27 19 82 98 183 93 185 179 132 99 118 54 156 13 93 78 139 91 52 61 27
split_gain=282.525 128.025 85.7453 40.3822 32.1993 28.9373 26.6343 34.9081 20.1483 16.167 15.3563 16.9505 13.6083 16.0361 13.3775 11.8359 4.63495 4.37598 3.48709 5.75225 2.16477
threshold=2.5000000000000004 1113.5000000000002 255.50000000000003 48.500000000000007 30.500000000000004 0.16975000000000004 0.62023141929390835 2.5660272669625876 137.50000000000003 25.500000000000004 64.500000000000014 3.359859385899167 353.25000000000006 1.0000000180025095e-35 0.11625000000000002 1774134.5000000002 11.090000000000002 9.5000000000000018 4.2735546038543903 998.77263438496436 4.5000000000000009
decision_type=2 2 2 2 2 2 2 8 2 2 2 2 2 2 2 2 2 2 2 2 2
left_child=1 5 3 10 -5 14 15 -8 -3 -10 11 -2 13 -4 -1 -6 -14 -17 19 -18 -20
right_child=2 8 12 4 6 -7 7 -9 9 -11 -12 -13 16 -15 -16 17 18 -19 20 -21 -22
leaf_value=0.00024312938054244534 0.00011049298738843632 0.0001497056514590624 9.5050565297048869e-05 0.00019979701919452833 9.5451014879302426e-05 0.00015928727284217185 5.4822322431344232e-06 0.00023642537875452098 -3.0539025385954535e-05 9.7703781425724159e-05 -3.2367801600950789e-05 -4.0199675239570691e-05 2.568584349980199e-05 -4.0373943184710592e-05 0.00037414339681521525 -4.0480471462409747e-05 5.2487484004575826e-05 2.8242157884075607e-05 -9.2078819915522858e-06 -4.0343190916820313e-05 -3.9137553765089903e-05
leaf_weight=1.832759603857993 2.7013569548726108 2.1452703103423101 2.4602330401539794 2.7821392938494673 1.906230702996252 2.2285827025771141 1.5886039063334467 2.1458447352051735 3.7296015545725822 2.1441406160593033 8.9645322784781438 1.6666285470128057 1.6661062911152829 2.379860907793045 2.8695662096142769 3.1756502613425255 1.5866062790155404 2.1438179090619087 3.5691284239292136 2.2205685973167419 91.103910386562347
leaf_count=23 34 27 31 35 24 28 20 27 47 27 113 21 21 30 36 40 20 27 45 28 1149
internal_value=0 0.000153446 -1.73709e-05 4.17064e-05 8.65092e-05 0.000270705 5.7661e-05 0.000138449 5.19733e-05 1.611e-05 -4.40075e-06 5.2773e-05 -3.26155e-05 2.82623e-05 0.000323296 1.57709e-05 -3.55675e-05 -1.26012e-05 -3.66138e-05 -1.40053e-06 -3.80195e-05
internal_weight=0 14.9499 132.061 27.0748 13.7423 6.93091 10.9601 3.73445 8.01901 5.87374 13.3325 4.36799 104.986 4.84009 4.70233 7.2257 100.146 5.31947 98.4802 3.80717 94.673
internal_count=1853 188 1665 341 173 87 138 47 101 74 168 55 1324 61 59 91 1263 67 1242 48 1194
is_linear=0
shrinkage=3.72423e-05


Tree=22
num_leaves=22
num_cat=0
split_feature=27 0 81 154 7 93 157 48 38 111 136 151 40 99 56 60 161 111 128 155 27
split_gain=282.472 107.528 75.2063 39.4767 34.8268 31.2094 29.1861 23.6591 22.3823 20.3345 12.3818 11.4409 10.6574 31.9593 10.0982 20.9251 9.49637 5.15069 4.51465 4.93644 2.38737
threshold=2.5000000000000004 1396.5000000000002 1530.5000000000002 216.50000000000003 20.500000000000004 0.18650000000000003 1162.5000000000002 1.0000000180025095e-35 3.5000000000000004 2.961807548915973 55.750000000000007 464.50000000000006 23.500000000000004 25.500000000000004 1.6073214931432191 92.892519414781546 57.500000000000007 6.4077988795796843 1238.0000000000002 173.75000000000003 4.5000000000000009
decision_type=2 2 2 2 2 2 2 2 2 8 2 2 2 2 2 2 2 10 2 2 2
left_child=1 5 3 4 11 6 -1 8 -5 -3 -4 -2 13 -11 15 -9 -10 -18 -12 -20 -21
right_child=2 9 10 7 -6 -7 -8 14 16 12 18 -13 -14 -15 -16 -17 17 -19 19 20 -22
leaf_value=0.00038783007975600955 -8.0184031043862881e-06 0.00015535495443656897 4.9653117060728529e-05 0.00019275982126087712 0.00022241303263290208 0.00012237424216385076 0.00020189603184015838 0.00011004168908333968 -4.019904068193073e-05 -4.0199120769945991e-05 2.5668524738399036e-05 0.00011496644101698946 -2.6623080418507495e-05 0.0001928284713071436 -3.3792643534301082e-05 -3.0317168504226453e-05 2.2600513449070547e-05 0.00011494741231952639 2.8981718486511581e-05 -4.3499599392845433e-06 -3.7967388803938126e-05
leaf_weight=2.9516809582710257 2.3026262372732189 2.4632145091891262 2.4598949626088134 1.5902918577194238 2.5430820733308792 1.5915867239236829 1.9907337352633474 2.46254385262728 1.6664121150970457 1.6664394214749347 1.6665141880512226 1.9064717069268224 2.6983240097761154 1.5898329392075536 10.790353141725062 3.650474525988102 1.7470984905958178 1.6675876230001447 1.587355464696883 3.0932321548461905 92.92538196593523
leaf_count=37 29 31 31 20 32 20 25 31 21 21 21 24 34 20 136 46 22 21 20 39 1172
internal_value=0 0.000153421 -1.73705e-05 3.40884e-05 0.000113499 0.000266828 0.000313144 1.13023e-05 7.07096e-05 6.52744e-05 -3.27202e-05 4.74571e-05 2.78448e-05 7.3278e-05 -1.20873e-05 2.60664e-05 3.23141e-05 6.79869e-05 -3.47712e-05 -3.58132e-05 -3.68946e-05
internal_weight=0 14.9518 132.059 30.3269 6.75218 6.534 4.94241 23.5748 6.67139 8.41781 101.732 4.2091 5.9546 3.25627 16.9034 6.11302 5.0811 3.41469 99.2725 97.606 96.0186
internal_count=1853 188 1665 382 85 82 62 297 84 106 1283 53 75 41 213 77 64 43 1252 1231 1211
is_linear=0
shrinkage=3.72423e-05


Tree=23
num_leaves=22
num_cat=0
split_feature=0 27 173 98 157 183 159 150 26 183 164 5 152 25 96 175 141 42 157 30 97
split_gain=294.462 92.1485 74.6223 64.8896 38.4614 24.9403 25.1871 17.4936 16.2504 15.8338 15.6134 15.2867 15.2783 11.4686 10.2223 10.2764 8.73777 8.36633 7.5725 3.77968 3.4078
threshold=1396.5000000000002 3.5000000000000004 261.50000000000006 48.500000000000007 1162.5000000000002 37.500000000000007 56.500000000000007 98.500000000000014 15.500000000000002 25.500000000000004 51.250000000000007 1422.5000000000002 280.50000000000006 1.5000000000000002 1341.9084999999982 0.30949056240369804 43.500000000000007 19.500000000000004 1213.5000000000002 25.500000000000004 191.50000000000003
decision_type=2 2 2 2 2 2 2 2 2 2 2 2 2 2 2 2 2 2 2 2 2
left_child=1 4 3 18 9 6 12 10 16 -1 -7 -4 -5 -6 15 -13 -3 20 -2 -17 -9
right_child=2 8 11 5 13 7 -8 17 -10 -11 -12 14 -14 -15 -16 19 -18 -19 -20 -21 -22
leaf_value=0.00042515660357830788 5.2436908496177868e-05 -4.0316185957628444e-05 7.1327462734873304e-05 0.00016945150860088899 0.0001011263359755943 4.3888079547431397e-05 0.00025363588321833565 -4.0402884929187732e-05 0.00013649350315989638 0.00027017427496599483 0.00020402539926061162 3.3020614216595444e-05 5.4839832058825773e-06 0.00023919441771229547 4.900190663533884e-05 -3.7688064752141165e-05 7.5750428389805357e-05 7.5973297740354018e-05 -3.4179017193403798e-05 1.2916544676316504e-05 2.8947423014872265e-05
leaf_weight=1.676192201673983 1.5874291956424738 2.064954482018948 1.984291948378085 1.5894905626773828 1.8299001455307009 1.7476352527737602 2.1468782350420952 2.5402634888887405 2.305133119225502 2.1523779481649399 1.6692374944686887 3.0143245458602896 1.5885488316416738 1.5925195738673208 2.0629682317376128 96.572163976728916 1.5893356576561926 2.2242269366979599 11.422821804881094 2.0623400509357444 1.5880908593535421
leaf_count=21 20 26 25 20 23 22 27 32 29 27 21 38 20 20 26 1218 20 28 144 26 20
internal_value=0 0.000167743 -1.65617e-05 3.73588e-05 0.000256953 8.99095e-05 0.00015485 5.44115e-05 5.90315e-05 0.000338295 0.00012241 -3.09085e-05 8.78024e-05 0.000165664 -3.2874e-05 -3.45453e-05 9.89839e-06 1.76819e-05 -2.35354e-05 -3.66201e-05 -1.34893e-05
internal_weight=0 13.2104 133.801 28.1046 7.25099 15.0944 5.32492 9.76945 5.95942 3.82857 3.41687 105.696 3.17804 3.42242 103.712 101.649 3.65429 6.35258 13.0103 98.6345 4.12835
internal_count=1853 166 1687 354 91 190 67 123 75 48 43 1333 40 43 1308 1282 46 80 164 1244 52
is_linear=0
shrinkage=3.72423e-05


Tree=24
num_leaves=22
num_cat=0
split_feature=128 167 93 10 141 22 128 187 22 118 110 25 8 70 94 104 111 72 113 154 64
split_gain=296.487 65.3089 57.0921 50.0222 45.6203 41.6568 33.7833 20.761 21.1814 18.7726 16.3813 13.3368 12.7481 11.6544 8.5097 10.985 6.32844 4.76267 4.46178 3.66241 5.75176
threshold=1020.5000000000001 0.41666666666666669 0.091500000000000012 1.0000000180025095e-35 26.500000000000004 18.500000000000004 938.50000000000011 4.1705000000000014 21.500000000000004 62.500000000000007 2.6591139240506334 1.5000000000000002 6.5000000000000009 95.250000000000014 0.43475592471405144 25.715182692194279 13.920602427611625 158.50000000000003 37.500000000000007 189.37500000000003 467815.41373536835
decision_type=2 2 2 2 2 2 2 2 2 2 10 2 2 2 2 2 8 2 10 2 2
left_child=1 3 19 6 5 -4 -1 8 -5 -6 -7 -8 13 17 -9 -16 -14 -11 -12 20 -2
right_child=2 -3 4 7 9 10 11 14 -10 12 18 -13 16 -15 15 -17 -18 -19 -20 -21 -22
leaf_value=0.00028878037425180732 -4.0343782053607667e-05 0.00031666079585717483 0.00025138637403479238 0.00021225266625295964 0.00012256727409766258 0.00014611312694514159 6.9079492824828222e-05 -4.0390431577242278e-05 4.2478239040952982e-05 3.6983208671648132e-05 -4.0226247262273567e-05 0.00020377591743498007 -2.7080640701115746e-05 0.00010435347264221742 -1.891962658467496e-05 0.00010869653101088255 4.8039869928955408e-05 -4.0310309789196017e-05 4.3933678250972707e-05 -3.9010547933877152e-05 5.2477768475536799e-05
leaf_weight=2.7088630199432435 2.2208455801010127 2.3933517187833777 1.9084808230400074 1.9092850759625415 1.5897541865706468 1.588743671774864 2.7026860117912292 2.4608698263764381 2.2244650796055794 2.3817297592759159 1.7459410950541498 1.6709108948707578 21.811919517815117 2.3025039955973625 1.7474361360073092 1.9864251762628553 1.6660513803362835 2.0624111816287041 1.746739901602268 84.594933733344078 1.5867643132805822
leaf_count=34 28 30 24 24 20 20 34 31 28 30 22 21 275 29 22 25 21 26 22 1067 20
internal_value=0 0.000134041 -2.08683e-05 0.000108879 1.67727e-05 0.000102924 0.00018517 5.6469e-05 0.000121133 -2.12525e-06 4.6967e-05 0.000120767 -8.71659e-06 3.63486e-05 1.31593e-05 4.87133e-05 -2.17082e-05 8.94017e-07 1.58461e-06 -3.74019e-05 -1.40552e-06
internal_weight=0 19.8043 127.207 17.4109 38.8043 6.98991 7.08246 10.3285 4.13375 31.8144 5.08142 4.3736 30.2246 6.74664 6.19473 3.73386 23.478 4.44414 3.49268 88.4025 3.80761
internal_count=1853 249 1604 219 489 88 89 130 52 401 64 55 381 85 78 47 296 56 44 1115 48
is_linear=0
shrinkage=3.72423e-05


Tree=25
num_leaves=22
num_cat=0
split_feature=5 10 27 27 63 22 24 61 43 73 149 109 161 186 136 98 109 157 98 57 134
split_gain=303.304 70.2136 52.1289 43.9625 30.8042 28.72 31.1944 22.6872 18.9255 23.3166 18.7427 15.4967 14.5889 10.4779 10.043 17.711 7.9203 7.14974 4.58718 3.13383 7.80067
threshold=1271.5000000000002 1.0000000180025095e-35 5.5000000000000009 2.5000000000000004 436881.4175687196 18.500000000000004 14.500000000000002 561.96951454041175 3.5000000000000004 5317.5000000000009 275.06250000000006 30.500000000000004 60.500000000000007 7.3819845320527149 54.250000000000007 107.50000000000001 19.500000000000004 1154.5000000000002 63.500000000000007 181885.50000000003 72.500000000000014
decision_type=2 2 2 2 2 2 2 2 2 2 2 2 2 2 2 2 2 2 2 2 2
left_child=1 3 5 4 17 6 -2 -4 11 -10 -7 -3 -5 -12 -9 19 -8 -1 -15 20 -16
right_child=2 8 7 12 -6 10 16 14 9 -11 13 -13 -14 18 15 -17 -18 -19 -20 -21 -22
leaf_value=0.00040370902567147111 0.00023190867955479505 5.2226837704453796e-05 8.3888376234871471e-05 4.0189865903017038e-05 0.00016438800082157652 0.00011496700012524106 9.5456994799904835e-05 4.8989278165071782e-05 0.00014602635451363899 -2.2158624199043514e-05 7.5864515101074971e-05 0.00021379443815721524 0.00018416047978657928 -4.0648869172088518e-05 4.8986607006629316e-05 8.1037688469594624e-05 -1.6714223362407088e-05 0.00029242689826760492 2.8970220545253418e-05 -3.7377692839504421e-05 -4.0532603171725454e-05
leaf_weight=1.7570630088448544 1.908240064978602 1.5908559784293159 2.3817659467458716 1.8274327442049982 1.9916373118758199 1.9064650461077679 1.9061495810747149 2.0632451176643363 1.5894650593399999 4.0501841828227043 1.5878364667296399 1.7514187619090078 2.1477334946393967 7.2172912657260877 2.0633037686347953 1.8261011168360699 1.5875444784760473 1.6733655035495756 1.5876019448041914 98.710103705525398 3.8862982913851738
leaf_count=22 24 20 30 23 25 24 24 26 20 51 20 22 27 91 26 23 20 21 20 1245 49
internal_value=0 0.000141518 -2.02203e-05 0.00021273 0.000281832 3.91065e-05 0.000110699 -2.96959e-05 6.69017e-05 2.50721e-05 7.58243e-06 0.000137188 0.000118224 -1.2024e-05 -3.21972e-05 -3.37795e-05 4.42087e-05 0.000349724 -2.79851e-05 -3.57922e-05 -9.32351e-06
internal_weight=0 18.3792 128.632 9.39723 5.42207 17.7011 5.40193 110.931 8.98192 5.63965 12.2992 3.34227 3.97517 10.3927 108.549 106.486 3.49369 3.43043 8.80489 104.66 5.9496
internal_count=1853 231 1622 118 68 223 68 1399 113 71 155 42 50 131 1369 1343 44 43 111 1320 75
is_linear=0
shrinkage=3.72423e-05


Tree=26
num_leaves=22
num_cat=0
split_feature=35 43 22 116 157 62 132 26 164 93 183 99 47 138 141 107 107 182 186 158 59
split_gain=324.991 105.445 59.1787 38.7376 25.1944 31.0407 24.9471 22.94 19.1244 18.6133 16.8017 16.5824 16.9334 16.1747 12.0042 11.1971 9.57877 5.40867 9.24605 5.20182 3.89579
threshold=1113.5000000000002 2.5000000000000004 10.500000000000002 1.3500797725848217 1162.5000000000002 109.43445817198354 120.50000000000001 15.500000000000002 56.250000000000007 0.10050000000000002 25.500000000000004 24.500000000000004 16.500000000000004 1227.5000000000002 45.500000000000007 248.50000000000003 405.50000000000006 77.500000000000014 14.466617961457393 43.750000000000007 713369.30730593437
decision_type=2 2 2 2 2 2 2 2 2 2 2 2 2 2 2 2 2 2 2 2 2
left_child=1 4 3 -2 10 -6 15 14 -9 19 -1 -5 -13 -11 -3 -4 17 18 -15 -8 -19
right_child=2 7 6 11 5 -7 9 8 -10 13 -12 12 -14 16 -16 -17 -18 20 -20 -21 -22
leaf_value=0.00042474583071102761 0.00018598935413290376 -2.778614363614506e-05 0.00014600017908738666 -2.4933511136542386e-05 7.5520581150680647e-05 0.0003090131219594211 2.8986262412937737e-05 0.00023954128200516571 6.6855650086591827e-05 0.00010780892125614809 0.00026397262020900629 0.00016239069181736085 1.9024481239306678e-05 8.66508692860676e-05 9.9114130906734427e-05 5.5125143635172676e-06 6.7059646080244259e-05 1.5736910467816194e-05 -2.524272519917891e-05 -3.8684071109677721e-05 -3.32672816867104e-05
leaf_weight=1.6776576489210122 2.6231000944972029 2.9389003887772542 1.5896828398108476 4.7602456212043744 1.5923644900321963 1.5940138995647428 1.5872580558061589 1.5905788168311121 2.0666130781173706 1.7476833760738397 2.0739647448062897 1.8280225321650503 3.0968348011374474 1.7456970140338004 1.5900718122720716 1.5876528993248937 2.0628535673022261 2.6182712540030506 2.4590343087911606 89.188919842243195 14.991667702794073
leaf_count=21 33 37 20 60 20 20 20 20 26 22 26 23 39 22 20 20 26 33 31 1125 189
internal_value=0 0.000163516 -1.87513e-05 5.8982e-05 0.000270382 0.000192642 -2.67606e-05 7.28216e-05 0.000142232 -2.95771e-05 0.000336141 2.44808e-05 7.24405e-05 -1.50758e-06 1.65538e-05 7.61111e-05 -9.55024e-06 -1.68397e-05 2.09824e-05 -3.74901e-05 -2.59259e-05
internal_weight=0 15.1242 131.887 12.3082 6.938 3.18638 119.579 8.18616 3.65719 116.401 3.75162 9.6851 4.92486 25.6252 4.52897 3.17734 23.8775 21.8147 4.20473 90.7762 17.6099
internal_count=1853 190 1663 155 87 40 1508 103 46 1468 47 122 62 323 57 40 301 275 53 1145 222
is_linear=0
shrinkage=3.72423e-05


Tree=27
num_leaves=22
num_cat=0
split_feature=43 128 138 1 130 150 22 114 132 104 137 153 145 108 156 133 98 7 182 54 171
split_gain=282.228 85.9114 83.9119 45.343 42.3229 38.3449 37.2048 30.0061 27.7825 18.8504 15.3696 15.2111 11.024 9.02587 8.50943 12.4271 8.2377 5.53117 4.65262 4.37789 3.69898
threshold=2.5000000000000004 1262.5000000000002 1185.5000000000002 198.50000000000003 78.116515837104089 98.500000000000014 1.5000000000000002 2.5000000000000004 295.50000000000006 32.764864944610501 91.875000000000014 596.00000000000011 15.750000000000002 63.500000000000007 353.25000000000006 75.500000000000014 84.500000000000014 26.500000000000004 32.500000000000007 4.7349116283957144 138.50000000000003
decision_type=2 2 2 2 2 2 2 10 2 2 2 2 2 2 2 2 2 2 2 2 2
left_child=2 5 3 9 -4 7 -7 10 20 -1 -2 16 -9 -12 15 -3 17 18 -8 -16 -6
right_child=1 14 4 -5 8 6 11 12 -10 -11 13 -13 -14 -15 19 -17 -18 -19 -20 -21 -22
leaf_value=0.00021825556636193602 0.00014594256231022728 -4.0291113781929859e-05 0.0002353466912345464 7.5576290858820884e-05 2.8896535156268234e-05 0.00014331967521193044 2.8996550341518198e-05 0.00026308055145057906 0.00015925586981646413 0.00036401125322526874 -4.0348891802336433e-05 9.5385918143355122e-05 0.0001226590501178795 7.5814979265830931e-05 -3.7985489154220075e-05 9.9353105902526883e-05 6.0556594956729032e-05 2.5889422806465839e-05 -3.8017087278608249e-05 1.9917797836317716e-05 -4.0477862037798991e-05
leaf_weight=2.1524891108274451 1.5901623070240001 1.983005411922931 1.7496080100536326 1.5916292145848272 1.5891830325126646 2.6241940930485752 1.5870374962687588 1.5899228453636172 1.6704746037721632 3.0333430022001266 2.2232444211840634 1.9071140736341465 1.5888843312859533 1.5884870141744611 93.546589553356171 1.5874409675598142 1.8276271075010289 2.7780601829290381 13.804277397692202 1.8244553580880154 3.1738468259572983
leaf_count=27 20 25 22 20 20 33 20 20 21 38 28 24 20 20 1180 20 23 35 174 23 40
internal_value=0 -1.73686e-05 0.000153305 0.000250279 7.28655e-05 3.45453e-05 1.07954e-05 0.00010232 2.85228e-05 0.000303708 4.86528e-05 -5.03786e-06 0.000193208 7.80637e-06 -3.47505e-05 2.15243e-05 -1.46646e-05 -2.2285e-05 -3.10437e-05 -3.68676e-05 -1.71265e-05
internal_weight=0 132.051 14.9606 6.77746 8.18311 33.109 24.5283 8.5807 6.4335 5.18583 5.40189 21.9041 3.17881 3.81173 98.9415 3.57045 19.997 18.1694 15.3913 95.371 4.76303
internal_count=1853 1665 188 85 103 417 309 108 81 65 68 276 40 48 1248 45 252 229 194 1203 60
is_linear=0
shrinkage=3.72423e-05


Tree=28
num_leaves=22
num_cat=0
split_feature=43 19 82 98 182 111 179 99 120 53 123 149 133 87 113 147 181 94 52 120 26
split_gain=282.175 127.642 85.708 40.3461 33.6614 32.2834 28.0133 24.3121 21.5059 19.0835 16.4545 14.2817 17.7143 14.0157 10.3219 8.18307 5.75834 4.8396 5.91998 6.64631 4.24855
threshold=2.5000000000000004 1113.5000000000002 255.50000000000003 48.500000000000007 72.500000000000014 4.1324910373522536 10.368727050183603 25.500000000000004 4.3715171703043918 18.500000000000004 5.5000000000000009 268.87500000000006 77.500000000000014 114.50000000000001 18.500000000000004 212.50000000000003 0.78597575002862097 0.31525152770071679 5.4858955995862191 4.2084360410831012 20.500000000000004
decision_type=2 2 2 2 2 10 8 2 2 2 2 2 2 2 10 2 2 2 2 2 2
left_child=1 5 3 8 -5 9 15 14 -2 -1 -9 12 -4 -8 -3 -6 -17 -13 19 -19 -10
right_child=2 7 11 4 6 -7 13 10 20 -11 -12 17 -14 -15 -16 16 -18 18 -20 -21 -22
leaf_value=0.00037617523532377302 9.4855865145871242e-05 7.5785197320153076e-05 -4.0270822994415455e-05 0.00023175101882584253 8.6437960534418835e-05 0.00012212413221309817 0.00019300012880695515 0.00021623569050362642 -3.6667637887000226e-05 0.00023249678636690665 4.7885639072533425e-05 -3.9384475004389176e-05 0.00012183304265381863 6.2901689859074365e-05 -4.0477901414379967e-05 -4.0463842044863898e-05 3.6925874509495272e-05 4.3993444698666045e-05 4.8043196849869535e-05 -3.2069564881576256e-05 2.8959662180502527e-05
leaf_weight=3.034157156944274 2.4636559858918217 1.5888784602284411 1.9038007035851472 1.9093268886208523 1.7485231533646555 1.5939671173691747 2.5444222390651712 1.589929945766926 9.2815695479512197 2.3128401413559914 1.668815419077873 80.619262240827084 1.8259949460625646 2.1454463824629784 3.1738751754164696 3.0166100561618805 2.3833948522806168 1.7455677986145079 1.6659918427467335 17.207205131649971 1.5878282487392414
leaf_count=38 31 20 24 24 22 20 32 20 117 29 21 1017 23 27 40 38 30 22 21 217 20
internal_value=0 0.000153279 -1.73682e-05 4.16873e-05 8.64572e-05 0.000270247 6.2939e-05 5.19433e-05 -4.40239e-06 0.000314217 0.000130328 -3.26133e-05 3.88309e-05 0.000133696 -1.48638e-06 1.63801e-05 -6.12601e-06 -3.52551e-05 -1.9062e-05 -2.50124e-05 -2.69908e-05
internal_weight=0 14.9625 132.049 27.0808 13.7477 6.94096 11.8384 8.0215 13.3331 5.347 3.25875 104.968 3.7298 4.68987 4.76275 7.14853 5.4 101.238 20.6188 18.9528 10.8694
internal_count=1853 188 1665 341 173 87 149 101 168 67 41 1324 47 59 60 90 68 1277 260 239 137
is_linear=0
shrinkage=3.72423e-05


Tree=29
num_leaves=22
num_cat=0
split_feature=128 48 132 128 22 99 183 62 22 60 183 164 141 47 46 73 93 156 111 147 22
split_gain=296.245 82.2342 55.1669 47.5397 40.9053 30.6169 27.664 21.9887 21.7307 26.647 24.2268 20.0023 19.106 27.115 11.2416 8.63612 7.83188 8.57962 6.66947 5.95492 5.09246
threshold=1020.5000000000001 1.0000000180025095e-35 120.50000000000001 938.50000000000011 12.500000000000002 25.500000000000004 33.500000000000007 109.43445817198354 31.500000000000004 106.436531617592 33.500000000000007 28.250000000000004 29.500000000000004 16.500000000000004 8.5000000000000018 13264.000000000002 0.10125000000000002 323.75000000000006 14.651652400286144 287.50000000000006 254.50000000000003
decision_type=2 2 2 2 2 2 2 2 2 2 2 2 2 2 2 2 2 2 8 2 2
left_child=1 3 15 6 5 19 -1 -5 9 10 -3 -6 -7 -14 -10 -2 -13 -18 20 -4 -19
right_child=2 8 4 7 11 12 -8 -9 14 -11 -12 16 13 -15 -16 -17 17 18 -20 -21 -22
leaf_value=0.00039395314112687733 0.00019281001234860764 0.00028575602620762273 3.2100332191232422e-05 5.564970229902021e-05 9.9242901954838802e-05 0.0002160932689070079 0.00019214313763096352 0.00021392345636420728 -2.9596174474842271e-05 1.0823406073104993e-05 8.9843550313589146e-05 -3.8664653270621796e-05 0.00016231565975745646 -4.0251445216600814e-05 8.6453989249318591e-05 7.0228570401935069e-05 6.5266164618862726e-05 -3.3985423629970859e-05 5.246531549043428e-05 -4.0541338040794064e-05 2.5839499686903367e-05
leaf_weight=2.3961131423711799 1.5899562388658517 1.5935096517205223 2.5412486568093282 2.3066806197166443 1.5886531546711911 1.5907969921827314 1.5944256559014318 2.6277581676840782 3.4144796580076218 2.1456568017601967 1.9879847839474676 88.387939378619194 1.8286838605999949 1.8256049603223798 1.7483100295066831 1.668406546115875 1.746530763804915 16.576195560395725 1.5869668647646893 4.0438954755663872 2.2212559878826132
leaf_count=30 20 20 32 29 20 20 20 33 43 27 25 1115 23 23 22 21 22 209 20 51 28
internal_value=0 0.000133945 -2.08663e-05 0.000217797 -2.48498e-05 4.09774e-05 0.000313573 0.000140137 6.51317e-05 0.000115096 0.00017729 -3.1805e-05 0.000108127 6.08533e-05 9.51536e-06 0.000130348 -3.36977e-05 -1.38161e-05 -2.064e-05 -1.23605e-05 -2.68641e-05
internal_weight=0 19.8149 127.196 8.92498 123.938 11.8302 3.99054 4.93444 10.8899 5.72715 3.58149 112.108 5.24509 3.65429 5.16279 3.25836 110.519 22.1309 20.3844 6.58514 18.7975
internal_count=1853 249 1604 112 1563 149 50 62 137 72 45 1414 66 46 65 41 1394 279 257 83 237
is_linear=0
shrinkage=3.72423e-05


end of trees

feature_importances:
22=27
93=24
38=16
27=15
98=15
128=14
120=12
156=11
157=11
132=10
183=10
5=9
43=9
19=8
54=8
99=8
138=8
141=8
164=8
73=7
111=7
1=6
7=6
8=6
35=6
61=6
118=6
127=6
159=6
174=6
179=6
187=6
0=5
56=5
70=5
82=5
92=5
109=5
116=5
150=5
161=5
171=5
173=5
182=5
184=5
2=4
10=4
26=4
40=4
48=4
52=4
57=4
59=4
74=4
81=4
94=4
95=4
97=4
108=4
114=4
117=4
133=4
136=4
143=4
147=4
149=4
166=4
176=4
177=4
188=4
23=3
30=3
47=3
51=3
60=3
64=3
67=3
69=3
72=3
85=3
96=3
102=3
104=3
106=3
107=3
110=3
130=3
134=3
137=3
139=3
152=3
154=3
155=3
163=3
175=3
178=3
3=2
6=2
9=2
17=2
25=2
32=2
46=2
62=2
63=2
65=2
84=2
87=2
103=2
113=2
129=2
135=2
142=2
144=2
145=2
148=2
151=2
153=2
169=2
181=2
186=2
190=2
13=1
20=1
24=1
31=1
42=1
53=1
68=1
78=1
89=1
91=1
100=1
101=1
112=1
123=1
131=1
146=1
158=1
162=1
167=1
170=1
172=1
180=1
185=1
189=1

parameters:
[boosting: gbdt]
[objective: binary]
[metric: average_precision]
[tree_learner: serial]
[device_type: cpu]
[data: ]
[valid: ]
[num_iterations: 30]
[learning_rate: 3.72423e-05]
[num_leaves: 22]
[num_threads: -1]
[deterministic: 0]
[force_col_wise: 0]
[force_row_wise: 0]
[histogram_pool_size: -1]
[max_depth: 15]
[min_data_in_leaf: 20]
[min_sum_hessian_in_leaf: 0.001]
[bagging_fraction: 0.7]
[pos_bagging_fraction: 1]
[neg_bagging_fraction: 1]
[bagging_freq: 0]
[bagging_seed: 21897]
[feature_fraction: 0.7]
[feature_fraction_bynode: 0.4]
[feature_fraction_seed: 12646]
[extra_trees: 0]
[extra_seed: 20733]
[early_stopping_round: 0]
[first_metric_only: 0]
[max_delta_step: 0]
[lambda_l1: 0.0261486]
[lambda_l2: 0.000143004]
[linear_lambda: 0]
[min_gain_to_split: 0]
[drop_rate: 0.1]
[max_drop: 50]
[skip_drop: 0.5]
[xgboost_dart_mode: 0]
[uniform_drop: 0]
[drop_seed: 20829]
[top_rate: 0.2]
[other_rate: 0.1]
[min_data_per_group: 100]
[max_cat_threshold: 32]
[cat_l2: 10]
[cat_smooth: 10]
[max_cat_to_onehot: 4]
[top_k: 20]
[monotone_constraints: ]
[monotone_constraints_method: basic]
[monotone_penalty: 0]
[feature_contri: ]
[forcedsplits_filename: ]
[refit_decay_rate: 0.9]
[cegb_tradeoff: 1]
[cegb_penalty_split: 0]
[cegb_penalty_feature_lazy: ]
[cegb_penalty_feature_coupled: ]
[path_smooth: 0]
[interaction_constraints: ]
[verbosity: -1]
[saved_feature_importance_type: 0]
[linear_tree: 0]
[max_bin: 255]
[max_bin_by_feature: ]
[min_data_in_bin: 3]
[bin_construct_sample_cnt: 200000]
[data_random_seed: 182]
[is_enable_sparse: 1]
[enable_bundle: 1]
[use_missing: 1]
[zero_as_missing: 0]
[feature_pre_filter: 1]
[pre_partition: 0]
[two_round: 0]
[header: 0]
[label_column: ]
[weight_column: ]
[group_column: ]
[ignore_column: ]
[categorical_feature: ]
[forcedbins_filename: ]
[precise_float_parser: 0]
[objective_seed: 3944]
[num_class: 1]
[is_unbalance: 0]
[scale_pos_weight: 1]
[sigmoid: 1]
[boost_from_average: 1]
[reg_sqrt: 0]
[alpha: 0.9]
[fair_c: 1]
[poisson_max_delta_step: 0.7]
[tweedie_variance_power: 1.5]
[lambdarank_truncation_level: 30]
[lambdarank_norm: 1]
[label_gain: ]
[eval_at: ]
[multi_error_top_k: 1]
[auc_mu_weights: ]
[num_machines: 1]
[local_listen_port: 12400]
[time_out: 120]
[machine_list_filename: ]
[machines: ]
[gpu_platform_id: -1]
[gpu_device_id: -1]
[gpu_use_dp: 0]
[num_gpu: 1]

end of parameters

pandas_categorical:[]
