tree
version=v3
num_class=1
num_tree_per_iteration=1
label_index=0
max_feature_idx=191
objective=binary sigmoid:1
feature_names=0 1 2 3 4 5 6 7 8 9 10 11 12 13 14 15 16 17 18 19 20 21 22 23 24 25 26 27 28 29 30 31 32 33 34 35 36 37 38 39 40 41 42 43 44 45 46 47 48 49 50 51 52 53 54 55 56 57 58 59 60 61 62 63 64 65 66 67 68 69 70 71 72 73 74 75 76 77 78 79 80 81 82 83 84 85 86 87 88 89 90 91 92 93 94 95 96 97 98 99 100 101 102 103 104 105 106 107 108 109 110 111 112 113 114 115 116 117 118 119 120 121 122 123 124 125 126 127 128 129 130 131 132 133 134 135 136 137 138 139 140 141 142 143 144 145 146 147 148 149 150 151 152 153 154 155 156 157 158 159 160 161 162 163 164 165 166 167 168 169 170 171 172 173 174 175 176 177 178 179 180 181 182 183 184 185 186 187 188 189 190 191
feature_infos=[230:8666] [4:3137] [2:5582] [0:32] [0:37] [211:8175] [38:4283] [1:122] [0:159] [0:618] [0:59] [0:26] [0:41] [0:25] [0:116] [0:66] [0:34] [0:44] [0:14] [191:7009] [36:4040] [0:3137] [0:3534] [0:3795] [0:535] [0:2170] [0:83] [0:130] [0:2174] [0:2189] [0:382] [0:228] [0:46] [0:294] none [191:7009] [36:4040] [0:3137] [0:3534] [0:3795] [0:535] [0:2170] [0:83] [0:130] [0:2174] [0:2189] [0:382] [0:228] [0:46] [0:294] none [39:2482] [2.7324840764331211:30.759656652360515] [11:1994] [1.8302558051784696:173.06106169868764] [1:6] [0.58993335590567031:20.641822418068703] [13452:1043640] [65797.576335877864:7897552.4394703656] [65864.526717557252:7897639.396595208] [8.423293675641828:282.61244695898159] [113.70992366412214:3734.2466999445369] [19.251908396946565:656.70402764280311] [63626.783202252162:1545223.3443937181] [63631.924177016808:1545218.0259529904] [14.770675283608362:5723.223756313052] [59.864916717840629:2240.0041909307038] [9.9268153508934542:385.17228280978247] [47035:7906955] [47118.5:7907008] [1:203] [100.5:3731] [21:788.5] [106:7452424] [252:7452567] [0:26] none none [229452:8313630] [229548:8313707] [153:327738] [207:7802] [35:1326] [47083:7907086] [47162:7907118] [1:203] [101:3731] [21:789] [3:7] [6:36] [6:36] [5:50] [2.9900000000000002:1230.7280000000001] [0:0.43149999999999999] [0.068888888888888597:1.6610000000000007] [0.18401149997754451:30.76267351292498] [78.659999999999982:2460.7949999999942] [7:468] [1:192] [1:117] [0:147] [0:67] [0:93] [9.8958333333333339:982.5] [8.7308110170459123:966.86727803423639] [2:182] [1:982.5] [37:2763] [1:1527] [1:1784] [1:116.1851851851852] [0:191.62965826282195] [1:7] [1:1097] [1:125] [1:528] [0.62762762762762758:61.888997555012224] [4:1683] [6:2983] [35:1333] [3.8069306930693063:6.5409836065573774] [1:2] [9:47] [1:19] [1:19] [2:4] [3:6] [4:9] [171:6570] [1:76] [37.966666666666669:1316] [1:1316] [63:1723] [3:1316] [1:1316] [11:1316] [21:1316] [43:1316] [204:7840] [7.4146341463414638:234] [1:234] [12:305] [1:234] [1:234] [2.5:234] [4:234] [8.75:234] [35:1333] [1:25] [69.5:2960] [1:2960] [163:2960] [4:2960] [1:2960] [1:2960] [5:2960] [42.5:2960] [207:7959] [12.77777777777778:689.5] [1:609] [28:2470] [1:609] [1:2470] [1:609] [4:609] [13:893] [35:3820] [0.0026455026455025998:1] [-1:0.99470899470899476] [0.0026455026455025998:1] [0:547] [0:1085] [0:302] [35:1331] [0:1] [0:1] [0:1] [0:4.4358974358974361] [0:161.5] [0:399] [0.1575237515308755:5.6750517349004781] [0.16190221747261549:1.2692953020134228] [8:258] [2:155] [0.063995803778656102:0.96637023560696755] [0.063995803778656102:0.96637023560696755] [3.0270810810810813:242.6565555555556] [2.6070000000000002:65.813999999999993] [15.727188065399501:891.45599380389433] [0:8927] [0:6725] [1:4703]
tree_sizes=1969 2080 2061 2083 2069 2074 2076 2089 2092 2076 2080 2073 2072 2079 2080 2063 2073 2073 2052 2053

Tree=0
num_leaves=18
num_cat=0
split_feature=72 110 138 22 171 31 22 114 171 150 156 56 115 132 102 171 132
split_gain=247.712 87.3384 55.0124 48.2201 47.5071 43.6446 28.6651 51.0632 28.0699 22.7533 18.5653 24.0153 14.2064 10.9998 9.71342 5.73479 8.95851
threshold=118.50000000000001 2.3908730158730163 1136.5000000000002 1.0000000180025095e-35 50.500000000000007 32.500000000000007 10.500000000000002 2.5000000000000004 71.500000000000014 89.500000000000014 352.87500000000006 1.7472652676164833 1.5000000000000002 124.50000000000001 18.500000000000004 136.50000000000003 153.50000000000003
decision_type=2 2 2 2 2 2 2 2 2 2 2 2 2 2 2 2 2
left_child=1 2 -1 5 -3 -2 7 -6 -5 14 11 -10 -4 -11 -8 16 -12
right_child=3 4 12 8 6 -7 9 -9 10 13 15 -13 -14 -15 -16 -17 -18
leaf_value=-2.3794959516937877 -2.3795924630223579 -2.3795960391307776 -2.3797177430605085 -2.3797163210924293 -2.3797632057968636 -2.379794352542989 -2.3796644480326763 -2.3795753228150196 -2.3797000662152543 -2.3797240424600927 -2.3797282345885153 -2.3798047383831173 -2.3796094344681276 -2.3798047853757467 -2.3797596784774173 -2.3798090231562341 -2.3797981714661658
leaf_weight=2.0938156396150616 1.6285232752561563 1.78362073004246 2.3264618217945103 2.8693029135465613 2.7917541861534145 1.6285232752561567 1.8611694574356072 1.8611694574356077 2.9468516409397116 1.5509745478630046 1.6285232752561558 3.8774363696575165 1.6285232752561567 7.5997752845287323 1.5509745478630064 94.1441550552845 9.9262371063232404
leaf_count=27 21 23 30 37 36 21 24 24 38 20 21 50 21 98 20 1214 128
internal_value=-2.37978 -2.3797 -2.37961 -2.3798 -2.37973 -2.37969 -2.37975 -2.37969 -2.3798 -2.37977 -2.3798 -2.37976 -2.37967 -2.37979 -2.37971 -2.37981 -2.37979
internal_weight=0 25.0482 6.0488 118.65 18.9994 3.25705 17.2158 4.65292 115.393 12.5629 112.523 6.82429 3.95499 9.15075 3.41214 105.699 11.5548
internal_count=1853 323 78 1530 245 42 222 60 1488 162 1451 88 51 118 44 1363 149
is_linear=0
shrinkage=1


Tree=1
num_leaves=18
num_cat=0
split_feature=138 138 113 187 98 185 154 83 174 8 189 62 154 151 158 98 8
split_gain=318.061 83.5346 57.1169 39.436 33.7887 30.0887 28.8112 24.963 23.7374 16.8223 15.2303 13.4401 11.5212 9.97724 6.30116 6.15122 16.8889
threshold=1145.5000000000002 1497.5000000000002 22.500000000000004 4.5952500000000009 50.500000000000007 0.62076913126435274 116.00000000000001 685728.50000000012 0.37530487804878054 2.5000000000000004 522.00000000000011 104.0233998134451 197.87500000000003 512.50000000000011 70.550000000000011 58.500000000000007 12.500000000000002
decision_type=2 2 2 2 2 2 2 2 2 2 2 2 2 2 2 2 2
left_child=2 3 8 4 14 7 -5 -6 -1 -3 -8 -4 -9 -14 -2 -11 -17
right_child=1 9 11 6 5 -7 10 12 -10 15 -12 -13 13 -15 -16 16 -18
leaf_value=0.00017966810136116977 3.0396461470011934e-05 4.0662352269572709e-05 0.00013861929315644151 0.00011141244495277322 0.00016486624674141501 0.00018038932998460896 6.1975571397207357e-05 9.6475665493095473e-05 0.0003098990454026978 -2.7345591098622923e-05 -2.3956751711241219e-05 2.8434650535581284e-05 -1.8849848848322042e-05 5.6045503331849347e-05 -2.9676609438072377e-05 4.2212595204660293e-05 -2.7096178946523153e-05
leaf_weight=3.0248401463031751 2.7142445221543339 3.10196279734373 1.6286594718694689 1.551083236932757 1.5510556995868663 2.0939816161990157 1.7837451770901669 2.171443797647953 1.783946096897125 85.922315575182438 13.41596560180187 1.8612630441784856 2.5591062232851982 2.8693851381540298 2.6367020756006241 3.7999307066202155 9.2281414270400983
leaf_count=39 35 40 21 20 20 27 23 28 23 1108 173 24 33 37 34 49 119
internal_value=0 -1.02047e-05 0.000166427 2.78369e-05 5.80992e-05 8.53583e-05 -2.06564e-06 6.33914e-05 0.000228481 -2.26499e-05 -1.37648e-05 8.03599e-05 4.2422e-05 2.04838e-05 5.25708e-07 -2.46507e-05 -6.76379e-06
internal_weight=0 135.399 8.29871 33.3467 16.5959 11.245 16.7508 9.15099 4.80879 102.052 15.1997 3.48992 7.59994 5.42849 5.35095 98.9504 13.0281
internal_count=1853 1746 107 430 214 145 216 118 62 1316 196 45 98 70 69 1276 168
is_linear=0
shrinkage=2.77009e-05


Tree=2
num_leaves=18
num_cat=0
split_feature=51 128 27 38 79 168 111 146 27 128 93 180 150 158 146 65 131
split_gain=320.205 84.2223 54.9443 39.183 38.1159 38.1878 23.9515 23.7652 35.1226 22.2154 29.0834 21.6685 21.2569 19.0146 15.4836 7.28501 7.15211
threshold=256.50000000000006 943.00000000000011 5.5000000000000009 16.500000000000004 1735864.5000000002 0.55000000000000016 3.3252207457216296 17.875000000000004 2.5000000000000004 1266.5000000000002 0.11250000000000002 1.0558380477552747 107.50000000000001 61.861111111111121 20.875000000000004 50.077453400685876 53.500000000000007
decision_type=2 2 2 2 2 2 2 2 2 2 2 2 2 2 2 2 2
left_child=1 4 3 6 -1 -6 -2 -3 -9 10 -4 -12 14 -13 -5 -8 -10
right_child=2 7 9 12 5 -7 15 8 16 -11 11 13 -14 -15 -16 -17 -18
leaf_value=0.00031053819500414013 0.00017954675710384009 0.00013769671747852834 -1.9050570382342946e-05 0.0001292306628491705 0.00024787518732708364 6.8856657075421884e-05 9.2969080151165324e-05 0.0001471458817511666 -2.967671651642271e-05 -2.6926653021059162e-05 -8.6949969419935311e-06 4.0485167083972014e-05 -1.5822133370784416e-05 0.00016335641509714315 4.5132177605909142e-06 1.3580913628409811e-05 4.0349347275783044e-05
leaf_weight=1.8618712276220311 1.7063227817416216 2.7920869067311269 12.485286228358747 1.5510693415999406 1.7842023298144343 1.939115561544895 1.7837699055671694 1.7063443288207052 2.6367783397436142 91.736409179866314 2.6367929279804221 2.3266720548272133 9.6936203166842443 1.7062449082732198 1.5510278344154356 1.8612741455435751 1.938873656094074
leaf_count=24 22 36 161 20 23 25 23 22 34 1183 34 30 125 22 20 24 25
internal_value=0 0.000122667 -1.39385e-05 3.07076e-05 0.000207405 0.000155189 9.36344e-05 7.02876e-05 4.00345e-05 -2.12585e-05 5.81191e-06 5.2554e-05 4.2585e-06 9.29285e-05 6.74166e-05 5.2881e-05 0
internal_weight=0 14.6593 129.038 18.1471 5.58519 3.72332 5.35137 9.07408 6.282 110.891 19.155 6.66971 12.7957 4.03292 3.1021 3.64504 4.57565
internal_count=1853 189 1664 234 72 48 69 117 81 1430 247 86 165 52 40 47 59
is_linear=0
shrinkage=2.77009e-05


Tree=3
num_leaves=18
num_cat=0
split_feature=0 0 132 22 137 68 48 32 169 78 67 42 154 78 72 72 67
split_gain=305.943 66.7255 58.2845 39.7962 36.0378 24.4508 23.8613 15.6948 18.9408 21.5716 14.6728 27.2923 12.6897 9.61992 6.28064 5.83045 5.2094
threshold=1395.5000000000002 1243.5000000000002 139.50000000000003 18.500000000000004 286.00000000000006 1033777.5000000001 1.0000000180025095e-35 1.0000000180025095e-35 0.22500000000000003 1800917.5000000002 98.395571476193325 23.500000000000004 58.125000000000007 1769359.0000000002 120.50000000000001 123.25000000000001 63.016477609410245
decision_type=2 2 2 2 2 2 2 2 2 2 2 2 2 2 2 2 2
left_child=1 6 3 -2 7 13 -1 8 -4 -10 11 15 -9 -3 -14 -5 -15
right_child=2 5 4 10 -6 -7 -8 12 9 -11 -12 -13 14 16 -16 -17 -18
leaf_value=0.00027331639090999037 0.00013768394583992395 9.5715339876121144e-05 -1.0423628656466749e-05 4.0143954906390829e-05 0.00010269425459939958 0.00016865589524966238 0.00013940768185971428 4.9959468987141237e-05 0.00011990587108564433 -1.3155136042180784e-05 -2.9776740573392982e-05 0.00012194171509867127 -2.0672644885763831e-06 -1.2345604632248485e-05 -2.8038374099057797e-05 -2.9575222876406401e-05 5.796106575404336e-05
leaf_weight=2.6380786225199682 2.7922956496477118 2.4044447764754295 16.827932797372345 1.551113680005072 1.8613683655858029 1.9391970112919805 1.7843249067664144 1.7061766237020481 2.0165315940976138 1.7061260864138601 3.1793328747153282 2.1715075522661209 7.9103787243366233 1.6288389638066294 87.78008559346199 2.2489099279046059 1.551101818680763
leaf_count=34 36 31 217 20 24 25 23 22 26 22 41 28 102 21 1132 29 20
internal_value=0 0.00013421 -1.21722e-05 4.61396e-05 -1.79984e-05 8.36396e-05 0.000219775 -1.99184e-05 2.0147e-06 5.85829e-05 1.8004e-05 4.36873e-05 -2.4561e-05 5.37676e-05 -2.59067e-05 -7.26276e-07 2.15226e-05
internal_weight=0 11.946 131.752 11.9432 119.809 7.52358 4.4224 117.947 20.5506 3.72266 9.15086 5.97153 97.3966 5.58439 95.6905 3.80002 3.17994
internal_count=1853 154 1699 154 1545 97 57 1521 265 48 118 77 1256 72 1234 49 41
is_linear=0
shrinkage=2.77009e-05


Tree=4
num_leaves=18
num_cat=0
split_feature=43 5 38 98 98 149 184 74 53 24 0 19 38 42 66 82 99
split_gain=329.08 128.421 54.0005 41.9283 37.0422 34.1713 26.3251 22.4117 21.4728 20.7632 19.1718 16.7972 15.2573 10.9973 7.42143 7.09643 14.3885
threshold=2.5000000000000004 1150.0000000000002 14.500000000000002 48.500000000000007 62.500000000000007 280.25000000000006 0.62237439429596975 28668.000000000004 23.500000000000004 41.500000000000007 1243.5000000000002 1054.0000000000002 18.500000000000004 19.500000000000004 430.73601147706569 230.50000000000003 33.500000000000007
decision_type=2 2 2 2 2 2 2 2 2 2 2 2 2 2 2 2 2
left_child=1 10 3 -2 12 8 7 -5 9 13 -1 -7 -3 -4 -6 16 -13
right_child=2 4 5 6 14 11 -8 -9 -10 -11 -12 15 -14 -15 -16 -17 -18
leaf_value=0.00028236508243669562 -1.3427168225000862e-05 8.7689622908893947e-05 6.1969275152593407e-05 0.00011990089157319993 0.00018262500377702267 5.8124895749511587e-05 0.00015931608533349863 2.5238828894691107e-06 -1.559062370171535e-05 -1.1449151753713731e-05 0.00016862640215223782 -1.9780566943911357e-05 -1.4316488939053837e-05 0.00016484636207952621 9.3582093225034991e-05 -2.7431928530518233e-05 7.5769846900705e-05
leaf_weight=3.1818480417132369 6.6691830009222013 1.6289235204458217 1.7838632687926277 2.0165972411632538 1.5514755323529246 1.8616028726100911 2.3271427378058434 3.3349651992321014 3.8775644823908806 1.5510930493474004 1.9394807219505308 5.4286020174622527 3.567472942173481 1.5512116774916647 1.5512497052550314 98.324251532554626 1.5512125119566915
leaf_count=41 86 21 23 26 20 24 30 43 50 20 25 70 46 20 20 1268 20
internal_value=0 0.000130589 -1.34558e-05 3.71975e-05 6.29911e-05 -1.97383e-05 8.13397e-05 4.70758e-05 3.27733e-05 7.14317e-05 0.000239725 -2.4047e-05 1.74215e-05 0.000110381 0.000138735 -2.55154e-05 1.27697e-06
internal_weight=0 13.4205 130.277 14.3479 8.29912 115.929 7.67871 5.35156 8.76373 4.88617 5.12133 107.166 5.1964 3.33507 3.10273 105.304 6.97981
internal_count=1853 173 1680 185 107 1495 99 69 113 63 66 1382 67 43 40 1358 90
is_linear=0
shrinkage=2.77009e-05


Tree=5
num_leaves=18
num_cat=0
split_feature=138 67 37 43 38 181 57 139 81 145 2 116 38 138 104 2 177
split_gain=317.844 90.9319 74.4956 37.4192 36.6692 30.6777 24.3082 23.3911 22.3771 22.0448 20.1129 10.4133 9.72834 18.7458 4.91513 11.3081 3.58977
threshold=1145.5000000000002 67.742310563910578 169.50000000000003 5.5000000000000009 24.500000000000004 0.83869098331433023 166760.00000000003 26.522727272727277 1259.5000000000002 12.250000000000002 92.500000000000014 1.7493702971084362 7.5000000000000009 1633.5000000000002 52.072129653143115 176.50000000000003 1.1079765460781064
decision_type=2 2 2 2 2 2 2 2 2 2 2 2 2 2 2 2 10
left_child=2 5 4 7 -1 6 8 9 -2 -3 -7 -8 13 -5 15 -11 -14
right_child=1 3 -4 12 -6 10 11 -9 -10 14 -12 -13 16 -15 -16 -17 -18
leaf_value=0.00029012287316813401 2.3920553188544968e-05 8.8022781350404169e-05 5.3754245784316443e-05 9.3576777963538316e-05 0.00014118160315231611 0.00016282277760375176 5.7952077385059647e-05 0.00012163443758195962 0.00016481701595999975 -1.5591427554333853e-05 4.3273030563157911e-05 -2.428230403288945e-05 -2.659533908811908e-05 -2.1890090777601025e-05 -2.4801248256448309e-05 6.506569660758344e-05 1.021824179397645e-05
leaf_weight=3.1047104969620687 2.0166132003068911 2.3268701806664458 2.947706937789917 1.551314815878867 2.2505223080515862 2.7151948586106291 1.551254868507385 1.6288156136870373 1.551441930234432 3.8777401149272901 1.8616300001740453 4.885935477912426 98.555245459079742 3.4894969910383224 5.3506572395563126 2.0163826197385788 2.0161962658166876
leaf_count=40 26 30 38 20 29 35 20 21 20 50 24 63 1271 45 69 26 26
internal_value=0 -1.0204e-05 0.000166325 -1.81002e-05 0.00022794 5.51058e-05 2.77213e-05 2.2483e-05 8.5695e-05 1.04472e-05 0.000114585 -4.21941e-06 -2.39555e-05 1.34013e-05 -5.50069e-06 1.17802e-05 -2.58426e-05
internal_weight=0 135.395 8.30294 120.813 5.35523 14.5821 10.0052 15.2005 3.56806 13.5717 4.57682 6.43719 105.612 5.04081 11.2448 5.89412 100.571
internal_count=1853 1746 107 1558 69 188 129 196 46 175 59 83 1362 65 145 76 1297
is_linear=0
shrinkage=2.77009e-05


Tree=6
num_leaves=18
num_cat=0
split_feature=43 81 62 19 94 129 130 120 153 184 135 153 155 56 86 108 97
split_gain=328.991 110.719 81.8499 24.2895 28.0276 23.547 27.4309 19.3714 26.1174 16.2951 11.7145 10.4378 7.58327 7.18215 5.93323 4.68444 18.0165
threshold=2.5000000000000004 1160.5000000000002 127.63297595466629 1112.5000000000002 0.4150439630107236 7.5000000000000009 79.161371237458212 4.7401426998977918 188.50000000000003 0.58729126025251566 43.625000000000007 337.50000000000006 165.25000000000003 6.5632569520629209 727.50000000000011 76.500000000000014 141.50000000000003
decision_type=2 2 2 2 2 2 2 2 2 2 2 2 2 2 2 2 2
left_child=1 11 5 -3 -5 -2 7 8 -7 -6 -10 -1 -4 -14 15 -8 -17
right_child=2 3 12 4 9 6 14 -9 10 -11 -12 -13 13 -15 -16 16 -18
leaf_value=0.00020028267064078545 0.00012586458222027622 0.00015925501313513129 3.3758794097218094e-05 -4.3054400075004993e-06 0.00017249820515369982 0.00018944246506253477 -2.1422584565169531e-05 2.6296905695977363e-06 1.3523735878673556e-06 5.8341215577314961e-05 0.00010265948517851482 0.00029987601970580868 -2.591622908015401e-05 1.8804613241099229e-05 4.9954304375520925e-05 -1.6676531231386071e-05 9.3580064692077021e-05
leaf_weight=1.552504584193229 1.9394212365150476 2.3278817981481534 1.7061763554811467 3.2573621273040771 1.6291443258523939 1.629296258091929 6.4371886625885946 2.4821061119437218 1.7064247429370882 2.4822953268885612 1.8618451133370397 2.1738227158784866 102.27517011761665 2.7917859032750121 1.7062826231122006 4.1877322718501091 1.5512745454907415
leaf_count=20 25 30 22 42 21 21 83 32 22 32 24 28 1319 36 22 54 20
internal_value=0 0.000130557 -1.34554e-05 8.09671e-05 5.59722e-05 3.33165e-05 2.49052e-05 6.6904e-05 9.72973e-05 0.00010404 5.46674e-05 0.000259008 -2.37646e-05 -2.47136e-05 1.55636e-06 -5.12037e-06 1.29159e-05
internal_weight=0 13.423 130.275 9.69668 7.3688 23.5016 21.5622 7.67967 5.19757 4.11144 3.56827 3.72633 106.773 105.067 13.8825 12.1762 5.73901
internal_count=1853 173 1680 125 95 303 278 99 67 53 46 48 1377 1355 179 157 74
is_linear=0
shrinkage=2.77009e-05


Tree=7
num_leaves=18
num_cat=0
split_feature=138 1 8 155 173 130 171 32 130 153 98 152 117 135 127 176 85
split_gain=317.727 81.2046 79.8309 52.1878 34.5694 33.1129 21.139 20.8156 19.1522 19.1133 12.7249 20.1263 11.7449 9.76224 8.33947 4.29779 6.02233
threshold=1145.5000000000002 169.50000000000003 3.5000000000000004 141.50000000000003 261.50000000000006 79.161371237458212 71.500000000000014 1.0000000180025095e-35 131.49650349650355 70.500000000000014 51.500000000000007 270.50000000000006 45.500000000000007 80.875000000000014 5.1250000000000009 0.31844341059220133 86.500000000000014
decision_type=2 2 2 2 2 2 2 2 2 2 2 2 2 2 2 2 2
left_child=1 7 5 -4 6 -2 12 14 13 -8 -11 -12 -5 -7 -1 -6 -17
right_child=2 -3 3 4 15 8 9 -9 -10 10 11 -13 -14 -15 -16 16 -18
leaf_value=0.00031085148789057528 0.00014274782989065412 4.6373753184346365e-05 0.00012587662316206508 0.00012392417291288304 -2.7790124266743021e-05 -1.146158509763758e-05 8.3110368464826896e-05 0.00015425715601424523 0.00011470549264167595 -2.5497227675956494e-05 8.8013798958885229e-05 -1.1780034453451413e-05 1.9823248414696186e-05 6.6135716389289622e-05 0.00021804662705164098 2.4187205765614793e-05 -2.4720161886548106e-05
leaf_weight=1.9413468167185768 2.8705566525459272 2.8704727292060852 1.9392743259668339 1.7842215001583128 90.176636062562466 4.4983886778354645 1.939191155135634 1.9406581372022627 1.7068316489458082 11.942153051495554 2.327042654156684 4.5759459063410759 1.6288386136293409 1.7065966129302976 1.5527307242155073 3.0241865366697294 5.2726266011595726
leaf_count=25 37 37 25 23 1163 58 25 25 22 154 30 59 21 22 20 39 68
internal_value=0 0.000166271 -1.02036e-05 -1.64702e-05 -1.8736e-05 6.20661e-05 1.08856e-05 0.000229258 3.25583e-05 3.19038e-07 -8.13833e-06 2.16812e-05 7.47405e-05 9.67468e-06 0.000270295 -2.60296e-05 -6.7168e-06
internal_weight=0 8.30521 135.392 124.61 122.671 10.7824 24.1974 5.43474 7.91182 20.7843 18.8451 6.90299 3.41306 6.20499 3.49408 98.4734 8.29681
internal_count=1853 107 1746 1607 1582 139 312 70 102 268 243 89 44 80 45 1270 107
is_linear=0
shrinkage=2.77009e-05


Tree=8
num_leaves=18
num_cat=0
split_feature=27 0 119 94 98 85 98 189 187 97 142 164 38 128 137 10 176
split_gain=328.898 125.389 66.4751 41.3285 36.4032 24.0417 21.8332 18.496 17.8239 16.5105 15.0944 12.8678 9.55383 9.51299 10.0705 6.43472 11.5396
threshold=2.5000000000000004 1316.5000000000002 246.50000000000003 0.4150439630107236 48.500000000000007 77.500000000000014 62.500000000000007 351.00000000000006 3.5925000000000007 131.50000000000003 13.500000000000002 33.250000000000007 1.5000000000000002 938.50000000000011 94.625000000000014 1.0000000180025095e-35 0.28956582633053224
decision_type=2 2 2 2 2 2 2 2 2 2 2 2 2 2 2 2 2
left_child=1 7 4 -3 13 10 -5 -1 -7 -10 -6 -4 -13 -2 -15 16 -14
right_child=2 3 11 6 5 8 -8 -9 9 -11 -12 12 15 14 -16 -17 -18
leaf_value=0.00031243200662190069 5.7919072708334042e-05 -4.9096422424951662e-06 5.3763218211723173e-05 6.3123936876284585e-05 0.00017683934633946815 0.0001043617202594554 0.00017160791822676101 0.00019334396804054392 9.3553113921474214e-05 -8.9777970296762965e-06 5.7933685954058782e-05 3.2798566329684395e-05 -1.8226785814504706e-05 4.3275446522182566e-05 -2.7096193790538754e-05 -2.8353408090064306e-05 5.4619669450554243e-05
leaf_weight=2.1748642623424521 1.5518171489238763 3.335052974522112 1.6287705004215229 2.9481969177722931 1.8624153882265084 2.2497736588120443 2.8712975382804871 2.0963036641478539 1.5516047552227972 5.2743109166622162 1.5515681356191633 2.1714634448289862 11.630990885198115 1.8615712001919735 9.2281632646918279 87.770869076251984 1.9386461824178685
leaf_count=28 20 43 21 38 24 29 37 27 20 68 20 28 150 24 119 1132 25
internal_value=0 0.000130524 -1.3455e-05 7.24279e-05 2.69898e-05 6.05344e-05 0.000116972 0.000254538 3.67087e-05 1.41552e-05 0.000123343 -2.31366e-05 -2.43625e-05 -6.04573e-06 -1.51428e-05 -2.56027e-05 -7.70119e-06
internal_weight=0 13.4257 130.272 9.15455 25.1312 12.4897 5.81949 4.27117 9.07569 6.82592 3.41398 105.141 103.512 12.6416 11.0897 101.341 13.5696
internal_count=1853 173 1680 118 324 161 75 55 117 88 44 1356 1335 163 143 1307 175
is_linear=0
shrinkage=2.77009e-05


Tree=9
num_leaves=18
num_cat=0
split_feature=62 138 43 153 99 2 181 43 92 71 187 189 114 116 138 158 85
split_gain=293.25 91.1165 70.046 50.5665 47.6995 30.5909 29.7684 29.7855 26.4967 20.4656 11.7945 9.61604 9.50002 12.971 6.62025 5.70851 12.9304
threshold=113.34473520578032 1145.5000000000002 5.5000000000000009 105.50000000000001 25.500000000000004 67.500000000000014 0.84498944977255164 3.5000000000000004 52.804000000000009 654.50000000000011 3.1047500000000006 692.00000000000011 1.5000000000000002 2.3350084799375197 1423.5000000000002 51.775000000000006 87.500000000000014
decision_type=2 2 2 2 2 2 2 2 2 2 2 2 2 2 2 2 2
left_child=1 6 4 -3 11 -6 7 -1 -7 12 -4 -2 -5 -14 -13 16 -12
right_child=2 3 10 9 5 8 -8 -9 -10 -11 15 14 13 -15 -16 -17 -18
leaf_value=0.00020650806508373787 5.8120129458249296e-05 0.00018026564729743585 4.6480843279407738e-05 -2.9752702787120934e-05 0.00019169431189961311 6.9961748837292336e-07 0.00025413197023576494 5.4558246150138658e-05 0.00013938786723287905 9.8860544742165722e-05 5.2364249340383175e-05 2.859022818602957e-05 7.4103343547350485e-05 -1.6819040208759441e-05 -2.5722176780700513e-05 -2.6629135160123123e-05 -2.9872444645163738e-05
leaf_weight=2.0965390652418163 1.8617000281810785 2.0951961353421202 1.7836802378296841 3.025059446692465 1.8623268306255329 2.6370623782277107 2.7188452333211899 1.9400032162666319 1.7845299839973447 2.5602967441082001 2.3268868327140799 2.3269713521003705 2.6376735717058182 2.1719138622283936 6.4361718893051147 99.477967225015163 3.9548419341444969
leaf_count=27 24 27 23 39 24 34 35 25 23 33 30 30 34 28 83 1283 51
internal_value=0 0.000100618 -1.55623e-05 5.60966e-05 3.68094e-05 9.72853e-05 0.000182647 0.000133953 5.70688e-05 3.08754e-05 -2.3811e-05 8.847e-07 8.43842e-06 3.27634e-05 -1.11295e-05 -2.50117e-05 3.73079e-07
internal_weight=0 19.2455 124.452 12.4901 16.9088 6.28392 6.75539 4.03654 4.42159 10.3949 107.543 10.6248 7.83465 4.80959 8.76314 105.76 6.28173
internal_count=1853 248 1605 161 218 81 87 52 57 134 1387 137 101 62 113 1364 81
is_linear=0
shrinkage=2.77009e-05


Tree=10
num_leaves=18
num_cat=0
split_feature=43 166 173 94 105 139 139 149 146 110 150 149 133 7 97 99 56
split_gain=328.806 106.86 71.1407 51.5653 39.0972 31.6621 30.7798 30.0876 20.7984 39.4031 15.5485 13.6424 14.8932 7.79049 9.81571 5.54774 7.95336
threshold=2.5000000000000004 217.50000000000003 257.50000000000006 0.4150439630107236 46.500000000000007 14.071511627906979 29.420168067226893 198.16666666666669 18.125000000000004 2.6223591549295779 86.500000000000014 269.10000000000008 77.500000000000014 21.500000000000004 153.50000000000003 38.500000000000007 1.3271827034427226
decision_type=2 2 2 2 2 2 2 2 2 2 2 2 2 2 2 2 2
left_child=1 4 6 -3 -1 -5 7 -2 9 -9 -7 12 -4 -11 -15 16 -10
right_child=2 3 11 5 -6 10 -8 8 15 13 -12 -13 -14 14 -16 -17 -18
leaf_value=0.00031443168191340823 0.00011982279107865945 -6.0374640574831719e-06 -2.9431624270723209e-05 0.00023587952373398599 0.00013842745628568994 0.00015544785886138706 0.00012749815522922271 0.000141197082860432 2.4921622833757944e-05 -2.1703212174833247e-05 4.4818495620787314e-05 -2.6291658617524508e-05 7.8776180466136669e-05 6.9502042573680018e-07 8.7682500437394518e-05 3.3740516950786301e-05 -3.0112238091149988e-05
leaf_weight=2.5640282034873954 2.0176272690296235 3.4904374629259092 1.8610979765653604 1.5525284335017202 1.6304823160171507 1.6298825070261953 2.0948791429400435 2.2503223940730113 2.4819129109382621 3.4129068851470947 2.561042033135891 98.002107329666615 2.0164255946874619 2.6374189406633377 1.629019573330879 1.7066421061754216 10.15889163315296
leaf_count=33 26 45 24 20 21 21 27 29 32 44 33 1264 26 34 21 22 131
internal_value=0 0.000130492 -1.34546e-05 7.75427e-05 0.000246541 0.000128559 2.52971e-05 1.70833e-05 8.46853e-06 3.93166e-05 8.82857e-05 -2.42678e-05 2.64892e-05 9.22084e-06 3.42936e-05 -1.27851e-05 -1.91886e-05
internal_weight=0 13.4284 130.269 9.23389 4.19451 5.74345 28.3896 26.2947 24.2771 9.92967 4.19092 101.88 3.87752 7.67935 4.26644 14.3474 12.6408
internal_count=1853 173 1680 119 54 74 366 339 313 128 54 1314 50 99 55 185 163
is_linear=0
shrinkage=2.77009e-05


Tree=11
num_leaves=18
num_cat=0
split_feature=82 46 43 0 38 151 31 153 132 156 43 99 98 53 86 132 137
split_gain=273.854 82.4791 85.0138 60.1834 53.3167 36.2882 45.3338 33.5476 22.8094 19.7673 19.8194 18.9105 12.2244 10.4939 11.6423 9.02229 6.03158
threshold=230.50000000000003 1.0000000180025095e-35 2.5000000000000004 1223.5000000000002 7.5000000000000009 679.00000000000011 22.500000000000004 70.500000000000014 298.50000000000006 352.87500000000006 10.500000000000002 23.500000000000004 51.500000000000007 25.500000000000004 653.00000000000011 120.50000000000001 97.875000000000014
decision_type=2 2 2 2 2 2 2 2 2 2 2 2 2 2 2 2 2
left_child=1 -1 3 -3 5 6 -2 -4 12 10 -6 -5 16 14 -14 -11 -9
right_child=4 2 7 11 9 -7 -8 8 -10 15 -12 -13 13 -15 -16 -17 -18
leaf_value=0.00026296852018006008 0.00022329076415324696 0.00026572763039175323 0.0001554381672142783 1.7530184458338791e-05 8.1333309519717516e-05 -8.0074022385796361e-06 3.0614351758088994e-05 2.1664435543805619e-05 0.00012156309900958309 4.0144853351758696e-05 -2.0844388064033469e-05 0.00013690827288433406 2.4901474637939006e-05 -6.6165724433108293e-06 0.00011747905116869491 -2.673883022215265e-05 -2.9952381506648122e-05
leaf_weight=1.7866177037358308 1.629795886576175 2.3314266279339817 1.6299663558602357 1.7071144953370092 2.7147832438349715 3.7998021692037582 2.2494788840413094 2.6377718374133092 1.6295673474669445 1.5510946512222279 3.1017549335956573 2.6395243704319 2.482772521674633 2.404660202562809 1.8622069656848905 102.57600077241659 4.963300809264183
leaf_count=23 21 30 21 22 35 49 29 34 21 20 40 34 32 31 24 1323 64
internal_value=0 8.12133e-05 6.77464e-05 0.000151945 -1.80055e-05 5.24894e-05 0.00011207 3.57102e-05 2.33748e-05 -2.2944e-05 2.66189e-05 9.04094e-05 1.20964e-05 3.92672e-05 6.49768e-05 -2.57273e-05 -1.18485e-05
internal_weight=0 26.0749 24.2883 6.67807 117.623 7.67908 3.87927 17.6102 15.9803 109.944 5.81654 4.34664 14.3507 6.74964 4.34498 104.127 7.60107
internal_count=1853 336 313 86 1517 99 50 227 206 1418 75 56 185 87 56 1343 98
is_linear=0
shrinkage=2.77009e-05


Tree=12
num_leaves=18
num_cat=0
split_feature=19 98 6 81 153 0 149 162 137 30 61 131 42 41 8 102 152
split_gain=313.419 65.1305 67.9273 61.4335 36.0333 33.2582 31.1379 22.4857 22.4772 18.4163 13.3763 15.5228 14.8226 23.906 10.2268 14.1202 12.1199
threshold=1112.5000000000002 55.500000000000007 292.50000000000006 1160.5000000000002 495.50000000000006 1223.5000000000002 299.87500000000006 113.50000000000001 82.125000000000014 5.5000000000000009 939.47237295582693 27.500000000000004 16.500000000000004 1.0000000180025095e-35 8.5000000000000018 29.500000000000004 188.00000000000003
decision_type=2 2 2 2 2 2 2 2 2 2 2 2 2 2 2 2 2
left_child=3 14 -3 4 5 -1 -5 -8 9 -4 11 -10 -13 -14 15 16 -2
right_child=1 2 8 6 -6 -7 7 -9 10 -11 -12 12 13 -15 -16 -17 -18
leaf_value=0.00021829473083103315 4.8328245172821751e-05 0.00015791910518701377 0.00014694114504806109 0.00015850444766821807 0.00030752757542349985 5.3700215335971897e-05 4.3712178396526132e-06 0.00012907821387669153 -2.9788772108638384e-05 1.5478949448469332e-05 -2.2297692012531009e-05 3.7108808969061322e-06 1.8327841053443886e-05 0.00015490808701399298 -2.7333757398781588e-05 6.5037599714392059e-05 -2.3485934345755682e-05
leaf_weight=2.3312575146555887 2.0941153988242176 2.6388227120041874 1.5519871935248404 2.4838818311691284 1.6324520036578176 1.6299518942832945 3.9565534591674805 1.552528493106365 3.2572608515620258 1.7838819250464437 10.622331589460371 4.0335704088211042 2.2491423115134239 1.7842508032917974 85.594266593456268 2.0169594585895529 12.48441171646118
leaf_count=30 27 34 20 32 21 21 51 20 42 23 137 52 29 23 1104 26 161
internal_value=0 -1.32212e-05 2.42455e-05 0.000126581 0.000197142 0.000151044 7.69522e-05 3.98397e-05 1.02154e-05 7.71673e-05 0 2.09694e-05 4.16474e-05 7.91903e-05 -2.34728e-05 -3.47057e-06 -1.30617e-05
internal_weight=0 130.111 27.9212 13.5866 5.59366 3.96121 7.99296 5.50908 25.2824 3.33587 21.9466 11.3242 8.06696 4.03339 102.19 16.5955 14.5785
internal_count=1853 1678 360 175 72 51 103 71 326 43 283 146 104 52 1318 214 188
is_linear=0
shrinkage=2.77009e-05


Tree=13
num_leaves=18
num_cat=0
split_feature=51 0 22 106 130 129 8 51 164 99 191 1 184 177 147 6 191
split_gain=319.734 82.7452 58.9035 44.3105 27.1078 36.0312 23.9206 22.2384 32.4981 20.415 15.3948 14.7573 20.055 10.8019 7.17918 3.72634 3.91861
threshold=256.50000000000006 1243.5000000000002 7.5000000000000009 22.750000000000004 165.50000000000003 15.500000000000002 3.5000000000000004 370.50000000000006 32.750000000000007 24.500000000000004 465.50000000000006 300.50000000000006 0.55015179398582126 1.1079765460781064 226.50000000000003 382.50000000000006 320.50000000000006
decision_type=2 2 2 2 2 2 2 2 2 2 2 2 2 8 2 2 2
left_child=1 10 3 -2 5 6 -3 8 -4 -5 -1 13 -13 15 -9 16 -10
right_child=2 4 7 9 -6 -7 -8 14 11 -11 -12 12 -14 -15 -16 -17 -18
leaf_value=0.00018053065053479379 0.00014267326842198712 9.7268454966832564e-05 0.000121548902328538 -1.8428262416888262e-05 0.00017672160145629326 0.00013810000541921577 -2.2416367467699004e-05 2.6078983580885792e-05 2.5279130236016796e-06 8.3698670958027281e-05 0.00029217393782498229 0.00011470396057612612 -3.0059480808860242e-06 5.3753302484264231e-05 -2.7398479756290265e-05 1.0017753503788255e-05 -3.0165216699521158e-05
leaf_weight=2.4867345318198195 2.8717740923166257 1.9406725987791995 1.6297170370817209 4.8080373704433441 1.863461285829543 2.9498693719506264 3.7232755050063133 1.9392116591334332 3.3345901444554462 2.1722185611724854 1.7103566229343412 1.7068493515253056 3.1019396930932999 1.6289563179016102 87.530022449791431 2.7139234021306029 15.58600018173456
leaf_count=32 37 25 21 62 24 38 48 25 43 28 22 22 40 21 1129 35 201
internal_value=0 0.000122506 -1.39362e-05 5.11073e-05 8.06102e-05 5.9584e-05 1.8374e-05 -1.93269e-05 1.39533e-06 1.31739e-05 0.000226586 -5.54374e-06 3.85304e-05 -1.4721e-05 -2.62222e-05 -1.99516e-05 -2.43277e-05
internal_weight=0 14.6744 129.023 9.85203 10.4773 8.61382 5.66395 119.171 29.702 6.98026 4.19709 28.0723 4.80879 23.2635 89.4692 21.6345 18.9206
internal_count=1853 189 1664 127 135 111 73 1537 383 90 54 362 62 300 1154 279 244
is_linear=0
shrinkage=2.77009e-05


Tree=14
num_leaves=18
num_cat=0
split_feature=128 128 36 99 189 131 22 81 135 81 22 141 99 137 111 2 100
split_gain=309.789 89.4058 58.5845 49.6007 31.4714 20.9807 19.4682 32.4871 19.7644 22.1151 19.4051 19.0204 13.3428 9.25522 11.502 7.32471 5.56438
threshold=943.00000000000011 1187.5000000000002 244.50000000000003 18.500000000000004 351.00000000000006 41.500000000000007 3.5000000000000004 1333.0000000000002 53.375000000000007 1339.5000000000002 1.0000000180025095e-35 36.500000000000007 32.500000000000007 86.375000000000014 3.0886406648607116 87.500000000000014 21.500000000000004
decision_type=2 2 2 2 2 2 2 2 2 2 2 2 2 2 2 2 2
left_child=2 3 4 11 -1 -4 7 -5 9 -8 -3 -2 16 14 -12 -13 -10
right_child=1 10 5 6 -6 -7 8 -9 12 -11 13 15 -14 -15 -16 -17 -18
leaf_value=0.00032439419139232087 -2.7122835655949785e-05 6.1507527112032061e-05 3.6013919052694905e-05 4.3230131212564344e-05 0.00016943253152427797 0.00016311385552867923 0.00015309622502862819 0.00021171002066267271 2.8584989703278186e-05 1.980752025735145e-05 7.5767232139373813e-05 9.3540711444729466e-05 7.4085234530396195e-05 -2.5259553406309551e-05 -1.4312355299940952e-05 1.1821860550779637e-05 -2.9694074545611102e-05
leaf_weight=1.7889465391635875 9.3060756921768206 2.0946784988045684 2.4837857261300087 1.8626748025417321 2.4864291027188301 1.7083559259772298 2.4061822295188886 1.7079649195075033 2.3271683976054192 1.6293215677142141 1.5512497574090947 1.551756747066974 2.6381187662482262 99.934245899319649 3.5666974931955338 1.9391938075423238 2.7147492989897728
leaf_count=23 120 27 32 24 32 22 31 22 30 21 20 20 34 1289 46 25 35
internal_value=0 -1.01793e-05 0.000162503 3.37929e-05 0.000234834 8.82504e-05 6.74785e-05 0.000124359 4.9986e-05 9.97056e-05 -2.17187e-05 -6.33999e-06 2.36376e-05 -2.3394e-05 1.27439e-05 4.86197e-05 -2.50738e-06
internal_weight=0 135.23 8.46752 28.0832 4.27538 4.19214 15.2862 3.57064 11.7155 4.0355 107.147 12.797 7.68004 105.052 5.11795 3.49095 5.04192
internal_count=1853 1744 109 362 55 54 197 46 151 52 1382 165 99 1355 66 45 65
is_linear=0
shrinkage=2.77009e-05


Tree=15
num_leaves=18
num_cat=0
split_feature=51 138 38 189 156 129 171 31 139 22 81 85 178 182 156 147 171
split_gain=319.647 89.6894 58.8963 38.0116 35.111 32.1294 30.5 51.661 28.4498 19.2402 14.9764 10.9267 13.7254 23.8458 8.43931 8.07609 12.3684
threshold=256.50000000000006 1145.5000000000002 7.5000000000000009 351.00000000000006 242.87500000000003 15.500000000000002 92.500000000000014 26.500000000000004 26.274294670846402 24.500000000000004 1779.0000000000002 77.500000000000014 0.99187386687386703 82.500000000000014 352.87500000000006 319.50000000000006 71.500000000000014
decision_type=2 2 2 2 2 2 2 2 2 2 2 2 10 2 2 2 2
left_child=1 3 6 -1 -4 8 -2 -8 -3 -5 11 12 13 -6 -12 16 -13
right_child=2 5 4 9 10 -7 7 -9 -10 -11 14 15 -14 -15 -16 -17 -18
leaf_value=0.00029921736838038761 0.0001471825725724078 -6.9450034352265126e-07 9.7314498438393949e-05 0.00020631357617580283 0.00012587804732509944 0.00015305464734585342 0.00013547338114817134 -1.9928789533601386e-05 0.00013079172797003549 7.5603383867535876e-05 3.0989144901528646e-05 4.5506920736191765e-05 -2.9619254592879041e-05 0 -2.9528085007201347e-05 4.0363021348266985e-05 -2.2980365302607686e-05
leaf_weight=2.1781350374221793 2.0181766375899297 4.7325066924095136 1.9399874955415715 2.0982432886958127 1.9392569214105595 2.4067197144031525 2.328157976269722 5.5064197927713394 1.7079596295952795 1.5535879135131834 1.7834998741745938 2.172203488647944 2.4037416130304337 2.7920408546924591 77.369582705199718 1.9385132938623417 26.828846372663975
leaf_count=28 26 61 25 27 25 31 30 71 22 20 23 28 31 36 998 25 346
internal_value=0 0.000122477 -1.39358e-05 0.000206923 -1.93265e-05 6.66039e-05 5.11011e-05 2.61091e-05 3.40055e-05 0.000151233 -2.12721e-05 -6.94511e-06 2.38733e-05 5.13568e-05 -2.81449e-05 -1.41008e-05 -1.77957e-05
internal_weight=0 14.6772 129.02 5.82997 119.168 8.84719 9.85275 7.83458 6.44047 3.65183 117.228 38.0746 7.13504 4.7313 79.1531 30.9396 29.001
internal_count=1853 189 1664 75 1537 114 127 101 83 47 1512 491 92 61 1021 399 374
is_linear=0
shrinkage=2.77009e-05


Tree=16
num_leaves=18
num_cat=0
split_feature=51 81 38 96 169 163 98 6 98 81 183 111 98 102 175 51 8
split_gain=319.6 103.664 58.8921 34.6043 31.7786 29.8809 29.5059 32.0875 19.1822 16.1672 15.4884 15.1317 12.7784 11.114 6.30409 7.89791 4.90659
threshold=256.50000000000006 1160.5000000000002 7.5000000000000009 1070.8669999999995 0.18333333333333332 10.125000000000002 50.500000000000007 262.50000000000006 67.500000000000014 1538.0000000000002 36.500000000000007 1.9351635262557674 59.500000000000007 19.500000000000004 0.31314276643271011 357.50000000000006 9.5000000000000018
decision_type=2 2 2 2 2 2 2 2 2 2 2 2 2 2 2 2 2
left_child=1 11 3 12 -5 -4 13 -8 14 10 -10 -1 -2 -3 15 -7 -11
right_child=2 6 5 4 -6 8 7 -9 9 16 -12 -13 -14 -15 -16 -17 -18
leaf_value=0.00029344272832234648 -1.6923047982845094e-05 5.5992801715426301e-05 9.2907498157539426e-05 2.8409605439444481e-05 0.00018538281611440972 5.7939598237936181e-05 0.0001980063603914185 5.5956638275557276e-05 0.00012156567820447688 2.0059092580002681e-05 1.5016666593877092e-05 0.00018830855028765679 7.5705655197381099e-05 -2.9466830803499227e-05 -2.6154697726597961e-05 -1.9797055109379127e-05 -2.9935937417879222e-05
leaf_weight=1.7891996055841435 4.2651950567960721 2.871079780161379 1.7846416756510723 1.862019211053848 2.1738298684358597 1.5514674186706532 2.1747503131628036 2.8722437843680382 1.6295401453971843 2.1716381162405014 3.0255574434995651 3.0317561104893684 1.5521276891231535 1.9396092221140859 101.48257091641426 2.791171096265316 4.7291659936308861
leaf_count=23 55 37 23 24 28 20 28 37 21 28 39 39 20 25 1309 36 61
internal_value=0 0.000122461 -1.39356e-05 5.10975e-05 0.000113409 -1.93263e-05 7.07221e-05 0.000117551 -2.10478e-05 1.27538e-05 5.26909e-05 0.00022782 7.57574e-06 2.12407e-05 -2.47529e-05 7.66904e-06 -1.39916e-05
internal_weight=0 14.6786 129.019 9.85317 4.03585 119.166 9.85768 5.04699 117.381 11.5559 4.6551 4.82096 5.81732 4.81069 105.825 4.34264 6.9008
internal_count=1853 189 1664 127 52 1537 127 65 1514 149 60 62 75 62 1365 56 89
is_linear=0
shrinkage=2.77009e-05


Tree=17
num_leaves=18
num_cat=0
split_feature=62 118 22 31 8 189 149 187 110 42 38 166 5 84 70 8 23
split_gain=292.98 87.18 60.4791 53.5116 52.2913 26.7479 25.0425 24.047 20.5784 15.7475 14.8455 14.2669 24.052 9.5458 6.17462 5.66474 8.8041
threshold=113.34473520578032 54.500000000000007 1.0000000180025095e-35 22.500000000000004 2.5000000000000004 713.50000000000011 260.99090909090916 3.7452500000000004 2.6403125000000007 23.500000000000004 11.500000000000002 251.50000000000003 1188.5000000000002 792496.50000000012 80.500000000000014 3.5000000000000004 1.0000000180025095e-35
decision_type=2 2 2 2 2 2 2 2 2 2 2 2 2 2 2 2 2
left_child=1 4 3 -2 10 8 9 -3 -4 -7 -1 12 -9 -10 -14 16 -8
right_child=2 7 5 -5 -6 6 15 11 13 -11 -12 -13 14 -15 -16 -17 -18
leaf_value=0.0002982602357980032 0.00021796291139993931 0.00012461740377330967 0.00012154436135226992 6.0196717684410884e-06 9.1161857673617257e-05 1.8584858499756342e-06 -2.9676937275583597e-05 0.0001082829518723237 -2.9639536236250857e-05 9.7360293984072156e-05 0.00018539615429972168 0.00011127661509815192 4.010638772951436e-05 5.1328718807008362e-05 -2.3769191406916557e-05 -2.6502114540288314e-05 4.5512562094911537e-05
leaf_weight=2.1001766324043305 1.5532491579651826 3.0281126201152793 1.6297648698091496 2.2498346045613289 2.9509119465947151 4.2663626074790946 2.6369364336132994 1.7860861048102359 2.4813738837838173 1.9393065571784971 1.7883244082331655 1.5525433570146558 1.5519087612628935 2.0169576853513718 4.4992188736796379 103.49443279951811 2.1720478236675262
leaf_count=27 20 39 21 29 38 55 34 23 32 25 23 20 20 26 58 1335 28
internal_value=0 0.000100537 -1.55606e-05 9.30872e-05 0.00018003 -1.90004e-05 -2.20261e-05 5.65977e-05 3.72807e-05 3.19757e-05 0.000246949 3.44681e-05 1.90234e-05 6.35676e-06 -7.13457e-06 -2.51347e-05 3.99255e-06
internal_weight=0 19.2573 124.44 3.80308 6.83941 120.637 114.509 12.4179 6.1281 6.20567 3.8885 9.38976 7.83721 4.49833 6.05113 108.303 4.80898
internal_count=1853 248 1605 49 88 1556 1477 160 79 80 50 121 101 58 78 1397 62
is_linear=0
shrinkage=2.77009e-05


Tree=18
num_leaves=18
num_cat=0
split_feature=138 128 8 98 96 9 22 122 7 82 98 176 96 132 118 132 120
split_gain=317.135 88.6448 86.3729 43.1734 33.1534 24.812 18.3988 28.4957 17.33 16.1817 15.6854 32.772 15.1577 13.6304 15.4028 12.3633 9.12598
threshold=1145.5000000000002 1187.5000000000002 3.5000000000000004 47.500000000000007 788.25949999999887 5.5000000000000009 3.5000000000000004 13.500000000000002 17.500000000000004 202.50000000000003 58.500000000000007 0.34509033334275779 1184.2274999999927 202.50000000000003 64.500000000000014 163.50000000000003 4.0925304990562958
decision_type=2 2 2 2 2 2 2 2 2 2 2 2 2 2 2 2 2
left_child=2 3 5 13 -5 -1 7 -6 -8 -4 16 15 -10 -2 -15 -12 -3
right_child=1 10 9 4 6 -7 8 -9 12 -11 11 -13 -14 14 -16 -17 -18
leaf_value=0.00028359769596028497 -1.6892544857088795e-05 4.0158165416872742e-05 0.0001213946764035651 0.00017675192333157822 2.2272886882760272e-05 0.00014664835761694561 -1.4986689813717681e-05 0.00018922113440604876 3.0074784705775592e-05 0 4.4871942157775887e-05 0.00012156679990263803 0.00013081891671933011 0.00011130872822174579 -3.1139525896769161e-06 -2.2577854630710826e-05 -2.718244040788268e-05
leaf_weight=3.3457662686705572 10.469702661037447 1.5508131086826313 1.6313448250293734 1.8631918355822552 1.552641183137893 1.5545174628496168 3.7238626927137357 1.6309200525283811 3.6467936709523201 1.7851559445261953 2.5592897608876219 1.6295283064246167 1.7076761648058889 1.552197910845279 2.0940242186188698 11.00973169505596 90.390374444425106
leaf_count=43 135 20 21 24 20 20 48 21 47 23 33 21 22 20 27 142 1166
internal_value=0 -1.02016e-05 0.000165993 3.34347e-05 6.76682e-05 0.00024059 5.09273e-05 0.000108372 3.05881e-05 5.84333e-05 -2.17179e-05 4.26847e-06 6.25417e-05 -7.27451e-07 4.52637e-05 -9.74095e-06 -2.60293e-05
internal_weight=0 135.381 8.31678 28.241 14.1251 4.90028 12.2619 3.18356 9.07833 3.4165 107.14 15.1985 5.35447 14.1159 3.64622 13.569 91.9412
internal_count=1853 1746 107 364 182 63 158 41 117 44 1382 196 69 182 47 175 1186
is_linear=0
shrinkage=2.77009e-05


Tree=19
num_leaves=18
num_cat=0
split_feature=138 93 183 164 22 10 29 164 130 171 7 144 35 40 99 99 69
split_gain=317.077 101.712 55.904 51.6878 42.6836 38.8586 23.358 18.3555 17.7017 17.5276 16.3638 16.438 13.5113 8.25003 14.3926 5.99689 3.28171
threshold=1145.5000000000002 0.092500000000000013 22.500000000000004 25.750000000000004 10.500000000000002 1.0000000180025095e-35 1.0000000180025095e-35 62.750000000000007 154.05555555555557 71.500000000000014 21.500000000000004 9.6250000000000018 1104.5000000000002 13.500000000000002 21.500000000000004 30.500000000000004 685769.25000000012
decision_type=2 2 2 2 2 2 2 2 2 2 2 2 2 2 2 2 2
left_child=2 12 -1 -3 -4 6 8 -6 10 -7 15 -12 -2 14 -11 -5 -15
right_child=1 3 4 5 7 9 -8 -9 -10 13 11 -13 -14 16 -16 -17 -18
leaf_value=0.00027873548868774907 4.991090765709893e-05 0.00017023020145687814 0.00021443444483455182 -2.2415622642972881e-05 0 6.3108700404717249e-05 0.00014710581065325475 0.0001236553784276832 0.00012907263128577261 -2.9574846549603876e-05 0.00013226171025257618 2.3261000267876338e-05 -2.8390504808335566e-05 2.9315627742532267e-06 6.3133515906463322e-05 3.2140653859423027e-05 -2.2797599014758479e-05
leaf_weight=2.4123856127262098 1.7071737572550763 1.7857536822557438 2.2548742070794106 3.7230216786265355 1.8633837476372721 2.9486631229519871 1.8628803193569172 1.7872821390628812 1.552581951022147 2.2486855164170292 1.862919934093952 2.5590508803725243 89.536837130784988 4.962909713387492 2.9479037970304489 2.6382058933377266 15.043004103004931
leaf_count=31 22 23 29 48 24 38 24 23 20 29 24 33 1155 64 38 34 194
internal_value=0 -1.02014e-05 0.000165966 2.43033e-05 0.000119511 1.81017e-05 5.54591e-05 6.03286e-05 4.14624e-05 -6.93799e-07 2.86746e-05 6.95794e-05 -2.69077e-05 -8.22398e-06 2.27465e-05 0 -1.63434e-05
internal_weight=0 135.38 8.31793 44.1356 5.90554 42.3498 14.1987 3.65067 12.3358 28.1512 10.7832 4.42197 91.244 25.2025 5.19659 6.36123 20.0059
internal_count=1853 1746 107 569 76 546 183 47 159 363 139 57 1177 325 67 82 258
is_linear=0
shrinkage=2.77009e-05


end of trees

feature_importances:
98=14
138=11
22=10
38=10
8=9
99=9
43=8
81=8
0=7
132=7
171=7
51=6
128=6
153=6
189=6
130=5
137=5
149=5
2=4
31=4
42=4
62=4
85=4
139=4
156=4
164=4
187=4
6=3
7=3
19=3
27=3
56=3
67=3
72=3
82=3
94=3
96=3
97=3
102=3
110=3
111=3
129=3
131=3
135=3
146=3
150=3
154=3
158=3
176=3
184=3
1=2
5=2
10=2
32=2
53=2
78=2
86=2
93=2
114=2
116=2
118=2
120=2
147=2
151=2
152=2
155=2
166=2
169=2
173=2
177=2
181=2
183=2
191=2
9=1
23=1
24=1
29=1
30=1
35=1
36=1
37=1
40=1
41=1
46=1
48=1
57=1
61=1
65=1
66=1
68=1
69=1
70=1
71=1
74=1
79=1
83=1
84=1
92=1
100=1
104=1
105=1
106=1
108=1
113=1
115=1
117=1
119=1
122=1
127=1
133=1
141=1
142=1
144=1
145=1
162=1
163=1
168=1
174=1
175=1
178=1
180=1
182=1
185=1

parameters:
[boosting: gbdt]
[objective: binary]
[metric: average_precision]
[tree_learner: serial]
[device_type: cpu]
[data: ]
[valid: ]
[num_iterations: 20]
[learning_rate: 2.77009e-05]
[num_leaves: 18]
[num_threads: -1]
[deterministic: 0]
[force_col_wise: 0]
[force_row_wise: 0]
[histogram_pool_size: -1]
[max_depth: 13]
[min_data_in_leaf: 20]
[min_sum_hessian_in_leaf: 0.001]
[bagging_fraction: 0.7]
[pos_bagging_fraction: 1]
[neg_bagging_fraction: 1]
[bagging_freq: 0]
[bagging_seed: 11149]
[feature_fraction: 0.4]
[feature_fraction_bynode: 0.4]
[feature_fraction_seed: 21351]
[extra_trees: 0]
[extra_seed: 16806]
[early_stopping_round: 0]
[first_metric_only: 0]
[max_delta_step: 0]
[lambda_l1: 0.0520824]
[lambda_l2: 0.00368138]
[linear_lambda: 0]
[min_gain_to_split: 0]
[drop_rate: 0.1]
[max_drop: 50]
[skip_drop: 0.5]
[xgboost_dart_mode: 0]
[uniform_drop: 0]
[drop_seed: 2965]
[top_rate: 0.2]
[other_rate: 0.1]
[min_data_per_group: 100]
[max_cat_threshold: 32]
[cat_l2: 10]
[cat_smooth: 10]
[max_cat_to_onehot: 4]
[top_k: 20]
[monotone_constraints: ]
[monotone_constraints_method: basic]
[monotone_penalty: 0]
[feature_contri: ]
[forcedsplits_filename: ]
[refit_decay_rate: 0.9]
[cegb_tradeoff: 1]
[cegb_penalty_split: 0]
[cegb_penalty_feature_lazy: ]
[cegb_penalty_feature_coupled: ]
[path_smooth: 0]
[interaction_constraints: ]
[verbosity: -1]
[saved_feature_importance_type: 0]
[linear_tree: 0]
[max_bin: 255]
[max_bin_by_feature: ]
[min_data_in_bin: 3]
[bin_construct_sample_cnt: 200000]
[data_random_seed: 179]
[is_enable_sparse: 1]
[enable_bundle: 1]
[use_missing: 1]
[zero_as_missing: 0]
[feature_pre_filter: 1]
[pre_partition: 0]
[two_round: 0]
[header: 0]
[label_column: ]
[weight_column: ]
[group_column: ]
[ignore_column: ]
[categorical_feature: ]
[forcedbins_filename: ]
[precise_float_parser: 0]
[objective_seed: 26397]
[num_class: 1]
[is_unbalance: 0]
[scale_pos_weight: 1]
[sigmoid: 1]
[boost_from_average: 1]
[reg_sqrt: 0]
[alpha: 0.9]
[fair_c: 1]
[poisson_max_delta_step: 0.7]
[tweedie_variance_power: 1.5]
[lambdarank_truncation_level: 30]
[lambdarank_norm: 1]
[label_gain: ]
[eval_at: ]
[multi_error_top_k: 1]
[auc_mu_weights: ]
[num_machines: 1]
[local_listen_port: 12400]
[time_out: 120]
[machine_list_filename: ]
[machines: ]
[gpu_platform_id: -1]
[gpu_device_id: -1]
[gpu_use_dp: 0]
[num_gpu: 1]

end of parameters

pandas_categorical:[]
