tree
version=v3
num_class=1
num_tree_per_iteration=1
label_index=0
max_feature_idx=191
objective=regression
feature_names=0 1 2 3 4 5 6 7 8 9 10 11 12 13 14 15 16 17 18 19 20 21 22 23 24 25 26 27 28 29 30 31 32 33 34 35 36 37 38 39 40 41 42 43 44 45 46 47 48 49 50 51 52 53 54 55 56 57 58 59 60 61 62 63 64 65 66 67 68 69 70 71 72 73 74 75 76 77 78 79 80 81 82 83 84 85 86 87 88 89 90 91 92 93 94 95 96 97 98 99 100 101 102 103 104 105 106 107 108 109 110 111 112 113 114 115 116 117 118 119 120 121 122 123 124 125 126 127 128 129 130 131 132 133 134 135 136 137 138 139 140 141 142 143 144 145 146 147 148 149 150 151 152 153 154 155 156 157 158 159 160 161 162 163 164 165 166 167 168 169 170 171 172 173 174 175 176 177 178 179 180 181 182 183 184 185 186 187 188 189 190 191
feature_infos=[230:4588] [12:1304] [2:2845] [0:17] [0:4] [211:3740] [38:2448] [2:56] [0:43] [0:43] [0:16] [0:4] [0:7] [0:4] [0:12] [0:8] [0:6] [0:44] [0:6] [191:3632] [36:1861] [0:1313] [0:893] [0:2614] [1:1328] [0:301] [2:51] [0:36] [0:266] [0:370] [0:37] [0:106] [0:12] [0:128] none [191:3632] [36:1861] [0:1313] [0:893] [0:2614] [1:1328] [0:301] [2:51] [0:36] [0:266] [0:370] [0:37] [0:106] [0:12] [0:128] none [39:905] [3.6898148148148149:9.2932330827067684] [11:919] [1.8302558051784696:56.191239243699421] [3:6] [0.49714616757051278:15.956396355488426] [13452:589322] [65797.576335877864:3157276.5539733577] [65864.526717557252:3157388.2604501606] [8.423293675641828:200.36603557085485] [113.70992366412214:2180.1587301587301] [19.251908396946565:422.54991645781121] [63626.783202252162:763243.40596188477] [63631.924177016808:763239.24072684988] [22.354026693915944:234.19741599964411] [59.864916717840629:1288.2677932464817] [9.9268153508934542:247.83735117269887] [47035:3529205] [47118.5:3529271] [1:198] [115:2163.5] [21:424] [514:740531] [598:740669] [0:23] none none [229452:3986953] [229548:3987141] [184:5661] [207:4432] [35:855] [47083:3529205] [47162:3529271] [1:198] [115:2164] [21:424] [3:6] [6:20] [6:20] [5:27] [5.1689999999999996:1139.1949999999999] [0.050000000000000003:0.371] [0.1375255591054311:1.3573765867418883] [0.2896640792049528:30.76267351292498] [78.659999999999982:1735.4699999999991] [8:458] [4:155] [1:60] [0:87] [0:66] [1:77] [10.369747899159664:309.75] [9.4473254633511399:304.83479132146317] [4:119] [2.5:293] [37:1096] [1:828] [1:530] [1:16.228571428571428] [0:114.77776158444004] [1:7] [1:1097] [1:125] [1:33] [0.92850915431560599:133.39731643682444] [3:401] [6:1323] [35:872] [3.774509803921569:5.7579908675799087] [1:2] [9:44] [1:14] [1:14] [2:3] [3:5] [4:8] [171:3511] [1:49] [37.878787878787882:1316] [3:1316] [63:1316] [17:1316] [8:1316] [23.5:1316] [35:1316] [49:1316] [204:4354] [7.4146341463414638:234] [1:234] [12:234] [3:234] [2:234] [5:234] [7:234] [9:234] [35:876] [1:19] [69.5:1385] [1:1385] [186:2002] [9:1385] [1:2002] [2:1385] [17.5:1385] [71:1385] [207:4404] [12.77777777777778:615.33333333333337] [1:261] [35:1703] [1:261] [2:1703] [1:261] [4:261] [13:893] [35:1846] [0.0277777777777777:1] [-1:0.94444444444444442] [0.0277777777777777:1] [0:230] [0:729] [0:258] [35:870] [0:1] [0:0.99593495934959364] [0:1] [0:2.8571428571428572] [0:25] [0:252] [0.1575237515308755:3.1465019336045401] [0.30136619341012588:1.0988106129917661] [8:214] [2:90] [0.1756364504187502:0.96637023560696755] [0.1756364504187502:0.96637023560696755] [4.5313018867924528:182.96225000000001] [2.6960000000000002:60.518999999999998] [15.727188065399501:495.99713260819919] [0:3990] [0:2454] [1:3089]
tree_sizes=1251 1330 1341 1359 1331 1325 1342 1338 1341 1327 1354 1329 1327 1345 1345 1331 1345 1341 1358 1346 1361 1340 1356 1353 1346 1328 1358 1328 1342 1343 1331 1342 1347 1344 1348

Tree=0
num_leaves=12
num_cat=0
split_feature=153 26 24 70 91 56 111 176 53 111 10
split_gain=2.66886 1.70124 2.0903 1.42846 1.3981 1.51508 1.12198 0.822694 0.635491 0.703313 0.28649
threshold=389.50000000000006 14.500000000000002 32.500000000000007 126.00000000000001 6.5000000000000009 1.4002416172985901 2.0592332545666783 0.37413043478260871 14.500000000000002 11.450557931384031 1.0000000180025095e-35
decision_type=2 2 2 2 2 2 2 2 2 2 2
left_child=4 2 6 7 5 -1 -2 -3 -6 -10 -9
right_child=1 3 -4 -5 8 -7 -8 10 9 -11 -12
leaf_value=1.6230894515553891 1.6229660124807592 1.6234610975983645 1.623372140989189 1.6231257372041841 1.623302604503621 1.623397541493965 1.6231926292385115 1.6233793373715677 1.6234833074567963 1.6233272796698184 1.6232454180332956
leaf_weight=7.0000000000000027 10.000000000000002 15.999999999999998 9.9999999999999982 6.9999999999999991 7.9999999999999991 9.9999999999999982 12.999999999999998 7.0000000000000027 43 8.9999999999999982 9.9999999999999982
leaf_count=7 10 16 10 7 8 10 13 7 43 9 10
internal_value=1.62333 1.62326 1.62318 1.62333 1.6234 1.62327 1.62309 1.62338 1.62344 1.62346 1.6233
internal_weight=0 73 33 40 77 17 23 33 60 52 17
internal_count=150 73 33 40 77 17 23 33 60 52 17
is_linear=0
shrinkage=1


Tree=1
num_leaves=12
num_cat=0
split_feature=153 26 123 70 100 103 97 152 176 117 176
split_gain=2.66615 1.69951 2.18133 1.42701 1.37386 1.49511 1.14192 0.855777 0.821858 0.771501 0.542772
threshold=389.50000000000006 14.500000000000002 5.5000000000000009 126.00000000000001 20.500000000000004 38.132936507936513 136.00000000000003 393.50000000000006 0.37413043478260871 38.500000000000007 0.14283846428146918
decision_type=2 2 2 2 2 2 2 2 2 2 2
left_child=4 2 7 8 5 6 -1 -2 -3 -4 -7
right_child=1 3 9 -5 -6 10 -8 -9 -10 -11 -12
leaf_value=6.8408196898732983e-07 -0.00013494651032904109 0.00012769935913182896 -0.00013497256712089915 -0.00020749066756757032 0.00012629315313745953 0.00016574627846320303 -0.00028010898265957643 -0.00036258267416888946 -3.2673438573801479e-05 9.5948514860054123e-05 -6.0789276282329826e-06
leaf_weight=7.9999999999999982 7.0000000000000027 15.999999999999998 6.9999999999999991 6.9999999999999991 43 10.000000000000002 7 10.999999999999998 17 7.9999999999999991 8.9999999999999982
leaf_count=8 7 16 7 7 43 10 7 11 17 8 9
internal_value=0 -6.95622e-05 -0.000154904 8.11337e-07 6.59485e-05 -1.03293e-05 -0.000130265 -0.000274141 4.50415e-05 -1.17224e-05 8.42838e-05
internal_weight=0 73 33 40 77 34 15 18 33 15 19
internal_count=150 73 33 40 77 34 15 18 33 15 19
is_linear=0
shrinkage=0.000508036


Tree=2
num_leaves=12
num_cat=0
split_feature=153 26 24 70 91 151 143 176 53 111 137
split_gain=2.66344 1.69778 2.08695 1.42556 1.39607 1.51352 1.24167 0.821024 0.634339 0.702125 0.320199
threshold=389.50000000000006 14.500000000000002 32.500000000000007 126.00000000000001 6.5000000000000009 394.50000000000006 28.000000000000004 0.37413043478260871 14.500000000000002 11.450557931384031 91.250000000000014
decision_type=2 2 2 2 2 2 2 2 2 2 2
left_child=4 2 6 7 5 -1 -2 10 -6 -10 -3
right_child=1 3 -4 -5 8 -7 -8 -9 9 -11 -12
leaf_value=-0.00024376241771261649 -0.00036243006071753187 4.5874261990836227e-05 3.880958013458018e-05 -0.00020738526546272871 -3.0701405584622856e-05 6.4168899893303103e-05 -0.00012587214757395101 -3.2656839352758006e-05 0.00014983926607882792 -6.0565325062096215e-06 0.00019106430007760934
leaf_weight=7.0000000000000027 11.000000000000002 6.9999999999999991 9.9999999999999982 6.9999999999999991 7.9999999999999991 9.9999999999999982 11.999999999999998 17 43 8.9999999999999982 8.9999999999999982
leaf_count=7 11 7 10 7 8 10 12 17 43 9 9
internal_value=0 -6.95268e-05 -0.000154826 8.10888e-07 6.5915e-05 -6.25476e-05 -0.000239075 4.50186e-05 0.000102336 0.000122831 0.000127634
internal_weight=0 73 33 40 77 17 23 33 60 52 16
internal_count=150 73 33 40 77 17 23 33 60 52 16
is_linear=0
shrinkage=0.000508036


Tree=3
num_leaves=12
num_cat=0
split_feature=162 65 147 134 78 136 129 54 60 179 22
split_gain=2.18319 1.92491 1.44662 1.32264 1.63655 1.30295 1.23867 1.01115 0.853707 0.804221 0.770548
threshold=70.500000000000014 39.424240080854624 203.50000000000003 105.50000000000001 1805177.5000000002 121.75000000000001 13.500000000000002 2.7074968854653991 114.06707712677922 4.2578828828828836 1.5000000000000002
decision_type=2 2 2 2 2 2 2 2 2 10 2
left_child=2 10 -1 4 6 -5 -3 9 -8 -4 -2
right_child=1 3 7 5 -6 -7 8 -9 -10 -11 -12
leaf_value=-0.00011889062075856259 -0.00031614705725224057 -0.0002879388102756639 8.9531596980900403e-05 0.00017424116704956922 9.8815356372914314e-05 -6.2422219433470627e-05 9.7938220341495964e-06 0.00014555696835251308 -0.00020740720213352764 -0.00013497822120304019 -0.00010863835670713307
leaf_weight=8.9999999999999982 8.0000000000000018 9.0000000000000018 10.000000000000002 15.000000000000002 10.999999999999998 9.9999999999999982 14.000000000000002 39 6.9999999999999991 6.9999999999999991 10.999999999999998
leaf_count=9 8 9 10 15 11 10 14 39 7 7 11
internal_value=0 -5.3597e-05 7.00882e-05 -1.25539e-05 -6.87312e-05 7.95205e-05 -0.000130212 0.000100486 -6.25432e-05 -2.83266e-06 -0.00019609
internal_weight=0 85 65 66 41 25 30 56 21 17 19
internal_count=150 85 65 66 41 25 30 56 21 17 19
is_linear=0
shrinkage=0.000508036


Tree=4
num_leaves=12
num_cat=0
split_feature=153 26 123 85 151 167 54 183 176 179 130
split_gain=2.65814 1.69461 2.17716 1.42344 1.24786 1.33919 1.11104 0.854255 0.819491 0.770203 0.525805
threshold=389.50000000000006 14.500000000000002 5.5000000000000009 126.00000000000001 423.50000000000006 0.22500000000000003 2.7760300440646408 25.500000000000004 0.37413043478260871 0.46915760869565221 72.006191950464412
decision_type=2 2 2 2 2 2 2 2 2 10 2
left_child=4 2 7 8 5 6 -1 -2 -3 -4 -6
right_child=1 3 9 -5 10 -7 -8 -9 -10 -11 -12
leaf_value=-9.4139643719745017e-05 -0.00036216217994303543 0.00012752794309797377 9.5948471806562958e-05 -0.00020722710255830393 4.8266411861862508e-05 -0.00016403379861524591 0.00014022782950406489 -0.00013472834721547155 -3.2613627452229301e-05 -0.00013477835099441423 0.00016386292930600541
leaf_weight=8.0000000000000018 11.000000000000002 15.999999999999998 7.9999999999999982 6.9999999999999991 15.999999999999998 9.9999999999999982 14.999999999999998 6.9999999999999991 17 7 28
leaf_count=8 11 16 8 7 16 10 15 7 17 7 28
internal_value=0 -6.94576e-05 -0.000154677 8.14316e-07 6.58494e-05 -8.79069e-06 5.86477e-05 -0.0002738 4.49892e-05 -1.16318e-05 0.000121861
internal_weight=0 73 33 40 77 33 23 18 33 15 44
internal_count=150 73 33 40 77 33 23 18 33 15 44
is_linear=0
shrinkage=0.000508036


Tree=5
num_leaves=12
num_cat=0
split_feature=153 26 123 70 91 170 66 179 179 53 111
split_gain=2.65544 1.69289 2.17495 1.42199 1.39348 1.5108 0.853843 0.76942 0.65242 0.632828 0.700804
threshold=389.50000000000006 14.500000000000002 5.5000000000000009 126.00000000000001 6.5000000000000009 61.500000000000007 355.38631536900215 0.46915760869565221 1.3777281746031749 14.500000000000002 11.450557931384031
decision_type=2 2 2 2 2 2 2 10 8 2 2
left_child=4 2 6 8 5 -1 -2 -4 -3 -6 -11
right_child=1 3 7 -5 9 -7 -8 -9 -10 10 -12
leaf_value=-0.00024357939836656354 -0.00036200182860073499 -2.0176463003544963e-05 9.5899728630971732e-05 -0.00020712182751756321 -3.0675636887383788e-05 6.4075156023344281e-05 -0.00013462277100577676 -0.00013470988399056283 0.0001232288457381356 0.00014965651719251344 -6.0925126508935525e-06
leaf_weight=7.0000000000000027 11.000000000000002 18 7.9999999999999982 6.9999999999999991 7.9999999999999991 9.9999999999999982 6.9999999999999991 7 14.999999999999998 43 8.9999999999999982
leaf_count=7 11 18 8 7 8 10 7 7 15 43 9
internal_value=0 -6.94223e-05 -0.000154598 8.13867e-07 6.58159e-05 -6.25274e-05 -0.000273661 -1.16258e-05 4.49663e-05 0.000102203 0.000122673
internal_weight=0 73 33 40 77 17 18 15 33 60 52
internal_count=150 73 33 40 77 17 18 15 33 60 52
is_linear=0
shrinkage=0.000508036


Tree=6
num_leaves=12
num_cat=0
split_feature=162 65 147 134 78 145 136 155 56 60 51
split_gain=2.17663 1.92071 1.44292 1.32019 1.63348 1.45744 1.30068 0.964545 1.08673 0.832943 0.730909
threshold=70.500000000000014 39.424240080854624 203.50000000000003 105.50000000000001 1805177.5000000002 15.250000000000002 121.75000000000001 268.25000000000006 1.314632720364125 112.3506166786235 249.50000000000003
decision_type=2 2 2 2 2 2 2 2 2 2 2
left_child=2 10 -1 4 5 9 -5 8 -4 -3 -2
right_child=1 3 7 6 -6 -7 -8 -9 -10 -11 -12
leaf_value=-0.00011875415022088907 -0.00029044503559240713 4.9803784110657936e-06 -0.00012581663541933507 0.00017410889222411698 9.8746260048547765e-05 -0.00031579603409596788 -6.2348350820322818e-05 0.00016468636311522036 9.7353913125361403e-05 -0.00020716375975225791 -9.0587081653989917e-05
leaf_weight=8.9999999999999982 10.000000000000002 15.000000000000005 8.0000000000000018 15.000000000000002 10.999999999999998 7.9999999999999991 9.9999999999999982 29 19 6.9999999999999991 8.9999999999999982
leaf_count=9 10 15 8 15 11 8 10 29 19 7 9
internal_value=0 -5.35165e-05 6.99828e-05 -1.25182e-05 -6.86434e-05 -0.000130067 7.94707e-05 0.000100341 3.11764e-05 -6.24597e-05 -0.000195854
internal_weight=0 85 65 66 41 30 25 56 27 22 19
internal_count=150 85 65 66 41 30 25 56 27 22 19
is_linear=0
shrinkage=0.000508036


Tree=7
num_leaves=12
num_cat=0
split_feature=162 129 123 82 147 143 70 129 155 56 134
split_gain=2.17442 1.8444 2.36535 1.73117 1.44145 1.02468 1.20528 1.01044 0.963565 1.08563 0.860056
threshold=70.500000000000014 14.500000000000002 9.5000000000000018 205.50000000000003 203.50000000000003 17.500000000000004 119.25000000000001 7.5000000000000009 268.25000000000006 1.314632720364125 138.00000000000003
decision_type=2 2 2 2 2 2 2 2 2 2 2
left_child=4 2 3 7 -1 6 -3 -2 9 -6 -5
right_child=1 5 -4 10 8 -7 -8 -9 -10 -11 -12
leaf_value=-0.00011869382612605406 -0.00017487982246310597 3.248241772432455e-05 0.00010645160113750346 -0.00039183669778842465 -0.00012575272274828656 0.00016542862181448783 -0.00020707463428839285 8.2385550675413856e-05 0.00016460269775367493 9.7304458914787629e-05 -0.00017495040166667941
leaf_weight=8.9999999999999982 8.9999999999999982 24.000000000000004 8.9999999999999982 10.000000000000002 8.0000000000000018 9.9999999999999982 6.9999999999999991 6.9999999999999991 29 19 8.9999999999999982
leaf_count=9 9 24 9 10 8 10 7 7 29 19 9
internal_value=0 -5.34893e-05 -0.000125734 -0.000185479 6.99473e-05 2.40079e-05 -2.15685e-05 -6.22398e-05 0.00010029 3.11606e-05 -0.000289182
internal_weight=0 85 44 35 65 41 31 16 56 27 19
internal_count=150 85 44 35 65 41 31 16 56 27 19
is_linear=0
shrinkage=0.000508036


Tree=8
num_leaves=12
num_cat=0
split_feature=153 26 123 70 91 151 183 117 53 111 143
split_gain=2.64781 1.68779 2.17138 1.41874 1.39054 1.50815 0.852509 0.768014 0.630901 0.699679 0.495862
threshold=389.50000000000006 14.500000000000002 5.5000000000000009 126.00000000000001 6.5000000000000009 394.50000000000006 25.500000000000004 38.500000000000007 14.500000000000002 11.450557931384031 16.500000000000004
decision_type=2 2 2 2 2 2 2 2 2 2 2
left_child=4 2 6 10 5 -1 -2 -4 -6 -10 -3
right_child=1 3 7 -5 8 -7 -8 -9 9 -11 -12
leaf_value=-0.00024337965684413339 -0.00036160674746957511 -2.1013872406109761e-06 -0.00013448667129555353 -0.00020688988795196421 -3.0606026962045387e-05 6.4005075408333326e-05 -0.00013440531242209434 9.5912198057484285e-05 0.0001494705631922801 -6.1533565453758976e-06 0.00012729202297029522
leaf_weight=7.0000000000000027 11.000000000000002 21 6.9999999999999991 6.9999999999999991 7.9999999999999991 9.9999999999999982 6.9999999999999991 7.9999999999999991 43 8.9999999999999982 11.999999999999998
leaf_count=7 11 21 7 7 8 10 7 8 43 9 12
internal_value=0 -6.93226e-05 -0.00015437 8.07709e-07 6.57212e-05 -6.24864e-05 -0.000273335 -1.1515e-05 0.00010207 0.000122509 4.49096e-05
internal_weight=0 73 33 40 77 17 18 15 60 52 33
internal_count=150 73 33 40 77 17 18 15 60 52 33
is_linear=0
shrinkage=0.000508036


Tree=9
num_leaves=12
num_cat=0
split_feature=153 26 123 70 91 170 66 176 179 53 111
split_gain=2.64512 1.68608 2.16917 1.4173 1.38912 1.50688 0.851869 0.816524 0.767101 0.63026 0.698969
threshold=389.50000000000006 14.500000000000002 5.5000000000000009 126.00000000000001 6.5000000000000009 61.500000000000007 355.38631536900215 0.37413043478260871 0.46915760869565221 14.500000000000002 11.450557931384031
decision_type=2 2 2 2 2 2 2 2 10 2 2
left_child=4 2 6 7 5 -1 -2 -3 -4 -6 -11
right_child=1 3 8 -5 9 -7 -8 -9 -10 10 -12
leaf_value=-0.00024327179510271732 -0.00036143480993624703 0.00012727605683556312 9.5854166682572429e-05 -0.00020678476971373099 -3.0590477081897103e-05 6.398360895006675e-05 -0.00013431854386212645 -3.2575292476005931e-05 -0.00013440771312255392 0.00014939462863786644 -6.1502305981438756e-06
leaf_weight=7.0000000000000027 11.000000000000002 15.999999999999998 7.9999999999999982 6.9999999999999991 7.9999999999999991 9.9999999999999982 6.9999999999999991 17 7 43 8.9999999999999982
leaf_count=7 11 16 8 7 8 10 7 17 7 43 9
internal_value=0 -6.92874e-05 -0.000154292 8.07266e-07 6.56878e-05 -6.24546e-05 -0.000273196 4.48868e-05 -1.15091e-05 0.000102018 0.000122447
internal_weight=0 73 33 40 77 17 18 33 15 60 52
internal_count=150 73 33 40 77 17 18 33 15 60 52
is_linear=0
shrinkage=0.000508036


Tree=10
num_leaves=12
num_cat=0
split_feature=153 65 91 56 134 78 71 0 38 53 111
split_gain=2.64243 1.65323 1.38771 1.50616 1.24082 2.07277 1.1945 0.710265 0.703024 0.629621 0.69826
threshold=389.50000000000006 39.424240080854624 6.5000000000000009 1.4002416172985901 60.500000000000007 1746983.0000000002 740.75000000000011 1370.5000000000002 1.5000000000000002 14.500000000000002 11.450557931384031
decision_type=2 2 2 2 2 2 2 2 2 2 2
left_child=2 8 3 -1 5 -3 7 -6 -2 -4 -11
right_child=1 4 9 -5 6 -7 -8 -9 -10 10 -12
leaf_value=-0.00024319626603834719 -0.00031525114201529536 -0.00029000029100060512 -3.0574935244708706e-05 6.3984742927126911e-05 1.5439098445419801e-05 2.9474495314713862e-05 -0.00011299946836258634 0.00019097088237613599 -0.0001128744133269729 0.00014931873114238991 -6.147105492011606e-06
leaf_weight=7.0000000000000027 8.0000000000000018 10.000000000000002 7.9999999999999991 9.9999999999999982 13.000000000000002 10.999999999999998 9.9999999999999982 10.999999999999998 9.9999999999999982 43 8.9999999999999982
leaf_count=7 8 10 8 10 13 11 10 11 10 43 9
internal_value=0 -6.92522e-05 6.56545e-05 -6.24228e-05 -2.54848e-05 -0.000122593 3.44536e-05 9.59517e-05 -0.000202904 0.000101967 0.000122385
internal_weight=0 73 77 17 55 21 34 24 18 60 52
internal_count=150 73 77 17 55 21 34 24 18 60 52
is_linear=0
shrinkage=0.000508036


Tree=11
num_leaves=12
num_cat=0
split_feature=153 42 123 70 91 151 174 176 179 28 178
split_gain=2.63974 1.68339 2.16568 1.41529 1.3863 1.50468 0.851196 0.815275 0.765911 0.603946 0.337103
threshold=389.50000000000006 14.500000000000002 5.5000000000000009 126.00000000000001 6.5000000000000009 394.50000000000006 0.25186469666017391 0.37413043478260871 0.46915760869565221 2.5000000000000004 1.1622807017543864
decision_type=2 2 2 2 2 2 2 2 10 2 10
left_child=4 2 6 7 5 -1 -2 -3 -4 10 -6
right_child=1 3 8 -5 9 -7 -8 -9 -10 -11 -12
leaf_value=-0.00024307576817761994 -0.00013413953703817047 0.00012719628021594609 9.5793740871191445e-05 -0.0002066226629558935 0.00015335703715451087 6.3954373083551267e-05 -0.00036116603728104436 -3.2532740955201911e-05 -0.00013428942888067392 -1.1930457083411091e-05 6.3749693503723959e-05
leaf_weight=7.0000000000000027 7.0000000000000027 15.999999999999998 7.9999999999999982 6.9999999999999991 34 9.9999999999999982 10.999999999999998 17 7 9.9999999999999982 15.999999999999998
leaf_count=7 7 16 8 7 34 10 11 17 7 10 16
internal_value=0 -6.9217e-05 -0.000154154 8.21809e-07 6.56211e-05 -6.2391e-05 -0.000272962 4.487e-05 -1.14861e-05 0.000101915 0.000124712
internal_weight=0 73 33 40 77 17 18 33 15 60 50
internal_count=150 73 33 40 77 17 18 33 15 60 50
is_linear=0
shrinkage=0.000508036


Tree=12
num_leaves=12
num_cat=0
split_feature=153 26 123 70 100 103 179 152 117 179 97
split_gain=2.63706 1.68168 2.16348 1.41385 1.3646 1.48516 1.13646 0.850912 0.766057 0.648984 0.524449
threshold=389.50000000000006 14.500000000000002 5.5000000000000009 126.00000000000001 20.500000000000004 38.132936507936513 2.4237223493516402 393.50000000000006 38.500000000000007 1.3777281746031749 78.000000000000014
decision_type=2 2 2 2 2 2 10 2 2 8 2
left_child=4 2 7 9 5 6 -1 -2 -4 -3 -7
right_child=1 3 8 -5 -6 10 -8 -9 -10 -11 -12
leaf_value=6.6653743478771252e-07 -0.00013402412390427256 -2.0123619426609499e-05 -0.0001342952462537021 -0.00020651769827597798 0.00012572883231858135 -2.6477020236900589e-05 -0.00027945434192334321 -0.00036101263930499145 9.5809855177877491e-05 0.00012290346604915009 0.00014834603894531696
leaf_weight=7.9999999999999982 7.0000000000000027 18 6.9999999999999991 6.9999999999999991 43 7.0000000000000027 7 10.999999999999998 7.9999999999999991 14.999999999999998 11.999999999999998
leaf_count=8 7 18 7 7 43 7 7 11 8 15 12
internal_value=0 -6.91819e-05 -0.000154075 8.21356e-07 6.55877e-05 -1.04327e-05 -0.000129968 -0.000272823 -1.14802e-05 4.48472e-05 8.3865e-05
internal_weight=0 73 33 40 77 34 15 18 15 33 19
internal_count=150 73 33 40 77 34 15 18 15 33 19
is_linear=0
shrinkage=0.000508036


Tree=13
num_leaves=12
num_cat=0
split_feature=153 42 123 70 91 56 106 176 117 53 111
split_gain=2.63439 1.67997 2.16128 1.41241 1.38436 1.50281 0.850365 0.813753 0.765279 0.628466 0.697041
threshold=389.50000000000006 14.500000000000002 5.5000000000000009 126.00000000000001 6.5000000000000009 1.4002416172985901 22.250000000000004 0.37413043478260871 38.500000000000007 14.500000000000002 11.450557931384031
decision_type=2 2 2 2 2 2 2 2 2 2 2
left_child=4 2 6 7 5 -1 -2 -3 -4 -6 -11
right_child=1 3 8 -5 9 -7 -8 -9 -10 10 -12
leaf_value=-0.00024294026161343372 -0.00013393017649295281 0.00012707376526821011 -0.0001342270263489746 -0.00020641278171821132 -3.0597215662934375e-05 6.3898859304700872e-05 -0.00036084570070796804 -3.2505990678053204e-05 9.5761187700732243e-05 0.00014913257450635306 -6.1974125093382521e-06
leaf_weight=7.0000000000000027 7.0000000000000027 15.999999999999998 6.9999999999999991 6.9999999999999991 7.9999999999999991 9.9999999999999982 10.999999999999998 17 7.9999999999999991 43 8.9999999999999982
leaf_count=7 7 16 7 7 8 10 11 17 8 43 9
internal_value=0 -6.91467e-05 -0.000153997 8.20903e-07 6.55544e-05 -6.23679e-05 -0.000272685 4.48244e-05 -1.14744e-05 0.000101823 0.000122222
internal_weight=0 73 33 40 77 17 18 33 15 60 52
internal_count=150 73 33 40 77 17 18 33 15 60 52
is_linear=0
shrinkage=0.000508036


Tree=14
num_leaves=12
num_cat=0
split_feature=153 26 123 60 91 170 174 117 53 111 177
split_gain=2.63171 1.67827 2.15909 1.38757 1.38295 1.50177 0.849815 0.764501 0.627828 0.696333 0.534164
threshold=389.50000000000006 14.500000000000002 5.5000000000000009 127.06500172894182 6.5000000000000009 61.500000000000007 0.25186469666017391 38.500000000000007 14.500000000000002 11.450557931384031 0.69407574053243348
decision_type=2 2 2 2 2 2 2 2 2 2 10
left_child=4 2 6 10 5 -1 -2 -4 -6 -10 -3
right_child=1 3 7 -5 8 -7 -8 -9 9 -11 -12
leaf_value=-0.00024284635745797808 -0.00013383644536095373 0.0001060684493330334 -0.00013415883834544688 -0.00018838125150985057 -3.058167146016954e-05 6.3887049440805379e-05 -0.00036067873733648057 9.5712536782622035e-05 0.00014905681081036452 -6.194264272962775e-06 -2.6179498814874406e-05
leaf_weight=7.0000000000000027 7.0000000000000027 18 6.9999999999999991 7.9999999999999991 7.9999999999999991 9.9999999999999982 10.999999999999998 7.9999999999999991 43 8.9999999999999982 13.999999999999998
leaf_count=7 7 18 7 8 8 10 11 8 43 9 14
internal_value=0 -6.91116e-05 -0.000153919 8.20449e-07 6.55211e-05 -6.23362e-05 -0.000272546 -1.14685e-05 0.000101771 0.00012216 4.81668e-05
internal_weight=0 73 33 40 77 17 18 15 60 52 32
internal_count=150 73 33 40 77 17 18 15 60 52 32
is_linear=0
shrinkage=0.000508036


Tree=15
num_leaves=12
num_cat=0
split_feature=153 42 123 70 91 56 152 176 179 160 166
split_gain=2.62904 1.67656 2.15689 1.40967 1.38154 1.50049 0.849329 0.812541 0.76405 0.627734 0.74742
threshold=389.50000000000006 14.500000000000002 5.5000000000000009 126.00000000000001 6.5000000000000009 1.4002416172985901 393.50000000000006 0.37413043478260871 0.46915760869565221 88.000000000000014 267.50000000000006
decision_type=2 2 2 2 2 2 2 2 10 2 2
left_child=4 2 6 7 5 -1 -2 -3 -4 10 -6
right_child=1 3 8 -5 9 -7 -8 -9 -10 -11 -12
leaf_value=-0.00024273799719272776 -0.00013373769276382662 0.00012696887181986666 9.5686761461768942e-05 -0.00020621223455531164 0.00010585020352905712 6.3865106833292578e-05 -0.00036051508548502303 -3.2491985774121028e-05 -0.00013411679256410884 0.00015546895600407519 -6.2835595706568577e-05
leaf_weight=7.0000000000000027 7.0000000000000027 15.999999999999998 7.9999999999999982 6.9999999999999991 21.000000000000004 9.9999999999999982 10.999999999999998 17 7 29 9.9999999999999982
leaf_count=7 7 16 8 7 21 10 11 17 7 29 10
internal_value=0 -6.90765e-05 -0.000153841 8.19995e-07 6.54878e-05 -6.23045e-05 -0.000272408 4.47808e-05 -1.14626e-05 0.000101719 5.13902e-05
internal_weight=0 73 33 40 77 17 18 33 15 60 31
internal_count=150 73 33 40 77 17 18 33 15 60 31
is_linear=0
shrinkage=0.000508036


Tree=16
num_leaves=12
num_cat=0
split_feature=153 26 40 85 91 151 134 176 160 166 166
split_gain=2.62637 1.67486 2.06907 1.40823 1.38014 1.49957 1.23011 0.811716 0.627096 0.746662 0.433041
threshold=389.50000000000006 14.500000000000002 32.500000000000007 126.00000000000001 6.5000000000000009 394.50000000000006 138.00000000000003 0.37413043478260871 88.000000000000014 267.50000000000006 229.50000000000003
decision_type=2 2 2 2 2 2 2 2 2 2 2
left_child=4 2 6 7 5 -1 -2 -3 9 10 -6
right_child=1 3 -4 -5 8 -7 -8 -9 -10 -11 -12
leaf_value=-0.00024265067766119044 -0.00036042961358399931 0.00012690437044675956 3.9041208953506253e-05 -0.00020610747642214736 4.2463252397699071e-05 6.3857849910003414e-05 -0.00012497522982729398 -3.2475478284853207e-05 0.00015538997306682606 -6.2803671375747912e-05 0.00019007822164238497
leaf_weight=7.0000000000000027 11.000000000000002 15.999999999999998 9.9999999999999982 6.9999999999999991 12.000000000000005 9.9999999999999982 11.999999999999998 17 29 9.9999999999999982 8.9999999999999982
leaf_count=7 11 16 10 7 12 10 12 17 29 10 9
internal_value=0 -6.90415e-05 -0.000153763 8.19543e-07 6.54545e-05 -6.22728e-05 -0.00023765 4.4758e-05 0.000101667 5.13641e-05 0.000105796
internal_weight=0 73 33 40 77 17 23 33 60 31 21
internal_count=150 73 33 40 77 17 23 33 60 31 21
is_linear=0
shrinkage=0.000508036


Tree=17
num_leaves=12
num_cat=0
split_feature=153 26 24 70 91 134 137 176 53 113 137
split_gain=2.6237 1.67316 2.06697 1.4068 1.37874 1.22886 0.959383 0.810892 0.626822 0.566938 0.318616
threshold=389.50000000000006 14.500000000000002 32.500000000000007 126.00000000000001 6.5000000000000009 138.00000000000003 166.25000000000003 0.37413043478260871 14.500000000000002 55.500000000000007 91.250000000000014
decision_type=2 2 2 2 2 2 2 2 2 2 2
left_child=4 2 5 7 6 -2 -1 10 -6 -10 -3
right_child=1 3 -4 -5 8 -7 -8 -9 9 -11 -12
leaf_value=-0.00016325969765346483 -0.00036024650552009621 4.5282076234037594e-05 3.9021375709864043e-05 -0.00020600277181811495 -3.063057738741961e-05 -0.00012491174461841555 8.1872855679442007e-05 -3.2458981037482668e-05 0.00014787562552207438 1.3120202272410406e-05 0.00019011234337716463
leaf_weight=10.000000000000002 11.000000000000002 6.9999999999999991 9.9999999999999982 6.9999999999999991 7.9999999999999991 11.999999999999998 6.9999999999999991 17 42 9.9999999999999982 8.9999999999999982
leaf_count=10 11 7 10 7 8 12 7 17 42 10 9
internal_value=0 -6.90064e-05 -0.000153684 8.19092e-07 6.54213e-05 -0.000237529 -6.22411e-05 4.47352e-05 0.000101616 0.000121988 0.00012684
internal_weight=0 73 33 40 77 23 17 33 60 52 16
internal_count=150 73 33 40 77 23 17 33 60 52 16
is_linear=0
shrinkage=0.000508036


Tree=18
num_leaves=12
num_cat=0
split_feature=183 166 108 42 123 172 56 22 97 93 58
split_gain=2.11821 2.65791 1.3903 1.38255 1.61974 1.28358 1.16002 0.891285 0.710495 0.448374 0.404748
threshold=27.500000000000004 244.50000000000003 106.00000000000001 13.500000000000002 5.5000000000000009 51.500000000000007 1.4660909688679211 2.5000000000000004 240.50000000000003 0.11350000000000002 637392.17640015495
decision_type=2 2 2 2 2 2 2 2 2 2 2
left_child=1 3 5 4 -1 9 -4 -7 -3 -2 -5
right_child=2 8 6 10 -6 7 -8 -9 -10 -11 -12
leaf_value=-0.00035305287011186089 4.2852715232312059e-05 0.00013613375460043276 -0.00020278389848253642 4.6210979695436653e-05 -6.2272363159134481e-05 -0.00017051705371871372 3.4413539845812371e-05 5.4295042172880267e-05 -6.1986728038552282e-05 0.0001560409513322875 -0.00011296423937431834
leaf_weight=13.000000000000002 11.999999999999998 14.000000000000002 9.0000000000000018 7.0000000000000027 7.9999999999999991 7.0000000000000027 12.999999999999998 12.999999999999998 6.9999999999999991 37 9.9999999999999982
leaf_count=13 12 14 9 7 8 7 13 13 7 37 10
internal_value=0 -7.49768e-05 4.86112e-05 -0.000155147 -0.00024235 8.40777e-05 -6.25607e-05 -2.43216e-05 7.00271e-05 0.000128351 -4.73398e-05
internal_weight=0 59 91 38 21 69 22 20 21 49 17
internal_count=150 59 91 38 21 69 22 20 21 49 17
is_linear=0
shrinkage=0.000508036


Tree=19
num_leaves=12
num_cat=0
split_feature=162 65 122 114 103 188 140 189 143 151 22
split_gain=2.14927 1.90525 1.31477 1.05773 0.915376 1.21222 1.54406 0.887698 0.983153 0.885012 0.760183
threshold=70.500000000000014 39.424240080854624 11.500000000000002 2.5000000000000004 22.647901304594445 108.080074382036 5.5000000000000009 1350.0000000000002 14.500000000000002 431.50000000000006 1.5000000000000002
decision_type=2 2 2 2 2 2 2 2 2 2 2
left_child=2 10 3 -1 -3 6 -6 8 -7 -4 -2
right_child=1 4 9 -5 5 7 -8 -9 -10 -11 -12
leaf_value=-0.00020657722753690202 -0.00031419019943498074 0.00012140438203693898 4.4115346818369447e-05 6.3744505375346489e-05 7.7080068934572725e-07 -0.00013961753017224964 -0.00031469374029331114 0.00013970288704294218 4.8435031932537628e-05 0.00017949481359434794 -0.0001080796460903513
leaf_weight=6.9999999999999991 8.0000000000000018 10.999999999999998 26 7.9999999999999991 7.9999999999999991 13.000000000000002 7.9999999999999991 9.9999999999999982 15.999999999999998 24 10.999999999999998
leaf_count=7 8 11 26 8 8 13 8 10 16 24 11
internal_value=0 -5.31792e-05 6.95414e-05 -6.23152e-05 -1.23462e-05 -3.91226e-05 -0.000156879 9.15337e-06 -3.58172e-05 0.000109127 -0.000194943
internal_weight=0 85 65 15 66 55 16 39 29 50 19
internal_count=150 85 65 15 66 55 16 39 29 50 19
is_linear=0
shrinkage=0.000508036


Tree=20
num_leaves=12
num_cat=0
split_feature=153 65 91 170 134 78 71 180 22 160 166
split_gain=2.61608 1.64309 1.37565 1.49613 1.23277 2.05708 1.19027 0.76982 0.697224 0.625807 0.74531
threshold=389.50000000000006 39.424240080854624 6.5000000000000009 61.500000000000007 60.500000000000007 1746983.0000000002 740.75000000000011 0.86015683254418407 1.5000000000000002 88.000000000000014 267.50000000000006
decision_type=2 2 2 2 2 2 2 2 2 2 2
left_child=2 8 3 -1 5 -3 7 -6 -2 10 -4
right_child=1 4 9 -5 6 -7 -8 -9 -10 -11 -12
leaf_value=-0.00024236357335135885 -0.0003140305883154205 -0.00028883852658201598 0.00010561158079212219 6.3792790436407681e-05 -1.1668054943090228e-05 2.9424655286631463e-05 -0.00011272112998390075 0.00017276249242545032 -0.00011248887323842502 0.00015514743575720848 -6.2835861032976842e-05
leaf_weight=7.0000000000000027 8.0000000000000018 10.000000000000002 21.000000000000004 9.9999999999999982 10.000000000000002 10.999999999999998 9.9999999999999982 13.999999999999998 9.9999999999999982 29 9.9999999999999982
leaf_count=7 8 10 21 10 10 11 10 14 10 29 10
internal_value=0 -6.89061e-05 6.53262e-05 -6.21928e-05 -2.52732e-05 -0.000122066 3.44704e-05 9.58596e-05 -0.000202147 0.00010148 5.12285e-05
internal_weight=0 73 77 17 55 21 34 24 18 60 31
internal_count=150 73 77 17 55 21 34 24 18 60 31
is_linear=0
shrinkage=0.000508036


Tree=21
num_leaves=12
num_cat=0
split_feature=162 129 25 120 147 54 165 80 134 70 190
split_gain=2.14506 1.82452 1.83509 2.26902 1.42978 1.00011 0.879359 0.876167 0.851818 1.26949 0.500615
threshold=70.500000000000014 14.500000000000002 1.5000000000000002 4.3226495726495733 203.50000000000003 2.7074968854653991 65.875000000000014 548.00000000000011 105.50000000000001 119.25000000000001 429.00000000000006
decision_type=2 2 2 2 2 2 2 2 2 2 2
left_child=4 2 3 -2 -1 6 -6 -4 9 10 -3
right_child=1 8 7 -5 5 -7 -8 -9 -10 -11 -12
leaf_value=-0.00011840187535518948 1.0456186931749072e-06 0.00015393864415368371 -0.0001074960405780821 -0.00033014953180760795 -0.00012568947101929443 0.00014451820555765759 0.0001057909984476486 0.00010622326105875869 0.00016203918822373651 -0.0002060972837184617 -6.1046676255210269e-06
leaf_weight=8.9999999999999982 8.0000000000000018 7.0000000000000027 11.000000000000002 15.999999999999998 8.0000000000000018 39 8.9999999999999982 8.9999999999999982 8.9999999999999982 6.9999999999999991 18
leaf_count=9 8 7 11 16 8 39 9 9 9 7 18
internal_value=0 -5.31271e-05 -0.000124981 -0.000219695 6.94733e-05 9.96933e-05 -3.05926e-06 -1.12522e-05 2.39512e-05 -1.48443e-05 3.86538e-05
internal_weight=0 85 44 24 65 56 17 20 41 32 25
internal_count=150 85 44 24 65 56 17 20 41 32 25
is_linear=0
shrinkage=0.000508036


Tree=22
num_leaves=12
num_cat=0
split_feature=153 65 91 56 60 177 74 24 38 53 111
split_gain=2.61083 1.64039 1.3735 1.49405 1.17953 1.11511 1.10333 1.00016 0.696166 0.624821 0.69398
threshold=389.50000000000006 39.424240080854624 6.5000000000000009 1.4002416172985901 106.07062659967085 0.34930496453900711 27371.500000000004 24.000000000000004 1.5000000000000002 14.500000000000002 11.450557931384031
decision_type=2 2 2 2 2 10 2 2 2 2 2
left_child=2 8 3 -1 6 -6 7 -3 -2 -4 -11
right_child=1 4 9 -5 5 -7 -8 -9 -10 10 -12
leaf_value=-0.00024220489245796104 -0.00031376696138059757 -0.00014596292404980301 -3.0648549617838961e-05 6.3739339087797887e-05 -0.00025836583716337821 -5.3085412342176463e-06 0.00012715039225978924 7.8012553292824816e-05 -0.00011237807997037719 0.00014857808081973685 -6.4103856955957182e-06
leaf_weight=7.0000000000000027 8.0000000000000018 12.000000000000002 7.9999999999999991 9.9999999999999982 9.0000000000000018 8.9999999999999982 15.999999999999998 8.9999999999999982 9.9999999999999982 43 8.9999999999999982
leaf_count=7 8 12 8 10 9 9 16 9 10 43 9
internal_value=0 -6.8837e-05 6.52607e-05 -6.21589e-05 -2.52399e-05 -0.000131919 2.66211e-05 -4.99073e-05 -0.000201968 0.000101386 0.000121726
internal_weight=0 73 77 17 55 18 37 21 18 60 52
internal_count=150 73 77 17 55 18 37 21 18 60 52
is_linear=0
shrinkage=0.000508036


Tree=23
num_leaves=12
num_cat=0
split_feature=183 166 70 108 54 179 56 78 91 60 180
split_gain=2.10851 2.64704 1.51304 1.38633 1.2612 1.25907 1.15593 0.91419 0.892275 0.712651 0.661363
threshold=27.500000000000004 244.50000000000003 87.250000000000014 106.00000000000001 2.6503041825477101 2.9964622641509435 1.4660909688679211 1767538.5000000002 6.5000000000000009 85.525678777618097 0.90534758578877994
decision_type=2 2 2 2 2 8 2 2 2 2 2
left_child=1 2 -1 5 -4 7 -5 -2 -9 -3 -6
right_child=3 9 4 6 10 -7 -8 8 -10 -11 -12
leaf_value=-0.00031368146063863505 0.00013424572565337274 -6.2312097567196288e-05 -0.00022245079600294326 -0.00020248902404893039 -9.0076097993697368e-05 0.0001406279856312036 3.4289436795557721e-05 -0.00020646789509610512 2.1673950951165121e-05 0.00013610926116383392 0.00011812668221648472
leaf_weight=10.999999999999998 9.0000000000000018 7.0000000000000027 11.000000000000002 9.0000000000000018 8.9999999999999982 41 12.999999999999998 7.0000000000000027 11.999999999999998 13.999999999999998 6.9999999999999991
leaf_count=11 9 7 11 9 9 41 13 7 12 14 7
internal_value=0 -7.48049e-05 -0.000154811 4.84996e-05 -9.003e-05 8.39155e-05 -6.25134e-05 8.21346e-07 -6.2308e-05 6.99023e-05 9.26106e-07
internal_weight=0 59 38 91 27 69 22 28 19 21 16
internal_count=150 59 38 91 27 69 22 28 19 21 16
is_linear=0
shrinkage=0.000508036


Tree=24
num_leaves=12
num_cat=0
split_feature=153 26 123 85 91 170 106 176 117 160 166
split_gain=2.60645 1.66424 2.14465 1.40147 1.37102 1.49229 0.845405 0.806592 0.760799 0.62446 0.743731
threshold=389.50000000000006 14.500000000000002 5.5000000000000009 126.00000000000001 6.5000000000000009 61.500000000000007 22.250000000000004 0.37413043478260871 38.500000000000007 88.000000000000014 267.50000000000006
decision_type=2 2 2 2 2 2 2 2 2 2 2
left_child=4 2 6 7 5 -1 -2 -3 -4 10 -6
right_child=1 3 8 -5 9 -7 -8 -9 -10 -11 -12
leaf_value=-0.00024203791022353696 -0.00013311160630490702 0.00012657935646405837 -0.00013365080741302562 -0.00020556952540850236 0.0001054269090074118 6.3725252564350704e-05 -0.00035936487318373098 -3.2296420085287076e-05 9.566349743686093e-05 0.00015490839248238984 -6.2842071033519553e-05
leaf_weight=7.0000000000000027 7.0000000000000027 15.999999999999998 6.9999999999999991 6.9999999999999991 21.000000000000004 9.9999999999999982 10.999999999999998 17 7.9999999999999991 29 9.9999999999999982
leaf_count=7 7 16 7 7 21 10 11 17 8 29 10
internal_value=0 -6.87792e-05 -0.000153231 8.59783e-07 6.52059e-05 -6.20985e-05 -0.000271461 4.46927e-05 -1.12576e-05 0.000101299 5.11014e-05
internal_weight=0 73 33 40 77 17 18 33 15 60 31
internal_count=150 73 33 40 77 17 18 33 15 60 31
is_linear=0
shrinkage=0.000508036


Tree=25
num_leaves=12
num_cat=0
split_feature=153 42 123 70 91 151 106 176 179 53 90
split_gain=2.6038 1.66255 2.14247 1.40005 1.36963 1.49146 0.844544 0.805773 0.760034 0.623602 0.464586
threshold=389.50000000000006 14.500000000000002 5.5000000000000009 126.00000000000001 6.5000000000000009 394.50000000000006 22.250000000000004 0.37413043478260871 0.46915760869565221 14.500000000000002 16.500000000000004
decision_type=2 2 2 2 2 2 2 2 10 2 2
left_child=4 2 6 7 5 -1 -2 -3 -4 -6 -11
right_child=1 3 8 -5 9 -7 -8 -9 -10 10 -12
leaf_value=-0.00024195634588472314 -0.00013304397900551815 0.0001265150516765679 9.5615454471894917e-05 -0.00020546510196758683 -3.0658569253393782e-05 6.3721846091206044e-05 -0.00035918231566347376 -3.2280012565842717e-05 -0.00013358354832918026 0.0001464489183362727 2.8699055277664584e-05
leaf_weight=7.0000000000000027 7.0000000000000027 15.999999999999998 7.9999999999999982 6.9999999999999991 7.9999999999999991 9.9999999999999982 10.999999999999998 17 7 41 10.999999999999998
leaf_count=7 7 16 8 7 8 10 11 17 7 41 11
internal_value=0 -6.87443e-05 -0.000153153 8.59309e-07 6.51727e-05 -6.20669e-05 -0.000271323 4.46699e-05 -1.12518e-05 0.000101247 0.000121568
internal_weight=0 73 33 40 77 17 18 33 15 60 52
internal_count=150 73 33 40 77 17 18 33 15 60 52
is_linear=0
shrinkage=0.000508036


Tree=26
num_leaves=12
num_cat=0
split_feature=153 26 123 70 91 56 152 117 179 28 187
split_gain=2.60116 1.66086 2.1403 1.39862 1.36823 1.48986 0.844047 0.759667 0.640994 0.59985 0.396016
threshold=389.50000000000006 14.500000000000002 5.5000000000000009 126.00000000000001 6.5000000000000009 1.4002416172985901 393.50000000000006 38.500000000000007 1.3777281746031749 2.5000000000000004 4.0597500000000011
decision_type=2 2 2 2 2 2 2 2 8 2 2
left_child=4 2 6 8 5 -1 -2 -4 10 -6 -3
right_child=1 3 7 -5 9 -7 -8 -9 -10 -11 -12
leaf_value=-0.00024182842585840825 -0.00013294685228818431 6.4224986121457536e-05 -0.00013354832075342687 -0.00020536072070113885 0.00012391558052542609 6.3685974793501761e-05 -0.00035901864729570695 9.5595431286705048e-05 0.00012222150663609136 -1.2262400480495006e-05 -8.7379181345730497e-05
leaf_weight=7.0000000000000027 7.0000000000000027 8.0000000000000018 6.9999999999999991 6.9999999999999991 50 9.9999999999999982 10.999999999999998 7.9999999999999991 14.999999999999998 9.9999999999999982 9.9999999999999982
leaf_count=7 7 8 7 7 50 10 11 8 15 10 10
internal_value=0 -6.87094e-05 -0.000153076 8.58838e-07 6.51396e-05 -6.20353e-05 -0.000271186 -1.1246e-05 4.46472e-05 0.000101196 -1.9922e-05
internal_weight=0 73 33 40 77 17 18 15 33 60 18
internal_count=150 73 33 40 77 17 18 15 33 60 18
is_linear=0
shrinkage=0.000508036


Tree=27
num_leaves=12
num_cat=0
split_feature=153 26 123 100 106 52 174 32 179 147 127
split_gain=2.59852 1.65917 2.13812 1.3527 2.20314 1.10921 0.843303 0.822589 0.758904 0.645137 0.316313
threshold=389.50000000000006 14.500000000000002 5.5000000000000009 20.500000000000004 29.500000000000004 4.793048469387756 0.25186469666017391 1.5000000000000002 0.46915760869565221 219.50000000000003 5.8750000000000009
decision_type=2 2 2 2 2 2 2 2 10 2 2
left_child=3 2 6 4 5 -1 -2 9 -4 -3 -6
right_child=1 7 8 -5 10 -7 -8 -9 -10 -11 -12
leaf_value=-6.2689535104792417e-06 -0.00013286998012923272 -3.9000142208533292e-05 9.55474200204633e-05 0.00012498478260867391 4.5275674366145292e-05 -0.00025865729252648841 -0.00035884220906807378 -9.8387856143442902e-05 -0.00013348110600684224 0.00012290469668986442 0.00018958312509477691
leaf_weight=9.0000000000000018 7.0000000000000027 11.000000000000002 7.9999999999999982 43 6.9999999999999973 8.9999999999999982 10.999999999999998 13.999999999999998 7 14.999999999999998 9
leaf_count=9 7 11 8 43 7 9 11 14 7 15 9
internal_value=0 -6.86745e-05 -0.000152998 6.51065e-05 -1.05815e-05 -0.000132545 -0.000271048 8.58383e-07 -1.12403e-05 5.43533e-05 0.000126539
internal_weight=0 73 33 77 34 18 18 40 15 26 16
internal_count=150 73 33 77 34 18 18 40 15 26 16
is_linear=0
shrinkage=0.000508036


Tree=28
num_leaves=12
num_cat=0
split_feature=153 26 24 70 91 151 134 179 160 166 166
split_gain=2.59588 1.65749 2.05144 1.39691 1.36604 1.48819 1.22173 0.640252 0.623309 0.742315 0.431157
threshold=389.50000000000006 14.500000000000002 32.500000000000007 126.00000000000001 6.5000000000000009 394.50000000000006 138.00000000000003 1.3777281746031749 88.000000000000014 267.50000000000006 229.50000000000003
decision_type=2 2 2 2 2 2 2 8 2 2 2
left_child=4 2 6 7 5 -1 -2 -3 9 10 -6
right_child=1 3 -4 -5 8 -7 -8 -9 -10 -11 -12
leaf_value=-0.00024169173949052764 -0.00035881026377302115 -1.9912262572177974e-05 3.9060237133995283e-05 -0.00020523540738133655 4.2028158208969618e-05 6.3651592881555744e-05 -0.00012415908654813526 0.00012214888924519344 0.0001546609241068513 -6.2885375634122472e-05 0.00018932137821604255
leaf_weight=7.0000000000000027 11.000000000000002 18 9.9999999999999982 6.9999999999999991 12.000000000000005 9.9999999999999982 11.999999999999998 14.999999999999998 29 9.9999999999999982 8.9999999999999982
leaf_count=7 11 18 10 7 12 10 12 15 29 10 9
internal_value=0 -6.86397e-05 -0.00015292 8.5791e-07 6.50734e-05 -6.19992e-05 -0.00023645 4.46195e-05 0.000101101 5.09495e-05 0.000105223
internal_weight=0 73 33 40 77 17 23 33 60 31 21
internal_count=150 73 33 40 77 17 23 33 60 31 21
is_linear=0
shrinkage=0.000508036


Tree=29
num_leaves=12
num_cat=0
split_feature=153 26 24 70 100 103 134 179 179 175 187
split_gain=2.59324 1.6558 2.04936 1.39549 1.35049 1.47117 1.22048 1.1278 0.639602 0.51859 0.395488
threshold=389.50000000000006 14.500000000000002 32.500000000000007 126.00000000000001 20.500000000000004 38.132936507936513 138.00000000000003 2.4237223493516402 1.3777281746031749 0.53562117943185916 4.0597500000000011
decision_type=2 2 2 2 2 2 2 10 8 2 2
left_child=4 2 6 8 5 7 -2 -1 10 -7 -3
right_child=1 3 -4 -5 -6 9 -8 -9 -10 -11 -12
leaf_value=5.7845898109356285e-07 -0.00035862798703002334 6.4188707168110693e-05 3.9040395184921698e-05 -0.00020513114452781666 0.00012486965765607616 -2.6456905178680148e-05 -0.00012409601201198139 -0.00027847161410880143 0.00012208683512712369 0.00014738637658851978 -8.7314456084999951e-05
leaf_weight=7.9999999999999982 11.000000000000002 8.0000000000000018 9.9999999999999982 6.9999999999999991 43 7.0000000000000027 11.999999999999998 7 14.999999999999998 11.999999999999998 9.9999999999999982
leaf_count=8 11 8 10 7 43 7 12 7 15 12 10
internal_value=0 -6.86048e-05 -0.000152843 8.57439e-07 6.50404e-05 -1.05856e-05 -0.00023633 -0.000129557 4.45968e-05 8.32663e-05 -1.99021e-05
internal_weight=0 73 33 40 77 34 23 15 33 19 18
internal_count=150 73 33 40 77 34 23 15 33 19 18
is_linear=0
shrinkage=0.000508036


Tree=30
num_leaves=12
num_cat=0
split_feature=182 103 177 117 159 108 171 59 59 109 57
split_gain=2.11483 2.24521 1.88306 1.24862 1.21933 1.04239 1.43861 0.858902 0.822385 0.781279 0.629326
threshold=62.500000000000007 47.863333333333337 0.43278870252554463 46.500000000000007 71.500000000000014 106.00000000000001 68.000000000000014 712658.67983093846 755107.12496358657 5.5000000000000009 244654.50000000003
decision_type=2 2 10 2 2 2 2 2 2 2 2
left_child=1 7 9 8 5 6 -4 -1 -3 -2 -11
right_child=2 3 4 -5 -6 -7 -8 -9 -10 10 -12
leaf_value=-0.00038510440127355821 4.6438061242692143e-06 0.00014816995749487435 -0.00011776991379412371 -0.00013377862859048493 -0.00020246600525144026 -0.00015630569471811095 0.0001267620274467191 -0.00013301303267891781 -6.2023031875833135e-05 0.00018074863321216334 4.2244266056297433e-05
leaf_weight=6.9999999999999982 14.999999999999998 12.000000000000002 9.0000000000000018 13.999999999999998 8.9999999999999982 7.9999999999999991 20 7 7.9999999999999991 29 11.999999999999998
leaf_count=7 15 12 9 14 9 8 20 7 8 29 12
internal_value=0 -8.79355e-05 4.13813e-05 -1.73841e-05 -3.47584e-05 5.99979e-06 5.08239e-05 -0.000259168 6.40234e-05 0.000103949 0.000140246
internal_weight=0 48 102 34 46 37 29 14 20 56 41
internal_count=150 48 102 34 46 37 29 14 20 56 41
is_linear=0
shrinkage=0.000508036


Tree=31
num_leaves=12
num_cat=0
split_feature=153 26 40 70 91 170 134 179 160 166 166
split_gain=2.58865 1.65305 2.04593 1.39377 1.36307 1.48491 1.21857 0.638139 0.622579 0.740769 0.43023
threshold=389.50000000000006 14.500000000000002 32.500000000000007 126.00000000000001 6.5000000000000009 61.500000000000007 138.00000000000003 1.3777281746031749 88.000000000000014 267.50000000000006 229.50000000000003
decision_type=2 2 2 2 2 2 2 8 2 2 2
left_child=4 2 6 7 5 -1 -2 -3 9 10 -6
right_child=1 3 -4 -5 8 -7 -8 -9 -10 -11 -12
leaf_value=-0.00024144653443279433 -0.00035833117243421749 -1.9852310451198331e-05 3.9010584002941771e-05 -0.00020500091788254666 4.1939046958996329e-05 6.3560326653064144e-05 -0.00012398329717368573 0.00012197410722648063 0.00015449972210613698 -6.2867117695061155e-05 0.0001890740646090696
leaf_weight=7.0000000000000027 11.000000000000002 18 9.9999999999999982 6.9999999999999991 12.000000000000005 9.9999999999999982 11.999999999999998 14.999999999999998 29 9.9999999999999982 8.9999999999999982
leaf_count=7 11 18 10 7 12 10 12 15 29 10 9
internal_value=0 -6.8544e-05 -0.000152712 8.60382e-07 6.49827e-05 -6.1952e-05 -0.000236129 4.45728e-05 0.000100971 5.08491e-05 0.000105067
internal_weight=0 73 33 40 77 17 23 33 60 31 21
internal_count=150 73 33 40 77 17 23 33 60 31 21
is_linear=0
shrinkage=0.000508036


Tree=32
num_leaves=12
num_cat=0
split_feature=153 26 123 70 91 151 152 176 117 160 107
split_gain=2.58602 1.65137 2.13144 1.39235 1.36169 1.48376 0.841152 0.800951 0.757524 0.621946 0.725262
threshold=389.50000000000006 14.500000000000002 5.5000000000000009 126.00000000000001 6.5000000000000009 394.50000000000006 393.50000000000006 0.37413043478260871 38.500000000000007 88.000000000000014 188.50000000000003
decision_type=2 2 2 2 2 2 2 2 2 2 2
left_child=4 2 6 7 5 -1 -2 -3 -4 10 -6
right_child=1 3 8 -5 9 -7 -8 -9 -10 -11 -12
leaf_value=-0.00024134519135010369 -0.00013249756227856318 0.00012615000992891858 -0.00013322791267239938 -0.00020489677776754125 0.00012607775040262672 6.3542962723954792e-05 -0.00035818154568213897 -3.2169056748997716e-05 9.5592476681735753e-05 0.00015442122953454867 -2.9356453457656717e-05
leaf_weight=7.0000000000000027 7.0000000000000027 15.999999999999998 6.9999999999999991 6.9999999999999991 16.000000000000004 9.9999999999999982 10.999999999999998 17 7.9999999999999991 29 14.999999999999998
leaf_count=7 7 16 7 7 16 10 11 17 8 29 15
internal_value=0 -6.85092e-05 -0.000152634 8.5991e-07 6.49497e-05 -6.19204e-05 -0.000270499 4.45501e-05 -1.10981e-05 0.00010092 5.08233e-05
internal_weight=0 73 33 40 77 17 18 33 15 60 31
internal_count=150 73 33 40 77 17 18 33 15 60 31
is_linear=0
shrinkage=0.000508036


Tree=33
num_leaves=12
num_cat=0
split_feature=153 26 123 70 91 151 183 117 179 160 166
split_gain=2.58339 1.64969 2.12928 1.39094 1.3603 1.48225 0.840331 0.756754 0.636808 0.621314 0.739692
threshold=389.50000000000006 14.500000000000002 5.5000000000000009 126.00000000000001 6.5000000000000009 394.50000000000006 25.500000000000004 38.500000000000007 1.3777281746031749 88.000000000000014 267.50000000000006
decision_type=2 2 2 2 2 2 2 2 8 2 2
left_child=4 2 6 8 5 -1 -2 -4 -3 10 -6
right_child=1 3 7 -5 9 -7 -8 -9 -10 -11 -12
leaf_value=-0.00024122259503926748 -0.00035800142982295115 -1.9830350822311063e-05 -0.00013316023616946509 -0.0002047926928037626 0.0001049754438286001 6.3510680713453941e-05 -0.00013242735368548204 9.554391707487599e-05 0.00012184805701557439 0.00015434277990421729 -6.2836062014892373e-05
leaf_weight=7.0000000000000027 11.000000000000002 18 6.9999999999999991 6.9999999999999991 21.000000000000004 9.9999999999999982 6.9999999999999991 7.9999999999999991 14.999999999999998 29 9.9999999999999982
leaf_count=7 11 18 7 7 21 10 7 8 15 29 10
internal_value=0 -6.84744e-05 -0.000152557 8.59436e-07 6.49167e-05 -6.18889e-05 -0.000270362 -1.10924e-05 4.45274e-05 0.000100869 5.07975e-05
internal_weight=0 73 33 40 77 17 18 15 33 60 31
internal_count=150 73 33 40 77 17 18 15 33 60 31
is_linear=0
shrinkage=0.000508036


Tree=34
num_leaves=12
num_cat=0
split_feature=162 137 25 120 147 116 144 54 165 95 149
split_gain=2.11959 1.57786 1.91588 1.68406 1.41793 1.25235 1.1138 0.993641 0.872968 0.630632 0.641262
threshold=70.500000000000014 105.37500000000001 1.0000000180025095e-35 4.3226495726495733 203.50000000000003 2.1499471173474287 7.6250000000000009 2.7074968854653991 65.875000000000014 2.0248479180602295 439.87500000000006
decision_type=2 2 2 2 2 2 2 2 2 2 2
left_child=4 6 3 -3 -1 -4 -2 8 -6 10 -8
right_child=1 2 5 -5 7 -7 9 -9 -10 -11 -12
leaf_value=-0.00011803529380324123 -0.00010383394148247107 -2.5512484216720115e-05 -0.00015305008431272936 -0.00033092679399079406 -0.00012544927275349947 7.2607504810595348e-05 0.00011871353128104538 0.00014383382469959424 0.00010518816375047939 0.00016872302371474218 -9.8719786294371926e-05
leaf_weight=8.9999999999999982 11.999999999999998 7.0000000000000027 11.000000000000002 13.999999999999998 8.0000000000000018 14.999999999999998 7.0000000000000018 39 8.9999999999999982 11.999999999999998 7
leaf_count=9 12 7 11 14 8 15 7 39 9 12 7
internal_value=0 -5.28109e-05 -0.000115055 -0.000229192 6.90596e-05 -2.28104e-05 2.41384e-05 9.91541e-05 -3.26538e-06 8.32571e-05 9.89739e-06
internal_weight=0 85 47 21 65 26 38 56 17 26 14
internal_count=150 85 47 21 65 26 38 56 17 26 14
is_linear=0
shrinkage=0.000508036


end of trees

feature_importances:
153=26
91=22
70=21
26=19
123=18
179=18
176=14
166=12
53=11
134=11
56=10
111=10
117=10
151=10
160=8
24=6
65=6
147=6
162=6
170=6
42=5
54=5
60=5
78=5
103=5
152=5
183=5
22=4
100=4
106=4
129=4
137=4
143=4
85=3
97=3
108=3
174=3
177=3
25=2
28=2
38=2
40=2
59=2
66=2
71=2
120=2
136=2
155=2
165=2
180=2
187=2
0=1
10=1
32=1
51=1
52=1
57=1
58=1
74=1
80=1
82=1
90=1
93=1
95=1
107=1
109=1
113=1
114=1
116=1
122=1
127=1
130=1
140=1
144=1
145=1
149=1
159=1
167=1
171=1
172=1
175=1
178=1
182=1
188=1
189=1
190=1

parameters:
[boosting: gbdt]
[objective: regression]
[metric: rmse]
[tree_learner: serial]
[device_type: cpu]
[data: ]
[valid: ]
[num_iterations: 35]
[learning_rate: 0.000508036]
[num_leaves: 12]
[num_threads: -1]
[deterministic: 0]
[force_col_wise: 0]
[force_row_wise: 0]
[histogram_pool_size: -1]
[max_depth: 11]
[min_data_in_leaf: 7]
[min_sum_hessian_in_leaf: 0.001]
[bagging_fraction: 0.7]
[pos_bagging_fraction: 1]
[neg_bagging_fraction: 1]
[bagging_freq: 0]
[bagging_seed: 11149]
[feature_fraction: 0.7]
[feature_fraction_bynode: 1]
[feature_fraction_seed: 21351]
[extra_trees: 0]
[extra_seed: 16806]
[early_stopping_round: 0]
[first_metric_only: 0]
[max_delta_step: 0]
[lambda_l1: 0.0027516]
[lambda_l2: 0.000505845]
[linear_lambda: 0]
[min_gain_to_split: 0]
[drop_rate: 0.1]
[max_drop: 50]
[skip_drop: 0.5]
[xgboost_dart_mode: 0]
[uniform_drop: 0]
[drop_seed: 2965]
[top_rate: 0.2]
[other_rate: 0.1]
[min_data_per_group: 100]
[max_cat_threshold: 32]
[cat_l2: 10]
[cat_smooth: 10]
[max_cat_to_onehot: 4]
[top_k: 20]
[monotone_constraints: ]
[monotone_constraints_method: basic]
[monotone_penalty: 0]
[feature_contri: ]
[forcedsplits_filename: ]
[refit_decay_rate: 0.9]
[cegb_tradeoff: 1]
[cegb_penalty_split: 0]
[cegb_penalty_feature_lazy: ]
[cegb_penalty_feature_coupled: ]
[path_smooth: 0]
[interaction_constraints: ]
[verbosity: -1]
[saved_feature_importance_type: 0]
[linear_tree: 0]
[max_bin: 255]
[max_bin_by_feature: ]
[min_data_in_bin: 3]
[bin_construct_sample_cnt: 200000]
[data_random_seed: 179]
[is_enable_sparse: 1]
[enable_bundle: 1]
[use_missing: 1]
[zero_as_missing: 0]
[feature_pre_filter: 1]
[pre_partition: 0]
[two_round: 0]
[header: 0]
[label_column: ]
[weight_column: ]
[group_column: ]
[ignore_column: ]
[categorical_feature: ]
[forcedbins_filename: ]
[precise_float_parser: 0]
[objective_seed: 26397]
[num_class: 1]
[is_unbalance: 0]
[scale_pos_weight: 1]
[sigmoid: 1]
[boost_from_average: 1]
[reg_sqrt: 0]
[alpha: 0.9]
[fair_c: 1]
[poisson_max_delta_step: 0.7]
[tweedie_variance_power: 1.5]
[lambdarank_truncation_level: 30]
[lambdarank_norm: 1]
[label_gain: ]
[eval_at: ]
[multi_error_top_k: 1]
[auc_mu_weights: ]
[num_machines: 1]
[local_listen_port: 12400]
[time_out: 120]
[machine_list_filename: ]
[machines: ]
[gpu_platform_id: -1]
[gpu_device_id: -1]
[gpu_use_dp: 0]
[num_gpu: 1]

end of parameters

pandas_categorical:[]
