tree
version=v3
num_class=1
num_tree_per_iteration=1
label_index=0
max_feature_idx=191
objective=regression
feature_names=0 1 2 3 4 5 6 7 8 9 10 11 12 13 14 15 16 17 18 19 20 21 22 23 24 25 26 27 28 29 30 31 32 33 34 35 36 37 38 39 40 41 42 43 44 45 46 47 48 49 50 51 52 53 54 55 56 57 58 59 60 61 62 63 64 65 66 67 68 69 70 71 72 73 74 75 76 77 78 79 80 81 82 83 84 85 86 87 88 89 90 91 92 93 94 95 96 97 98 99 100 101 102 103 104 105 106 107 108 109 110 111 112 113 114 115 116 117 118 119 120 121 122 123 124 125 126 127 128 129 130 131 132 133 134 135 136 137 138 139 140 141 142 143 144 145 146 147 148 149 150 151 152 153 154 155 156 157 158 159 160 161 162 163 164 165 166 167 168 169 170 171 172 173 174 175 176 177 178 179 180 181 182 183 184 185 186 187 188 189 190 191
feature_infos=[230:3669] [12:2246] [2:1621] [0:17] [0:3] [211:4676] [38:3999] [1:51] [0:43] [0:618] [0:16] none [0:14] none [0:12] [0:8] [0:6] [0:8] none [191:2854] [36:2217] [0:2248] [0:893] [0:680] [1:535] [0:301] [1:46] [0:36] [0:266] [0:370] [0:313] [0:106] [0:12] [0:128] none [191:2854] [36:2217] [0:2248] [0:893] [0:680] [1:535] [0:301] [1:46] [0:36] [0:266] [0:370] [0:313] [0:106] [0:12] [0:128] none [39:843] [3.6898148148148149:21.25454545454545] [10:1209] [1.8302558051784696:123.28333488820388] [3:6] [0.49714616757051278:15.956396355488426] [13452:619667] [65797.576335877864:3157276.5539733577] [65864.526717557252:3157388.2604501606] [8.423293675641828:200.36603557085485] [113.70992366412214:1709.971855115027] [19.251908396946565:313.8460597161037] [94310.180358227517:633950.3643352018] [94306.217793890944:633940.16543646669] [22.354026693915944:261.69828873876003] [59.864916717840629:896.70180972282083] [9.9268153508934542:165.53381781388219] [47035:3529205] [47118.5:3529271] [1:198] [115:1796] [21:326] [514:740531] [598:740669] [0:23] none none [457196:3986953] [457197:3987141] [184:7276] [207:3058] [35:568] [47083:3529205] [47162:3529271] [1:198] [115:1796] [21:326] [3:6] [6:19] [6:19] [4:27] [5.8959999999999999:1139.1949999999999] [0.050000000000000003:0.371] [0.14046608315098461:1.6610000000000007] [0.3080875493790432:30.76267351292498] [78.659999999999982:1613.8919999999987] [8:423] [4:155] [1:105] [1:83] [0:44] [1:64] [12.952380952380953:322.66666666666669] [11.1729248222768:273.61316976100892] [4:128] [8:333] [37:1063] [1:828] [1:436] [1:26.768115942028984] [0:31.265682933416471] [1:25] [1:226] [1:59] [1:166] [0.91000000000000003:31.871534820824881] [30:683] [6:631] [35:575] [3.774509803921569:5.7579908675799087] none [9:44] [1:13] [2:14] [2:3] none [4:8] [171:2434] [1:41] [37.966666666666669:1316] [3:1316] [63:1316] [3:1316] [8:1316] [23.5:1316] [32.5:1316] [43:1316] [204:2991] [7.4146341463414638:234] [1:234] [12:234] [1:234] [2:234] [5:234] [6.5:234] [8.75:234] [35:583] [1:18] [69.5:1396] [1:1396] [186:2002] [9:1396] [1:2002] [2:1396] [26:1396] [71:1396] [207:3042] [12.77777777777778:615.33333333333337] [1:277] [35:1703] [1:277] [2:1703] [1:277] [4:277] [13:893] [35:1846] [0.03125:1] [-1:0.9375] [0.03125:1] [0:277] [0:494] [0:185] [35:580] [0:1] [0:0.99593495934959364] [0:0.65700483091787443] [0:2.8571428571428572] [0:6.7999999999999998] [0:35.5] [0.1575237515308755:3.291366326011643] [0.24057480980557899:0.98406374501992044] [8:159] [4:69] [0.10835578584918359:0.96637023560696755] [0.10835578584918359:0.96637023560696755] [3.0426406250000002:182.96225000000001] [2.6070000000000002:65.813999999999993] [17.336217708728871:323.06657380656253] [0:3856] [0:2369] [6:3089]
tree_sizes=1027 1227 1252 1110 1235 1110 1231 1247 1108 985 1230 988 1250 1234 990 1243 1109 989 1233 989 1231 1248 991 1245 1230 988 1113 989 1242 1231 990 1243 1243 988 1114 989 1243 1229 989 1249 1229 991 1110 1228 989

Tree=0
num_leaves=10
num_cat=0
split_feature=164 56 159 144 73 107 31 8 10
split_gain=1.70648 2.23375 2.22291 1.73024 1.2559 0.574819 0.530298 0.325104 0.217584
threshold=45.750000000000007 1.4103104694562485 57.500000000000007 9.6250000000000018 4126.5000000000009 340.50000000000006 1.5000000000000002 1.5000000000000002 1.0000000180025095e-35
decision_type=2 2 2 2 2 2 2 2 2
left_child=1 -1 5 7 -5 6 8 -4 -2
right_child=2 -3 3 4 -6 -7 -8 -9 -10
leaf_value=1.6120884649510105 1.6129616541433132 1.6126161770046479 1.6125944379231707 1.6121466980536721 1.6125218202061351 1.6125621099958529 1.6126783399952189 1.6128279730335509 1.6127984632375449
leaf_weight=14.000000000000002 17 17 12.000000000000002 14.999999999999998 20 10.999999999999998 19 10.999999999999998 14.999999999999998
leaf_count=14 17 17 12 15 20 11 19 11 15
internal_value=1.61258 1.61238 1.61264 1.6125 1.61236 1.61276 1.61281 1.61271 1.61289
internal_weight=0 31 120 58 35 62 51 23 32
internal_count=151 31 120 58 35 62 51 23 32
is_linear=0
shrinkage=1


Tree=1
num_leaves=11
num_cat=0
split_feature=164 56 159 144 73 140 177 127 56 22
split_gain=1.70314 2.22938 2.21856 1.72686 1.25344 0.574809 0.598516 0.383102 0.325023 0.0510464
threshold=45.750000000000007 1.4103104694562485 57.500000000000007 9.6250000000000018 4126.5000000000009 4.5000000000000009 0.96795180722891583 5.1250000000000009 1.729305305841879 5.5000000000000009
decision_type=2 2 2 2 2 2 8 2 2 2
left_child=1 -1 5 8 -5 -2 7 -7 -4 -9
right_child=2 -3 3 4 -6 6 -8 9 -10 -11
leaf_value=-0.00049383262084539521 -2.0847827110070838e-05 3.3362856112084751e-05 0.0002450554737395452 -0.00043565652097510629 -6.0901577997317399e-05 0.00013384162711380069 2.2574812074445586e-05 0.00028947384411107964 1.1549803609673657e-05 0.00037869494786799943
leaf_weight=14.000000000000002 10.999999999999998 17 11.000000000000002 14.999999999999998 20 11.999999999999998 10.999999999999998 11.000000000000002 11.999999999999998 17
leaf_count=14 11 17 11 15 20 12 11 11 12 17
internal_value=0 -0.000204543 5.28419e-05 -8.4705e-05 -0.000221691 0.00018161 0.000225394 0.000281018 0.000123493 0.000343871
internal_weight=0 31 120 58 35 62 51 40 23 28
internal_count=151 31 120 58 35 62 51 40 23 28
is_linear=0
shrinkage=0.000978922


Tree=2
num_leaves=11
num_cat=0
split_feature=164 56 159 144 73 116 177 147 23 189
split_gain=1.6998 2.22502 2.21422 1.72349 1.25099 0.574146 0.622687 0.376642 0.324831 0.00823681
threshold=45.750000000000007 1.4103104694562485 57.500000000000007 9.6250000000000018 4126.5000000000009 4.2535314037680783 0.80377585225475945 235.50000000000003 1.0000000180025095e-35 1027.5000000000002
decision_type=2 2 2 2 2 2 8 2 2 2
left_child=1 -1 5 8 -5 6 7 9 -4 -2
right_child=2 -3 3 4 -6 -7 -8 -9 -10 -11
leaf_value=-0.00049334925406470582 0.00033362069096862468 3.3330202282009876e-05 1.1462322270545189e-05 -0.00043523008305222595 -6.0841960603651754e-05 -2.0908564927180289e-05 3.9718493789373467e-05 0.00015250953822291692 0.00024489872384269044 0.00037837266288827414
leaf_weight=14.000000000000002 11.000000000000002 17 12.000000000000002 14.999999999999998 20 10.999999999999998 12.999999999999998 12.999999999999998 10.999999999999998 13.999999999999998
leaf_count=14 11 17 12 15 20 11 13 13 11 14
internal_value=0 -0.000204342 5.27903e-05 -8.46219e-05 -0.000221474 0.000181433 0.000225191 0.000288482 0.000123373 0.000358938
internal_weight=0 31 120 58 35 62 51 38 23 25
internal_count=151 31 120 58 35 62 51 38 23 25
is_linear=0
shrinkage=0.000978922


Tree=3
num_leaves=10
num_cat=0
split_feature=164 56 159 144 73 107 31 56 10
split_gain=1.69648 2.22067 2.20989 1.72012 1.24854 0.573495 0.528585 0.324416 0.217323
threshold=45.750000000000007 1.4103104694562485 57.500000000000007 9.6250000000000018 4126.5000000000009 340.50000000000006 1.5000000000000002 1.729305305841879 1.0000000180025095e-35
decision_type=2 2 2 2 2 2 2 2 2
left_child=1 -1 5 7 -5 6 8 -4 -2
right_child=2 -3 3 4 -6 -7 -8 -9 -10
leaf_value=-0.00049286633683934017 0.00037811839815735375 3.3297569043976663e-05 0.00024470052804633771 -0.00043480405936860303 -6.0782404471972376e-05 -2.0971086147787288e-05 9.518515380462155e-05 1.1413033910482135e-05 0.00021502706280398211
leaf_weight=14.000000000000002 17 17 11.000000000000002 14.999999999999998 20 10.999999999999998 19 11.999999999999998 14.999999999999998
leaf_count=14 17 17 11 15 20 11 19 12 15
internal_value=0 -0.000204142 5.27387e-05 -8.4539e-05 -0.000221258 0.000181255 0.000224989 0.000123252 0.000301867
internal_weight=0 31 120 58 35 62 51 23 32
internal_count=151 31 120 58 35 62 51 23 32
is_linear=0
shrinkage=0.000978922


Tree=4
num_leaves=11
num_cat=0
split_feature=164 56 159 144 73 140 177 127 23 150
split_gain=1.69315 2.21633 2.20557 1.71676 1.24609 0.573403 0.596289 0.381891 0.324225 0.0509833
threshold=45.750000000000007 1.4103104694562485 57.500000000000007 9.6250000000000018 4126.5000000000009 4.5000000000000009 0.96795180722891583 5.1250000000000009 1.0000000180025095e-35 13.500000000000002
decision_type=2 2 2 2 2 2 8 2 2 2
left_child=1 -1 5 8 -5 -2 7 -7 -4 -9
right_child=2 -3 3 4 -6 6 -8 9 -10 -11
leaf_value=-0.0004923839071965735 -2.1132448363650437e-05 3.3264986428045893e-05 1.1325753123236737e-05 -0.00043437848687515729 -6.0722909602279279e-05 0.00013338439312971843 2.2365938398267071e-05 0.00028872102507542072 0.00024454405593612441 0.00037788292129686737
leaf_weight=14.000000000000002 10.999999999999998 17 12.000000000000002 14.999999999999998 20 11.999999999999998 10.999999999999998 11.000000000000002 10.999999999999998 17
leaf_count=14 11 17 12 15 20 12 11 11 11 17
internal_value=0 -0.000203942 5.26871e-05 -8.44562e-05 -0.000221041 0.000181078 0.000224808 0.000280328 0.000123132 0.000343083
internal_weight=0 31 120 58 35 62 51 40 23 28
internal_count=151 31 120 58 35 62 51 40 23 28
is_linear=0
shrinkage=0.000978922


Tree=5
num_leaves=10
num_cat=0
split_feature=164 56 159 144 73 107 31 56 10
split_gain=1.68984 2.21199 2.20125 1.71341 1.24365 0.572324 0.527373 0.323811 0.216903
threshold=45.750000000000007 1.4103104694562485 57.500000000000007 9.6250000000000018 4126.5000000000009 340.50000000000006 1.5000000000000002 1.729305305841879 1.0000000180025095e-35
decision_type=2 2 2 2 2 2 2 2 2
left_child=1 -1 5 7 -5 6 8 -4 -2
right_child=2 -3 3 4 -6 -7 -8 -9 -10
leaf_value=-0.00049190192867189545 0.00037755745721429235 3.3232417540142892e-05 0.00024434616643435002 -0.00043395328583569349 -6.0663475994572451e-05 -2.1118767205815713e-05 9.4934867538416128e-05 1.1276640398004616e-05 0.00021462341825038265
leaf_weight=14.000000000000002 17 17 11.000000000000002 14.999999999999998 20 10.999999999999998 19 11.999999999999998 14.999999999999998
leaf_count=14 17 17 11 15 20 11 19 12 15
internal_value=0 -0.000203742 5.26356e-05 -8.43734e-05 -0.000220825 0.000180901 0.00022459 0.000123011 0.00030138
internal_weight=0 31 120 58 35 62 51 23 32
internal_count=151 31 120 58 35 62 51 23 32
is_linear=0
shrinkage=0.000978922


Tree=6
num_leaves=11
num_cat=0
split_feature=164 56 159 144 73 140 177 62 23 97
split_gain=1.68653 2.20767 2.19695 1.71006 1.24122 0.572274 0.595011 0.381265 0.323619 0.0513229
threshold=45.750000000000007 1.4103104694562485 57.500000000000007 9.6250000000000018 4126.5000000000009 4.5000000000000009 0.96795180722891583 134.70750675549959 1.0000000180025095e-35 128.50000000000003
decision_type=2 2 2 2 2 2 8 2 2 2
left_child=1 -1 5 8 -5 -2 7 9 -4 -7
right_child=2 -3 3 4 -6 6 -8 -9 -10 -11
leaf_value=-0.00049142046690142476 -2.12872617097185e-05 3.3199895842335391e-05 1.118956623997208e-05 -0.00043352849806309448 -6.0604086145427249e-05 0.00028805049320530411 2.2185681386983798e-05 0.00013304830585313644 0.00024418995023259402 0.00037747974456504109
leaf_weight=14.000000000000002 10.999999999999998 17 12.000000000000002 14.999999999999998 20 11.000000000000002 10.999999999999998 11.999999999999998 10.999999999999998 17
leaf_count=14 11 17 12 15 20 11 11 12 11 17
internal_value=0 -0.000203543 5.25842e-05 -8.42907e-05 -0.000220609 0.000180724 0.000224411 0.000279872 0.000122891 0.000342574
internal_weight=0 31 120 58 35 62 51 40 23 28
internal_count=151 31 120 58 35 62 51 40 23 28
is_linear=0
shrinkage=0.000978922


Tree=7
num_leaves=11
num_cat=0
split_feature=164 56 159 144 73 116 177 147 8 189
split_gain=1.68323 2.20335 2.19265 1.70672 1.23878 0.571596 0.619226 0.374819 0.323317 0.00839543
threshold=45.750000000000007 1.4103104694562485 57.500000000000007 9.6250000000000018 4126.5000000000009 4.2535314037680783 0.80377585225475945 235.50000000000003 1.5000000000000002 1027.5000000000002
decision_type=2 2 2 2 2 2 8 2 2 2
left_child=1 -1 5 8 -5 6 7 9 -4 -2
right_child=2 -3 3 4 -6 -7 -8 -9 -10 -11
leaf_value=-0.00049093944062139508 0.0003321544316398882 3.3167398168576495e-05 1.1121636278511103e-05 -0.00043310415370153161 -6.0544766674635319e-05 -2.1344134380957802e-05 3.9251339990988319e-05 0.00015167941408052312 0.00024401308301390666 0.00037715048501162822
leaf_weight=14.000000000000002 11.000000000000002 17 12.000000000000002 14.999999999999998 20 10.999999999999998 12.999999999999998 12.999999999999998 10.999999999999998 13.999999999999998
leaf_count=14 11 17 12 15 20 11 13 13 11 14
internal_value=0 -0.000203343 5.25328e-05 -8.42081e-05 -0.000220393 0.000180547 0.000224209 0.000287323 0.000122771 0.000357608
internal_weight=0 31 120 58 35 62 51 38 23 25
internal_count=151 31 120 58 35 62 51 38 23 25
is_linear=0
shrinkage=0.000978922


Tree=8
num_leaves=10
num_cat=0
split_feature=164 56 159 144 73 107 31 56 10
split_gain=1.67994 2.19904 2.18836 1.70338 1.23636 0.571006 0.525717 0.323126 0.21652
threshold=45.750000000000007 1.4103104694562485 57.500000000000007 9.6250000000000018 4126.5000000000009 340.50000000000006 1.5000000000000002 1.729305305841879 1.0000000180025095e-35
decision_type=2 2 2 2 2 2 2 2 2
left_child=1 -1 5 7 -5 6 8 -4 -2
right_child=2 -3 3 4 -6 -7 -8 -9 -10
leaf_value=-0.00049045886754314012 0.00037678851949035034 3.3134924518866213e-05 0.00024385715852127276 -0.00043268022357922622 -6.0485505183937551e-05 -2.141635890773213e-05 9.4557818501779737e-05 1.1034747479037169e-05 0.0002139992297017135
leaf_weight=14.000000000000002 17 17 11.000000000000002 14.999999999999998 20 10.999999999999998 19 11.999999999999998 14.999999999999998
leaf_count=14 17 17 11 15 20 11 19 12 15
internal_value=0 -0.000203144 5.24815e-05 -8.41256e-05 -0.000220178 0.000180371 0.00022401 0.000122651 0.000300679
internal_weight=0 31 120 58 35 62 51 23 32
internal_count=151 31 120 58 35 62 51 23 32
is_linear=0
shrinkage=0.000978922


Tree=9
num_leaves=9
num_cat=0
split_feature=164 56 150 144 73 166 157 99
split_gain=1.67665 2.19474 2.1846 1.5247 1.11451 0.86893 0.5437 0.287865
threshold=45.750000000000007 1.4103104694562485 321.50000000000006 8.8750000000000018 4126.5000000000009 281.50000000000006 1161.0000000000002 24.500000000000004
decision_type=2 2 2 2 2 2 2 2
left_child=1 -1 5 -4 -5 6 -2 -8
right_child=2 -3 3 4 -6 -7 7 -9
leaf_value=-0.00048997880965632806 9.4621351889929685e-05 3.3102487763230585e-05 0.00014927093603447764 -0.00041243899059002884 -5.2018157917002976e-05 -1.2814833705390399e-05 0.00018868545067676965 0.00037705614245234686
leaf_weight=14.000000000000002 19 17 14.999999999999998 15.999999999999998 17 20 12.999999999999998 20
leaf_count=14 19 17 15 16 17 20 13 20
internal_value=0 -0.000202945 5.24301e-05 -0.000109261 -0.000226958 0.000160307 0.000227006 0.00030304
internal_weight=0 31 120 48 33 72 52 33
internal_count=151 31 120 48 33 72 52 33
is_linear=0
shrinkage=0.000978922


Tree=10
num_leaves=11
num_cat=0
split_feature=164 56 159 144 73 140 177 127 56 22
split_gain=1.67336 2.19045 2.18049 1.69766 1.23137 0.570716 0.592453 0.379766 0.322495 0.051094
threshold=45.750000000000007 1.4103104694562485 57.500000000000007 9.6250000000000018 4126.5000000000009 4.5000000000000009 0.96795180722891583 5.1250000000000009 1.729305305841879 5.5000000000000009
decision_type=2 2 2 2 2 2 8 2 2 2
left_child=1 -1 5 8 -5 -2 7 -7 -4 -9
right_child=2 -3 3 4 -6 6 -8 9 -10 -11
leaf_value=-0.00048949918830180005 -2.1698449584675991e-05 3.3070085327664402e-05 0.00024353440690756006 -0.00043187905033542997 -6.0435563537556287e-05 0.00013247148278117905 2.1874940233405521e-05 0.00028718021483965979 1.0939171136628391e-05 0.00037641513429480711
leaf_weight=14.000000000000002 10.999999999999998 17 11.000000000000002 14.999999999999998 20 11.999999999999998 10.999999999999998 11.000000000000002 11.999999999999998 17
leaf_count=14 11 17 11 15 20 12 11 11 12 17
internal_value=0 -0.000202746 5.23788e-05 -8.39821e-05 -0.000219806 0.000180038 0.000223666 0.000279007 0.000122447 0.000341586
internal_weight=0 31 120 58 35 62 51 40 23 28
internal_count=151 31 120 58 35 62 51 40 23 28
is_linear=0
shrinkage=0.000978922


Tree=11
num_leaves=9
num_cat=0
split_feature=164 56 150 144 73 166 157 99
split_gain=1.67009 2.18616 2.17641 1.51926 1.11034 0.867047 0.54179 0.287075
threshold=45.750000000000007 1.4103104694562485 321.50000000000006 8.8750000000000018 4126.5000000000009 281.50000000000006 1161.0000000000002 24.500000000000004
decision_type=2 2 2 2 2 2 2 2
left_child=1 -1 5 -4 -5 6 -2 -8
right_child=2 -3 3 4 -6 -7 7 -9
leaf_value=-0.00048902006546922439 9.4476316908161573e-05 3.3037720644174613e-05 0.00014900999739125706 -0.00041168095759499716 -5.1934423382566535e-05 -1.293171318814229e-05 0.00018833091087085919 0.00037644442839183907
leaf_weight=14.000000000000002 19 17 14.999999999999998 15.999999999999998 17 20 12.999999999999998 20
leaf_count=14 19 17 15 16 17 20 13 20
internal_value=0 -0.000202548 5.23276e-05 -0.00010906 -0.000226547 0.000160002 0.000226629 0.00030253
internal_weight=0 31 120 48 33 72 52 33
internal_count=151 31 120 48 33 72 52 33
is_linear=0
shrinkage=0.000978922


Tree=12
num_leaves=11
num_cat=0
split_feature=164 56 159 144 73 116 177 147 190 105
split_gain=1.66682 2.18189 2.17264 1.69196 1.22639 0.569618 0.616071 0.372349 0.322086 0.00844026
threshold=45.750000000000007 1.4103104694562485 57.500000000000007 9.6250000000000018 4126.5000000000009 4.2535314037680783 0.80377585225475945 235.50000000000003 13.500000000000002 54.500000000000007
decision_type=2 2 2 2 2 2 8 2 2 2
left_child=1 -1 5 8 -5 6 7 9 -4 -2
right_child=2 -3 3 4 -6 -7 -8 -9 -10 -11
leaf_value=-0.00048854139427565878 0.00037586169168331041 3.3005379126731697e-05 0.00024325348174115475 -0.00043107934589069094 -6.0385656898024331e-05 -2.183628479685234e-05 3.8805720865611946e-05 0.00015104679442279423 1.0805927504181041e-05 0.00033081846087573984
leaf_weight=14.000000000000002 14.000000000000002 17 11.000000000000002 14.999999999999998 20 10.999999999999998 12.999999999999998 12.999999999999998 11.999999999999998 10.999999999999998
leaf_count=14 14 17 11 15 20 11 13 13 12 11
internal_value=0 -0.000202349 5.22764e-05 -8.38389e-05 -0.000219435 0.000179706 0.000223292 0.000286245 0.000122243 0.000356299
internal_weight=0 31 120 58 35 62 51 38 23 25
internal_count=151 31 120 58 35 62 51 38 23 25
is_linear=0
shrinkage=0.000978922


Tree=13
num_leaves=11
num_cat=0
split_feature=164 56 159 144 73 140 177 127 23 106
split_gain=1.66355 2.17762 2.1684 1.68866 1.22399 0.569151 0.590009 0.378077 0.321619 0.0510901
threshold=45.750000000000007 1.4103104694562485 57.500000000000007 9.6250000000000018 4126.5000000000009 4.5000000000000009 0.96795180722891583 5.1250000000000009 1.0000000180025095e-35 17.250000000000004
decision_type=2 2 2 2 2 2 8 2 2 2
left_child=1 -1 5 8 -5 -2 7 -7 -4 -9
right_child=2 -3 3 4 -6 6 -8 9 -10 -11
leaf_value=-0.00048806317524202462 -2.1929302217267423e-05 3.2973075361365176e-05 1.0767127399869605e-05 -0.00043065739896314028 -6.0326545280400115e-05 0.00013211414612098626 2.1722998233266043e-05 0.00028636658174473439 0.00024304617401258271 0.00037558953070420195
leaf_weight=14.000000000000002 10.999999999999998 17 12.000000000000002 14.999999999999998 20 11.999999999999998 10.999999999999998 11.000000000000002 10.999999999999998 17
leaf_count=14 11 17 12 15 20 12 11 11 11 17
internal_value=0 -0.000202151 5.22254e-05 -8.37568e-05 -0.00021922 0.00017953 0.000223099 0.000278325 0.000122124 0.000340765
internal_weight=0 31 120 58 35 62 51 40 23 28
internal_count=151 31 120 58 35 62 51 40 23 28
is_linear=0
shrinkage=0.000978922


Tree=14
num_leaves=9
num_cat=0
split_feature=164 56 150 144 73 166 157 99
split_gain=1.6603 2.17336 2.16429 1.51114 1.10419 0.864502 0.539195 0.286343
threshold=45.750000000000007 1.4103104694562485 321.50000000000006 8.8750000000000018 4126.5000000000009 281.50000000000006 1161.0000000000002 24.500000000000004
decision_type=2 2 2 2 2 2 2 2
left_child=1 -1 5 -4 -5 6 -2 -8
right_child=2 -3 3 4 -6 -7 7 -9
leaf_value=-0.00048758545420942117 9.424065516671185e-05 3.2940794762045536e-05 0.00014861588763352305 -0.00041055678682477706 -5.1805640753975468e-05 -1.3131216492988231e-05 0.00018774329148223368 0.00037561669435740041
leaf_weight=14.000000000000002 19 17 14.999999999999998 15.999999999999998 17 20 12.999999999999998 20
leaf_count=14 19 17 15 16 17 20 13 20
internal_value=0 -0.000201953 5.21743e-05 -0.000108763 -0.000225935 0.000159549 0.000226078 0.000301797
internal_weight=0 31 120 48 33 72 52 33
internal_count=151 31 120 48 33 72 52 33
is_linear=0
shrinkage=0.000978922


Tree=15
num_leaves=11
num_cat=0
split_feature=164 56 159 144 73 116 177 147 56 105
split_gain=1.65705 2.16911 2.1606 1.68299 1.21905 0.56805 0.613447 0.370779 0.321488 0.00851245
threshold=45.750000000000007 1.4103104694562485 57.500000000000007 9.6250000000000018 4126.5000000000009 4.2535314037680783 0.80377585225475945 235.50000000000003 1.729305305841879 54.500000000000007
decision_type=2 2 2 2 2 2 8 2 2 2
left_child=1 -1 5 8 -5 6 7 9 -4 -2
right_child=2 -3 3 4 -6 -7 -8 -9 -10 -11
leaf_value=-0.00048710820148531827 0.00037505932659180857 3.2908549340797071e-05 0.0002428178267635664 -0.00042985992518707852 -6.0276699538199743e-05 -2.2065403749092054e-05 3.8631244966848764e-05 0.00015062958095995462 1.0586727942382521e-05 0.00032991117589305853
leaf_weight=14.000000000000002 14.000000000000002 17 11.000000000000002 14.999999999999998 20 10.999999999999998 12.999999999999998 12.999999999999998 11.999999999999998 10.999999999999998
leaf_count=14 14 17 11 15 20 11 13 13 12 11
internal_value=0 -0.000201755 5.21233e-05 -8.3614e-05 -0.00021885 0.000179199 0.000222725 0.000285544 0.000121921 0.00035545
internal_weight=0 31 120 58 35 62 51 38 23 25
internal_count=151 31 120 58 35 62 51 38 23 25
is_linear=0
shrinkage=0.000978922


Tree=16
num_leaves=10
num_cat=0
split_feature=164 56 159 144 73 107 31 56 10
split_gain=1.6538 2.16487 2.15637 1.6797 1.21666 0.567708 0.523943 0.320857 0.216274
threshold=45.750000000000007 1.4103104694562485 57.500000000000007 9.6250000000000018 4126.5000000000009 340.50000000000006 1.5000000000000002 1.729305305841879 1.0000000180025095e-35
decision_type=2 2 2 2 2 2 2 2 2
left_child=1 -1 5 7 -5 6 8 -4 -2
right_child=2 -3 3 4 -6 -7 -8 -9 -10
leaf_value=-0.00048663138268889165 0.00037513915529686936 3.2876343387628467e-05 0.00024258015277834065 -0.00042943915242362016 -6.021769768163427e-05 -2.2180179355152513e-05 9.3304480992539079e-05 1.0576365487357552e-05 0.00021244853379308028
leaf_weight=14.000000000000002 17 17 11.000000000000002 14.999999999999998 20 10.999999999999998 19 11.999999999999998 14.999999999999998
leaf_count=14 17 17 11 15 20 11 19 12 15
internal_value=0 -0.000201557 5.20723e-05 -8.3532e-05 -0.000218636 0.000179024 0.000222537 0.000121801 0.000299076
internal_weight=0 31 120 58 35 62 51 23 32
internal_count=151 31 120 58 35 62 51 23 32
is_linear=0
shrinkage=0.000978922


Tree=17
num_leaves=9
num_cat=0
split_feature=164 56 150 144 73 166 157 99
split_gain=1.65057 2.16064 2.15267 1.50326 1.09797 0.861487 0.537274 0.286024
threshold=45.750000000000007 1.4103104694562485 321.50000000000006 8.8750000000000018 4126.5000000000009 281.50000000000006 1161.0000000000002 24.500000000000004
decision_type=2 2 2 2 2 2 2 2
left_child=1 -1 5 -4 -5 6 -2 -8
right_child=2 -3 3 4 -6 -7 7 -9
leaf_value=-0.00048615504678676988 9.3917863116919098e-05 3.2844155452496334e-05 0.00014822263844326041 -0.00040944990908208819 -5.1710790807047035e-05 -1.3270864284662356e-05 0.00018711525846806952 0.00037488260656207416
leaf_weight=14.000000000000002 19 17 14.999999999999998 15.999999999999998 17 20 12.999999999999998 20
leaf_count=14 19 17 15 16 17 20 13 20
internal_value=0 -0.00020136 5.20214e-05 -0.000108483 -0.00022535 0.000159107 0.00022552 0.000301104
internal_weight=0 31 120 48 33 72 52 33
internal_count=151 31 120 48 33 72 52 33
is_linear=0
shrinkage=0.000978922


Tree=18
num_leaves=11
num_cat=0
split_feature=164 56 159 144 73 140 177 127 190 106
split_gain=1.64733 2.15641 2.14861 1.67406 1.21174 0.567422 0.587125 0.37572 0.320451 0.0511132
threshold=45.750000000000007 1.4103104694562485 57.500000000000007 9.6250000000000018 4126.5000000000009 4.5000000000000009 0.96795180722891583 5.1250000000000009 13.500000000000002 17.250000000000004
decision_type=2 2 2 2 2 2 8 2 2 2
left_child=1 -1 5 8 -5 -2 7 -7 -4 -9
right_child=2 -3 3 4 -6 6 -8 9 -10 -11
leaf_value=-0.00048567919273710973 -2.2460307625273791e-05 3.2812007843445786e-05 0.00024230051709885086 -0.00042864387285151235 -6.0167915024693577e-05 0.00013153061853880449 2.1312338086629759e-05 0.00028513065527597148 1.0444005498661673e-05 0.00037435895715814201
leaf_weight=14.000000000000002 10.999999999999998 17 11.000000000000002 14.999999999999998 20 11.999999999999998 10.999999999999998 11.000000000000002 11.999999999999998 17
leaf_count=14 11 17 11 15 20 12 11 11 12 17
internal_value=0 -0.000201163 5.19705e-05 -8.33896e-05 -0.000218266 0.000178693 0.000222196 0.000277287 0.000121599 0.000339532
internal_weight=0 31 120 58 35 62 51 40 23 28
internal_count=151 31 120 58 35 62 51 40 23 28
is_linear=0
shrinkage=0.000978922


Tree=19
num_leaves=9
num_cat=0
split_feature=164 56 150 144 73 166 157 99
split_gain=1.64411 2.15219 2.14461 1.4979 1.09386 0.859578 0.535409 0.285308
threshold=45.750000000000007 1.4103104694562485 321.50000000000006 8.8750000000000018 4126.5000000000009 281.50000000000006 1161.0000000000002 24.500000000000004
decision_type=2 2 2 2 2 2 2 2
left_child=1 -1 5 -4 -5 6 -2 -8
right_child=2 -3 3 4 -6 -7 7 -9
leaf_value=-0.0004852037741778906 9.3769636457372932e-05 3.2779884258443864e-05 0.00014796356679387611 -0.00040869745066010024 -5.1627452240411825e-05 -1.3382046038036147e-05 0.00018675017656261548 0.0003742832863848369
leaf_weight=14.000000000000002 19 17 14.999999999999998 15.999999999999998 17 20 12.999999999999998 20
leaf_count=14 19 17 15 16 17 20 13 20
internal_value=0 -0.000200965 5.19197e-05 -0.000108284 -0.000224942 0.000158805 0.000225145 0.000300597
internal_weight=0 31 120 48 33 72 52 33
internal_count=151 31 120 48 33 72 52 33
is_linear=0
shrinkage=0.000978922


Tree=20
num_leaves=11
num_cat=0
split_feature=164 56 159 144 73 140 177 127 8 22
split_gain=1.64089 2.14799 2.14088 1.66844 1.20685 0.566159 0.585635 0.374387 0.319833 0.0511149
threshold=45.750000000000007 1.4103104694562485 57.500000000000007 9.6250000000000018 4126.5000000000009 4.5000000000000009 0.96795180722891583 5.1250000000000009 1.5000000000000002 5.5000000000000009
decision_type=2 2 2 2 2 2 8 2 2 2
left_child=1 -1 5 8 -5 -2 7 -7 -4 -9
right_child=2 -3 3 4 -6 6 -8 9 -10 -11
leaf_value=-0.00048472885361970213 -2.2565639148500572e-05 3.2747808721539162e-05 1.0348372029352865e-05 -0.00042785001880698995 -6.0118150235832214e-05 0.00013133977822873814 2.1188931868401611e-05 0.00028457521657707346 0.00024198154775909866 0.00037379893427693826
leaf_weight=14.000000000000002 10.999999999999998 17 12.000000000000002 14.999999999999998 20 11.999999999999998 10.999999999999998 11.000000000000002 10.999999999999998 17
leaf_count=14 11 17 12 15 20 12 11 11 11 17
internal_value=0 -0.000200769 5.18689e-05 -8.32474e-05 -0.000217898 0.000178364 0.000221818 0.000276839 0.000121396 0.000338974
internal_weight=0 31 120 58 35 62 51 40 23 28
internal_count=151 31 120 58 35 62 51 40 23 28
is_linear=0
shrinkage=0.000978922


Tree=21
num_leaves=11
num_cat=0
split_feature=164 56 159 144 73 116 177 147 56 105
split_gain=1.63768 2.14379 2.1367 1.66518 1.20448 0.565727 0.609318 0.368151 0.319746 0.00869823
threshold=45.750000000000007 1.4103104694562485 57.500000000000007 9.6250000000000018 4126.5000000000009 4.2535314037680783 0.80377585225475945 235.50000000000003 1.729305305841879 54.500000000000007
decision_type=2 2 2 2 2 2 8 2 2 2
left_child=1 -1 5 8 -5 6 7 9 -4 -2
right_child=2 -3 3 4 -6 -7 -8 -9 -10 -11
leaf_value=-0.00048425439980724947 0.00037362588584279597 3.2715756350681333e-05 0.00024184622190834908 -0.00042743122680730474 -6.0059296793721586e-05 -2.2663439935545699e-05 3.8152317698735974e-05 0.00014979608415353058 1.0245171068989528e-05 0.00032819449024962591
leaf_weight=14.000000000000002 14.000000000000002 17 11.000000000000002 14.999999999999998 20 10.999999999999998 12.999999999999998 12.999999999999998 11.999999999999998 10.999999999999998
leaf_count=14 14 17 11 15 20 11 13 13 12 11
internal_value=0 -0.000200572 5.18182e-05 -8.31658e-05 -0.000217685 0.000178189 0.000221627 0.000284234 0.000121278 0.000353892
internal_weight=0 31 120 58 35 62 51 38 23 25
internal_count=151 31 120 58 35 62 51 38 23 25
is_linear=0
shrinkage=0.000978922


Tree=22
num_leaves=9
num_cat=0
split_feature=164 56 150 144 73 166 157 99
split_gain=1.63447 2.13959 2.13265 1.49007 1.08772 0.857101 0.53282 0.284512
threshold=45.750000000000007 1.4103104694562485 321.50000000000006 8.8750000000000018 4126.5000000000009 281.50000000000006 1161.0000000000002 24.500000000000004
decision_type=2 2 2 2 2 2 2 2
left_child=1 -1 5 -4 -5 6 -2 -8
right_child=2 -3 3 4 -6 -7 7 -9
leaf_value=-0.00048378037783878679 9.3540775695703297e-05 3.2683728003872123e-05 0.00014758729898218633 -0.00040758154830811507 -5.1512490303786867e-05 -1.3583899906950648e-05 0.00018618041288314137 0.00037345201957585648
leaf_weight=14.000000000000002 19 17 14.999999999999998 15.999999999999998 17 20 12.999999999999998 20
leaf_count=14 19 17 15 16 17 20 13 20
internal_value=0 -0.000200375 5.17676e-05 -0.000107989 -0.000224342 0.000158355 0.000224599 0.000299869
internal_weight=0 31 120 48 33 72 52 33
internal_count=151 31 120 48 33 72 52 33
is_linear=0
shrinkage=0.000978922


Tree=23
num_leaves=11
num_cat=0
split_feature=164 56 159 144 73 152 24 190 110 104
split_gain=1.63127 2.13541 2.12901 1.65959 1.19962 0.564628 0.55357 0.319231 0.313638 0.00867063
threshold=45.750000000000007 1.4103104694562485 57.500000000000007 9.6250000000000018 4126.5000000000009 439.50000000000006 30.500000000000004 13.500000000000002 3.3095238095238098 41.044379391714465
decision_type=2 2 2 2 2 2 2 2 2 2
left_child=1 -1 5 7 -5 6 8 -4 9 -2
right_child=2 -3 3 4 -6 -7 -8 -9 -10 -11
leaf_value=-0.00048330684084831521 0.00032793872764691787 3.2651733977132351e-05 0.00024154702182840846 -0.00042663960148667441 -6.0009592902191814e-05 -2.2796811335175947e-05 6.991417057834795e-05 1.0132436601384573e-05 0.00015240350717582427 0.00037406801085249617
leaf_weight=14.000000000000002 11.000000000000002 17 11.000000000000002 14.999999999999998 20 10.999999999999998 15.999999999999998 11.999999999999998 10.999999999999998 12.999999999999998
leaf_count=14 11 17 11 15 20 11 16 12 11 13
internal_value=0 -0.000200179 5.17169e-05 -8.3024e-05 -0.000217317 0.00017786 0.000221256 0.000121076 0.000290265 0.000353192
internal_weight=0 31 120 58 35 62 51 23 35 24
internal_count=151 31 120 58 35 62 51 23 35 24
is_linear=0
shrinkage=0.000978922


Tree=24
num_leaves=11
num_cat=0
split_feature=164 56 159 144 73 140 177 127 56 106
split_gain=1.62808 2.13123 2.12485 1.65635 1.19727 0.564237 0.582525 0.372662 0.318714 0.0511021
threshold=45.750000000000007 1.4103104694562485 57.500000000000007 9.6250000000000018 4126.5000000000009 4.5000000000000009 0.96795180722891583 5.1250000000000009 1.729305305841879 17.250000000000004
decision_type=2 2 2 2 2 2 8 2 2 2
left_child=1 -1 5 8 -5 -2 7 -7 -4 -9
right_child=2 -3 3 4 -6 6 -8 9 -10 -11
leaf_value=-0.00048283375080855943 -2.29013247469098e-05 3.2619780276474184e-05 0.00024133115774089978 -0.00042622198365108155 -5.9950851409067997e-05 0.00013077710439599787 2.0970474884581065e-05 0.00028354812400597238 1.0103665914425618e-05 0.00037275032230707668
leaf_weight=14.000000000000002 10.999999999999998 17 11.000000000000002 14.999999999999998 20 11.999999999999998 10.999999999999998 11.000000000000002 11.999999999999998 17
leaf_count=14 11 17 11 15 20 12 11 11 12 17
internal_value=0 -0.000199983 5.16664e-05 -8.29426e-05 -0.000217104 0.000177687 0.000221067 0.000275942 0.000120957 0.000337934
internal_weight=0 31 120 58 35 62 51 40 23 28
internal_count=151 31 120 58 35 62 51 40 23 28
is_linear=0
shrinkage=0.000978922


Tree=25
num_leaves=9
num_cat=0
split_feature=164 56 150 144 73 166 157 99
split_gain=1.62489 2.12706 2.12092 1.48226 1.08173 0.854729 0.530805 0.283856
threshold=45.750000000000007 1.4103104694562485 321.50000000000006 8.8750000000000018 4126.5000000000009 281.50000000000006 1161.0000000000002 24.500000000000004
decision_type=2 2 2 2 2 2 2 2
left_child=1 -1 5 -4 -5 6 -2 -8
right_child=2 -3 3 4 -6 -7 7 -9
leaf_value=-0.00048236112751453945 9.3251375926923575e-05 3.2587844593852475e-05 0.00014720456378716055 -0.00040648288565373091 -5.1394239217506335e-05 -1.3790811900934179e-05 0.00018563233366065748 0.00037268775150057831
leaf_weight=14.000000000000002 19 17 14.999999999999998 15.999999999999998 17 20 12.999999999999998 20
leaf_count=14 19 17 15 16 17 20 13 20
internal_value=0 -0.000199787 5.16159e-05 -0.0001077 -0.000223748 0.00015791 0.000224062 0.00029919
internal_weight=0 31 120 48 33 72 52 33
internal_count=151 31 120 48 33 72 52 33
is_linear=0
shrinkage=0.000978922


Tree=26
num_leaves=10
num_cat=0
split_feature=164 56 159 144 73 107 31 190 10
split_gain=1.62171 2.12291 2.1172 1.65079 1.19243 0.563616 0.522087 0.318201 0.215764
threshold=45.750000000000007 1.4103104694562485 57.500000000000007 9.6250000000000018 4126.5000000000009 340.50000000000006 1.5000000000000002 13.500000000000002 1.0000000180025095e-35
decision_type=2 2 2 2 2 2 2 2 2
left_child=1 -1 5 7 -5 6 8 -4 -2
right_child=2 -3 3 4 -6 -7 -8 -9 -10
leaf_value=-0.00048188898555205965 0.0003730879459902567 3.2555951811317577e-05 0.00024103264052549543 -0.00042543253454514166 -5.9901217531236826e-05 -2.3118930470473526e-05 9.1713724605675193e-05 9.9913246500580792e-06 0.00021059575974032637
leaf_weight=14.000000000000002 17 17 11.000000000000002 14.999999999999998 20 10.999999999999998 19 11.999999999999998 14.999999999999998
leaf_count=14 17 17 11 15 20 11 19 12 15
internal_value=0 -0.000199591 5.15654e-05 -8.28012e-05 -0.000216738 0.000177359 0.000220716 0.000120756 0.000297117
internal_weight=0 31 120 58 35 62 51 23 32
internal_count=151 31 120 58 35 62 51 23 32
is_linear=0
shrinkage=0.000978922


Tree=27
num_leaves=9
num_cat=0
split_feature=164 56 150 144 73 166 157 99
split_gain=1.61853 2.11875 2.11329 1.47693 1.07756 0.852331 0.52958 0.283519
threshold=45.750000000000007 1.4103104694562485 321.50000000000006 8.8750000000000018 4126.5000000000009 281.50000000000006 1161.0000000000002 24.500000000000004
decision_type=2 2 2 2 2 2 2 2
left_child=1 -1 5 -4 -5 6 -2 -8
right_child=2 -3 3 4 -6 -7 7 -9
leaf_value=-0.00048141729418674662 9.3017048049608394e-05 3.2524077046819136e-05 0.00014693206777141859 -0.00040573598904206835 -5.1331572915701358e-05 -1.3841722070146048e-05 0.0001852280790366566 0.00037217196058300607
leaf_weight=14.000000000000002 19 17 14.999999999999998 15.999999999999998 17 20 12.999999999999998 20
leaf_count=14 19 17 15 16 17 20 13 20
internal_value=0 -0.000199396 5.1515e-05 -0.000107514 -0.000223354 0.000157617 0.000223677 0.000298718
internal_weight=0 31 120 48 33 72 52 33
internal_count=151 31 120 48 33 72 52 33
is_linear=0
shrinkage=0.000978922


Tree=28
num_leaves=11
num_cat=0
split_feature=164 56 159 144 73 116 177 147 56 105
split_gain=1.61537 2.11461 2.10959 1.64525 1.18761 0.563187 0.605341 0.364675 0.317689 0.0089403
threshold=45.750000000000007 1.4103104694562485 57.500000000000007 9.6250000000000018 4126.5000000000009 4.2535314037680783 0.80377585225475945 235.50000000000003 1.729305305841879 54.500000000000007
decision_type=2 2 2 2 2 2 8 2 2 2
left_child=1 -1 5 8 -5 6 7 9 -4 -2
right_child=2 -3 3 4 -6 -7 -8 -9 -10 -11
leaf_value=-0.00048094606592071837 0.00037200076262177187 3.2492242608402294e-05 0.0002407345124765792 -0.0004246445133977687 -5.9851584382715009e-05 -2.3370195448896184e-05 3.7496496670587499e-05 0.00014896903142423815 9.8792921140438725e-06 0.00032619742440546647
leaf_weight=14.000000000000002 14.000000000000002 17 11.000000000000002 14.999999999999998 20 10.999999999999998 12.999999999999998 12.999999999999998 11.999999999999998 10.999999999999998
leaf_count=14 14 17 11 15 20 11 13 13 12 11
internal_value=0 -0.0001992 5.14646e-05 -8.266e-05 -0.000216371 0.000177031 0.000220372 0.000282774 0.000120555 0.000352103
internal_weight=0 31 120 58 35 62 51 38 23 25
internal_count=151 31 120 58 35 62 51 38 23 25
is_linear=0
shrinkage=0.000978922


Tree=29
num_leaves=11
num_cat=0
split_feature=164 56 159 144 73 140 177 127 23 22
split_gain=1.6122 2.11048 2.10546 1.64203 1.18528 0.562524 0.57968 0.370337 0.317508 0.051157
threshold=45.750000000000007 1.4103104694562485 57.500000000000007 9.6250000000000018 4126.5000000000009 4.5000000000000009 0.96795180722891583 5.1250000000000009 1.0000000180025095e-35 5.5000000000000009
decision_type=2 2 2 2 2 2 8 2 2 2
left_child=1 -1 5 8 -5 -2 7 -7 -4 -9
right_child=2 -3 3 4 -6 6 -8 9 -10 -11
leaf_value=-0.00048047528773093539 -2.3425126265546521e-05 3.2460442490054903e-05 9.7931441410713365e-06 -0.00042422887097778958 -5.9793000420413048e-05 0.00013020043021862035 2.0565345277713014e-05 0.00028230766477523446 0.00024058230793822975 0.00037154095513192777
leaf_weight=14.000000000000002 10.999999999999998 17 12.000000000000002 14.999999999999998 20 11.999999999999998 10.999999999999998 11.000000000000002 10.999999999999998 17
leaf_count=14 11 17 12 15 20 12 11 11 11 17
internal_value=0 -0.000199005 5.14143e-05 -8.2579e-05 -0.00021616 0.000176858 0.000220173 0.000274914 0.000120437 0.000336712
internal_weight=0 31 120 58 35 62 51 40 23 28
internal_count=151 31 120 58 35 62 51 40 23 28
is_linear=0
shrinkage=0.000978922


Tree=30
num_leaves=9
num_cat=0
split_feature=164 56 150 144 73 166 157 99
split_gain=1.60905 2.10635 2.10152 1.46904 1.07161 0.849878 0.527018 0.282728
threshold=45.750000000000007 1.4103104694562485 321.50000000000006 8.8750000000000018 4126.5000000000009 281.50000000000006 1161.0000000000002 24.500000000000004
decision_type=2 2 2 2 2 2 2 2
left_child=1 -1 5 -4 -5 6 -2 -8
right_child=2 -3 3 4 -6 -7 7 -9
leaf_value=-0.0004800049898308493 9.2790478847329624e-05 3.2428652667728336e-05 0.00014654341508108518 -0.00040462830633650171 -5.1203788572130315e-05 -1.4041559034024371e-05 0.00018466258616411235 0.00037134579893954839
leaf_weight=14.000000000000002 19 17 14.999999999999998 15.999999999999998 17 20 12.999999999999998 20
leaf_count=14 19 17 15 16 17 20 13 20
internal_value=0 -0.00019881 5.13641e-05 -0.000107221 -0.000222751 0.000157171 0.000223135 0.000297995
internal_weight=0 31 120 48 33 72 52 33
internal_count=151 31 120 48 33 72 52 33
is_linear=0
shrinkage=0.000978922


Tree=31
num_leaves=11
num_cat=0
split_feature=164 56 159 144 73 116 177 147 56 105
split_gain=1.6059 2.10223 2.09789 1.63652 1.18049 0.561638 0.60272 0.36316 0.317099 0.00902023
threshold=45.750000000000007 1.4103104694562485 57.500000000000007 9.6250000000000018 4126.5000000000009 4.2535314037680783 0.80377585225475945 235.50000000000003 1.729305305841879 54.500000000000007
decision_type=2 2 2 2 2 2 8 2 2 2
left_child=1 -1 5 8 -5 6 7 9 -4 -2
right_child=2 -3 3 4 -6 -7 -8 -9 -10 -11
leaf_value=-0.00047953514200700854 0.00037121411060881429 3.2396910893499002e-05 0.00024030410097046373 -0.00042344303431044437 -5.9743445672647482e-05 -2.359359425043819e-05 3.733293705082705e-05 0.00014855170239772751 9.6638799441704993e-06 0.00032529420677611495
leaf_weight=14.000000000000002 14.000000000000002 17 11.000000000000002 14.999999999999998 20 10.999999999999998 12.999999999999998 12.999999999999998 11.999999999999998 10.999999999999998
leaf_count=14 14 17 11 15 20 11 13 13 12 11
internal_value=0 -0.000198615 5.13138e-05 -8.24382e-05 -0.000215795 0.000176532 0.000219813 0.00028208 0.000120237 0.000351265
internal_weight=0 31 120 58 35 62 51 38 23 25
internal_count=151 31 120 58 35 62 51 38 23 25
is_linear=0
shrinkage=0.000978922


Tree=32
num_leaves=11
num_cat=0
split_feature=164 56 159 144 73 140 177 62 8 155
split_gain=1.60275 2.09812 2.09379 1.63333 1.17818 0.560981 0.57729 0.368793 0.316759 0.0512217
threshold=45.750000000000007 1.4103104694562485 57.500000000000007 9.6250000000000018 4126.5000000000009 4.5000000000000009 0.96795180722891583 134.70750675549959 1.5000000000000002 353.50000000000006
decision_type=2 2 2 2 2 2 8 2 2 2
left_child=1 -1 5 8 -5 -2 7 9 -4 -7
right_child=2 -3 3 4 -6 6 -8 -9 -10 -11
leaf_value=-0.0004790657593661388 -2.364913036351725e-05 3.2365206013344323e-05 9.6055594565735043e-06 -0.0004230285563306314 -5.9684959802454487e-05 0.00037075815724793972 2.0418047419395216e-05 0.00012982983160935972 0.00024012219049883746 0.00028148145769118859
leaf_weight=14.000000000000002 10.999999999999998 17 12.000000000000002 14.999999999999998 20 17.000000000000004 10.999999999999998 11.999999999999998 10.999999999999998 10.999999999999998
leaf_count=14 11 17 12 15 20 17 11 12 11 11
internal_value=0 -0.000198421 5.12637e-05 -8.23574e-05 -0.000215584 0.000176359 0.000219615 0.000274243 0.000120119 0.000335912
internal_weight=0 31 120 58 35 62 51 40 23 28
internal_count=151 31 120 58 35 62 51 40 23 28
is_linear=0
shrinkage=0.000978922


Tree=33
num_leaves=9
num_cat=0
split_feature=164 56 150 144 73 166 157 99
split_gain=1.59962 2.09401 2.0898 1.46136 1.0656 0.847126 0.524636 0.282098
threshold=45.750000000000007 1.4103104694562485 321.50000000000006 8.8750000000000018 4126.5000000000009 281.50000000000006 1161.0000000000002 24.500000000000004
decision_type=2 2 2 2 2 2 2 2
left_child=1 -1 5 -4 -5 6 -2 -8
right_child=2 -3 3 4 -6 -7 7 -9
leaf_value=-0.00047859682315506329 9.2532005918027368e-05 3.2333525157238256e-05 0.00014617082291351055 -0.00040352370765065816 -5.1089484293836131e-05 -1.4209597380480026e-05 0.0001840671533249524 0.0003705421642036147
leaf_weight=14.000000000000002 19 17 14.999999999999998 15.999999999999998 17 20 12.999999999999998 20
leaf_count=14 19 17 15 16 17 20 13 20
internal_value=0 -0.000198226 5.12136e-05 -0.000106929 -0.000222156 0.000156725 0.000222583 0.000297273
internal_weight=0 31 120 48 33 72 52 33
internal_count=151 31 120 48 33 72 52 33
is_linear=0
shrinkage=0.000978922


Tree=34
num_leaves=10
num_cat=0
split_feature=164 56 159 144 73 107 31 190 10
split_gain=1.59648 2.08992 2.08625 1.62784 1.17342 0.560328 0.520248 0.316401 0.215429
threshold=45.750000000000007 1.4103104694562485 57.500000000000007 9.6250000000000018 4126.5000000000009 340.50000000000006 1.5000000000000002 13.500000000000002 1.0000000180025095e-35
decision_type=2 2 2 2 2 2 2 2 2
left_child=1 -1 5 7 -5 6 8 -4 -2
right_child=2 -3 3 4 -6 -7 -8 -9 -10
leaf_value=-0.00047812836879644941 0.00037144002152368903 3.2301868325180796e-05 0.00023985411909711995 -0.00042224486670619786 -5.9635469598567315e-05 -2.3858158512935512e-05 9.0491298582080228e-05 9.4680039586401358e-06 0.00020907931636184049
leaf_weight=14.000000000000002 17 17 11.000000000000002 14.999999999999998 20 10.999999999999998 19 11.999999999999998 14.999999999999998
leaf_count=14 17 17 11 15 20 11 19 12 15
internal_value=0 -0.000198032 5.11634e-05 -8.22169e-05 -0.00021522 0.000176034 0.000219265 0.000119919 0.000295531
internal_weight=0 31 120 58 35 62 51 23 32
internal_count=151 31 120 58 35 62 51 23 32
is_linear=0
shrinkage=0.000978922


Tree=35
num_leaves=9
num_cat=0
split_feature=164 56 150 144 73 166 157 99
split_gain=1.59336 2.08583 2.08229 1.45611 1.06149 0.844749 0.523424 0.281764
threshold=45.750000000000007 1.4103104694562485 321.50000000000006 8.8750000000000018 4126.5000000000009 281.50000000000006 1161.0000000000002 24.500000000000004
decision_type=2 2 2 2 2 2 2 2
left_child=1 -1 5 -4 -5 6 -2 -8
right_child=2 -3 3 4 -6 -7 7 -9
leaf_value=-0.00047766034419813921 9.2299467529804332e-05 3.2270248387197997e-05 0.0001459002118808684 -0.00040278232772399548 -5.1027143603690033e-05 -1.4259363627960112e-05 0.00018366585286741581 0.00037002960558512774
leaf_weight=14.000000000000002 19 17 14.999999999999998 15.999999999999998 17 20 12.999999999999998 20
leaf_count=14 19 17 15 16 17 20 13 20
internal_value=0 -0.000197838 5.11134e-05 -0.000106744 -0.000221765 0.000156435 0.0002222 0.000296804
internal_weight=0 31 120 48 33 72 52 33
internal_count=151 31 120 48 33 72 52 33
is_linear=0
shrinkage=0.000978922


Tree=36
num_leaves=11
num_cat=0
split_feature=164 56 159 144 73 116 177 147 56 105
split_gain=1.59024 2.08175 2.07875 1.62238 1.16867 0.559651 0.599642 0.360486 0.316 0.0091912
threshold=45.750000000000007 1.4103104694562485 57.500000000000007 9.6250000000000018 4126.5000000000009 4.2535314037680783 0.80377585225475945 235.50000000000003 1.729305305841879 54.500000000000007
decision_type=2 2 2 2 2 2 8 2 2 2
left_child=1 -1 5 8 -5 6 7 9 -4 -2
right_child=2 -3 3 4 -6 -7 -8 -9 -10 -11
leaf_value=-0.00047719278530372166 0.00037001512624460387 3.2238676497312418e-05 0.00023957818480860668 -0.0004214626740802075 -5.9585992157593942e-05 -2.4062376113737341e-05 3.6899702311866425e-05 0.00014798290922869462 9.3383246801146364e-06 0.00032383611132495059
leaf_weight=14.000000000000002 14.000000000000002 17 11.000000000000002 14.999999999999998 20 10.999999999999998 12.999999999999998 12.999999999999998 11.999999999999998 10.999999999999998
leaf_count=14 14 17 11 15 20 11 13 13 12 11
internal_value=0 -0.000197644 5.10634e-05 -8.20767e-05 -0.000214856 0.000175709 0.000218914 0.000281022 0.00011972 0.000349952
internal_weight=0 31 120 58 35 62 51 38 23 25
internal_count=151 31 120 58 35 62 51 38 23 25
is_linear=0
shrinkage=0.000978922


Tree=37
num_leaves=11
num_cat=0
split_feature=164 56 159 144 73 140 177 127 56 106
split_gain=1.58712 2.07768 2.07468 1.61921 1.16639 0.559278 0.574472 0.366956 0.315381 0.0513644
threshold=45.750000000000007 1.4103104694562485 57.500000000000007 9.6250000000000018 4126.5000000000009 4.5000000000000009 0.96795180722891583 5.1250000000000009 1.729305305841879 17.250000000000004
decision_type=2 2 2 2 2 2 8 2 2 2
left_child=1 -1 5 8 -5 -2 7 -7 -4 -9
right_child=2 -3 3 4 -6 6 -8 9 -10 -11
leaf_value=-0.00047672568950858895 -2.4167684432829396e-05 3.2207114903447683e-05 0.0002393436831600857 -0.00042105013067551806 -5.9527669652697681e-05 0.00012916764757863762 2.0016894338244005e-05 0.00028024466471373736 9.32918437611044e-06 0.00036962343450783349
leaf_weight=14.000000000000002 10.999999999999998 17 11.000000000000002 14.999999999999998 20 11.999999999999998 10.999999999999998 11.000000000000002 11.999999999999998 17
leaf_count=14 11 17 11 15 20 12 11 11 12 17
internal_value=0 -0.000197451 5.10135e-05 -8.19963e-05 -0.000214646 0.000175538 0.000218728 0.000273222 0.000119603 0.000334737
internal_weight=0 31 120 58 35 62 51 40 23 28
internal_count=151 31 120 58 35 62 51 40 23 28
is_linear=0
shrinkage=0.000978922


Tree=38
num_leaves=9
num_cat=0
split_feature=164 56 150 144 73 166 157 99
split_gain=1.58402 2.07362 2.0708 1.44855 1.05563 0.842308 0.520949 0.281079
threshold=45.750000000000007 1.4103104694562485 321.50000000000006 8.8750000000000018 4126.5000000000009 281.50000000000006 1161.0000000000002 24.500000000000004
decision_type=2 2 2 2 2 2 2 2
left_child=1 -1 5 -4 -5 6 -2 -8
right_child=2 -3 3 4 -6 -7 7 -9
leaf_value=-0.00047625905889642727 9.2070503513616087e-05 3.2175587629652385e-05 0.00014552927278075296 -0.0004016969223432808 -5.0913111740947074e-05 -1.4452874927101031e-05 0.00018309126524615926 0.00036922858906979791
leaf_weight=14.000000000000002 19 17 14.999999999999998 15.999999999999998 17 20 12.999999999999998 20
leaf_count=14 19 17 15 16 17 20 13 20
internal_value=0 -0.000197257 5.09637e-05 -0.000106458 -0.00022118 0.000155994 0.000221665 0.000296092
internal_weight=0 31 120 48 33 72 52 33
internal_count=151 31 120 48 33 72 52 33
is_linear=0
shrinkage=0.000978922


Tree=39
num_leaves=11
num_cat=0
split_feature=164 56 159 144 73 116 177 147 190 105
split_gain=1.58092 2.06957 2.06722 1.61377 1.16167 0.558112 0.597091 0.358963 0.314981 0.00926243
threshold=45.750000000000007 1.4103104694562485 57.500000000000007 9.6250000000000018 4126.5000000000009 4.2535314037680783 0.80377585225475945 235.50000000000003 13.500000000000002 54.500000000000007
decision_type=2 2 2 2 2 2 8 2 2 2
left_child=1 -1 5 8 -5 6 7 9 -4 -2
right_child=2 -3 3 4 -6 -7 -8 -9 -10 -11
leaf_value=-0.00047579289138355031 0.00036922699064698594 3.2144098107933482e-05 0.00023906838930569084 -0.00042027003501421943 -5.9478255296983988e-05 -2.4282991745062726e-05 3.673141636235634e-05 0.00014757553550755334 9.1999153173457667e-06 0.00032294686059577862
leaf_weight=14.000000000000002 14.000000000000002 17 11.000000000000002 14.999999999999998 20 10.999999999999998 12.999999999999998 12.999999999999998 11.999999999999998 10.999999999999998
leaf_count=14 14 17 11 15 20 11 13 13 12 11
internal_value=0 -0.000197064 5.09138e-05 -8.18564e-05 -0.000214283 0.000175214 0.000218359 0.000280334 0.000119404 0.00034912
internal_weight=0 31 120 58 35 62 51 38 23 25
internal_count=151 31 120 58 35 62 51 38 23 25
is_linear=0
shrinkage=0.000978922


Tree=40
num_leaves=11
num_cat=0
split_feature=164 56 159 144 73 140 177 127 8 106
split_gain=1.57782 2.06552 2.06318 1.61062 1.15939 0.557745 0.572104 0.365323 0.314528 0.0513519
threshold=45.750000000000007 1.4103104694562485 57.500000000000007 9.6250000000000018 4126.5000000000009 4.5000000000000009 0.96795180722891583 5.1250000000000009 1.5000000000000002 17.250000000000004
decision_type=2 2 2 2 2 2 8 2 2 2
left_child=1 -1 5 8 -5 -2 7 -7 -4 -9
right_child=2 -3 3 4 -6 6 -8 9 -10 -11
leaf_value=-0.00047532715415189865 -2.4388825803550156e-05 3.2112631752261453e-05 9.1623385795210631e-06 -0.0004198586584806777 -5.9420031248851377e-05 0.0001288202588995781 1.9871524412034339e-05 0.00027945255710013492 0.00023886555599726935 0.00036881268807529178
leaf_weight=14.000000000000002 10.999999999999998 17 12.000000000000002 14.999999999999998 20 11.999999999999998 10.999999999999998 11.000000000000002 10.999999999999998 17
leaf_count=14 11 17 12 15 20 12 11 11 11 17
internal_value=0 -0.000196871 5.0864e-05 -8.17762e-05 -0.000214074 0.000175042 0.000218174 0.000272555 0.000119287 0.000333934
internal_weight=0 31 120 58 35 62 51 40 23 28
internal_count=151 31 120 58 35 62 51 40 23 28
is_linear=0
shrinkage=0.000978922


Tree=41
num_leaves=9
num_cat=0
split_feature=164 56 150 144 73 166 157 99
split_gain=1.57473 2.06148 2.05926 1.44098 1.04972 0.839845 0.51845 0.280363
threshold=45.750000000000007 1.4103104694562485 321.50000000000006 8.8750000000000018 4126.5000000000009 281.50000000000006 1161.0000000000002 24.500000000000004
decision_type=2 2 2 2 2 2 2 2
left_child=1 -1 5 -4 -5 6 -2 -8
right_child=2 -3 3 4 -6 -7 7 -9
leaf_value=-0.00047486189877270858 9.1842266117516091e-05 3.2081189420638036e-05 0.00014515931239381265 -0.00040060045031833642 -5.0799263919576527e-05 -1.4645618992794812e-05 0.00018251831515090147 0.00036841828990492886
leaf_weight=14.000000000000002 19 17 14.999999999999998 15.999999999999998 17 20 12.999999999999998 20
leaf_count=14 19 17 15 16 17 20 13 20
internal_value=0 -0.000196678 5.08143e-05 -0.000106168 -0.000220589 0.000155552 0.000221126 0.000295375
internal_weight=0 31 120 48 33 72 52 33
internal_count=151 31 120 48 33 72 52 33
is_linear=0
shrinkage=0.000978922


Tree=42
num_leaves=10
num_cat=0
split_feature=164 56 159 144 153 107 31 56 10
split_gain=1.57165 2.05745 2.05576 1.60521 1.15542 0.557109 0.518492 0.314288 0.215094
threshold=45.750000000000007 1.4103104694562485 57.500000000000007 9.6250000000000018 435.50000000000006 340.50000000000006 1.5000000000000002 1.729305305841879 1.0000000180025095e-35
decision_type=2 2 2 2 2 2 2 2 2
left_child=1 -1 5 7 -5 6 8 -4 -2
right_child=2 -3 3 4 -6 -7 -8 -9 -10
leaf_value=-0.000474397088260548 0.00036980994864124398 3.2049795137111851e-05 0.00023862103546634869 -7.923652628532232e-06 -0.00036774479896573925 -2.4598069419933737e-05 8.927113264252101e-05 9.0058613152864538e-06 0.00020758121960117018
leaf_weight=14.000000000000002 17 17 11.000000000000002 14.999999999999998 20 10.999999999999998 19 11.999999999999998 14.999999999999998
leaf_count=14 17 17 11 15 20 11 19 12 15
internal_value=0 -0.000196485 5.07646e-05 -8.16368e-05 -0.000213712 0.000174719 0.000217826 0.000119088 0.000293963
internal_weight=0 31 120 58 35 62 51 23 32
internal_count=151 31 120 58 35 62 51 23 32
is_linear=0
shrinkage=0.000978922


Tree=43
num_leaves=11
num_cat=0
split_feature=164 56 159 144 73 140 177 127 190 106
split_gain=1.56857 2.05342 2.05173 1.60208 1.1538 0.556493 0.570548 0.36395 0.313779 0.0512797
threshold=45.750000000000007 1.4103104694562485 57.500000000000007 9.6250000000000018 4126.5000000000009 4.5000000000000009 0.96795180722891583 5.1250000000000009 13.500000000000002 17.250000000000004
decision_type=2 2 2 2 2 2 8 2 2 2
left_child=1 -1 5 8 -5 -2 7 -7 -4 -9
right_child=2 -3 3 4 -6 6 -8 9 -10 -11
leaf_value=-0.00047393272469910323 -2.46587409395154e-05 3.2018424877634273e-05 0.00023840790615186133 -0.00041879124170570586 -5.9222034697144019e-05 0.00012847313397663148 1.9599137041257807e-05 0.00027876091079336772 8.9783139948142306e-06 0.0003680552475746144
leaf_weight=14.000000000000002 10.999999999999998 17 11.000000000000002 14.999999999999998 20 11.999999999999998 10.999999999999998 11.000000000000002 11.999999999999998 17
leaf_count=14 11 17 11 15 20 12 11 11 12 17
internal_value=0 -0.000196293 5.0715e-05 -8.15567e-05 -0.000213503 0.000174549 0.000217632 0.000271939 0.000118972 0.000333202
internal_weight=0 31 120 58 35 62 51 40 23 28
internal_count=151 31 120 58 35 62 51 40 23 28
is_linear=0
shrinkage=0.000978922


Tree=44
num_leaves=9
num_cat=0
split_feature=164 56 150 144 73 166 157 99
split_gain=1.5655 2.04941 2.04779 1.43332 1.04508 0.837422 0.516479 0.279865
threshold=45.750000000000007 1.4103104694562485 321.50000000000006 8.8750000000000018 4126.5000000000009 281.50000000000006 1161.0000000000002 24.500000000000004
decision_type=2 2 2 2 2 2 2 2
left_child=1 -1 5 -4 -5 6 -2 -8
right_child=2 -3 3 4 -6 -7 7 -9
leaf_value=-0.00047346884090643373 9.1552049141040704e-05 3.1987077784203568e-05 0.00014477916911132365 -0.00039960899495376919 -5.0580582014074685e-05 -1.4840818278450372e-05 0.00018194218817666776 0.00036767623367553091
leaf_weight=14.000000000000002 19 17 14.999999999999998 15.999999999999998 17 20 12.999999999999998 20
leaf_count=14 19 17 15 16 17 20 13 20
internal_value=0 -0.0001961 5.06654e-05 -0.000105879 -0.000219996 0.000155111 0.000220591 0.000294699
internal_weight=0 31 120 48 33 72 52 33
internal_count=151 31 120 48 33 72 52 33
is_linear=0
shrinkage=0.000978922


end of trees

feature_importances:
56=59
144=45
164=45
73=44
159=31
177=22
150=15
99=14
157=14
166=14
140=13
127=11
116=9
147=9
10=8
31=8
107=8
105=7
190=7
106=6
8=5
23=5
22=4
62=2
189=2
24=1
97=1
104=1
110=1
152=1
153=1
155=1

parameters:
[boosting: gbdt]
[objective: regression]
[metric: rmse]
[tree_learner: serial]
[device_type: cpu]
[data: ]
[valid: ]
[num_iterations: 45]
[learning_rate: 0.000978922]
[num_leaves: 12]
[num_threads: -1]
[deterministic: 0]
[force_col_wise: 0]
[force_row_wise: 0]
[histogram_pool_size: -1]
[max_depth: 11]
[min_data_in_leaf: 11]
[min_sum_hessian_in_leaf: 0.001]
[bagging_fraction: 1]
[pos_bagging_fraction: 1]
[neg_bagging_fraction: 1]
[bagging_freq: 0]
[bagging_seed: 11149]
[feature_fraction: 1]
[feature_fraction_bynode: 1]
[feature_fraction_seed: 21351]
[extra_trees: 0]
[extra_seed: 16806]
[early_stopping_round: 0]
[first_metric_only: 0]
[max_delta_step: 0]
[lambda_l1: 0.00610271]
[lambda_l2: 0.00122535]
[linear_lambda: 0]
[min_gain_to_split: 0]
[drop_rate: 0.1]
[max_drop: 50]
[skip_drop: 0.5]
[xgboost_dart_mode: 0]
[uniform_drop: 0]
[drop_seed: 2965]
[top_rate: 0.2]
[other_rate: 0.1]
[min_data_per_group: 100]
[max_cat_threshold: 32]
[cat_l2: 10]
[cat_smooth: 10]
[max_cat_to_onehot: 4]
[top_k: 20]
[monotone_constraints: ]
[monotone_constraints_method: basic]
[monotone_penalty: 0]
[feature_contri: ]
[forcedsplits_filename: ]
[refit_decay_rate: 0.9]
[cegb_tradeoff: 1]
[cegb_penalty_split: 0]
[cegb_penalty_feature_lazy: ]
[cegb_penalty_feature_coupled: ]
[path_smooth: 0]
[interaction_constraints: ]
[verbosity: -1]
[saved_feature_importance_type: 0]
[linear_tree: 0]
[max_bin: 255]
[max_bin_by_feature: ]
[min_data_in_bin: 3]
[bin_construct_sample_cnt: 200000]
[data_random_seed: 179]
[is_enable_sparse: 1]
[enable_bundle: 1]
[use_missing: 1]
[zero_as_missing: 0]
[feature_pre_filter: 1]
[pre_partition: 0]
[two_round: 0]
[header: 0]
[label_column: ]
[weight_column: ]
[group_column: ]
[ignore_column: ]
[categorical_feature: ]
[forcedbins_filename: ]
[precise_float_parser: 0]
[objective_seed: 26397]
[num_class: 1]
[is_unbalance: 0]
[scale_pos_weight: 1]
[sigmoid: 1]
[boost_from_average: 1]
[reg_sqrt: 0]
[alpha: 0.9]
[fair_c: 1]
[poisson_max_delta_step: 0.7]
[tweedie_variance_power: 1.5]
[lambdarank_truncation_level: 30]
[lambdarank_norm: 1]
[label_gain: ]
[eval_at: ]
[multi_error_top_k: 1]
[auc_mu_weights: ]
[num_machines: 1]
[local_listen_port: 12400]
[time_out: 120]
[machine_list_filename: ]
[machines: ]
[gpu_platform_id: -1]
[gpu_device_id: -1]
[gpu_use_dp: 0]
[num_gpu: 1]

end of parameters

pandas_categorical:[]
