tree
version=v3
num_class=1
num_tree_per_iteration=1
label_index=0
max_feature_idx=191
objective=regression
feature_names=0 1 2 3 4 5 6 7 8 9 10 11 12 13 14 15 16 17 18 19 20 21 22 23 24 25 26 27 28 29 30 31 32 33 34 35 36 37 38 39 40 41 42 43 44 45 46 47 48 49 50 51 52 53 54 55 56 57 58 59 60 61 62 63 64 65 66 67 68 69 70 71 72 73 74 75 76 77 78 79 80 81 82 83 84 85 86 87 88 89 90 91 92 93 94 95 96 97 98 99 100 101 102 103 104 105 106 107 108 109 110 111 112 113 114 115 116 117 118 119 120 121 122 123 124 125 126 127 128 129 130 131 132 133 134 135 136 137 138 139 140 141 142 143 144 145 146 147 148 149 150 151 152 153 154 155 156 157 158 159 160 161 162 163 164 165 166 167 168 169 170 171 172 173 174 175 176 177 178 179 180 181 182 183 184 185 186 187 188 189 190 191
feature_infos=[230:4588] [12:2246] [2:2845] [0:6] [0:4] [211:4676] [38:3999] [1:56] [0:43] [0:618] [0:16] [0:4] [0:14] [0:3] [0:12] [0:8] [0:6] [0:44] [0:5] [191:3632] [36:2217] [12:2248] [0:893] [0:2614] [1:1328] [0:301] [1:46] [0:36] [0:266] [0:370] [0:313] [0:106] [0:12] [0:16] none [191:3632] [36:2217] [12:2248] [0:893] [0:2614] [1:1328] [0:301] [1:46] [0:36] [0:266] [0:370] [0:313] [0:106] [0:12] [0:16] none [39:905] [3.6898148148148149:21.25454545454545] [11:1209] [1.8302558051784696:123.28333488820388] [3:5] [0.49714616757051278:15.956396355488426] [13452:619667] [65797.576335877864:2800879.4054421769] [65864.526717557252:2801039.4585034014] [8.423293675641828:200.36603557085485] [113.70992366412214:2180.1587301587301] [19.251908396946565:422.54991645781121] [63626.783202252162:763243.40596188477] [63631.924177016808:763239.24072684988] [22.354026693915944:234.19741599964411] [59.864916717840629:1288.2677932464817] [9.9268153508934542:247.83735117269887] [47035:2720411.5] [47118.5:2720559] [1:198] [126.5:2163.5] [21:424] [514:740531] [598:740669] [0:23] none none [229452:3916706] [229548:3916861] [184:5727] [207:4432] [35:855] [47083:2720540] [47162:2720719] [1:198] [127:2164] [21:424] [3:5] [6:20] [6:20] [4:27] [5.1689999999999996:1139.1949999999999] [0.050999999999999997:0.371] [0.1375255591054311:1.3573765867418883] [0.2896640792049528:30.76267351292498] [78.659999999999982:1735.4699999999991] [8:358] [4:134] [1:60] [0:87] [0:66] [1:77] [10.369747899159664:322.66666666666669] [9.4473254633511399:304.83479132146317] [4:119] [2.5:333] [37:1096] [1:828] [1:530] [1:26.768115942028984] [0:114.77776158444004] [1:25] [1:1097] [1:125] [1:166] [0.91000000000000003:133.39731643682444] [3:401] [6:1323] [35:872] [3.774509803921569:5.7579908675799087] [1:2] [9:21] [1:14] [1:14] [2:3] [3:5] [4:8] [171:3511] [1:41] [37.878787878787882:1243] [3:1243] [63:1243] [3:1243] [8:1243] [23.5:1243] [32.5:1243] [43:1243] [204:4354] [7.4146341463414638:212] [1:212] [12:212] [1:212] [2:212] [5:212] [6.5:212] [8.75:212] [35:876] [1:14] [128:1353] [1:1353] [186:2002] [9:1353] [1:2002] [2:1353] [17.5:1353] [156:1353] [207:4404] [25.444444444444443:615.33333333333337] [1:261] [35:1703] [1:261] [2:1703] [1:261] [4:261] [30.5:893] [35:1846] [0.03125:1] [-1:0.9375] [0.03125:1] [1:230] [0:729] [0:258] [35:870] [0.0040000000000000001:1] [0:0.99593495934959364] [0:0.65700483091787443] [0.0040816326530611997:2.8571428571428572] [0.0142857142857142:10.5] [0:45.5] [0.1575237515308755:3.291366326011643] [0.24057480980557899:1.0988106129917661] [8:214] [4:90] [0.10835578584918359:0.96637023560696755] [0.10835578584918359:0.96637023560696755] [3.0426406250000002:182.96225000000001] [2.6070000000000002:65.813999999999993] [15.727188065399501:495.99713260819919] [0:3990] [0:2369] [10:3089]
tree_sizes=1591 1690 1770 1728 1719

Tree=0
num_leaves=16
num_cat=0
split_feature=66 70 172 191 48 107 38 23 5 131 178 30 155 156 93
split_gain=1.40012 1.45604 1.38084 1.75593 0.665955 0.814395 0.846914 0.667806 0.649202 0.60469 0.556201 0.551787 0.515889 0.630301 0.447118
threshold=247.0563016188606 151.50000000000003 82.500000000000014 451.00000000000006 1.5000000000000002 156.00000000000003 27.500000000000004 22.500000000000004 1318.5000000000002 31.500000000000004 1.1622807017543864 1.0000000180025095e-35 282.00000000000006 234.50000000000003 0.11475000000000002
decision_type=2 2 2 2 2 2 2 2 2 2 8 2 2 2 2
left_child=-1 2 4 8 5 10 7 14 -4 -5 -2 -8 13 -6 -7
right_child=1 -3 3 9 12 6 11 -9 -10 -11 -12 -13 -14 -15 -16
leaf_value=1.6586077592038888 1.6588902870856828 1.6586814093821669 1.6588446480964985 1.6587985257433442 1.6591641212873474 1.6588718139979928 1.6588446481006869 1.6589944236511007 1.6591686751000447 1.6584906429371862 1.6591066020951599 1.6591148604579744 1.6591595338797029 1.6588400943783268 1.6586423705912294
leaf_weight=5.9999999999999991 6.9999999999999991 8.9999999999999982 5.0000000000000018 8.9999999999999982 4.9999999999999982 10.000000000000005 5.0000000000000027 7.9999999999999991 7 5.9999999999999991 25 11.999999999999998 21 7 8.9999999999999982
leaf_count=6 7 9 5 9 5 10 5 8 7 6 25 12 21 7 9
internal_value=1.65894 1.65895 1.65897 1.65883 1.65901 1.65897 1.65891 1.65883 1.65903 1.65867 1.65906 1.65903 1.65909 1.65897 1.65876
internal_weight=0 145 136 27 109 76 44 27 12 15 32 17 33 12 19
internal_count=151 145 136 27 109 76 44 27 12 15 32 17 33 12 19
is_linear=0
shrinkage=1


Tree=1
num_leaves=16
num_cat=0
split_feature=89 179 24 85 164 149 114 117 113 131 97 164 164 103 105
split_gain=1.79429 1.56754 1.51101 1.22178 0.89994 1.15822 0.80603 0.582899 0.539131 0.586789 0.461892 0.380019 0.600409 0.5722 0.819623
threshold=9.5000000000000018 0.98360655737704927 25.500000000000004 142.00000000000003 38.500000000000007 372.50000000000006 3.5000000000000004 35.500000000000007 98.500000000000014 14.500000000000002 103.50000000000001 30.000000000000004 73.500000000000014 48.481481481481488 54.500000000000007
decision_type=2 8 2 2 2 2 2 2 2 2 2 2 2 2 2
left_child=2 6 4 8 -1 -6 7 -2 9 -3 -4 -11 -13 14 -14
right_child=1 3 10 -5 5 -7 -8 -9 -10 11 -12 12 13 -15 -16
leaf_value=-0.00051715463362925478 0 -9.5683496571593197e-05 -9.5638236691408153e-05 -0.00021544620465705896 0 -0.00036509185294822985 0.00010923748413667741 -0.0002564332695656565 -5.7796452665808652e-05 0 0.00017800779402805643 0.00022687741666351774 -0.00023622891957983736 0.0002036770679789335 9.8337732420396526e-05
leaf_weight=5.0000000000000027 6.0000000000000062 4.9999999999999991 4.9999999999999982 5.9999999999999991 10.000000000000002 7.9999999999999991 5.9999999999999991 13.999999999999998 7.9999999999999991 6.9999999999999991 7 34 5.0000000000000062 11.999999999999998 12.999999999999998
leaf_count=5 6 5 5 6 10 8 6 14 8 7 7 34 5 12 13
internal_value=0 4.20743e-05 -0.000139452 8.64742e-05 -0.000245596 -0.000165735 -0.000108553 -0.000177874 0.000108989 0.000127593 5.73479e-05 0.00014444 0.000161483 8.47123e-05 9.75287e-07
internal_weight=0 116 35 90 23 18 26 20 84 76 12 71 64 30 18
internal_count=151 116 35 90 23 18 26 20 84 76 12 71 64 30 18
is_linear=0
shrinkage=0.000702699


Tree=2
num_leaves=16
num_cat=0
split_feature=91 85 176 65 94 149 102 191 108 59 24 137 6 124 20
split_gain=1.59231 1.89671 1.53456 1.09784 1.19022 1.03168 0.901982 0.878144 0.570081 0.894648 0.728629 0.451084 0.43754 0.389784 0.254752
threshold=6.5000000000000009 151.50000000000003 0.31501348892653241 36.793894382952409 0.53764380935436396 372.50000000000006 9.5000000000000018 495.50000000000006 121.50000000000001 937595.67973718361 37.500000000000007 130.87500000000003 290.00000000000006 10.500000000000002 435.50000000000006
decision_type=2 2 2 2 2 2 2 2 2 2 2 2 2 2 2
left_child=3 2 8 -1 6 -4 -5 -7 13 10 -10 -9 -6 14 -2
right_child=1 -3 5 4 12 7 -8 11 9 -11 -12 -13 -14 -15 -16
leaf_value=-0.00033677938705731398 0.00018547098744063352 -0.00037646926351971293 0.00016769046235536552 -6.8521600156647947e-05 0.00014511578092788491 8.313357178422143e-05 -0.0004467369824477496 -0.00010012268123918423 0.00023053397505661447 -0.0002154443425621877 -9.5687963503132836e-05 -0.00036484387831959837 -9.5643120369022047e-05 -2.5508517257387463e-05 2.7413880173841641e-05
leaf_weight=8.9999999999999982 47 4.9999999999999991 6.0000000000000027 9.9999999999999982 12.000000000000002 5.0000000000000027 4.9999999999999991 6.9999999999999991 9.0000000000000018 5.9999999999999991 4.9999999999999991 7.9999999999999991 4.9999999999999991 4.9999999999999991 6.9999999999999991
leaf_count=9 47 5 6 10 12 5 5 7 9 6 5 8 5 5 7
internal_value=0 4.40515e-05 6.48352e-05 -0.000118198 -5.42319e-05 -8.14658e-05 -0.000199906 -0.000160197 0.000113994 7.21604e-06 0.000108334 -0.00024662 6.96167e-05 0.000148839 0.000166458
internal_weight=0 110 105 41 32 26 15 20 79 20 14 15 17 59 54
internal_count=151 110 105 41 32 26 15 20 79 20 14 15 17 59 54
is_linear=0
shrinkage=0.000702699


Tree=3
num_leaves=16
num_cat=0
split_feature=90 75 175 78 140 92 123 90 86 123 140 175 69 104 180
split_gain=1.69963 1.7087 1.46618 1.47266 1.24008 0.775529 0.708319 1.0387 0.565603 0.940648 0.82041 0.404255 0.394543 0.350062 0.325137
threshold=9.5000000000000018 1.0000000180025095e-35 0.3450267509727627 1804603.5000000002 2.5000000000000004 82.254500000000021 4.5000000000000009 15.500000000000002 741.00000000000011 5.5000000000000009 5.5000000000000009 0.71669565217391307 851257.75000000012 41.044379391714465 0.84354379065227636
decision_type=2 2 2 2 2 2 2 2 2 2 2 2 2 2 2
left_child=1 12 3 8 -4 -3 -6 11 9 10 -2 13 14 -8 -1
right_child=2 5 4 -5 6 -7 7 -9 -10 -11 -12 -13 -14 -15 -16
leaf_value=-4.9908995953065276e-05 -2.542749888867011e-05 -0.00058688025596534388 -0.00023604051056444773 0.00012527314102512955 0.00018975675981289152 -0.00016566718943771534 -4.0511372100794193e-05 -0.00021535637734008435 -0.00032079298315509258 5.5982697491784409e-05 -0.00044654638918032211 0.00020340124291194742 -0.00013870125868152951 0.00016750013427040199 0.00016769645351908904
leaf_weight=7.0000000000000018 5.0000000000000053 4.9999999999999982 4.9999999999999991 12.999999999999998 37 5 11.000000000000005 5.9999999999999991 7.9999999999999991 9.9999999999999982 5 11.999999999999998 9.9999999999999982 5.9999999999999991 6
leaf_count=7 5 5 5 13 37 5 11 6 8 10 5 12 10 6 6
internal_value=0 -0.000140979 3.94206e-05 -6.67766e-05 9.70021e-05 -0.000384243 0.000121237 4.65247e-05 -0.000158789 -9.00023e-05 -0.000243956 0.000103455 -3.17477e-05 2.82169e-05 4.43944e-05
internal_weight=0 33 118 41 77 10 72 35 28 20 10 29 23 17 13
internal_count=151 33 118 41 77 10 72 35 28 20 10 29 23 17 13
is_linear=0
shrinkage=0.000702699


Tree=4
num_leaves=16
num_cat=0
split_feature=27 156 153 61 99 99 116 54 103 165 94 58 21 38 145
split_gain=1.65736 1.66926 1.41751 1.76556 0.843842 0.792752 0.783277 0.759699 0.693359 0.658614 0.59225 0.777728 0.513978 0.498545 0.441128
threshold=1.5000000000000002 247.00000000000003 476.00000000000006 717.09018863440815 33.500000000000007 12.500000000000002 1.9361744071999507 2.4699499726650553 37.361111111111121 113.25000000000001 0.73540118298481538 722046.93591065065 72.500000000000014 18.500000000000004 14.750000000000002
decision_type=2 2 2 2 2 2 2 2 2 2 2 2 2 2 2
left_child=1 -1 7 10 5 12 8 -2 -7 -5 11 -4 -3 14 -9
right_child=2 4 3 9 -6 6 -8 13 -10 -11 -12 -13 -14 -15 -16
leaf_value=-0.00044891167888216579 -0.00010019333964653473 -0.00016564593329372693 0.00015312708017220297 -0.00044892457916828398 0.00012603108397274713 -0.00015032829636467022 -4.0375273566522543e-05 -4.0641420288262756e-05 -0.00051655053192290216 -9.8053363638497858e-05 0.00022788127155824888 -0.00023575879859505605 0.00010456429188587873 0.00019562159209899358 0.00014035662196545154
leaf_weight=5.9999999999999991 6.9999999999999991 4.9999999999999991 5.0000000000000053 5.9999999999999982 9.9999999999999982 7.0000000000000018 10.999999999999998 11.000000000000002 5 6 6.9999999999999991 5 10.999999999999998 34 14.999999999999998
leaf_count=6 7 5 5 6 10 7 11 11 5 6 7 5 11 34 15
internal_value=0 -9.72682e-05 5.5717e-05 -7.2409e-05 -5.25834e-05 -0.000100425 -0.000184285 0.000112364 -0.000309562 -0.00028013 6.95301e-05 -3.3347e-05 1.5143e-05 0.00013849 6.07156e-05
internal_weight=0 55 96 29 49 39 23 67 12 12 17 10 16 60 26
internal_count=151 55 96 29 49 39 23 67 12 12 17 10 16 60 26
is_linear=0
shrinkage=0.000702699


end of trees

feature_importances:
164=3
24=2
38=2
85=2
90=2
94=2
99=2
103=2
123=2
131=2
140=2
149=2
156=2
175=2
191=2
5=1
6=1
20=1
21=1
23=1
27=1
30=1
48=1
54=1
58=1
59=1
61=1
65=1
66=1
69=1
70=1
75=1
78=1
86=1
89=1
91=1
92=1
93=1
97=1
102=1
104=1
105=1
107=1
108=1
113=1
114=1
116=1
117=1
124=1
137=1
145=1
153=1
155=1
165=1
172=1
176=1
178=1
179=1
180=1

parameters:
[boosting: gbdt]
[objective: regression]
[metric: rmse]
[tree_learner: serial]
[device_type: cpu]
[data: ]
[valid: ]
[num_iterations: 5]
[learning_rate: 0.000702699]
[num_leaves: 16]
[num_threads: -1]
[deterministic: 0]
[force_col_wise: 0]
[force_row_wise: 0]
[histogram_pool_size: -1]
[max_depth: 9]
[min_data_in_leaf: 5]
[min_sum_hessian_in_leaf: 0.001]
[bagging_fraction: 0.4]
[pos_bagging_fraction: 1]
[neg_bagging_fraction: 1]
[bagging_freq: 0]
[bagging_seed: 22420]
[feature_fraction: 0.4]
[feature_fraction_bynode: 0.7]
[feature_fraction_seed: 5992]
[extra_trees: 0]
[extra_seed: 8953]
[early_stopping_round: 0]
[first_metric_only: 0]
[max_delta_step: 0]
[lambda_l1: 0.113404]
[lambda_l2: 1.30897e-05]
[linear_lambda: 0]
[min_gain_to_split: 0]
[drop_rate: 0.1]
[max_drop: 50]
[skip_drop: 0.5]
[xgboost_dart_mode: 0]
[uniform_drop: 0]
[drop_seed: 5]
[top_rate: 0.2]
[other_rate: 0.1]
[min_data_per_group: 100]
[max_cat_threshold: 32]
[cat_l2: 10]
[cat_smooth: 10]
[max_cat_to_onehot: 4]
[top_k: 20]
[monotone_constraints: ]
[monotone_constraints_method: basic]
[monotone_penalty: 0]
[feature_contri: ]
[forcedsplits_filename: ]
[refit_decay_rate: 0.9]
[cegb_tradeoff: 1]
[cegb_penalty_split: 0]
[cegb_penalty_feature_lazy: ]
[cegb_penalty_feature_coupled: ]
[path_smooth: 0]
[interaction_constraints: ]
[verbosity: -1]
[saved_feature_importance_type: 0]
[linear_tree: 0]
[max_bin: 255]
[max_bin_by_feature: ]
[min_data_in_bin: 3]
[bin_construct_sample_cnt: 200000]
[data_random_seed: 172]
[is_enable_sparse: 1]
[enable_bundle: 1]
[use_missing: 1]
[zero_as_missing: 0]
[feature_pre_filter: 1]
[pre_partition: 0]
[two_round: 0]
[header: 0]
[label_column: ]
[weight_column: ]
[group_column: ]
[ignore_column: ]
[categorical_feature: ]
[forcedbins_filename: ]
[precise_float_parser: 0]
[objective_seed: 5768]
[num_class: 1]
[is_unbalance: 0]
[scale_pos_weight: 1]
[sigmoid: 1]
[boost_from_average: 1]
[reg_sqrt: 0]
[alpha: 0.9]
[fair_c: 1]
[poisson_max_delta_step: 0.7]
[tweedie_variance_power: 1.5]
[lambdarank_truncation_level: 30]
[lambdarank_norm: 1]
[label_gain: ]
[eval_at: ]
[multi_error_top_k: 1]
[auc_mu_weights: ]
[num_machines: 1]
[local_listen_port: 12400]
[time_out: 120]
[machine_list_filename: ]
[machines: ]
[gpu_platform_id: -1]
[gpu_device_id: -1]
[gpu_use_dp: 0]
[num_gpu: 1]

end of parameters

pandas_categorical:[]
