tree
version=v3
num_class=1
num_tree_per_iteration=1
label_index=0
max_feature_idx=191
objective=regression
feature_names=0 1 2 3 4 5 6 7 8 9 10 11 12 13 14 15 16 17 18 19 20 21 22 23 24 25 26 27 28 29 30 31 32 33 34 35 36 37 38 39 40 41 42 43 44 45 46 47 48 49 50 51 52 53 54 55 56 57 58 59 60 61 62 63 64 65 66 67 68 69 70 71 72 73 74 75 76 77 78 79 80 81 82 83 84 85 86 87 88 89 90 91 92 93 94 95 96 97 98 99 100 101 102 103 104 105 106 107 108 109 110 111 112 113 114 115 116 117 118 119 120 121 122 123 124 125 126 127 128 129 130 131 132 133 134 135 136 137 138 139 140 141 142 143 144 145 146 147 148 149 150 151 152 153 154 155 156 157 158 159 160 161 162 163 164 165 166 167 168 169 170 171 172 173 174 175 176 177 178 179 180 181 182 183 184 185 186 187 188 189 190 191
feature_infos=[230:4588] [12:1304] [2:2845] [0:17] [0:4] [211:3740] [38:2448] [2:56] [0:43] [0:43] [0:16] [0:4] [0:7] [0:4] [0:12] [0:8] [0:6] [0:44] [0:6] [191:3632] [36:1861] [0:1313] [0:893] [0:2614] [1:1328] [0:301] [2:51] [0:36] [0:266] [0:370] [0:37] [0:106] [0:12] [0:128] none [191:3632] [36:1861] [0:1313] [0:893] [0:2614] [1:1328] [0:301] [2:51] [0:36] [0:266] [0:370] [0:37] [0:106] [0:12] [0:128] none [39:905] [3.6898148148148149:9.2932330827067684] [11:919] [1.8302558051784696:56.191239243699421] [3:6] [0.49714616757051278:15.956396355488426] [13452:589322] [65797.576335877864:3157276.5539733577] [65864.526717557252:3157388.2604501606] [8.423293675641828:200.36603557085485] [113.70992366412214:2180.1587301587301] [19.251908396946565:422.54991645781121] [63626.783202252162:763243.40596188477] [63631.924177016808:763239.24072684988] [22.354026693915944:234.19741599964411] [59.864916717840629:1288.2677932464817] [9.9268153508934542:247.83735117269887] [47035:3529205] [47118.5:3529271] [1:198] [115:2163.5] [21:424] [514:740531] [598:740669] [0:23] none none [229452:3986953] [229548:3987141] [184:5661] [207:4432] [35:855] [47083:3529205] [47162:3529271] [1:198] [115:2164] [21:424] [3:6] [6:20] [6:20] [5:27] [5.1689999999999996:1139.1949999999999] [0.050000000000000003:0.371] [0.1375255591054311:1.3573765867418883] [0.2896640792049528:30.76267351292498] [78.659999999999982:1735.4699999999991] [8:458] [4:155] [1:60] [0:87] [0:66] [1:77] [10.369747899159664:309.75] [9.4473254633511399:304.83479132146317] [4:119] [2.5:293] [37:1096] [1:828] [1:530] [1:16.228571428571428] [0:114.77776158444004] [1:7] [1:1097] [1:125] [1:33] [0.92850915431560599:133.39731643682444] [3:401] [6:1323] [35:872] [3.774509803921569:5.7579908675799087] [1:2] [9:44] [1:14] [1:14] [2:3] [3:5] [4:8] [171:3511] [1:49] [37.878787878787882:1316] [3:1316] [63:1316] [17:1316] [8:1316] [23.5:1316] [35:1316] [49:1316] [204:4354] [7.4146341463414638:234] [1:234] [12:234] [3:234] [2:234] [5:234] [7:234] [9:234] [35:876] [1:19] [69.5:1385] [1:1385] [186:2002] [9:1385] [1:2002] [2:1385] [17.5:1385] [71:1385] [207:4404] [12.77777777777778:615.33333333333337] [1:261] [35:1703] [1:261] [2:1703] [1:261] [4:261] [13:893] [35:1846] [0.0277777777777777:1] [-1:0.94444444444444442] [0.0277777777777777:1] [0:230] [0:729] [0:258] [35:870] [0:1] [0:0.99593495934959364] [0:1] [0:2.8571428571428572] [0:25] [0:252] [0.1575237515308755:3.1465019336045401] [0.30136619341012588:1.0988106129917661] [8:214] [2:90] [0.1756364504187502:0.96637023560696755] [0.1756364504187502:0.96637023560696755] [4.5313018867924528:182.96225000000001] [2.6960000000000002:60.518999999999998] [15.727188065399501:495.99713260819919] [0:3990] [0:2454] [1:3089]
tree_sizes=1608 1749 1717 1718 1748 1731 1715 1718 1701 1703 1717 1687 1725 1732 1751

Tree=0
num_leaves=16
num_cat=0
split_feature=182 103 179 144 101 73 56 43 66 53 90 83 40 83 156
split_gain=2.17206 2.29518 1.84905 1.29478 1.20036 0.892843 1.16663 0.756948 1.751 0.767501 0.674645 0.752067 0.44351 0.380938 0.239173
threshold=62.500000000000007 47.863333333333337 1.6612697603263642 7.6250000000000009 11.500000000000002 3615.5000000000005 1.3825133530951812 1.5000000000000002 369.38181553413602 14.500000000000002 10.500000000000002 967665.00000000012 5.5000000000000009 853126.00000000012 285.00000000000006
decision_type=2 2 8 2 2 2 2 2 2 2 2 2 2 2 2
left_child=1 4 10 -3 -1 6 -5 8 -4 -9 -2 -12 -11 -7 -14
right_child=2 3 7 5 -6 13 -8 9 -10 12 11 -13 14 -15 -16
leaf_value=1.6232957414062814 1.6233123966945813 1.6233099594328309 1.623344935050955 1.6233099594328309 1.6233270207933415 1.623352612631239 1.6233398165854205 1.6233270207496466 1.6233099594328309 1.6233343325527343 1.6233227552723994 1.6233430155968751 1.6233419493248205 1.6233355512008214 1.623350354742561
leaf_weight=8.9999999999999982 7.0000000000000027 5.9999999999999991 9.9999999999999982 6.0000000000000027 4.9999999999999991 7.9999999999999982 7.9999999999999991 5.9999999999999991 5.9999999999999991 6.9999999999999991 12.000000000000002 7.9999999999999991 11.999999999999998 6 34
leaf_count=9 7 6 10 6 5 8 8 6 6 7 12 8 12 6 34
internal_value=1.62333 1.62332 1.62334 1.62333 1.62331 1.62334 1.62333 1.62334 1.62333 1.62334 1.62333 1.62333 1.62335 1.62335 1.62335
internal_weight=0 48 102 34 14 28 14 75 16 59 27 20 53 14 46
internal_count=150 48 102 34 14 28 14 75 16 59 27 20 53 14 46
is_linear=0
shrinkage=1


Tree=1
num_leaves=16
num_cat=0
split_feature=162 136 120 74 180 91 56 158 62 111 54 143 171 149 95
split_gain=2.19078 1.31172 2.06235 1.53664 1.59982 1.11145 1.29984 1.00809 0.894299 0.724909 1.03427 0.572954 0.514246 0.462904 0.888795
threshold=70.500000000000014 80.500000000000014 4.2728895452199351 39871.500000000007 1.0403810751147125 6.5000000000000009 1.3825133530951812 74.166666666666671 127.79145990863266 11.450557931384031 2.7074968854653991 10.500000000000002 163.50000000000003 439.87500000000006 2.4862734780403501
decision_type=2 2 2 2 2 2 2 2 2 2 2 2 2 2 2
left_child=5 7 -3 8 -5 6 -1 11 -4 10 12 -2 -7 -9 -15
right_child=1 2 3 4 -6 9 -8 13 -10 -11 -12 -13 -14 14 -16
leaf_value=-2.6784944713108834e-05 -1.7686104343164192e-05 7.6463540158854195e-06 -3.1903842263710968e-05 -2.1666788866448411e-05 1.9278349335687626e-05 1.4160473399017285e-05 6.4828775520654317e-06 1.6435062298368698e-05 -9.9684981205765316e-06 -6.3129731723324427e-06 1.7679466460514808e-05 3.9239067359152693e-06 -6.3124910476060567e-06 -9.155790972013037e-06 1.3591692925441326e-05
leaf_weight=4.9999999999999991 8.9999999999999982 10.999999999999998 16.000000000000004 4.9999999999999982 5 4.9999999999999991 7.9999999999999991 9.0000000000000018 6.9999999999999991 5.9999999999999991 32 4.9999999999999991 8.9999999999999982 9.0000000000000018 8.9999999999999982
leaf_count=5 9 11 16 5 5 5 8 9 7 6 32 5 9 9 9
internal_value=0 -5.40932e-06 -1.15472e-05 -1.79451e-05 -1.19417e-06 7.07372e-06 -6.31251e-06 1.17766e-06 -2.5228e-05 1.04203e-05 1.26029e-05 -9.96823e-06 9.99291e-07 6.95704e-06 2.21793e-06
internal_weight=0 85 44 33 10 65 13 41 23 52 46 14 14 27 18
internal_count=150 85 44 33 10 65 13 41 23 52 46 14 14 27 18
is_linear=0
shrinkage=5.11849e-05


Tree=2
num_leaves=16
num_cat=0
split_feature=7 162 140 110 122 115 123 103 67 56 119 176 176 151 6
split_gain=2.05354 1.97692 2.29014 1.5528 1.24747 1.44619 1.00044 0.771836 1.2873 1.0918 0.81476 0.666934 0.587116 0.575152 0.446286
threshold=8.5000000000000018 72.500000000000014 13.500000000000002 3.1118881118881121 11.500000000000002 1.5000000000000002 6.5000000000000009 100.5452488687783 58.152880110974245 1.4154772179576882 213.50000000000003 0.19193928676687297 0.40148046398046405 431.50000000000006 257.50000000000006
decision_type=2 2 2 2 2 2 2 2 2 2 2 2 2 2 2
left_child=6 4 3 7 5 -2 14 8 -3 -10 -11 -12 -5 -6 -1
right_child=1 2 -4 12 13 -7 -8 -9 9 10 11 -13 -14 -15 -16
leaf_value=-3.1901761425126365e-05 -2.0935067367461438e-05 7.9047340544715745e-06 -3.7020568376996294e-05 1.7309539952020398e-05 7.0389204128716202e-06 1.1966550097155705e-05 2.217975156066184e-06 1.0748135457125755e-05 -2.9059171838605635e-05 -2.3372559294066371e-05 1.4159578220937276e-05 -9.1554963136781705e-06 -2.0470987647817483e-06 1.8254549478040832e-05 -1.3623838190643778e-05
leaf_weight=7.0000000000000018 6.9999999999999982 8.9999999999999982 4.9999999999999991 13.000000000000002 23 7 5.9999999999999991 5.9999999999999991 9.0000000000000018 6.0000000000000027 4.9999999999999991 8.9999999999999982 5.9999999999999991 25 7
leaf_count=7 7 9 5 13 23 7 6 6 9 6 5 9 6 25 7
internal_value=0 2.34904e-06 -3.67801e-06 -1.0317e-06 8.95937e-06 -4.48425e-06 -1.52687e-05 -6.31227e-06 -9.00606e-06 -1.42543e-05 -7.59191e-06 -8.28594e-07 1.11969e-05 1.28804e-05 -2.2763e-05
internal_weight=0 130 68 63 62 14 20 44 38 29 20 14 19 48 14
internal_count=150 130 68 63 62 14 20 44 38 29 20 14 19 48 14
is_linear=0
shrinkage=5.11849e-05


Tree=3
num_leaves=16
num_cat=0
split_feature=42 116 58 135 78 164 175 135 100 57 94 107 40 80 92
split_gain=1.78091 3.00215 1.82209 1.30135 1.00245 1.02132 1.16245 1.17797 1.02056 0.86027 0.769492 0.699858 0.607141 0.504062 0.414859
threshold=14.500000000000002 1.9118391928515275 569028.90236739989 97.375000000000014 1808458.5000000002 45.750000000000007 0.53562117943185916 52.250000000000007 19.500000000000004 166083.00000000003 0.53876009755558008 165.50000000000003 9.5000000000000018 509.50000000000006 27.753500000000006
decision_type=2 2 2 2 2 2 2 2 2 2 2 2 2 2 2
left_child=1 3 -3 9 5 8 7 12 -2 -1 -9 -5 -7 -4 -6
right_child=4 2 13 11 14 6 -8 10 -10 -11 -12 -13 -14 -15 -16
leaf_value=-3.7018911945075468e-05 -2.763641381699943e-05 -2.1665214353686721e-05 -1.193922941995125e-06 9.0416002353386667e-06 -1.1942819437181048e-06 1.9277418907078166e-05 1.3184447501311522e-05 -2.6567093382012742e-06 2.2171944687547101e-06 -1.3622856156981274e-05 -2.7636648919365712e-05 -1.4842019425902481e-05 -4.0653153494999995e-07 1.7571755597851711e-05 1.5012480362648743e-05
leaf_weight=10.000000000000005 5.9999999999999982 5.0000000000000027 5.0000000000000027 4.9999999999999991 5.0000000000000027 6.0000000000000027 21 6.9999999999999982 6 6.9999999999999991 6 8.9999999999999982 12.999999999999998 14.999999999999998 24
leaf_count=10 6 5 5 5 5 6 21 7 6 7 6 9 13 15 24
internal_value=0 -7.22582e-06 5.97113e-06 -1.78685e-05 4.30475e-06 7.74106e-07 3.82707e-06 -2.31371e-06 -1.27097e-05 -2.73854e-05 -1.41861e-05 -6.31211e-06 5.8095e-06 1.28803e-05 1.22182e-05
internal_weight=0 56 25 31 94 65 53 32 12 17 13 14 19 20 29
internal_count=150 56 25 31 94 65 53 32 12 17 13 14 19 20 29
is_linear=0
shrinkage=5.11849e-05


Tree=4
num_leaves=16
num_cat=0
split_feature=162 129 120 25 82 116 92 53 70 54 179 74 155 145 74
split_gain=2.19017 1.85554 1.83496 2.72945 1.14668 1.22463 0.972072 0.947476 0.869003 0.622848 0.550027 0.425609 0.714378 0.27682 0.23918
threshold=70.500000000000014 14.500000000000002 4.2728895452199351 1.5000000000000002 201.50000000000003 1.5277301560089149 87.054000000000016 14.500000000000002 123.00000000000001 3.3153755539024177 1.7103868574456811 55919.500000000007 268.25000000000006 18.500000000000004 5446.5000000000009
decision_type=2 2 2 2 2 2 2 2 2 2 8 2 2 2 2
left_child=4 2 -2 9 5 -1 -5 -6 10 13 14 -9 -13 -4 -3
right_child=1 8 3 6 7 -7 -8 11 -10 -11 -12 12 -14 -15 -16
leaf_value=-2.6782566698509139e-05 7.9041736358438801e-06 -6.3116423576362031e-06 -4.7253646232829472e-05 9.6809341969087282e-06 -6.3118198769376349e-06 9.0409716963118785e-06 -1.4840517363303577e-05 1.607804320842164e-05 -1.2708770281675901e-05 -1.6546750072148951e-05 1.3792937698285709e-05 -6.3124170307668342e-06 1.6077571416413273e-05 -3.1899031782872979e-05 5.3198829925879652e-06
leaf_weight=4.9999999999999982 8.9999999999999982 8.0000000000000018 5.0000000000000027 8.0000000000000018 7.9999999999999991 5 8.9999999999999982 32 7.9999999999999991 4.9999999999999991 13.999999999999998 6.9999999999999991 7.9999999999999991 7.9999999999999991 10.999999999999998
leaf_count=5 9 8 5 8 8 5 9 32 8 5 14 7 8 8 11
internal_value=0 -5.40856e-06 -1.27087e-05 -1.80092e-05 7.07273e-06 -8.87083e-06 -3.30099e-06 9.97158e-06 2.42575e-06 -3.19001e-05 6.09477e-06 1.27432e-05 5.6289e-06 -3.7805e-05 4.22358e-07
internal_weight=0 85 44 35 65 10 17 55 41 18 33 47 15 13 19
internal_count=150 85 44 35 65 10 17 55 41 18 33 47 15 13 19
is_linear=0
shrinkage=5.11849e-05


Tree=5
num_leaves=16
num_cat=0
split_feature=153 65 73 109 94 89 52 131 131 123 93 85 186 171 94
split_gain=2.66912 1.66544 1.14253 1.55591 1.40386 1.09699 1.14246 0.910583 0.71847 0.670382 0.636771 0.594854 0.492077 0.365398 0.316218
threshold=389.50000000000006 39.424240080854624 10072.500000000002 9.5000000000000018 0.36813304562003951 9.5000000000000018 4.793048469387756 9.5000000000000018 67.500000000000014 5.5000000000000009 0.13750000000000004 126.00000000000001 13.189267959770117 65.500000000000014 0.29871251392111786
decision_type=2 2 2 2 2 2 2 2 2 2 2 2 2 2 2
left_child=5 8 3 10 -4 6 -1 -7 12 -5 -3 14 -2 -6 -9
right_child=1 2 4 9 13 7 -8 11 -10 -11 -12 -13 -14 -15 -16
leaf_value=8.3097892217007921e-06 -2.6780524270818511e-05 -1.1429851989969855e-05 -1.1997632985961598e-05 -9.154029335505678e-06 5.060487401393897e-06 -1.1430185441325899e-05 -2.0933387079862816e-05 2.2173517121324343e-06 -3.7015516268619371e-05 1.1965754925551474e-05 -3.6162897203489587e-05 -2.6566983879757016e-06 -6.3112522346601319e-06 1.9276752884524147e-05 1.4726961294307012e-05
leaf_weight=6.9999999999999982 5.0000000000000027 5.0000000000000018 9.0000000000000018 8.9999999999999982 9.0000000000000018 4.9999999999999991 7 5.9999999999999991 4.9999999999999991 6.9999999999999991 6 6.9999999999999991 7.9999999999999991 9.9999999999999982 45
leaf_count=7 5 5 9 9 9 5 7 6 5 7 6 7 8 10 45
internal_value=0 -7.01236e-06 -2.5895e-06 -1.01021e-05 4.65479e-06 6.64808e-06 -6.3118e-06 9.52807e-06 -2.05265e-05 8.5856e-08 -2.49209e-05 1.13348e-05 -1.41843e-05 1.25428e-05 1.32553e-05
internal_weight=0 73 55 27 28 77 14 63 18 16 11 58 13 19 51
internal_count=150 73 55 27 28 77 14 63 18 16 11 58 13 19 51
is_linear=0
shrinkage=5.11849e-05


Tree=6
num_leaves=16
num_cat=0
split_feature=153 65 100 105 160 73 188 123 134 80 160 119 95 136 136
split_gain=2.66885 1.66527 1.3749 1.38638 1.15661 1.14241 1.2514 1.2185 1.08605 0.951966 0.718463 0.626439 0.62474 0.471794 0.337398
threshold=389.50000000000006 39.424240080854624 20.500000000000004 58.500000000000007 68.500000000000014 10072.500000000002 148.8192903918476 5.5000000000000009 60.500000000000007 1413.0000000000002 92.000000000000014 214.50000000000003 1.5661586559106999 116.00000000000001 63.250000000000007
decision_type=2 2 2 2 2 2 2 2 2 2 2 2 2 2 2
left_child=2 10 3 4 -1 6 7 -3 12 -8 -2 -12 -7 -10 -6
right_child=1 5 -4 -5 14 8 9 -9 13 -11 11 -13 -14 -15 -16
leaf_value=-1.2707818046024619e-05 -3.7014381374708582e-05 -3.5553157180359531e-05 1.2729602782293038e-05 -2.3371666744044809e-05 -1.194821094595467e-06 -2.1663306999727031e-05 -9.9657027077677853e-06 -6.3110777661737642e-06 1.7307354060890173e-05 1.9276129885902469e-05 -2.4585579368668583e-05 -2.0468415441068693e-06 3.9235108196322882e-06 -1.1935851432632209e-06 1.4158171750384035e-05
leaf_weight=8.0000000000000018 5.0000000000000027 7.0000000000000027 43 5.9999999999999991 5.0000000000000027 5.0000000000000018 6.9999999999999982 7.9999999999999991 13.000000000000002 5 6.9999999999999982 6 5 4.9999999999999991 14.999999999999998
leaf_count=8 5 7 43 6 5 5 7 8 13 5 7 6 5 5 15
internal_value=0 -7.012e-06 6.64774e-06 -1.04403e-06 3.74051e-06 -2.58937e-06 -1.01016e-05 -1.99576e-05 4.65455e-06 2.21841e-06 -2.05254e-05 -1.41832e-05 -8.86993e-06 1.21682e-05 1.03199e-05
internal_weight=0 73 77 34 28 55 27 15 28 12 18 13 10 18 20
internal_count=150 73 77 34 28 55 27 15 28 12 18 13 10 18 20
is_linear=0
shrinkage=5.11849e-05


Tree=7
num_leaves=16
num_cat=0
split_feature=7 162 140 80 117 54 123 136 164 123 182 62 97 104 25
split_gain=2.05257 1.97606 2.28937 1.75817 2.54899 1.19938 1 0.922431 0.828013 0.810367 0.856621 0.465835 0.400569 0.399857 0.381051
threshold=8.5000000000000018 72.500000000000014 13.500000000000002 521.50000000000011 34.500000000000007 2.6796814753293332 6.5000000000000009 63.250000000000007 64.750000000000014 2.5000000000000004 59.500000000000007 92.879725873680826 153.00000000000003 63.061528098741086 1.0000000180025095e-35
decision_type=2 2 2 2 2 2 2 2 2 2 2 2 2 2 2
left_child=6 5 3 4 13 8 14 -6 12 -5 -11 -7 -2 -3 -1
right_child=1 2 -4 9 7 11 -8 -9 -10 10 -12 -13 -14 -15 -16
leaf_value=-2.905192948927371e-05 -2.0472424066708577e-06 -1.1948098829419134e-06 -3.7014160497506624e-05 -6.3104722727182113e-06 -9.9659578316799955e-06 9.9788118537639142e-07 2.2177437400846586e-06 -3.474038415171302e-05 1.4156947524648977e-05 -6.3098736218872207e-06 1.5619647832574529e-05 1.5338189534828375e-05 -2.1663546410478776e-05 1.9275239055198326e-05 -1.1427898874158927e-05
leaf_weight=9.0000000000000018 5.9999999999999982 5.0000000000000018 4.9999999999999991 9.9999999999999982 6.9999999999999991 6.9999999999999991 5.9999999999999991 8.9999999999999982 4.9999999999999991 6.0000000000000027 21 39 5 5 4.9999999999999991
leaf_count=9 6 5 5 10 7 7 6 9 5 6 21 39 5 5 5
internal_value=0 2.34849e-06 -3.67725e-06 -1.0314e-06 -1.12317e-05 8.95739e-06 -1.52651e-05 -2.39018e-05 -3.11357e-06 6.13641e-06 1.07464e-05 1.3156e-05 -1.09639e-05 9.04025e-06 -2.27578e-05
internal_weight=0 130 68 63 26 62 20 16 16 37 27 46 11 10 14
internal_count=150 130 68 63 26 62 20 16 16 37 27 46 11 10 14
is_linear=0
shrinkage=5.11849e-05


Tree=8
num_leaves=16
num_cat=0
split_feature=7 175 54 160 66 152 133 118 123 141 19 111 175 38 66
split_gain=2.05236 1.43496 2.1332 1.81722 1.05172 1.17232 1.20392 1.15154 0.999902 0.869481 0.802297 0.654134 0.517581 0.473185 0.446044
threshold=8.5000000000000018 0.53562117943185916 2.7074968854653991 104.50000000000001 369.38181553413602 266.50000000000006 102.00000000000001 53.500000000000007 6.5000000000000009 37.500000000000007 1276.0000000000002 12.203159311300622 0.90035279468732721 12.500000000000002 349.58792282361713
decision_type=2 2 2 2 2 2 2 2 2 2 2 2 2 2 2
left_child=8 4 3 13 5 -2 -7 -8 14 10 -6 12 -4 -3 -1
right_child=1 2 11 -5 9 6 7 -9 -10 -11 -12 -13 -14 -15 -16
leaf_value=-3.1892906669586088e-05 -1.910209762558446e-05 -3.1896632961063711e-05 1.8521403464741696e-05 1.0745302859670331e-05 -1.9103000662735098e-05 1.181222089728124e-05 -2.6778076240586439e-05 6.4812353447934456e-06 2.2176304790906794e-06 -2.5500258182452173e-05 5.0601889719069158e-06 -2.0481218001123253e-06 2.2153063406132192e-06 -1.0575969848107383e-05 -1.3619950370257054e-05
leaf_weight=7.0000000000000018 5.9999999999999991 5.0000000000000018 34 8.9999999999999982 6.0000000000000027 24 4.9999999999999982 6 5.9999999999999991 7.9999999999999991 8.9999999999999982 5.9999999999999991 5.9999999999999991 6 7
leaf_count=7 6 5 34 9 6 24 5 6 6 8 9 6 6 6 7
internal_value=0 2.34837e-06 7.64389e-06 -6.3117e-06 -3.11262e-06 1.8018e-06 5.38539e-06 -8.63669e-06 -1.52644e-05 -1.18731e-05 -4.60511e-06 1.37116e-05 1.60755e-05 -2.02675e-05 -2.27567e-05
internal_weight=0 130 66 20 64 41 35 11 20 23 15 46 40 11 14
internal_count=150 130 66 20 64 41 35 11 20 23 15 46 40 11 14
is_linear=0
shrinkage=5.11849e-05


Tree=9
num_leaves=16
num_cat=0
split_feature=7 179 27 53 73 174 67 109 107 174 123 130 170 20 109
split_gain=2.05215 1.48001 1.40919 1.48717 1.2242 1.18718 1.16358 1.13571 1.17291 1.79959 0.999799 0.938914 0.473267 0.380986 0.286696
threshold=8.5000000000000018 1.6612697603263642 1.5000000000000002 14.500000000000002 4875.5000000000009 0.0085526315789473516 58.357441588292282 5.5000000000000009 133.50000000000003 0.3133745562807741 6.5000000000000009 107.53418803418806 61.500000000000007 246.00000000000003 8.5000000000000018
decision_type=2 8 2 2 2 2 2 2 2 2 2 2 2 2 2
left_child=10 6 7 4 -4 -5 12 -3 -9 -10 13 -8 -2 -1 -7
right_child=1 2 3 5 -6 14 11 8 9 -11 -12 -13 -14 -15 -16
leaf_value=-2.9049067100073909e-05 1.927474482720494e-05 -2.6779070493074359e-05 -2.6778475055119994e-05 -1.1428598344055134e-05 9.0387780257029255e-06 9.3228214251824425e-06 -6.3102351966401167e-06 1.9273589897358032e-05 -3.1895958202567197e-05 8.3091501861487427e-06 2.2175170909799844e-06 -2.8239064219921727e-05 -2.0471455437332455e-06 -1.1426528001635273e-05 1.7198850053137242e-05
leaf_weight=9.0000000000000018 4.9999999999999982 5.0000000000000027 4.9999999999999982 4.9999999999999991 5 18 19.000000000000004 6.0000000000000027 4.9999999999999982 7 5.9999999999999991 6.9999999999999991 6 4.9999999999999991 37
leaf_count=9 5 5 5 5 5 18 19 6 5 7 6 7 6 5 37
internal_value=0 2.34825e-06 5.79304e-06 9.40465e-06 -8.86988e-06 1.24504e-05 -6.31024e-06 -5.19877e-06 7.95847e-07 -8.44306e-06 -1.52636e-05 -1.22143e-05 7.64466e-06 -2.27555e-05 1.46213e-05
internal_weight=0 130 93 70 10 60 37 23 18 12 20 26 11 14 55
internal_count=150 130 93 70 10 60 37 23 18 12 20 26 11 14 55
is_linear=0
shrinkage=5.11849e-05


Tree=10
num_leaves=16
num_cat=0
split_feature=153 91 65 134 118 86 53 129 2 43 117 111 153 176 134
split_gain=2.6678 2.2372 1.66465 1.24857 1.21811 1.20029 1.06643 0.899368 0.839635 0.629546 1.03639 0.614724 0.532957 0.510795 0.433521
threshold=389.50000000000006 5.5000000000000009 39.424240080854624 60.500000000000007 45.500000000000007 741.00000000000011 14.500000000000002 14.500000000000002 37.500000000000007 1.5000000000000002 44.500000000000007 11.450557931384031 1131.5000000000002 0.25429220468675279 117.00000000000001
decision_type=2 2 2 2 2 2 2 2 2 2 2 2 2 2 2
left_child=1 -1 8 4 -4 9 -3 -7 -2 10 -5 13 -6 -8 -10
right_child=2 6 3 5 12 7 11 -9 14 -11 -12 -13 -14 -15 -16
leaf_value=-2.3365774630023575e-05 -3.6155323589548747e-05 -6.3105100266576471e-06 -3.1892984107195662e-05 1.5009913592060865e-05 -1.1427156943755508e-05 -2.677645245756493e-05 1.5861059392184787e-05 3.9233607207602208e-06 -1.1929737649306512e-06 1.730545515322539e-05 -1.654272058860774e-05 -6.2818956770206816e-07 9.0393664468401261e-06 9.9778775434725603e-07 -2.0926541772433135e-05
leaf_weight=5.9999999999999991 6.0000000000000027 9.9999999999999982 6.0000000000000027 6.0000000000000018 9.9999999999999982 4.9999999999999982 45 5 4.9999999999999982 12.999999999999998 5 8.9999999999999982 4.9999999999999991 6.9999999999999991 7
leaf_count=6 6 10 6 6 10 5 45 5 5 13 5 9 5 7 7
internal_value=0 6.64643e-06 -7.01062e-06 -2.58882e-06 -1.24017e-05 3.47206e-06 9.18272e-06 -1.14266e-05 -2.05216e-05 9.67989e-06 6.67729e-07 1.17226e-05 -4.60492e-06 1.38603e-05 -1.27044e-05
internal_weight=0 77 73 55 21 34 71 10 18 24 11 61 15 52 12
internal_count=150 77 73 55 21 34 71 10 18 24 11 61 15 52 12
is_linear=0
shrinkage=5.11849e-05


Tree=11
num_leaves=16
num_cat=0
split_feature=7 179 182 105 45 130 67 79 117 105 135 135 191 189 108
split_gain=2.05174 1.4797 1.6021 1.81381 1.29922 1.19922 1.16343 0.93887 0.918037 0.89921 0.770791 0.751246 0.681394 0.592569 0.523207
threshold=8.5000000000000018 1.6612697603263642 62.500000000000007 22.500000000000004 3.5000000000000004 110.31666666666668 58.357441588292282 1771613.0000000002 46.500000000000007 37.500000000000007 97.375000000000014 39.875000000000007 526.00000000000011 2542.0000000000005 128.00000000000003
decision_type=2 8 2 2 2 2 2 2 2 2 2 2 2 2 2
left_child=8 6 3 -3 11 9 12 -8 10 -5 -1 14 -2 -13 -4
right_child=1 2 4 5 -6 -7 7 -9 -10 -11 -12 13 -14 -15 -16
leaf_value=-2.1656902552376204e-05 1.9273629303540014e-05 1.1598057815804971e-05 9.6770260551451196e-06 -4.2126340151474095e-05 -9.5097663110868144e-06 3.9228775518808767e-06 -2.8237613614666441e-05 -6.3092995122965664e-06 -2.8692753429782087e-05 -1.1428503845832321e-05 4.6555971275203893e-06 1.7444478343333149e-05 -6.3105685712948714e-06 -1.1955686144354773e-06 -1.1429445548461093e-05
leaf_weight=5.0000000000000018 5.9999999999999982 10.000000000000002 7.9999999999999982 4.9999999999999982 7.9999999999999991 4.9999999999999991 7.0000000000000027 19 7.9999999999999991 5 7 42 5 4.9999999999999991 5
leaf_count=5 6 10 8 5 8 5 7 19 8 5 7 42 5 5 5
internal_value=0 2.34802e-06 5.79243e-06 -5.28729e-06 9.86587e-06 -1.65442e-05 -6.30955e-06 -1.22132e-05 -1.5262e-05 -2.67778e-05 -6.30799e-06 1.24493e-05 7.64444e-06 1.54615e-05 1.55908e-06
internal_weight=0 130 93 25 68 15 37 26 20 10 12 60 11 47 13
internal_count=150 130 93 25 68 15 37 26 20 10 12 60 11 47 13
is_linear=0
shrinkage=5.11849e-05


Tree=12
num_leaves=16
num_cat=0
split_feature=153 7 123 74 100 106 185 179 179 154 101 152 59 127 151
split_gain=2.66732 1.40773 1.82152 1.48756 1.37426 2.23521 0.802442 0.786481 0.68422 0.624481 0.617334 0.574613 0.324735 0.321188 0.304669
threshold=389.50000000000006 15.500000000000002 5.5000000000000009 39871.500000000007 20.500000000000004 29.500000000000004 0.68519759487062826 0.46915760869565221 1.3777281746031749 213.87500000000003 13.500000000000002 457.00000000000006 892674.77592300356 5.8750000000000009 579.50000000000011
decision_type=2 2 2 2 2 2 2 10 8 2 2 2 2 2 2
left_child=4 2 3 -2 5 6 -1 -4 11 -8 -10 12 -3 -7 -6
right_child=1 8 7 -5 14 13 9 -9 10 -11 -12 -13 -14 -15 -16
leaf_value=-2.5500107882141368e-05 -3.3716986708512036e-05 -6.3088726820007027e-06 9.6800967481741698e-06 -1.192656482762052e-06 9.8899994781516987e-06 4.6524493462589047e-06 -1.6541803673648393e-05 -1.4834543370631485e-05 -3.1128017009909141e-06 9.0397022625584751e-06 1.6428641424610284e-05 -2.16593426505541e-05 9.0401774993836078e-06 1.9271426692684887e-05 1.9271352966754544e-05
leaf_weight=8.0000000000000018 14.000000000000002 13.000000000000005 7.9999999999999982 4.9999999999999991 30 6.9999999999999973 4.9999999999999982 6 8.0000000000000018 5 8.9999999999999982 4.9999999999999991 4.9999999999999991 9 12.999999999999998
leaf_count=8 14 13 8 5 30 7 5 6 8 5 9 5 5 9 13
internal_value=0 -7.00998e-06 -1.48355e-05 -2.5158e-05 6.64583e-06 -1.04415e-06 -1.34174e-05 -8.26167e-07 -5.53909e-07 -3.75103e-06 7.23267e-06 -6.30924e-06 -2.04518e-06 1.28757e-05 1.27263e-05
internal_weight=0 73 33 19 77 34 18 14 40 10 17 23 18 16 43
internal_count=150 73 33 19 77 34 18 14 40 10 17 23 18 16 43
is_linear=0
shrinkage=5.11849e-05


Tree=13
num_leaves=16
num_cat=0
split_feature=183 166 26 59 69 101 146 123 61 155 176 22 146 22 21
split_gain=2.14954 2.68912 1.40226 1.18915 1.67029 1.00044 0.926376 1.43429 0.767962 0.737864 1.26982 0.743006 0.608984 0.469771 0.736435
threshold=27.500000000000004 244.50000000000003 13.500000000000002 1009349.9366322045 1013697.7500000001 17.500000000000004 24.125000000000004 5.5000000000000009 651.7194121116537 268.25000000000006 0.3580368906455863 2.5000000000000004 14.125000000000002 20.500000000000004 156.50000000000003
decision_type=2 2 2 2 2 2 2 2 2 2 2 2 2 2 2
left_child=1 2 6 4 9 -3 -1 -8 12 11 13 -2 -4 14 -11
right_child=3 5 8 -5 -6 -7 7 -9 -10 10 -12 -13 -14 -15 -16
leaf_value=-3.8283825976651129e-05 -2.165841498155969e-05 1.4155573481766214e-05 -1.1425435742515915e-05 1.5616334474149516e-05 -2.6778312981896849e-05 -1.0574326864552749e-05 -3.1886219296006843e-05 2.2176593345852172e-06 -2.1658093580824498e-05 1.6712919619867492e-05 -6.3092575560747664e-06 1.5589547826261188e-06 1.1962757451117616e-05 1.9270396581652521e-05 -3.4689523541859897e-06
leaf_weight=8.0000000000000018 5.0000000000000027 15.000000000000002 5.0000000000000018 21 4.9999999999999991 5.9999999999999991 6.9999999999999982 6 4.9999999999999991 10.000000000000002 12.999999999999998 12.999999999999998 7 14.999999999999998 8.9999999999999982
leaf_count=8 5 15 5 21 5 6 7 6 5 10 13 13 7 15 9
internal_value=0 -7.60963e-06 -1.5733e-05 4.93372e-06 1.7289e-06 7.08984e-06 -2.45797e-05 -1.6146e-05 -4.80471e-06 3.92182e-06 7.29672e-06 -4.89037e-06 2.21761e-06 1.2499e-05 7.15309e-06
internal_weight=0 59 38 91 70 21 21 13 17 65 47 18 12 34 19
internal_count=150 59 38 91 70 21 21 13 17 65 47 18 12 34 19
is_linear=0
shrinkage=5.11849e-05


Tree=14
num_leaves=16
num_cat=0
split_feature=153 91 137 61 44 108 184 118 191 132 136 155 90 89 184
split_gain=2.66685 2.23651 1.42378 1.77053 1.31827 1.23609 0.791204 0.800628 1.15145 0.57727 0.45447 0.999752 0.492724 0.493068 0.299792
threshold=389.50000000000006 5.5000000000000009 123.25000000000001 537.76950918322575 8.5000000000000018 106.00000000000001 0.75396170888808312 56.500000000000007 568.50000000000011 137.50000000000003 63.250000000000007 257.50000000000006 16.500000000000004 9.5000000000000018 0.64480058294881815
decision_type=2 2 2 2 2 2 2 2 2 2 2 2 2 2 2
left_child=1 -1 3 -2 6 9 7 -4 -9 -5 11 -3 13 -12 -7
right_child=2 10 4 5 -6 14 -8 8 -10 -11 12 -13 -14 -15 -16
leaf_value=-2.3362327733151812e-05 -2.2297005332192221e-05 -1.483887048720336e-05 -3.4444801981833838e-05 -1.1941077436043836e-06 9.0406925490193171e-06 -1.142550015597896e-05 -1.1917788467250163e-06 3.925580704433639e-06 -2.8234449380827239e-05 1.92706752128973e-05 -1.1943322817544699e-06 1.0133500729172213e-05 8.1506849984992709e-08 1.5903800991760715e-05 3.9244750218379216e-06
leaf_weight=5.9999999999999991 7.9999999999999991 6.0000000000000027 10.000000000000005 5.0000000000000027 4.9999999999999991 9.9999999999999982 4.9999999999999991 4.9999999999999982 7 12.999999999999998 4.9999999999999991 13.999999999999998 7.9999999999999991 38 4.9999999999999991
leaf_count=6 8 6 10 5 5 10 5 5 7 13 5 14 8 38 5
internal_value=0 6.64524e-06 -7.00937e-06 -6.94186e-07 -1.51006e-05 4.5429e-06 -1.95713e-05 -2.37484e-05 -1.48345e-05 1.3586e-05 9.18114e-06 2.64172e-06 1.17456e-05 1.39156e-05 -6.30881e-06
internal_weight=0 77 73 41 32 33 27 22 12 18 71 20 51 43 15
internal_count=150 77 73 41 32 33 27 22 12 18 71 20 51 43 15
is_linear=0
shrinkage=5.11849e-05


end of trees

feature_importances:
123=9
7=6
153=6
179=6
136=5
53=4
54=4
73=4
74=4
135=4
162=4
176=4
56=3
65=3
66=3
67=3
80=3
91=3
94=3
100=3
101=3
105=3
109=3
111=3
117=3
118=3
134=3
155=3
160=3
175=3
182=3
22=2
25=2
40=2
43=2
59=2
61=2
62=2
83=2
89=2
90=2
92=2
95=2
103=2
107=2
108=2
116=2
119=2
120=2
129=2
130=2
131=2
140=2
146=2
151=2
152=2
164=2
171=2
174=2
184=2
191=2
2=1
6=1
19=1
20=1
21=1
26=1
27=1
38=1
42=1
44=1
45=1
52=1
57=1
58=1
69=1
70=1
78=1
79=1
82=1
85=1
86=1
93=1
97=1
104=1
106=1
110=1
115=1
122=1
127=1
132=1
133=1
137=1
141=1
143=1
144=1
145=1
149=1
154=1
156=1
158=1
166=1
170=1
180=1
183=1
185=1
186=1
188=1
189=1

parameters:
[boosting: gbdt]
[objective: regression]
[metric: rmse]
[tree_learner: serial]
[device_type: cpu]
[data: ]
[valid: ]
[num_iterations: 15]
[learning_rate: 5.11849e-05]
[num_leaves: 16]
[num_threads: -1]
[deterministic: 0]
[force_col_wise: 0]
[force_row_wise: 0]
[histogram_pool_size: -1]
[max_depth: 9]
[min_data_in_leaf: 5]
[min_sum_hessian_in_leaf: 0.001]
[bagging_fraction: 0.7]
[pos_bagging_fraction: 1]
[neg_bagging_fraction: 1]
[bagging_freq: 0]
[bagging_seed: 11149]
[feature_fraction: 0.4]
[feature_fraction_bynode: 0.7]
[feature_fraction_seed: 21351]
[extra_trees: 0]
[extra_seed: 16806]
[early_stopping_round: 0]
[first_metric_only: 0]
[max_delta_step: 0]
[lambda_l1: 1.21464e-05]
[lambda_l2: 0.000109173]
[linear_lambda: 0]
[min_gain_to_split: 0]
[drop_rate: 0.1]
[max_drop: 50]
[skip_drop: 0.5]
[xgboost_dart_mode: 0]
[uniform_drop: 0]
[drop_seed: 2965]
[top_rate: 0.2]
[other_rate: 0.1]
[min_data_per_group: 100]
[max_cat_threshold: 32]
[cat_l2: 10]
[cat_smooth: 10]
[max_cat_to_onehot: 4]
[top_k: 20]
[monotone_constraints: ]
[monotone_constraints_method: basic]
[monotone_penalty: 0]
[feature_contri: ]
[forcedsplits_filename: ]
[refit_decay_rate: 0.9]
[cegb_tradeoff: 1]
[cegb_penalty_split: 0]
[cegb_penalty_feature_lazy: ]
[cegb_penalty_feature_coupled: ]
[path_smooth: 0]
[interaction_constraints: ]
[verbosity: -1]
[saved_feature_importance_type: 0]
[linear_tree: 0]
[max_bin: 255]
[max_bin_by_feature: ]
[min_data_in_bin: 3]
[bin_construct_sample_cnt: 200000]
[data_random_seed: 179]
[is_enable_sparse: 1]
[enable_bundle: 1]
[use_missing: 1]
[zero_as_missing: 0]
[feature_pre_filter: 1]
[pre_partition: 0]
[two_round: 0]
[header: 0]
[label_column: ]
[weight_column: ]
[group_column: ]
[ignore_column: ]
[categorical_feature: ]
[forcedbins_filename: ]
[precise_float_parser: 0]
[objective_seed: 26397]
[num_class: 1]
[is_unbalance: 0]
[scale_pos_weight: 1]
[sigmoid: 1]
[boost_from_average: 1]
[reg_sqrt: 0]
[alpha: 0.9]
[fair_c: 1]
[poisson_max_delta_step: 0.7]
[tweedie_variance_power: 1.5]
[lambdarank_truncation_level: 30]
[lambdarank_norm: 1]
[label_gain: ]
[eval_at: ]
[multi_error_top_k: 1]
[auc_mu_weights: ]
[num_machines: 1]
[local_listen_port: 12400]
[time_out: 120]
[machine_list_filename: ]
[machines: ]
[gpu_platform_id: -1]
[gpu_device_id: -1]
[gpu_use_dp: 0]
[num_gpu: 1]

end of parameters

pandas_categorical:[]
