tree
version=v3
num_class=1
num_tree_per_iteration=1
label_index=0
max_feature_idx=191
objective=regression
feature_names=0 1 2 3 4 5 6 7 8 9 10 11 12 13 14 15 16 17 18 19 20 21 22 23 24 25 26 27 28 29 30 31 32 33 34 35 36 37 38 39 40 41 42 43 44 45 46 47 48 49 50 51 52 53 54 55 56 57 58 59 60 61 62 63 64 65 66 67 68 69 70 71 72 73 74 75 76 77 78 79 80 81 82 83 84 85 86 87 88 89 90 91 92 93 94 95 96 97 98 99 100 101 102 103 104 105 106 107 108 109 110 111 112 113 114 115 116 117 118 119 120 121 122 123 124 125 126 127 128 129 130 131 132 133 134 135 136 137 138 139 140 141 142 143 144 145 146 147 148 149 150 151 152 153 154 155 156 157 158 159 160 161 162 163 164 165 166 167 168 169 170 171 172 173 174 175 176 177 178 179 180 181 182 183 184 185 186 187 188 189 190 191
feature_infos=[230:5034] [3:2246] [2:3102] [0:22] [0:6] [211:4676] [38:3999] [1:166] [0:59] [0:618] [0:14] [0:16] [0:20] [0:13] [0:14] [0:44] [0:6] [0:44] [0:17] [191:4008] [36:2483] [0:2248] [0:1727] [0:2614] [1:1328] [0:301] [1:91] [0:52] [0:967] [0:920] [0:313] [0:106] [0:12] [0:159] none [191:4008] [36:2483] [0:2248] [0:1727] [0:2614] [1:1328] [0:301] [1:91] [0:52] [0:967] [0:920] [0:313] [0:106] [0:12] [0:159] none [39:1127] [3.6898148148148149:21.25454545454545] [10:1209] [1.8302558051784696:123.28333488820388] [3:6] [0.49714616757051278:16.343737567975346] [17541:660855] [65797.576335877864:2800879.4054421769] [65864.526717557252:2801039.4585034014] [22.009151921903602:200.36603557085485] [113.70992366412214:2363.4580382436261] [19.251908396946565:440.99079320113322] [63626.783202252162:1081550.9494009293] [63631.924177016808:1081548.3283991446] [18.739641758516893:1376.3863991523131] [59.864916717840629:1359.0329670913291] [9.9268153508934542:248.99216137589943] [47035:2720411.5] [47118.5:2720559] [2:198] [100.5:2372] [21:445.5] [514:713005] [598:713089] [0:23] none none [229452:3916706] [229548:3916861] [180:85157] [207:4673] [35:855] [47083:2720540] [47162:2720719] [2:198] [101:2372] [21:446] [3:5] [6:24] [6:25] [4:31] [5.1689999999999996:1139.1949999999999] [0.035999999999999997:0.40000000000000002] [0.12114024717893471:1.3573765867418883] [0.2896640792049528:30.76267351292498] [78.659999999999982:2193.4560000000006] [8:458] [4:150] [1:75] [0:103] [0:66] [1:77] [10.608333333333333:322.66666666666669] [8.7855232829262224:304.83479132146317] [4:141] [2.5:333] [37:1096] [1:934] [1:530] [1.3076923076923077:26.768115942028984] [0.50452497910951299:114.77776158444004] [1:25] [2:1097] [1:125] [1:261] [0.88648244958924571:133.39731643682444] [3:538] [6:1323] [35:872] [3.7640449438202248:5.5410628019323669] [1:2] [9:47] [1:19] [1:14] [2:3] [3:5] [4:8] [171:3713] [1:51] [37.966666666666669:1316] [1:1316] [63:1316] [3:1316] [6:1316] [13:1316] [21:1316] [43:1316] [204:4511] [7.4146341463414638:234] [1:234] [12:234] [1:234] [1:234] [2.5:234] [4:234] [8.75:234] [35:876] [1:20] [69.5:1385] [1:1385] [177:2002] [7:1593] [1:2002] [2:1385] [17.5:1385] [42.5:1385] [207:4655] [12.77777777777778:615.33333333333337] [1:261] [30:1703] [1:275] [1:1703] [1:261] [4:261] [13:893] [35:2216] [0.0277777777777777:1] [-1:0.94444444444444442] [0.0277777777777777:1] [0:269] [0:729] [0:283] [35:870] [0:1] [0:1] [0:1] [0:3.3809523809523809] [0:97] [0:252] [0.1575237515308755:3.291366326011643] [0.24057480980557899:1.0988106129917661] [8:214] [2:90] [0.10835578584918359:0.96637023560696755] [0.10835578584918359:0.96637023560696755] [3.0426406250000002:182.96225000000001] [2.6070000000000002:65.813999999999993] [15.727188065399501:612.67551680223755] [0:4675] [0:2454] [1:3089]
tree_sizes=1179 1292 1268 1325 1320 1288 1319 1286 1291 1270 1330 1325 1319 1292 1326 1274 1336 1286 1306 1290 1271 1333 1285 1306 1302 1303 1291 1304 1271 1305 1269 1340 1287 1333 1314 1256 1306 1304 1323 1292 1288 1287 1321 1292 1310 1335 1320 1275 1307 1321 1324 1308 1323 1306 1320

Tree=0
num_leaves=12
num_cat=0
split_feature=38 183 78 120 38 110 24 171 60 153 117
split_gain=8.24742 6.44965 4.54706 3.29052 2.52682 1.90354 2.14642 1.85037 1.72717 1.59964 1.50588
threshold=28.500000000000004 24.500000000000004 1673108.5000000002 4.5133691739295196 1.5000000000000002 3.270080862533693 27.500000000000004 111.50000000000001 86.581480616399659 591.00000000000011 38.500000000000007
decision_type=2 2 2 2 2 2 2 2 2 2 2
left_child=1 4 -2 5 -1 6 -3 -6 -5 -10 -8
right_child=2 3 -4 8 7 -7 10 -9 9 -11 -12
leaf_value=2.0655465974387872 2.0658640455670114 2.0657347122427709 2.0664479085251721 2.0661465311225027 2.0657480812288092 2.0662841398167866 2.0658641467280709 2.066240427464979 2.0665467612557102 2.0661153253460856 2.0663534676606079
leaf_weight=19 11.999999999999998 21 120 24 13.000000000000002 19 9.0000000000000018 11.999999999999998 32 8.9999999999999982 11.999999999999998
leaf_count=19 12 21 120 24 13 19 9 12 32 9 12
internal_value=2.06623 2.06609 2.06639 2.0662 2.0658 2.06605 2.06594 2.06598 2.06634 2.06645 2.06614
internal_weight=0 170 132 126 44 61 42 25 65 41 21
internal_count=302 170 132 126 44 61 42 25 65 41 21
is_linear=0
shrinkage=1


Tree=1
num_leaves=12
num_cat=0
split_feature=38 183 78 151 133 132 141 100 187 150 78
split_gain=8.23251 6.43799 4.53885 2.5955 2.36138 2.26128 2.19587 2.45328 2.90348 1.95709 1.90585
threshold=28.500000000000004 24.500000000000004 1673108.5000000002 458.50000000000006 48.500000000000007 129.50000000000003 49.500000000000007 19.500000000000004 5.4457500000000012 374.50000000000006 1802739.0000000002
decision_type=2 2 2 2 2 2 2 2 2 2 2
left_child=1 3 -2 -1 -3 10 7 8 -6 -5 -4
right_child=2 4 5 9 6 -7 -8 -9 -10 -11 -12
leaf_value=-0.00086282322228186672 -0.00036079344327654594 -0.00032140090589265598 0.00020346079908177192 -0.00010982378947447227 -0.00047057969696800398 0.00028137598151024683 -0.00016939678933185621 0.00021830678728141804 0.00018646158852757874 -0.00053801288537201771 -0.00033111822999499238
leaf_weight=8.9999999999999982 11.999999999999998 19 12.000000000000002 18 11.000000000000002 98 33 52 10.999999999999998 17 9.9999999999999982
leaf_count=9 12 19 12 18 11 98 33 52 11 17 10
internal_value=0 -0.000131601 0.000169485 -0.000429474 -2.75533e-05 0.000222541 2.46097e-05 0.000111164 -0.000141965 -0.000317903 -3.9428e-05
internal_weight=0 170 132 44 126 120 107 74 22 35 22
internal_count=302 170 132 44 126 120 107 74 22 35 22
is_linear=0
shrinkage=0.000904557


Tree=2
num_leaves=12
num_cat=0
split_feature=22 183 79 120 151 132 154 79 110 24 60
split_gain=8.21763 6.42635 4.53064 3.28184 2.59081 2.25719 2.24814 1.90241 1.8995 2.14124 1.72426
threshold=28.500000000000004 24.500000000000004 1673326.5000000002 4.5133691739295196 458.50000000000006 129.50000000000003 418.50000000000006 1802848.0000000002 3.270080862533693 27.500000000000004 86.581480616399659
decision_type=2 2 2 2 2 2 2 2 2 2 2
left_child=1 4 -2 8 -1 7 -6 -4 9 -3 -5
right_child=2 3 5 10 6 -7 -8 -9 -10 -11 -12
leaf_value=-0.00086204301408294396 -0.00036046714443828816 -0.00048984375974150929 0.00020327680764607549 -7.8608515054709999e-05 -0.000107044874893214 0.00028112147670202151 -0.00056744060659616436 -0.00033081881994096249 5.8971146421174252e-05 -8.1193607997336986e-05 0.00022659552166437438
leaf_weight=8.9999999999999982 11.999999999999998 21 12.000000000000002 24 19 98 15.999999999999998 9.9999999999999982 19 21 41
leaf_count=9 12 21 12 24 19 98 16 10 19 21 41
internal_value=0 -0.000131482 0.000169331 -2.75284e-05 -0.000429086 0.00022234 -0.000317615 -3.93922e-05 -0.000178236 -0.0002856 0.000113868
internal_weight=0 170 132 126 44 120 35 22 61 42 65
internal_count=302 170 132 126 44 120 35 22 61 42 65
is_linear=0
shrinkage=0.000904557


Tree=3
num_leaves=12
num_cat=0
split_feature=22 183 78 151 133 107 132 154 80 111 181
split_gain=8.20277 6.41473 4.52245 2.58612 2.35562 3.45332 2.25311 2.24407 2.05903 2.81956 1.92348
threshold=28.500000000000004 24.500000000000004 1673108.5000000002 458.50000000000006 48.500000000000007 397.00000000000006 129.50000000000003 418.50000000000006 506.50000000000006 3.0435023326540533 0.84371416289325551
decision_type=2 2 2 2 2 2 2 2 2 2 2
left_child=1 3 -2 -1 -3 8 10 -5 9 -6 -4
right_child=2 4 6 7 5 -7 -8 -9 -10 -11 -12
leaf_value=-0.00086126347660328843 -0.00036014116002700447 -0.00032099229019393635 0.00018304650835001141 -0.00010694806440568552 -0.00044198306861474758 -0.00051150392256742064 0.00028086719305163346 -0.00056692740811814459 0.00015061529359744117 0.00016589380761397878 -0.00036083642989358342
leaf_weight=8.9999999999999982 11.999999999999998 19 13.000000000000002 19 13.000000000000002 8.9999999999999982 98 15.999999999999998 73 11.999999999999998 8.9999999999999982
leaf_count=9 12 19 13 19 13 9 98 16 73 12 9
internal_value=0 -0.000131363 0.000169178 -0.000428698 -2.75035e-05 2.45957e-05 0.000222139 -0.000317328 7.38698e-05 -0.000150117 -3.93565e-05
internal_weight=0 170 132 44 126 107 120 35 98 25 22
internal_count=302 170 132 44 126 107 120 35 98 25 22
is_linear=0
shrinkage=0.000904557


Tree=4
num_leaves=12
num_cat=0
split_feature=22 102 78 141 171 92 132 78 7 101 143
split_gain=8.18794 5.40747 4.51427 3.34898 2.88248 2.78177 2.24903 1.8971 1.74261 1.57466 2.23851
threshold=28.500000000000004 12.500000000000002 1673108.5000000002 107.50000000000001 108.00000000000001 144.73250000000004 129.50000000000003 1802739.0000000002 31.500000000000004 11.500000000000002 12.500000000000002
decision_type=2 2 2 2 2 2 2 2 2 2 2
left_child=1 4 -2 5 -1 8 7 -4 9 10 -3
right_child=2 3 6 -5 -6 -7 -8 -9 -10 -11 -12
leaf_value=-0.00053788084671705153 -0.00035981548105906702 0.00022765831408624209 0.00020300941670141148 -0.00056097657619612286 -5.9446130969234765e-05 -0.00032494726445594631 0.00028061314761354289 -0.00033034091877441732 -0.00028526589336142622 0.00019195029050243667 -0.00031750340097409742
leaf_weight=33 11.999999999999998 11.000000000000002 12.000000000000002 8.9999999999999982 14.999999999999998 17 98 9.9999999999999982 9.9999999999999982 61 13.999999999999998
leaf_count=33 12 11 12 9 15 17 98 10 10 61 14
internal_value=0 -0.000131244 0.000169025 -3.00259e-05 -0.000388436 1.22544e-05 0.000221938 -3.93208e-05 7.2002e-05 0.000113583 -7.75333e-05
internal_weight=0 170 132 122 48 113 120 22 96 86 25
internal_count=302 170 132 122 48 113 120 22 96 86 25
is_linear=0
shrinkage=0.000904557


Tree=5
num_leaves=12
num_cat=0
split_feature=22 183 79 22 133 132 100 41 5 99 79
split_gain=8.17313 6.3942 4.50611 2.51354 2.34962 2.24497 2.17202 2.82684 2.20454 1.90876 1.89367
threshold=28.500000000000004 24.500000000000004 1673326.5000000002 1.5000000000000002 48.500000000000007 129.50000000000003 23.500000000000004 15.500000000000002 1246.5000000000002 16.500000000000004 1802848.0000000002
decision_type=2 2 2 2 2 2 2 2 2 2 2
left_child=1 3 -2 -1 -3 10 7 8 9 -6 -4
right_child=2 4 5 -5 6 -7 -8 -9 -10 -11 -12
leaf_value=-0.00067603515315820049 -0.00035949010528856889 -0.00032054734511618814 0.00020282582896749072 -0.00023930429659935979 7.5788030572984628e-05 0.00028035932113271411 0.00015715717871892459 -0.00051075598641791317 0.00019532276029685341 -0.00047001002085466596 -0.00033004218515229872
leaf_weight=19 11.999999999999998 19 12.000000000000002 25 10.000000000000002 98 52 10.999999999999998 23 10.999999999999998 9.9999999999999982
leaf_count=19 12 19 12 25 10 98 52 11 23 11 10
internal_value=0 -0.000131125 0.000168872 -0.000427984 -2.74324e-05 0.000221737 2.46004e-05 -0.000100682 1.80831e-06 -0.000210014 -3.92852e-05
internal_weight=0 170 132 44 126 120 107 55 44 21 22
internal_count=302 170 132 44 126 120 107 55 44 21 22
is_linear=0
shrinkage=0.000904557


Tree=6
num_leaves=12
num_cat=0
split_feature=22 102 78 120 171 110 132 70 151 181 113
split_gain=8.15836 5.38998 4.49797 4.25891 2.87476 2.77029 2.24091 2.02335 2.50849 1.91628 1.89727
threshold=28.500000000000004 12.500000000000002 1673108.5000000002 4.5133691739295196 108.00000000000001 2.383484162895928 129.50000000000003 81.500000000000014 573.00000000000011 0.84371416289325551 51.500000000000007
decision_type=2 2 2 2 2 2 2 2 2 2 2
left_child=1 4 -2 5 -1 -3 9 8 -5 -4 -7
right_child=2 3 6 7 -6 10 -8 -9 -10 -11 -12
leaf_value=-0.00053702708057586156 -0.0003591649967809987 -0.00054029939981485109 0.00018273648041964216 -0.0003003838598438246 -5.9233467978930036e-05 5.1129855130255781e-06 0.00028010571250885932 0.00026946811369828872 0.00026820940794146684 -0.0003601272490684801 -0.00046041755655910752
leaf_weight=33 11.999999999999998 14.999999999999998 13.000000000000002 15.000000000000002 14.999999999999998 35 98 37 10.999999999999998 8.9999999999999982 8.9999999999999982
leaf_count=33 12 15 13 15 15 35 98 37 11 9 9
internal_value=0 -0.000131007 0.000168719 -2.99524e-05 -0.000387783 -0.000204606 0.000221537 0.000133574 -5.97252e-05 -3.92495e-05 -9.0078e-05
internal_weight=0 170 132 122 48 59 120 63 26 22 44
internal_count=302 170 132 122 48 59 120 63 26 22 44
is_linear=0
shrinkage=0.000904557


Tree=7
num_leaves=12
num_cat=0
split_feature=22 183 171 151 158 133 107 80 111 132 100
split_gain=8.1436 6.37418 3.99752 2.5778 2.38222 2.34457 3.44025 2.05155 2.8086 1.64822 1.23939
threshold=28.500000000000004 24.500000000000004 48.000000000000007 458.50000000000006 76.708333333333357 48.500000000000007 397.00000000000006 506.50000000000006 3.0435023326540533 129.50000000000003 21.500000000000004
decision_type=2 2 2 2 2 2 2 2 2 2 2
left_child=1 3 -2 -1 -5 -3 7 8 -7 -4 -9
right_child=2 5 9 4 -6 6 -8 10 -10 -11 -12
leaf_value=-0.00085915096842012245 -0.00027095118941492457 -0.00032015746775488913 1.7255811532758219e-06 -5.8729165742287495e-05 -0.0005326401271224531 -0.00044107814345955258 -0.00051046520299382128 1.3126776944213908e-05 0.00016561626516986593 0.00027660661222287102 0.00025166233764422767
leaf_weight=8.9999999999999982 14.999999999999998 19 22 15.999999999999998 19 13.000000000000002 8.9999999999999982 31 11.999999999999998 95 42
leaf_count=9 15 19 22 16 19 13 9 31 12 95 42
internal_value=0 -0.000130888 0.000168567 -0.000427282 -0.000316092 -2.73578e-05 2.4619e-05 7.37998e-05 -0.00014978 0.000224942 0.000150406
internal_weight=0 170 132 44 35 126 107 98 25 117 73
internal_count=302 170 132 44 35 126 107 98 25 117 73
is_linear=0
shrinkage=0.000904557


Tree=8
num_leaves=12
num_cat=0
split_feature=22 183 78 151 158 133 107 132 141 181 182
split_gain=8.12888 6.36266 4.48798 2.57314 2.37791 2.34033 3.43404 2.23369 1.97709 1.91242 1.89181
threshold=28.500000000000004 24.500000000000004 1673108.5000000002 458.50000000000006 76.708333333333357 48.500000000000007 397.00000000000006 129.50000000000003 49.500000000000007 0.84371416289325551 75.500000000000014
decision_type=2 2 2 2 2 2 2 2 2 2 2
left_child=1 3 -2 -1 -5 -3 8 9 10 -4 -7
right_child=2 5 7 4 -6 6 -8 -9 -10 -11 -12
leaf_value=-0.00085837409585184075 -0.00035888384965621875 -0.00031986791157084018 0.00018256965525208221 -5.8676053459705716e-05 -0.00053215839800316246 -8.3099088034843506e-05 -0.00051000361040104414 0.00027964763906326173 -0.0001196435367795281 -0.00035974837203103701 0.00025304337384931961
leaf_weight=8.9999999999999982 11.999999999999998 19 13.000000000000002 15.999999999999998 19 19 8.9999999999999982 98 30 8.9999999999999982 49
leaf_count=9 12 19 13 16 19 19 9 98 30 9 49
internal_value=0 -0.00013077 0.000168414 -0.000426896 -0.000315806 -2.73331e-05 2.45967e-05 0.000221173 7.3733e-05 -3.91931e-05 0.000159085
internal_weight=0 170 132 44 35 126 107 120 98 22 68
internal_count=302 170 132 44 35 126 107 120 98 22 68
is_linear=0
shrinkage=0.000904557


Tree=9
num_leaves=12
num_cat=0
split_feature=22 183 78 120 22 110 24 171 60 174 141
split_gain=8.11419 6.35116 4.47987 3.2534 2.5018 1.88586 2.1346 1.82589 1.7152 1.93583 1.63102
threshold=28.500000000000004 24.500000000000004 1673108.5000000002 4.5133691739295196 1.5000000000000002 3.270080862533693 27.500000000000004 111.50000000000001 86.581480616399659 0.25844414292175488 22.500000000000004
decision_type=2 2 2 2 2 2 2 2 2 2 2
left_child=1 4 -2 5 -1 6 -3 -6 9 -5 -4
right_child=2 3 10 8 7 -7 -8 -9 -10 -11 -12
leaf_value=-0.00067398049743909786 -0.00035855931834673666 -0.00048826565060599138 -1.4715293821639217e-05 -0.0004101418139221978 -0.00047310134176522411 5.8991974007321959e-05 -8.0250811783999938e-05 1.5976258252929191e-05 0.00022590506440887302 0.00012036695218024325 0.00026813478385673961
leaf_weight=19 11.999999999999998 21 20 9.0000000000000018 13.000000000000002 19 21 11.999999999999998 41 14.999999999999998 100
leaf_count=19 12 21 20 9 13 19 21 12 41 15 100
internal_value=0 -0.000130652 0.000168262 -2.73084e-05 -0.00042651 -0.000177361 -0.000284339 -0.000238271 0.000113474 -7.84967e-05 0.000220973
internal_weight=0 170 132 126 44 61 42 25 65 24 120
internal_count=302 170 132 126 44 61 42 25 65 24 120
is_linear=0
shrinkage=0.000904557


Tree=10
num_leaves=12
num_cat=0
split_feature=38 182 78 139 91 106 133 6 132 181 162
split_gain=8.09951 5.39998 4.47177 3.82152 3.5454 2.8943 2.8438 2.49607 2.227 1.90861 1.86449
threshold=28.500000000000004 75.500000000000014 1673108.5000000002 31.555555555555561 6.5000000000000009 13.250000000000002 48.500000000000007 252.50000000000003 129.50000000000003 0.84371416289325551 91.500000000000014
decision_type=2 2 2 2 2 2 2 2 2 2 2
left_child=1 4 -2 6 10 -5 -3 -6 9 -4 -1
right_child=2 3 8 5 7 -7 -8 -9 -10 -11 -12
leaf_value=-0.00076202730186589109 -0.0003582350520542757 -0.00032889340097208341 0.00018233915682726507 -1.8017605441222754e-05 -0.0004521192454143437 -0.00070987875447314211 0.00019138800064289911 -1.8801061844742501e-05 0.00027915999779132121 -0.00035943819131853188 -0.00030031691454671192
leaf_weight=16.000000000000004 11.999999999999998 9.9999999999999982 13.000000000000002 11.000000000000002 15.999999999999998 8.9999999999999982 61 34 98 8.9999999999999982 12.999999999999998
leaf_count=16 12 10 13 11 16 9 61 34 98 9 13
internal_value=0 -0.000130534 0.00016811 1.96519e-05 -0.000303558 -0.000329543 0.000118062 -0.000157533 0.000220773 -3.92024e-05 -0.000555195
internal_weight=0 170 132 91 79 20 71 50 120 22 29
internal_count=302 170 132 91 79 20 71 50 120 22 29
is_linear=0
shrinkage=0.000904557


Tree=11
num_leaves=12
num_cat=0
split_feature=22 182 78 139 151 106 133 154 145 141 171
split_gain=8.08487 5.39022 4.46369 3.81461 3.76503 2.88907 2.83865 2.81494 2.27309 1.62507 1.62393
threshold=28.500000000000004 75.500000000000014 1673108.5000000002 31.555555555555561 405.00000000000006 13.250000000000002 48.500000000000007 350.75000000000006 19.250000000000004 22.500000000000004 83.500000000000014
decision_type=2 2 2 2 2 2 2 2 2 2 2
left_child=1 4 -2 6 -1 -5 -3 10 -9 -4 -6
right_child=2 3 9 5 7 -7 -8 8 -10 -11 -12
leaf_value=-0.00079428755646679687 -0.00035791110018878867 -0.00032859599595925668 -1.4684026526019834e-05 -1.8001301461841634e-05 -0.00040792639524576447 -0.00070923684020311056 0.00019121488703649844 -0.00070151804167422249 -0.00018572069878712642 0.00026764902377631367 2.8418127827418878e-05
leaf_weight=10.999999999999998 11.999999999999998 9.9999999999999982 20 11.000000000000002 8.9999999999999982 8.9999999999999982 61 14.000000000000002 13.999999999999998 100 31
leaf_count=11 12 10 20 11 9 9 61 14 14 100 31
internal_value=0 -0.000130416 0.000167958 1.9634e-05 -0.000303284 -0.000329245 0.000117955 -0.000223787 -0.000443759 0.000220573 -6.97208e-05
internal_weight=0 170 132 91 79 20 71 68 28 120 40
internal_count=302 170 132 91 79 20 71 68 28 120 40
is_linear=0
shrinkage=0.000904557


Tree=12
num_leaves=12
num_cat=0
split_feature=38 102 78 120 171 110 132 70 151 113 78
split_gain=8.07026 5.34414 4.45562 4.2266 2.84929 2.75627 2.22032 2.01589 2.49391 1.88849 1.88415
threshold=28.500000000000004 12.500000000000002 1673108.5000000002 4.5133691739295196 108.00000000000001 2.383484162895928 129.50000000000003 81.500000000000014 573.00000000000011 51.500000000000007 1802739.0000000002
decision_type=2 2 2 2 2 2 2 2 2 2 2
left_child=1 4 -2 5 -1 -3 10 8 -5 -7 -4
right_child=2 3 6 7 -6 9 -8 -9 -10 -11 -12
leaf_value=-0.00053456129937087761 -0.00035758744702892714 -0.00053850665216767285 0.0002022896287879189 -0.00029966983352553486 -5.8887997586580204e-05 5.5444806981600106e-06 0.00027867320814209759 0.00026887409227483003 0.00026726780068641839 -0.00045890760430040739 -0.0003292369906537544
leaf_weight=33 11.999999999999998 14.999999999999998 12.000000000000002 15.000000000000002 14.999999999999998 35 98 37 10.999999999999998 8.9999999999999982 9.9999999999999982
leaf_count=33 12 15 12 15 15 35 98 37 11 9 10
internal_value=0 -0.000130298 0.000167806 -2.9674e-05 -0.000385979 -0.000203664 0.000220374 0.000133231 -5.97117e-05 -8.94258e-05 -3.92116e-05
internal_weight=0 170 132 122 48 59 120 63 26 44 22
internal_count=302 170 132 122 48 59 120 63 26 44 22
is_linear=0
shrinkage=0.000904557


Tree=13
num_leaves=12
num_cat=0
split_feature=38 183 78 151 158 133 132 141 115 78 153
split_gain=8.05566 6.31581 4.44756 2.55837 2.3631 2.3252 2.21631 2.16759 2.47847 1.88075 1.80911
threshold=28.500000000000004 24.500000000000004 1673108.5000000002 458.50000000000006 76.708333333333357 48.500000000000007 129.50000000000003 49.500000000000007 3.5000000000000004 1802739.0000000002 396.50000000000006
decision_type=2 2 2 2 2 2 2 2 2 2 2
left_child=1 3 -2 -1 -5 -3 9 8 -7 -4 -9
right_child=2 5 6 4 -6 7 -8 10 -10 -11 -12
leaf_value=-0.00085545196962760143 -0.00035726406169347025 -0.00031871207930993071 0.00020210670359655064 -5.8114834642368714e-05 -0.00053012003104739157 0.00020105802231891297 0.00027842113572624269 -1.8219725558470763e-05 -0.00019239528650133637 -0.00032893926561587005 -0.00046758927942332494
leaf_weight=8.9999999999999982 11.999999999999998 19 12.000000000000002 15.999999999999998 19 57 98 22 17 9.9999999999999982 10.999999999999998
leaf_count=9 12 19 12 16 19 57 98 22 17 10 11
internal_value=0 -0.00013018 0.000167654 -0.000425214 -0.000314443 -2.71245e-05 0.000220175 2.4637e-05 0.000110632 -3.91761e-05 -0.000168116
internal_weight=0 170 132 44 35 126 120 107 74 22 33
internal_count=302 170 132 44 35 126 120 107 74 22 33
is_linear=0
shrinkage=0.000904557


Tree=14
num_leaves=12
num_cat=0
split_feature=27 111 129 20 111 133 97 99 56 107 53
split_gain=7.69129 4.75865 4.32901 2.64259 2.3655 2.22417 2.20557 1.99037 1.712 2.93312 1.61394
threshold=2.5000000000000004 3.0435023326540533 7.5000000000000009 211.50000000000003 2.0403349136111006 109.50000000000001 127.50000000000001 16.500000000000004 1.7445975725173246 379.50000000000006 22.500000000000004
decision_type=2 2 2 2 2 2 2 2 2 2 2
left_child=1 3 -3 -1 6 -6 7 -5 9 -2 -4
right_child=8 2 10 4 5 -7 -8 -9 -10 -11 -12
leaf_value=-0.0007146401211759728 9.1506347359918852e-05 -0.00041146710205090857 0.00030353400655173788 4.2721516429311952e-05 -0.00071656159573225682 -0.00014873524424478891 0.00029047249886060973 -0.00055855824472997632 0.00020210087663251086 -0.00037052027868791557 -9.7348393186028837e-05
leaf_weight=12.999999999999998 83 13.999999999999998 26 9.0000000000000053 13.000000000000002 9.9999999999999982 8.9999999999999982 8.9999999999999982 91 12.999999999999998 11.999999999999998
leaf_count=13 83 14 26 9 13 10 9 9 91 13 12
internal_value=0 -0.000184077 1.84123e-05 -0.000351243 -0.000256671 -0.000469844 -7.49527e-05 -0.000257824 0.000113202 2.8904e-05 0.000176876
internal_weight=0 115 52 63 50 23 27 18 187 96 38
internal_count=302 115 52 63 50 23 27 18 187 96 38
is_linear=0
shrinkage=0.000904557


Tree=15
num_leaves=12
num_cat=0
split_feature=22 183 78 120 151 154 132 181 110 24 60
split_gain=8.0326 6.29933 4.43608 3.22546 2.55174 2.21259 2.20936 1.89835 1.87414 2.12635 1.70793
threshold=28.500000000000004 24.500000000000004 1673108.5000000002 4.5133691739295196 458.50000000000006 418.50000000000006 129.50000000000003 0.84371416289325551 3.270080862533693 27.500000000000004 86.581480616399659
decision_type=2 2 2 2 2 2 2 2 2 2 2
left_child=1 4 -2 8 -1 -6 7 -4 9 -3 -5
right_child=2 3 6 10 5 -7 -8 -9 -10 -11 -12
leaf_value=-0.00085432280775282505 -0.00035682639282099359 -0.00048665695104625696 0.00018186727212067227 -7.8458995647913833e-05 -0.00010511514745264824 -0.00056185667489664086 0.00027802171717635285 -0.00035845061633476286 5.9137324151323499e-05 -7.9431334451666563e-05 0.00022529646106772493
leaf_weight=8.9999999999999982 11.999999999999998 21 13.000000000000002 24 19 15.999999999999998 98 8.9999999999999982 19 21 41
leaf_count=9 12 21 13 24 19 16 98 9 19 21 41
internal_value=0 -0.000129994 0.000167414 -2.70726e-05 -0.000424642 -0.000314015 0.000219866 -3.90772e-05 -0.00017648 -0.000283125 0.000113104
internal_weight=0 170 132 126 44 35 120 22 61 42 65
internal_count=302 170 132 126 44 35 120 22 61 42 65
is_linear=0
shrinkage=0.000904557


Tree=16
num_leaves=12
num_cat=0
split_feature=22 183 78 22 190 100 73 25 101 171 27
split_gain=8.01808 6.28795 4.42806 2.48236 2.03487 2.1734 2.71919 2.80791 3.23195 1.80715 1.44573
threshold=28.500000000000004 24.500000000000004 1673108.5000000002 1.5000000000000002 997.00000000000011 25.500000000000004 53694.000000000007 7.5000000000000009 14.500000000000002 111.50000000000001 3.5000000000000004
decision_type=2 2 2 2 2 2 2 2 2 2 2
left_child=1 3 -2 -1 5 6 7 10 -9 -5 -3
right_child=2 4 -4 9 -6 -7 -8 8 -10 -11 -12
leaf_value=-0.00067076604020569017 -0.00035650371999951903 -2.8221839723421941e-05 0.00021966759553352039 -0.0004703740333692296 -0.00041850108613138392 0.00015148395520084361 -0.00042448092488894199 -0.00059020606838052273 0.00014043830890049936 1.6187023145468465e-05 0.00036250113745008321
leaf_weight=19 11.999999999999998 15.000000000000002 120 13.000000000000002 9.9999999999999982 49 15.999999999999998 11.000000000000002 8.9999999999999982 11.999999999999998 15.999999999999998
leaf_count=19 12 15 120 13 10 49 16 11 9 12 16
internal_value=0 -0.000129876 0.000167262 -0.000424258 -2.70481e-05 6.68653e-06 -9.91747e-05 2.85265e-06 -0.00026132 -0.000236751 0.000173377
internal_weight=0 170 132 44 126 116 67 51 20 25 31
internal_count=302 170 132 44 126 116 67 51 20 25 31
is_linear=0
shrinkage=0.000904557


Tree=17
num_leaves=12
num_cat=0
split_feature=22 183 78 22 133 100 41 5 61 175 94
split_gain=8.00358 6.27658 4.42006 2.47788 2.31387 2.13957 2.79529 2.17745 2.09937 1.62 1.27102
threshold=28.500000000000004 24.500000000000004 1673108.5000000002 1.5000000000000002 48.500000000000007 23.500000000000004 15.500000000000002 1246.5000000000002 609.70275073476512 0.51377643504531734 0.37150259670987168
decision_type=2 2 2 2 2 2 2 2 2 2 2
left_child=1 3 -2 -1 -3 6 7 8 -6 -5 -4
right_child=2 4 10 9 5 -7 -8 -9 -10 -11 -12
leaf_value=-0.00067015940054041012 -0.00035618131780983288 -0.00031790009284534245 0.00035367971903630893 -0.0004406170965295306 6.4164452137109902e-05 0.00015617450795618447 -0.0005075105705564264 0.00019450723650638269 -0.00050825378037106417 2.3023830863186472e-05 0.00015480667827528829
leaf_weight=19 11.999999999999998 19 39 14.000000000000002 11.000000000000002 52 10.999999999999998 23 9.9999999999999982 10.999999999999998 81
leaf_count=19 12 19 39 14 11 52 11 23 10 11 81
internal_value=0 -0.000129759 0.000167111 -0.000423875 -2.70237e-05 2.46116e-05 -9.97313e-05 2.18522e-06 -0.000208331 -0.000236537 0.000219469
internal_weight=0 170 132 44 126 107 55 44 21 25 120
internal_count=302 170 132 44 126 107 55 44 21 25 120
is_linear=0
shrinkage=0.000904557


Tree=18
num_leaves=12
num_cat=0
split_feature=22 183 78 120 151 158 132 181 132 91 146
split_gain=7.98911 6.26523 4.41207 3.21144 2.54338 2.34577 2.20493 1.89453 1.85583 2.10225 2.09361
threshold=28.500000000000004 24.500000000000004 1673108.5000000002 4.5133691739295196 458.50000000000006 76.708333333333357 129.50000000000003 0.84371416289325551 202.50000000000003 6.5000000000000009 20.125000000000004
decision_type=2 2 2 2 2 2 2 2 2 2 2
left_child=1 4 -2 8 -1 -6 7 -4 10 -10 -3
right_child=2 3 6 -5 5 -7 -8 -9 9 -11 -12
leaf_value=-0.00085246734674022148 -0.00035585921207986521 -0.0001702489758773468 0.00018130881166606772 0.00011287184711479408 -5.7658016665085093e-05 -0.00052793052746277248 0.00027736726320447134 -0.00035846510117607867 -0.00070750825442330309 -0.00017654448353216832 0.00034123502087134709
leaf_weight=8.9999999999999982 11.999999999999998 24 13.000000000000002 65 15.999999999999998 19 98 8.9999999999999982 9.0000000000000018 19 8.9999999999999982
leaf_count=9 12 24 13 65 16 19 98 9 9 19 9
internal_value=0 -0.000129641 0.00016696 -2.69992e-05 -0.000423491 -0.000313045 0.00021927 -3.94131e-05 -0.000176082 -0.000347361 -3.06581e-05
internal_weight=0 170 132 126 44 35 120 22 61 28 33
internal_count=302 170 132 126 44 35 120 22 61 28 33
is_linear=0
shrinkage=0.000904557


Tree=19
num_leaves=12
num_cat=0
split_feature=22 183 78 120 151 158 132 181 110 108 70
split_gain=7.97466 6.25391 4.40409 3.20563 2.53878 2.34153 2.20094 1.8911 1.86589 1.99035 1.58162
threshold=28.500000000000004 24.500000000000004 1673108.5000000002 4.5133691739295196 458.50000000000006 76.708333333333357 129.50000000000003 0.84371416289325551 3.270080862533693 23.500000000000004 81.500000000000014
decision_type=2 2 2 2 2 2 2 2 2 2 2
left_child=1 4 -2 8 -1 -6 7 -4 9 -3 -5
right_child=2 3 6 10 5 -7 -8 -9 -10 -11 -12
leaf_value=-0.00085169651064534381 -0.00035553739719484847 -0.00057646690222470617 0.00018114484542262752 -5.9962907875658636e-05 -5.7605876151511925e-05 -0.00052745306869553135 0.0002771163746982331 -0.00035814096074454112 5.9175769377900218e-05 -0.00015034458613418512 0.00022798486773422787
leaf_weight=8.9999999999999982 11.999999999999998 12.999999999999998 13.000000000000002 26 15.999999999999998 19 98 8.9999999999999982 19 29 39
leaf_count=9 12 13 13 26 16 19 98 9 19 29 39
internal_value=0 -0.000129524 0.000166809 -2.69748e-05 -0.000423108 -0.000312762 0.000219072 -3.93774e-05 -0.000175922 -0.000282333 0.00011277
internal_weight=0 170 132 126 44 35 120 22 61 42 65
internal_count=302 170 132 126 44 35 120 22 61 42 65
is_linear=0
shrinkage=0.000904557


Tree=20
num_leaves=12
num_cat=0
split_feature=38 183 79 120 38 132 181 110 24 60 174
split_gain=7.96025 6.2426 4.39613 3.19984 2.46767 2.19696 1.88768 1.86252 2.11605 1.70166 1.92394
threshold=28.500000000000004 24.500000000000004 1673326.5000000002 4.5133691739295196 1.5000000000000002 129.50000000000003 0.84371416289325551 3.270080862533693 27.500000000000004 86.581480616399659 0.25844414292175488
decision_type=2 2 2 2 2 2 2 2 2 2 2
left_child=1 4 -2 7 -1 6 -4 8 -3 10 -5
right_child=2 3 5 9 -6 -7 -8 -9 -10 -11 -12
leaf_value=-0.00066850299956994436 -0.00035521589673680588 -0.00048511571564075493 0.00018098103363157811 -0.0004091684213572179 -0.0002357744231495658 0.00027686572062205313 -0.00035781711861839193 5.9122249358182446e-05 -7.8877119380751728e-05 0.00022465472092885312 0.0001197086160282601
leaf_weight=19 11.999999999999998 21 13.000000000000002 9.0000000000000018 25 98 8.9999999999999982 19 21 41 14.999999999999998
leaf_count=19 12 21 13 9 25 98 9 19 21 41 15
internal_value=0 -0.000129407 0.000166658 -2.69504e-05 -0.000422726 0.000218874 -3.93417e-05 -0.000175763 -0.000282077 0.000112668 -7.85431e-05
internal_weight=0 170 132 126 44 120 22 61 42 65 24
internal_count=302 170 132 126 44 120 22 61 42 65 24
is_linear=0
shrinkage=0.000904557


Tree=21
num_leaves=12
num_cat=0
split_feature=22 182 79 151 150 143 182 132 132 181 143
split_gain=7.94585 5.31408 4.38818 3.72731 4.36644 3.64714 3.69347 2.28818 2.19299 1.88427 1.47951
threshold=28.500000000000004 75.500000000000014 1673326.5000000002 405.00000000000006 315.50000000000006 20.500000000000004 109.50000000000001 123.50000000000001 129.50000000000003 0.84371416289325551 24.500000000000004
decision_type=2 2 2 2 2 2 2 2 2 2 2
left_child=1 3 -2 -1 -5 7 -7 -3 9 -4 -6
right_child=2 5 8 4 10 6 -8 -9 -10 -11 -12
leaf_value=-0.00078947083506033719 -0.00035489465736544709 -0.00017926819258804057 0.00018081736178061434 -3.5750117812797212e-05 -0.00065405469059272 -0.00053525152549429385 0.00018884487034836832 0.00022253540755936269 0.00027661528914783818 -0.00035749356020050411 -0.00020432298551598143
leaf_weight=10.999999999999998 11.999999999999998 14.999999999999998 13.000000000000002 41 18.000000000000004 16.000000000000004 8.9999999999999982 51 98 8.9999999999999982 8.9999999999999982
leaf_count=11 12 15 13 41 18 16 9 51 98 9 9
internal_value=0 -0.00012929 0.000166507 -0.000300933 -0.000221835 1.9696e-05 -0.000274485 0.000131174 0.000218676 -3.9306e-05 -0.000504278
internal_weight=0 170 132 79 68 91 25 66 120 22 27
internal_count=302 170 132 79 68 91 25 66 120 22 27
is_linear=0
shrinkage=0.000904557


Tree=22
num_leaves=12
num_cat=0
split_feature=22 183 78 120 151 158 110 24 70 120 61
split_gain=7.93149 6.22327 4.38025 3.18963 2.52876 2.33197 1.85778 2.11021 1.57586 1.51216 1.50085
threshold=28.500000000000004 24.500000000000004 1673108.5000000002 4.5133691739295196 458.50000000000006 76.708333333333357 3.270080862533693 27.500000000000004 81.500000000000014 4.729684668358102 702.24288986898148
decision_type=2 2 2 2 2 2 2 2 2 2 2
left_child=1 4 -2 6 -1 -6 7 -3 9 -5 -8
right_child=2 3 -4 8 5 -7 10 -9 -10 -11 -12
leaf_value=-0.00084977925962025601 -0.00035457372343743453 -0.00048438699945178252 0.00021847811661062215 0.00023973110787535462 -5.7273897327452142e-05 -0.00052616125829653827 0.00030037832683911606 -7.8709365400096717e-05 0.00022752510790566329 -0.00021868758666998824 -0.0002086443077370832
leaf_weight=8.9999999999999982 11.999999999999998 21 120 9.0000000000000018 15.999999999999998 19 10.000000000000002 21 39 17 8.9999999999999982
leaf_count=9 12 21 120 9 16 19 10 21 39 17 9
internal_value=0 -0.000129173 0.000166356 -2.68753e-05 -0.000422037 -0.000311909 -0.00017545 -0.000281629 0.00011252 -5.98978e-05 5.91354e-05
internal_weight=0 170 132 126 44 35 61 42 65 26 19
internal_count=302 170 132 126 44 35 61 42 65 26 19
is_linear=0
shrinkage=0.000904557


Tree=23
num_leaves=12
num_cat=0
split_feature=38 183 171 120 151 158 132 91 146 60 174
split_gain=7.91715 6.21202 3.95616 3.18386 2.52418 2.32775 1.84858 2.09022 2.08382 1.69559 1.91852
threshold=28.500000000000004 24.500000000000004 48.000000000000007 4.5133691739295196 458.50000000000006 76.708333333333357 202.50000000000003 6.5000000000000009 20.125000000000004 86.581480616399659 0.25844414292175488
decision_type=2 2 2 2 2 2 2 2 2 2 2
left_child=1 4 -2 6 -1 -6 8 -8 -3 10 -5
right_child=2 3 -4 9 5 -7 7 -9 -10 -11 -12
leaf_value=-0.00084901083691702698 -0.00027103293929986748 -0.0001694172572603515 0.00022228925953724846 -0.0004086099341588856 -5.7222098986065074e-05 -0.00052568539882774136 -0.00070535098396333311 -0.00017590906589314253 0.00034086999463591258 0.00022420511208682393 0.00011952101776793783
leaf_weight=8.9999999999999982 14.999999999999998 24 117 9.0000000000000018 15.999999999999998 19 9.0000000000000018 19 8.9999999999999982 41 14.999999999999998
leaf_count=9 15 24 117 9 16 19 9 19 9 41 15
internal_value=0 -0.000129056 0.000166206 -2.6851e-05 -0.000421656 -0.000311627 -0.000175292 -0.000346236 -3.01527e-05 0.000112418 -7.84508e-05
internal_weight=0 170 132 126 44 35 61 28 33 65 24
internal_count=302 170 132 126 44 35 61 28 33 65 24
is_linear=0
shrinkage=0.000904557


Tree=24
num_leaves=12
num_cat=0
split_feature=22 183 78 120 151 158 132 78 132 91 146
split_gain=7.90283 6.2008 4.37068 3.1781 2.51962 2.32354 2.18903 1.86579 1.84524 2.08644 2.08005
threshold=28.500000000000004 24.500000000000004 1673108.5000000002 4.5133691739295196 458.50000000000006 76.708333333333357 129.50000000000003 1802739.0000000002 202.50000000000003 6.5000000000000009 20.125000000000004
decision_type=2 2 2 2 2 2 2 2 2 2 2
left_child=1 4 -2 8 -1 -6 7 -4 10 -10 -3
right_child=2 3 6 -5 5 -7 -8 -9 9 -11 -12
leaf_value=-0.00084824312685301945 -0.00035430538303560417 -0.00016926402572775957 0.000200692365587526 0.00011231647323830774 -5.7170346758960335e-05 -0.00052520995891101429 0.00027600737384052157 -0.00032823732636000136 -0.00070471317298310368 -0.00017574997302495583 0.00034056176095556572
leaf_weight=8.9999999999999982 11.999999999999998 24 12.000000000000002 65 15.999999999999998 19 98 9.9999999999999982 9.0000000000000018 19 8.9999999999999982
leaf_count=9 12 24 12 65 16 19 98 10 9 19 9
internal_value=0 -0.00012894 0.000166055 -2.68267e-05 -0.000421275 -0.000311345 0.00021812 -3.96285e-05 -0.000175133 -0.000345923 -3.01254e-05
internal_weight=0 170 132 126 44 35 120 22 61 28 33
internal_count=302 170 132 126 44 35 120 22 61 28 33
is_linear=0
shrinkage=0.000904557


Tree=25
num_leaves=12
num_cat=0
split_feature=38 183 79 120 151 154 182 99 60 174 153
split_gain=7.88855 6.18959 4.36278 3.17236 2.51506 2.18116 1.72599 2.5353 1.69252 1.91505 1.58715
threshold=28.500000000000004 24.500000000000004 1673326.5000000002 4.5133691739295196 458.50000000000006 418.50000000000006 109.50000000000001 18.500000000000004 86.581480616399659 0.25844414292175488 591.00000000000011
decision_type=2 2 2 2 2 2 2 2 2 2 2
left_child=1 4 -2 6 -1 -6 7 -3 9 -5 -10
right_child=2 3 -4 8 5 -7 -8 -9 10 -11 -12
leaf_value=-0.00084747612942823311 -0.00035398497914163366 4.815664405036302e-05 0.00021792303106115275 -0.00040834201287734791 -0.0001036520319574438 -0.00055713918086788404 0.00019055862320152572 -0.00037749439454497398 0.00031829840584927271 0.00011931135321973914 -0.00011145026270899395
leaf_weight=8.9999999999999982 11.999999999999998 17 120 9.0000000000000018 19 15.999999999999998 8.9999999999999982 35 32 14.999999999999998 8.9999999999999982
leaf_count=9 12 17 120 9 19 16 9 35 32 15 9
internal_value=0 -0.000128823 0.000165905 -2.68024e-05 -0.000420894 -0.000311064 -0.000174975 -0.000238296 0.000112215 -7.84814e-05 0.000223901
internal_weight=0 170 132 126 44 35 61 52 65 24 41
internal_count=302 170 132 126 44 35 61 52 65 24 41
is_linear=0
shrinkage=0.000904557


Tree=26
num_leaves=12
num_cat=0
split_feature=38 183 78 38 133 132 141 182 159 78 153
split_gain=7.87428 6.1784 4.3549 2.45057 2.29847 2.18507 2.13372 2.7975 2.37927 1.86242 1.78501
threshold=28.500000000000004 24.500000000000004 1673108.5000000002 1.5000000000000002 48.500000000000007 129.50000000000003 49.500000000000007 75.500000000000014 42.500000000000007 1802739.0000000002 396.50000000000006
decision_type=2 2 2 2 2 2 2 2 2 2 2
left_child=1 3 -2 -1 -3 9 7 8 -6 -4 -8
right_child=2 4 5 -5 6 -7 10 -9 -10 -11 -12
leaf_value=-0.00066543745069348661 -0.00035366486103932351 -0.00031668505958852539 0.00020031380000254842 -0.0002342104946286604 0.00016535248270507766 0.00027556060090023777 -1.7661126660798944e-05 0.00022441864185308624 -0.00043186864617870621 -0.00032813757151771937 -0.00046402705455219441
leaf_weight=19 11.999999999999998 19 12.000000000000002 25 10.000000000000002 98 22 52 11.999999999999998 9.9999999999999982 10.999999999999998
leaf_count=19 12 19 12 25 10 98 22 52 12 10 11
internal_value=0 -0.000128707 0.000165755 -0.000420513 -2.67782e-05 0.000217726 2.46849e-05 0.000110005 -0.000160305 -3.97897e-05 -0.000166556
internal_weight=0 170 132 44 126 120 107 74 22 22 33
internal_count=302 170 132 44 126 120 107 74 22 22 33
is_linear=0
shrinkage=0.000904557


Tree=27
num_leaves=12
num_cat=0
split_feature=22 182 78 139 91 106 179 153 142 181 141
split_gain=7.86005 5.26513 4.34702 3.75115 3.47782 2.85324 2.38294 2.06641 1.78229 1.7387 1.59354
threshold=28.500000000000004 75.500000000000014 1673108.5000000002 31.555555555555561 6.5000000000000009 13.250000000000002 1.7501000400160065 366.50000000000006 8.5000000000000018 0.88138235364654538 22.500000000000004
decision_type=2 2 2 2 2 2 8 2 2 2 2
left_child=1 4 -2 8 6 -5 -1 -6 -3 -9 -4
right_child=2 3 10 5 7 -7 -8 9 -10 -11 -12
leaf_value=-0.00021657079561845132 -0.00035334505062626661 -0.00023659915632105692 -1.543428747944838e-05 -1.6947901834844601e-05 3.649267649275821e-05 -0.00070388464417697944 -0.0007514037404957681 -0.0001610337813514046 0.00017525973361607504 -0.00065299675942036436 0.00026414578766848667
leaf_weight=11.000000000000002 11.999999999999998 9.9999999999999982 20 11.000000000000002 24 8.9999999999999982 18 17.000000000000004 61 8.9999999999999982 100
leaf_count=11 12 10 20 11 24 9 18 17 61 9 100
internal_value=0 -0.00012859 0.000165605 1.97079e-05 -0.000299441 -0.000326257 -0.000548668 -0.000154813 0.000117208 -0.000331483 0.000217529
internal_weight=0 170 132 91 79 20 29 50 71 26 120
internal_count=302 170 132 91 79 20 29 50 71 26 120
is_linear=0
shrinkage=0.000904557


Tree=28
num_leaves=12
num_cat=0
split_feature=22 183 78 120 151 158 132 181 110 40 60
split_gain=7.84584 6.1597 4.33917 3.15851 2.50728 2.311 2.17852 1.87617 1.8478 2.09626 1.68877
threshold=28.500000000000004 24.500000000000004 1673108.5000000002 4.5133691739295196 458.50000000000006 76.708333333333357 129.50000000000003 0.84371416289325551 3.270080862533693 27.500000000000004 86.581480616399659
decision_type=2 2 2 2 2 2 2 2 2 2 2
left_child=1 4 -2 8 -1 -6 7 -4 9 -3 -5
right_child=2 3 6 10 5 -7 -8 -9 -10 -11 -12
leaf_value=-0.00084576069902833726 -0.00035302551168721314 -0.0004825284664891318 0.00017985234376116771 -7.8471069111742575e-05 -5.6690602613503756e-05 -0.00052346506756423001 0.00027508015722936752 -0.00035729987054928478 5.9406142121263339e-05 -7.8194085390375601e-05 0.00022357569159478521
leaf_weight=8.9999999999999982 11.999999999999998 21 13.000000000000002 24 15.999999999999998 19 98 8.9999999999999982 19 21 41
leaf_count=9 12 21 13 24 16 19 98 9 19 21 41
internal_value=0 -0.000128474 0.000165455 -2.66999e-05 -0.000419839 -0.000310178 0.000217332 -3.97971e-05 -0.000174549 -0.000280442 0.000112014
internal_weight=0 170 132 126 44 35 120 22 61 42 65
internal_count=302 170 132 126 44 35 120 22 61 42 65
is_linear=0
shrinkage=0.000904557


Tree=29
num_leaves=12
num_cat=0
split_feature=22 183 79 22 133 107 132 100 99 79 171
split_gain=7.83165 6.14857 4.33132 2.4411 2.29014 3.39599 2.17458 1.88778 3.69734 1.85714 1.77347
threshold=28.500000000000004 24.500000000000004 1673326.5000000002 1.5000000000000002 48.500000000000007 397.00000000000006 129.50000000000003 21.500000000000004 25.500000000000004 1802848.0000000002 111.50000000000001
decision_type=2 2 2 2 2 2 2 2 2 2 2
left_child=1 3 -2 -1 -3 7 9 8 -6 -4 -5
right_child=2 4 6 10 5 -7 -8 -9 -10 -11 -12
leaf_value=-0.00066390950447324634 -0.00035270623944961096 -0.0003160570316339509 0.00020000172337010036 -0.00046495275419286173 7.7572779141700982e-05 -0.00050693674655209742 0.00027483134152771026 0.00018457262263029783 -0.00055016369496961451 -0.00032770007570434611 1.7052251501728391e-05
leaf_weight=19 11.999999999999998 19 12.000000000000002 13.000000000000002 33 8.9999999999999982 98 55 9.9999999999999982 9.9999999999999982 11.999999999999998
leaf_count=19 12 19 12 13 33 9 98 55 10 10 12
internal_value=0 -0.000128358 0.000165306 -0.000419459 -2.66758e-05 2.46939e-05 0.000217136 7.35574e-05 -6.83834e-05 -3.9761e-05 -0.000233517
internal_weight=0 170 132 44 126 107 120 98 43 22 25
internal_count=302 170 132 44 126 107 120 98 43 22 25
is_linear=0
shrinkage=0.000904557


Tree=30
num_leaves=12
num_cat=0
split_feature=38 183 78 120 151 158 132 78 110 24 60
split_gain=7.81749 6.13745 4.32349 3.14995 2.50085 2.30277 2.17065 1.85378 1.84341 2.0902 1.6853
threshold=28.500000000000004 24.500000000000004 1673108.5000000002 4.5133691739295196 458.50000000000006 76.708333333333357 129.50000000000003 1802739.0000000002 3.270080862533693 27.500000000000004 86.581480616399659
decision_type=2 2 2 2 2 2 2 2 2 2 2
left_child=1 4 -2 8 -1 -6 7 -4 9 -3 -5
right_child=2 3 6 10 5 -7 -8 -9 -10 -11 -12
leaf_value=-0.00084445553922015326 -0.00035238731055503488 -0.00048186175965997152 0.00019982085992131929 -7.8415369957146163e-05 -5.6523285889242951e-05 -0.00052246696790780129 0.00027458274581483447 -0.00032740374631258154 5.9376756453120462e-05 -7.8111237300798625e-05 0.00022332102271803189
leaf_weight=8.9999999999999982 11.999999999999998 21 12.000000000000002 24 15.999999999999998 19 98 9.9999999999999982 19 21 41
leaf_count=9 12 21 12 24 16 19 98 10 19 21 41
internal_value=0 -0.000128242 0.000165156 -2.66517e-05 -0.00041908 -0.00030956 0.000216939 -3.97249e-05 -0.0001743 -0.000280067 0.000111874
internal_weight=0 170 132 126 44 35 120 22 61 42 65
internal_count=302 170 132 126 44 35 120 22 61 42 65
is_linear=0
shrinkage=0.000904557


Tree=31
num_leaves=12
num_cat=0
split_feature=22 182 78 151 150 143 182 133 141 178 143
split_gain=7.80336 5.23306 4.31567 3.68503 4.30803 3.61452 3.65411 3.00316 1.58237 1.76732 1.47191
threshold=28.500000000000004 75.500000000000014 1673108.5000000002 405.00000000000006 315.50000000000006 20.500000000000004 109.50000000000001 48.500000000000007 22.500000000000004 1.736499517839923 24.500000000000004
decision_type=2 2 2 2 2 2 2 2 2 8 2
left_child=1 3 -2 -1 -5 7 -7 -3 9 -4 -6
right_child=2 5 8 4 10 6 -8 -9 -10 -11 -12
leaf_value=-0.00078421444735925401 -0.00035206861523478248 -0.00032574530167910119 0.00025331801553814785 -3.4970730156145119e-05 -0.00064974511879278905 -0.00053251605637852774 0.00018771098723875071 0.00021226464733763761 0.00026319609012950303 -0.00028436814458439682 -0.00020117367335140872
leaf_weight=10.999999999999998 11.999999999999998 9.9999999999999982 10.000000000000002 41 18.000000000000004 16.000000000000004 8.9999999999999982 56 100 9.9999999999999982 8.9999999999999982
leaf_count=11 12 10 10 41 18 16 9 56 100 10 9
internal_value=0 -0.000128126 0.000165007 -0.000298455 -0.000219807 1.97198e-05 -0.000273143 0.000130698 0.000216743 -1.54019e-05 -0.000500355
internal_weight=0 170 132 79 68 91 25 66 120 20 27
internal_count=302 170 132 79 68 91 25 66 120 20 27
is_linear=0
shrinkage=0.000904557


Tree=32
num_leaves=12
num_cat=0
split_feature=22 183 78 120 22 110 24 171 155 141 178
split_gain=7.78925 6.11842 4.30787 3.1394 2.43175 1.83821 2.08481 1.76419 1.63281 1.57951 1.76412
threshold=28.500000000000004 24.500000000000004 1673108.5000000002 4.5133691739295196 1.5000000000000002 3.270080862533693 27.500000000000004 111.50000000000001 474.50000000000006 22.500000000000004 1.736499517839923
decision_type=2 2 2 2 2 2 2 2 2 2 8
left_child=1 4 -2 5 -1 6 -3 -6 -5 10 -4
right_child=2 3 9 8 7 -7 -8 -9 -10 -11 -12
leaf_value=-0.00066237889606567449 -0.00035175022648082971 -0.00048113036829695979 0.0002530889449705758 0.00019026044217766318 -0.00046363963132319154 5.936856011509093e-05 -7.7901232769473874e-05 1.710093939571109e-05 -0.00014991811834594524 0.00026295802815957725 -0.00028411100849300689
leaf_weight=19 11.999999999999998 21 10.000000000000002 50 13.000000000000002 19 21 11.999999999999998 14.999999999999998 100 9.9999999999999982
leaf_count=19 12 21 10 50 13 19 21 12 15 100 10
internal_value=0 -0.00012801 0.000164857 -2.65775e-05 -0.000418397 -0.000173978 -0.000279596 -0.00023281 0.000111716 0.000216547 -1.53878e-05
internal_weight=0 170 132 126 44 61 42 25 65 120 20
internal_count=302 170 132 126 44 61 42 25 65 120 20
is_linear=0
shrinkage=0.000904557


Tree=33
num_leaves=12
num_cat=0
split_feature=38 182 78 139 151 150 106 132 132 181 143
split_gain=7.77516 5.21568 4.30009 3.72735 3.67555 4.2951 2.83686 2.16119 2.03506 1.86744 1.46899
threshold=28.500000000000004 75.500000000000014 1673108.5000000002 31.555555555555561 405.00000000000006 315.50000000000006 13.250000000000002 129.50000000000003 123.50000000000001 0.84371416289325551 24.500000000000004
decision_type=2 2 2 2 2 2 2 2 2 2 2
left_child=1 4 -2 8 -1 -6 -5 9 -3 -4 -7
right_child=2 3 7 6 5 10 -8 -9 -10 -11 -12
leaf_value=-0.00078307471691039122 -0.00035143214092431632 -0.00017888852692874241 0.00017938391972106282 -1.6739449653435546e-05 -3.48345535403902e-05 -0.000648762253331181 -0.00070170233927007797 0.00027386892884331143 0.00019617468690532699 -0.00035651630575974394 -0.00020063544359665613
leaf_weight=10.999999999999998 11.999999999999998 14.999999999999998 13.000000000000002 11.000000000000002 41 18.000000000000004 8.9999999999999982 98 56 8.9999999999999982 8.9999999999999982
leaf_count=11 12 15 13 11 41 18 9 98 56 9 9
internal_value=0 -0.000127894 0.000164708 1.97055e-05 -0.000297941 -0.000219394 -0.00032516 0.000216351 0.000116896 -3.97533e-05 -0.00049952
internal_weight=0 170 132 91 79 68 20 120 71 22 27
internal_count=302 170 132 91 79 68 20 120 71 22 27
is_linear=0
shrinkage=0.000904557


Tree=34
num_leaves=12
num_cat=0
split_feature=22 182 171 151 150 143 182 133 132 143 110
split_gain=7.76111 5.20625 3.92747 3.6689 4.28734 3.60045 3.64032 2.99474 1.58745 1.46633 1.2964
threshold=28.500000000000004 75.500000000000014 48.000000000000007 405.00000000000006 315.50000000000006 20.500000000000004 109.50000000000001 48.500000000000007 129.50000000000003 24.500000000000004 2.6859228362878
decision_type=2 2 2 2 2 2 2 2 2 2 2
left_child=1 3 -2 -1 10 7 -7 -3 -4 -6 -5
right_child=2 5 8 4 9 6 -8 -9 -10 -11 -12
leaf_value=-0.00078236660749555619 -0.00027109084337207962 -0.00032535379009782556 1.3742402714020749e-06 -0.00016352381042783828 -0.0006481755269104175 -0.00053148755480033423 0.00018737860017908111 0.00021190198935137111 0.0002711416727670469 -0.00020045402339203039 0.00016615875985185431
leaf_weight=10.999999999999998 14.999999999999998 9.9999999999999982 22 25 18.000000000000004 16.000000000000004 8.9999999999999982 56 95 8.9999999999999982 15.999999999999998
leaf_count=11 15 10 22 25 18 16 9 56 95 9 16
internal_value=0 -0.000127779 0.000164559 -0.000297671 -0.000219195 1.96876e-05 -0.000272604 0.00013045 0.000220439 -0.000499069 -3.4803e-05
internal_weight=0 170 132 79 68 91 25 66 117 27 41
internal_count=302 170 132 79 68 91 25 66 117 27 41
is_linear=0
shrinkage=0.000904557


Tree=35
num_leaves=12
num_cat=0
split_feature=22 183 78 120 151 132 155 78 110 24 60
split_gain=7.74708 6.09103 4.29052 3.12443 2.48177 2.15424 1.86016 1.84463 1.83162 2.07714 1.67974
threshold=28.500000000000004 24.500000000000004 1673108.5000000002 4.5133691739295196 458.50000000000006 129.50000000000003 442.50000000000006 1802739.0000000002 3.270080862533693 27.500000000000004 86.581480616399659
decision_type=2 2 2 2 2 2 2 2 2 2 2
left_child=1 4 -2 8 -1 7 -6 -4 9 -3 -5
right_child=2 3 5 10 6 -7 -8 -9 -10 -11 -12
leaf_value=-0.00084114972564372709 -0.00035115541542885936 -0.00048009860209073408 0.00019925704406979549 -7.846967506404756e-05 -0.00010543368667792395 0.00027342100080719636 -0.0005228882216987002 -0.00032666375472988578 5.9421068847634149e-05 -7.7611353901170155e-05 0.00022276859652594453
leaf_weight=8.9999999999999982 11.999999999999998 21 12.000000000000002 24 18 98 17 9.9999999999999982 19 21 41
leaf_count=9 12 21 12 24 18 98 17 10 19 21 41
internal_value=0 -0.000127663 0.00016441 -2.64579e-05 -0.000417399 0.000215996 -0.000308298 -3.96961e-05 -0.000173507 -0.000278936 0.000111505
internal_weight=0 170 132 126 44 120 35 22 61 42 65
internal_count=302 170 132 126 44 120 35 22 61 42 65
is_linear=0
shrinkage=0.000904557


Tree=36
num_leaves=12
num_cat=0
split_feature=38 183 78 120 151 154 96 170 181 60 152
split_gain=7.73307 6.08002 4.28276 3.11878 2.47728 2.14707 1.82829 2.71651 1.68194 1.67671 1.37598
threshold=28.500000000000004 24.500000000000004 1673108.5000000002 4.5133691739295196 458.50000000000006 418.50000000000006 1058.1130000000028 62.500000000000007 0.80821091541066936 86.581480616399659 403.50000000000006
decision_type=2 2 2 2 2 2 2 2 2 2 2
left_child=1 4 -2 6 -1 -6 8 -8 -3 10 -5
right_child=2 3 -4 9 5 -7 7 -9 -10 -11 -12
leaf_value=-0.00084038912999480299 -0.00035083787731216687 0.00024101129885477471 0.00021580033663030031 -0.00035800577712653706 -0.00010223397575164685 -0.00055216385788592239 -0.00075270738131582194 -0.00014922473819163829 -0.0001834399431851027 0.00022256710382281567 8.9237708853963076e-05
leaf_weight=8.9999999999999982 11.999999999999998 11.999999999999998 120 9.0000000000000018 19 15.999999999999998 9.0000000000000018 19 21 41 14.999999999999998
leaf_count=9 12 12 120 9 19 16 9 19 21 41 15
internal_value=0 -0.000127548 0.000164262 -2.6434e-05 -0.000417022 -0.000308019 -0.00017335 -0.000343353 -2.90097e-05 0.000111404 -7.83987e-05
internal_weight=0 170 132 126 44 35 61 28 33 65 24
internal_count=302 170 132 126 44 35 61 28 33 65 24
is_linear=0
shrinkage=0.000904557


Tree=37
num_leaves=12
num_cat=0
split_feature=22 183 79 120 151 158 132 181 132 91 133
split_gain=7.71909 6.06903 4.27502 3.11314 2.4728 2.27811 2.15034 1.86187 1.8267 2.06249 2.00243
threshold=28.500000000000004 24.500000000000004 1673326.5000000002 4.5133691739295196 458.50000000000006 76.708333333333357 129.50000000000003 0.84371416289325551 202.50000000000003 6.5000000000000009 48.500000000000007
decision_type=2 2 2 2 2 2 2 2 2 2 2
left_child=1 4 -2 8 -1 -6 7 -4 10 -10 -3
right_child=2 3 6 -5 5 -7 -8 -9 9 -11 -12
leaf_value=-0.00083962919907658101 -0.00035052060365101866 -0.00036683857094567645 0.00017895484890622293 0.00011130340676383328 -5.6061802578448068e-05 -0.0005195040293031291 0.0002729784817168815 -0.0003561458692302211 -0.00069984778589933939 -0.00017392827155345743 0.00011792803189306465
leaf_weight=8.9999999999999982 11.999999999999998 9.9999999999999982 13.000000000000002 65 15.999999999999998 19 98 8.9999999999999982 9.0000000000000018 19 23
leaf_count=9 12 10 13 65 16 19 98 9 9 19 23
internal_value=0 -0.000127433 0.000164113 -2.64101e-05 -0.000416645 -0.00030774 0.000215605 -3.98553e-05 -0.000173193 -0.000343123 -2.89156e-05
internal_weight=0 170 132 126 44 35 120 22 61 28 33
internal_count=302 170 132 126 44 35 120 22 61 28 33
is_linear=0
shrinkage=0.000904557


Tree=38
num_leaves=12
num_cat=0
split_feature=22 183 78 120 151 158 132 78 132 131 146
split_gain=7.70514 6.05806 4.26729 3.10751 2.46833 2.27399 2.14645 1.83949 1.8234 2.06664 2.05677
threshold=28.500000000000004 24.500000000000004 1673108.5000000002 4.5133691739295196 458.50000000000006 76.708333333333357 129.50000000000003 1802739.0000000002 202.50000000000003 50.500000000000007 20.125000000000004
decision_type=2 2 2 2 2 2 2 2 2 2 2
left_child=1 4 -2 8 -1 -6 7 -4 10 -10 -3
right_child=2 3 6 -5 5 -7 -8 -9 9 -11 -12
leaf_value=-0.00083886998678614532 -0.00035020360455199602 -0.00016724790972916429 0.00019880052249283907 0.00011120273210899133 -5.6011100451461605e-05 -0.00051903418081322803 0.00027273156318637337 -0.00032638661235623475 -0.0006067894200722689 -0.00011378648084415866 0.00033971726027260735
leaf_weight=8.9999999999999982 11.999999999999998 24 12.000000000000002 65 15.999999999999998 19 98 9.9999999999999982 13.000000000000002 14.999999999999998 8.9999999999999982
leaf_count=9 12 24 12 65 16 19 98 10 13 15 9
internal_value=0 -0.000127317 0.000163965 -2.63862e-05 -0.000416268 -0.000307462 0.00021541 -3.98191e-05 -0.000173037 -0.000342813 -2.88894e-05
internal_weight=0 170 132 126 44 35 120 22 61 28 33
internal_count=302 170 132 126 44 35 120 22 61 28 33
is_linear=0
shrinkage=0.000904557


Tree=39
num_leaves=12
num_cat=0
split_feature=38 183 79 38 133 107 80 162 175 141 117
split_gain=7.69121 6.04711 4.25958 2.41384 2.26478 3.37973 2.0131 2.2412 1.56658 1.56355 1.43258
threshold=28.500000000000004 24.500000000000004 1673326.5000000002 1.5000000000000002 48.500000000000007 397.00000000000006 506.50000000000006 72.500000000000014 0.51377643504531734 22.500000000000004 36.500000000000007
decision_type=2 2 2 2 2 2 2 2 2 2 2
left_child=1 3 -2 -1 -3 6 7 -6 -5 -4 -11
right_child=2 4 9 8 5 -7 -8 -9 -10 10 -12
leaf_value=-0.00065897357952413201 -0.00034988690359712203 -0.00031413711295194384 -1.5544207169841848e-05 -0.00043167733725601938 0.00011204524186217291 -0.00050563417080966137 0.00014935336692893935 -0.00042989305377504305 2.4251844495403097e-05 4.4702815254434937e-05 0.00031552818343177273
leaf_weight=19 11.999999999999998 19 20 14.000000000000002 13.000000000000002 8.9999999999999982 73 11.999999999999998 10.999999999999998 20 80
leaf_count=19 12 19 20 14 13 9 73 12 11 20 80
internal_value=0 -0.000127202 0.000163816 -0.000415892 -2.63623e-05 2.47221e-05 7.34685e-05 -0.000148006 -0.00023099 0.000215215 0.000261391
internal_weight=0 170 132 44 126 107 98 25 25 120 100
internal_count=302 170 132 44 126 107 98 25 25 120 100
is_linear=0
shrinkage=0.000904557


Tree=40
num_leaves=12
num_cat=0
split_feature=38 183 78 120 151 158 132 78 110 24 155
split_gain=7.6773 6.03618 4.25188 3.10019 2.4621 2.26618 2.14002 1.83588 1.82343 2.06801 1.62446
threshold=28.500000000000004 24.500000000000004 1673108.5000000002 4.5133691739295196 458.50000000000006 76.708333333333357 129.50000000000003 1802739.0000000002 3.270080862533693 27.500000000000004 474.50000000000006
decision_type=2 2 2 2 2 2 2 2 2 2 2
left_child=1 4 -2 8 -1 -6 7 -4 9 -3 -5
right_child=2 3 6 10 5 -7 -8 -9 -10 -11 -12
leaf_value=-0.0008375840622483722 -0.00034957049797901301 -0.00047872956613321843 0.00019855994992315707 0.00018943218329527329 -5.5827830501762338e-05 -0.00051805534171773886 0.00027225613111989046 -0.00032611279521136679 5.959037300320416e-05 -7.7127413088439901e-05 -0.00014987576507044441
leaf_weight=8.9999999999999982 11.999999999999998 21 12.000000000000002 50 15.999999999999998 19 98 9.9999999999999982 19 21 14.999999999999998
leaf_count=9 12 21 12 50 16 19 98 10 19 21 15
internal_value=0 -0.000127087 0.000163668 -2.63385e-05 -0.000415516 -0.000306847 0.000215021 -3.98259e-05 -0.000172816 -0.000278009 0.000111088
internal_weight=0 170 132 126 44 35 120 22 61 42 65
internal_count=302 170 132 126 44 35 120 22 61 42 65
is_linear=0
shrinkage=0.000904557


Tree=41
num_leaves=12
num_cat=0
split_feature=22 183 78 120 151 164 110 24 60 174 153
split_gain=7.66342 6.02527 4.24419 3.09459 2.45765 2.00862 1.82014 2.06427 1.67183 1.89979 1.57752
threshold=28.500000000000004 24.500000000000004 1673108.5000000002 4.5133691739295196 458.50000000000006 74.250000000000014 3.270080862533693 27.500000000000004 86.581480616399659 0.25844414292175488 591.00000000000011
decision_type=2 2 2 2 2 2 2 2 2 2 2
left_child=1 4 -2 6 -1 -6 7 -3 9 -5 -10
right_child=2 3 -4 8 5 -7 -8 -9 10 -11 -12
leaf_value=-0.00083682670042448614 -0.00034925438067920963 -0.00047829659288902435 0.00021482610137851457 -0.00040708242567365417 -5.6140557652163468e-05 -0.00049422751624681805 5.9536475812204565e-05 -7.7057656409207633e-05 0.00031610013221136066 0.00011846365028809715 -0.00011234324756183254
leaf_weight=8.9999999999999982 11.999999999999998 21 120 9.0000000000000018 14.999999999999998 20 19 21 32 14.999999999999998 8.9999999999999982
leaf_count=9 12 21 120 9 15 20 19 21 32 15 9
internal_value=0 -0.000126972 0.00016352 -2.63147e-05 -0.00041514 -0.00030657 -0.00017266 -0.000277758 0.000110988 -7.85388e-05 0.000221989
internal_weight=0 170 132 126 44 35 61 42 65 24 41
internal_count=302 170 132 126 44 35 61 42 65 24 41
is_linear=0
shrinkage=0.000904557


Tree=42
num_leaves=12
num_cat=0
split_feature=22 183 78 120 151 132 154 181 132 131 146
split_gain=7.64956 6.01438 4.23652 3.08899 2.4532 2.13615 2.1274 1.8543 1.819 2.06103 2.04942
threshold=28.500000000000004 24.500000000000004 1673108.5000000002 4.5133691739295196 458.50000000000006 129.50000000000003 418.50000000000006 0.84371416289325551 202.50000000000003 50.500000000000007 20.125000000000004
decision_type=2 2 2 2 2 2 2 2 2 2 2
left_child=1 4 -2 8 -1 7 -6 -4 10 -10 -3
right_child=2 3 5 -5 6 -7 -8 -9 9 -11 -12
leaf_value=-0.00083606998536560752 -0.0003489385317652877 -0.00016664185781223409 0.00017838042802570422 0.00011088728696529859 -0.00010145137974298924 0.00027181554647297219 -0.00054931658648250774 -0.00035563101321850021 -0.00060569280602437421 -0.00011335930369052764 0.00033941686562369506
leaf_weight=8.9999999999999982 11.999999999999998 24 13.000000000000002 65 19 98 15.999999999999998 8.9999999999999982 13.000000000000002 14.999999999999998 8.9999999999999982
leaf_count=9 12 24 13 65 19 98 16 9 13 15 9
internal_value=0 -0.000126858 0.000163372 -2.62909e-05 -0.000414765 0.000214632 -0.000306292 -3.99841e-05 -0.000172504 -0.000342075 -2.85306e-05
internal_weight=0 170 132 126 44 120 35 22 61 28 33
internal_count=302 170 132 126 44 120 35 22 61 28 33
is_linear=0
shrinkage=0.000904557


Tree=43
num_leaves=12
num_cat=0
split_feature=22 183 78 151 133 107 158 132 177 51 133
split_gain=7.63573 6.00351 4.22886 2.44877 2.25574 3.37108 2.2551 2.13229 1.86705 2.29293 2.58316
threshold=28.500000000000004 24.500000000000004 1673108.5000000002 458.50000000000006 48.500000000000007 397.00000000000006 76.708333333333357 129.50000000000003 0.58883415435139586 267.00000000000006 87.500000000000014
decision_type=2 2 2 2 2 2 2 2 10 2 2
left_child=1 3 -2 -1 -3 8 -5 -4 9 10 -6
right_child=2 4 7 6 5 -7 -8 -9 -10 -11 -12
leaf_value=-0.00083531398294595018 -0.00034862298689102017 -0.00031346710124097177 -3.9947833945655149e-05 -5.5610050012924111e-05 0.00011984338204127673 -0.00050496146932755561 -0.00051670697194041478 0.00027156967885479919 0.0002269636019650073 0.00012478404538436859 -0.00047345549739441159
leaf_weight=8.9999999999999982 11.999999999999998 19 22 15.999999999999998 10.000000000000002 8.9999999999999982 19 98 39 34 14.999999999999998
leaf_count=9 12 19 22 16 10 9 19 98 39 34 15
internal_value=0 -0.000126743 0.000163224 -0.00041439 -2.62671e-05 2.47152e-05 -0.000306015 0.000214438 7.33992e-05 -2.80736e-05 -0.00023605
internal_weight=0 170 132 44 126 107 35 120 98 59 25
internal_count=302 170 132 44 126 107 35 120 98 59 25
is_linear=0
shrinkage=0.000904557


Tree=44
num_leaves=12
num_cat=0
split_feature=22 102 79 120 171 24 174 85 151 181 127
split_gain=7.62193 5.12209 4.22121 4.03945 2.72863 2.08175 2.55523 1.96697 2.44819 1.36296 2.65215
threshold=28.500000000000004 12.500000000000002 1673326.5000000002 4.5133691739295196 108.00000000000001 18.500000000000004 0.30958417849898584 81.500000000000014 573.00000000000011 0.83895391415742404 5.8750000000000009
decision_type=2 2 2 2 2 2 2 2 2 2 2
left_child=1 4 -2 5 -1 6 -3 8 -5 -4 -11
right_child=2 3 9 7 -6 -7 -8 -9 -10 10 -12
leaf_value=-0.00052234374887754839 -0.00034830773061579671 -0.00061219191370505627 0.00027362216643444343 -0.00029719514311520387 -5.6847013970996865e-05 -2.5294427518888104e-05 -8.2801537278063005e-05 0.00026512751563814946 0.00026452191986349737 -0.00033112385974105901 0.00022676042618122644
leaf_weight=33 11.999999999999998 16.000000000000004 87 15.000000000000002 14.999999999999998 29 13.999999999999998 37 10.999999999999998 9.9999999999999982 23
leaf_count=33 12 16 87 15 15 29 14 37 11 10 23
internal_value=0 -0.000126628 0.000163077 -2.81168e-05 -0.000376942 -0.000198212 -0.000365261 0.00013114 -5.94457e-05 0.000214244 5.76131e-05
internal_weight=0 170 132 122 48 59 30 63 26 120 33
internal_count=302 170 132 122 48 59 30 63 26 120 33
is_linear=0
shrinkage=0.000904557


Tree=45
num_leaves=12
num_cat=0
split_feature=38 182 79 139 151 150 106 132 132 181 143
split_gain=7.60815 5.12505 4.21358 3.686 3.62026 4.22328 2.80832 2.12674 2.02155 1.84832 1.4571
threshold=28.500000000000004 75.500000000000014 1673326.5000000002 31.555555555555561 405.00000000000006 315.50000000000006 13.250000000000002 129.50000000000003 123.50000000000001 0.84371416289325551 24.500000000000004
decision_type=2 2 2 2 2 2 2 2 2 2 2
left_child=1 4 -2 8 -1 -6 -5 9 -3 -4 -7
right_child=2 3 7 6 5 10 -8 -9 -10 -11 -12
leaf_value=-0.00077654847899698179 -0.00034799275058712911 -0.00017835371625981751 0.00017800778727294881 -1.6282728753861077e-05 -3.4112038296578881e-05 -0.00064353245611419344 -0.00069779190820572418 0.00027110752251644139 0.0001954630768804964 -0.00035514205662705143 -0.00019722528152281915
leaf_weight=10.999999999999998 11.999999999999998 14.999999999999998 13.000000000000002 11.000000000000002 41 18.000000000000004 8.9999999999999982 98 56 8.9999999999999982 8.9999999999999982
leaf_count=11 12 15 13 11 41 18 9 98 56 9 9
internal_value=0 -0.000126514 0.000162929 1.97979e-05 -0.000295076 -0.000217122 -0.000323149 0.00021405 0.000116448 -4.00042e-05 -0.000494897
internal_weight=0 170 132 91 79 68 20 120 71 22 27
internal_count=302 170 132 91 79 68 20 120 71 22 27
is_linear=0
shrinkage=0.000904557


Tree=46
num_leaves=12
num_cat=0
split_feature=22 78 0 141 7 96 158 165 132 181 113
split_gain=7.59439 4.20597 3.88519 4.43632 2.45877 2.57411 3.10232 2.13916 2.12289 1.84498 1.36744
threshold=28.500000000000004 1673108.5000000002 1237.5000000000002 95.500000000000014 31.500000000000004 853.31099999999958 71.333333333333357 73.125000000000014 129.50000000000003 0.84371416289325551 72.500000000000014
decision_type=2 2 2 2 2 2 2 2 2 2 2
left_child=2 -2 7 4 5 6 -4 -1 9 -3 -7
right_child=1 8 3 -5 -6 10 -8 -9 -10 -11 -12
leaf_value=-0.00079084839162335129 -0.00034767805017387772 0.00017784680434481553 5.5349945136278677e-05 -0.00056629534984469973 -0.00035542330941041033 0.00016834646505811847 -0.00049969887382302135 -0.00026342839412963985 0.00027086229505943356 -0.00035482092544936866 -0.00020637715160289565
leaf_weight=9.0000000000000018 11.999999999999998 13.000000000000002 20 12.999999999999998 14.999999999999998 69 13.999999999999998 21 98 8.9999999999999982 8.9999999999999982
leaf_count=9 12 13 20 13 15 69 14 21 98 9 9
internal_value=0 0.000162782 -0.0001264 -6.30727e-05 -1.15292e-05 3.45142e-05 -0.000173151 -0.000421804 0.000213856 -3.9968e-05 0.00012507
internal_weight=0 132 170 140 127 112 34 30 120 22 78
internal_count=302 132 170 140 127 112 34 30 120 22 78
is_linear=0
shrinkage=0.000904557


Tree=47
num_leaves=12
num_cat=0
split_feature=22 183 79 120 22 132 181 96 170 181 60
split_gain=7.58066 5.96984 4.19836 3.06822 2.39311 2.11905 1.84165 1.81517 2.69877 1.66624 1.663
threshold=28.500000000000004 24.500000000000004 1673326.5000000002 4.5133691739295196 1.5000000000000002 129.50000000000003 0.84371416289325551 1058.1130000000028 62.500000000000007 0.80821091541066936 86.581480616399659
decision_type=2 2 2 2 2 2 2 2 2 2 2
left_child=1 4 -2 7 -1 6 -4 9 -9 -3 -5
right_child=2 3 5 10 -6 -7 -8 8 -10 -11 -12
leaf_value=-0.00065516004945804325 -0.00034736362656865883 0.00024076694024743872 0.00017768597483247984 -7.8401058014918916e-05 -0.00022901794039871518 0.00027061728986055083 -0.00035450007086852654 -0.00074921842395093887 -0.00014771024565506159 -0.00018169908065813789 0.00022133246212740698
leaf_weight=19 11.999999999999998 11.999999999999998 13.000000000000002 24 25 98 8.9999999999999982 9.0000000000000018 19 21 41
leaf_count=19 12 12 13 24 25 98 9 9 19 21 41
internal_value=0 -0.000126285 0.000162634 -2.60916e-05 -0.000413124 0.000213663 -3.99317e-05 -0.000171812 -0.000341204 -2.79907e-05 0.000110625
internal_weight=0 170 132 126 44 120 22 61 28 33 65
internal_count=302 170 132 126 44 120 22 61 28 33 65
is_linear=0
shrinkage=0.000904557


Tree=48
num_leaves=12
num_cat=0
split_feature=38 183 79 120 151 158 132 181 96 170 181
split_gain=7.56696 5.95905 4.19077 3.06267 2.4348 2.24174 2.11522 1.83832 1.81188 2.69389 1.66323
threshold=28.500000000000004 24.500000000000004 1673326.5000000002 4.5133691739295196 458.50000000000006 76.708333333333357 129.50000000000003 0.84371416289325551 1058.1130000000028 62.500000000000007 0.80821091541066936
decision_type=2 2 2 2 2 2 2 2 2 2 2
left_child=1 4 -2 8 -1 -6 7 -4 10 -10 -3
right_child=2 3 6 -5 5 -7 -8 -9 9 -11 -12
leaf_value=-0.00083247270234765953 -0.00034704949072026888 0.00024054920967447015 0.00017752528888830606 0.00011052442125154038 -5.5023009303165773e-05 -0.00051475231839003552 0.00027037251221492798 -0.00035417951796164041 -0.00074854094434262538 -0.0001475766585736607 -0.00018153474821769897
leaf_weight=8.9999999999999982 11.999999999999998 11.999999999999998 13.000000000000002 65 15.999999999999998 19 98 8.9999999999999982 9.0000000000000018 19 21
leaf_count=9 12 12 13 65 16 19 98 9 9 19 21
internal_value=0 -0.000126171 0.000162487 -2.6068e-05 -0.000412751 -0.000304686 0.00021347 -3.98955e-05 -0.000171657 -0.000340896 -2.79653e-05
internal_weight=0 170 132 126 44 35 120 22 61 28 33
internal_count=302 170 132 126 44 35 120 22 61 28 33
is_linear=0
shrinkage=0.000904557


Tree=49
num_leaves=12
num_cat=0
split_feature=22 183 78 22 133 107 132 80 162 181 171
split_gain=7.55328 5.94827 4.1832 2.38603 2.24284 3.35789 2.1114 2.00014 2.22301 1.83499 1.71748
threshold=28.500000000000004 24.500000000000004 1673108.5000000002 1.5000000000000002 48.500000000000007 397.00000000000006 129.50000000000003 506.50000000000006 72.500000000000014 0.84371416289325551 111.50000000000001
decision_type=2 2 2 2 2 2 2 2 2 2 2
left_child=1 3 -2 -1 -3 7 9 8 -6 -4 -5
right_child=2 4 6 10 5 -7 -8 -9 -10 -11 -12
leaf_value=-0.00065405499505573166 -0.00034673565863079501 -0.00031242177981098793 0.00017736474340251452 -0.0004562972064497407 0.00011161376044978393 -0.00050384761123034312 0.00027012795558960646 0.00014902062156040322 -0.00042812042454462481 -0.00035385925961728962 1.8034711147890088e-05
leaf_weight=19 11.999999999999998 19 13.000000000000002 13.000000000000002 13.000000000000002 8.9999999999999982 98 73 11.999999999999998 8.9999999999999982 11.999999999999998
leaf_count=19 12 19 13 13 13 9 98 73 12 9 12
internal_value=0 -0.000126057 0.00016234 -0.000412378 -2.60444e-05 2.47918e-05 0.000213276 7.33805e-05 -0.000147379 -3.98594e-05 -0.000228544
internal_weight=0 170 132 44 126 107 120 98 25 22 25
internal_count=302 170 132 44 126 107 120 98 25 22 25
is_linear=0
shrinkage=0.000904557


Tree=50
num_leaves=12
num_cat=0
split_feature=22 102 78 120 171 110 132 70 151 113 181
split_gain=7.53962 5.07903 4.17563 4.00894 2.70552 2.66979 2.10758 1.95772 2.43759 1.85011 1.83168
threshold=28.500000000000004 12.500000000000002 1673108.5000000002 4.5133691739295196 108.00000000000001 2.383484162895928 129.50000000000003 81.500000000000014 573.00000000000011 51.500000000000007 0.84371416289325551
decision_type=2 2 2 2 2 2 2 2 2 2 2
left_child=1 4 -2 5 -1 -3 10 8 -5 -7 -4
right_child=2 3 6 7 -6 9 -8 -9 -10 -11 -12
leaf_value=-0.00051998702914009742 -0.00034642209408498745 -0.00052684457275689318 0.00017720434666785106 -0.00029656359596586592 -5.6465339467788829e-05 9.1342724899888733e-06 0.00026988361716509892 0.00026447999694009761 0.00026393584207614051 -0.00045057617734100468 -0.00035353926926121743
leaf_weight=33 11.999999999999998 14.999999999999998 13.000000000000002 15.000000000000002 14.999999999999998 35 98 37 10.999999999999998 8.9999999999999982 8.9999999999999982
leaf_count=33 12 15 13 15 15 35 98 37 11 9 9
internal_value=0 -0.000125943 0.000162193 -2.78464e-05 -0.000375202 -0.000197298 0.000213084 0.000130808 -5.93293e-05 -8.48656e-05 -3.98232e-05
internal_weight=0 170 132 122 48 59 120 63 26 44 22
internal_count=302 170 132 122 48 59 120 63 26 44 22
is_linear=0
shrinkage=0.000904557


Tree=51
num_leaves=12
num_cat=0
split_feature=22 183 171 120 151 158 96 170 181 60 174
split_gain=7.52599 5.92958 3.88644 3.04905 2.42717 2.23198 1.80757 2.68683 1.65772 1.65575 1.88933
threshold=28.500000000000004 24.500000000000004 48.000000000000007 4.5133691739295196 458.50000000000006 76.708333333333357 1058.1130000000028 62.500000000000007 0.80821091541066936 86.581480616399659 0.25844414292175488
decision_type=2 2 2 2 2 2 2 2 2 2 2
left_child=1 4 -2 6 -1 -6 8 -8 -3 10 -5
right_child=2 3 -4 9 5 -7 7 -9 -10 -11 -12
leaf_value=-0.00083076381744918298 -0.00027132200978231109 0.00024035179782174791 0.00021763392541129272 -0.00040593605416053931 -5.4684916651768034e-05 -0.00051341254623828712 -0.00074738628914713327 -0.00014721026353817102 -0.00018103332812519847 0.00022078064244202136 0.00011816082695119385
leaf_weight=8.9999999999999982 14.999999999999998 11.999999999999998 117 9.0000000000000018 15.999999999999998 19 9.0000000000000018 19 21 41 14.999999999999998
leaf_count=9 15 12 117 9 16 19 9 19 21 41 15
internal_value=0 -0.000125829 0.000162047 -2.59738e-05 -0.0004117 -0.000303804 -0.000171238 -0.000340276 -2.7718e-05 0.000110314 -7.82981e-05
internal_weight=0 170 132 126 44 35 61 28 33 65 24
internal_count=302 170 132 126 44 35 61 28 33 65 24
is_linear=0
shrinkage=0.000904557


Tree=52
num_leaves=12
num_cat=0
split_feature=22 183 78 151 133 107 80 111 164 141 178
split_gain=7.51238 5.91887 4.16649 2.42278 2.23581 3.34911 1.99308 2.72667 1.9762 1.53424 1.74676
threshold=28.500000000000004 24.500000000000004 1673108.5000000002 458.50000000000006 48.500000000000007 397.00000000000006 506.50000000000006 3.0435023326540533 74.250000000000014 22.500000000000004 1.736499517839923
decision_type=2 2 2 2 2 2 2 2 2 2 8
left_child=1 3 -2 -1 -3 6 7 -6 -5 10 -4
right_child=2 4 9 8 5 -7 -8 -9 -10 -11 -12
leaf_value=-0.00083001262384712856 -0.00034615823651344468 -0.00031187877126391647 0.00025130103874775262 -5.5128175788009621e-05 -0.00043405722497242053 -0.00050314129593353725 0.00014883789505752657 0.00016372128735054277 -0.00048966660304084419 0.0002584757082096374 -0.00028324887075691747
leaf_weight=8.9999999999999982 11.999999999999998 19 10.000000000000002 14.999999999999998 13.000000000000002 8.9999999999999982 73 11.999999999999998 20 100 9.9999999999999982
leaf_count=9 12 19 10 15 13 9 73 12 20 100 10
internal_value=0 -0.000125716 0.0001619 -0.000411327 -2.59503e-05 2.48062e-05 7.33313e-05 -0.000147038 -0.000303529 0.000212734 -1.58508e-05
internal_weight=0 170 132 44 126 107 98 25 35 120 20
internal_count=302 170 132 44 126 107 98 25 35 120 20
is_linear=0
shrinkage=0.000904557


Tree=53
num_leaves=12
num_cat=0
split_feature=22 183 78 120 151 158 96 170 181 60 111
split_gain=7.4988 5.90817 4.15896 3.04233 2.4184 2.22436 1.8035 2.68078 1.65385 1.65204 1.79863
threshold=28.500000000000004 24.500000000000004 1673108.5000000002 4.5133691739295196 458.50000000000006 76.708333333333357 1058.1130000000028 62.500000000000007 0.80821091541066936 86.581480616399659 3.1998392480647095
decision_type=2 2 2 2 2 2 2 2 2 2 2
left_child=1 4 -2 6 -1 -6 8 -8 -3 10 -5
right_child=2 3 -4 9 5 -7 7 -9 -10 -11 -12
leaf_value=-0.00082926206503295167 -0.00034584521631933599 0.00024008369941639222 0.0002125420393338927 -0.00037119474158731481 -5.4561044635067813e-05 -0.00051250535035786925 -0.00074653048729366605 -0.00014702980135451548 -0.00018080878966884818 0.00022055366774607736 0.00013095530014659932
leaf_weight=8.9999999999999982 11.999999999999998 11.999999999999998 120 10.000000000000002 15.999999999999998 19 9.0000000000000018 19 21 41 13.999999999999998
leaf_count=9 12 12 120 10 16 19 9 19 21 41 14
internal_value=0 -0.000125602 0.000161754 -2.59269e-05 -0.000410956 -0.000303255 -0.000171031 -0.000339878 -2.76726e-05 0.000110211 -7.81903e-05
internal_weight=0 170 132 126 44 35 61 28 33 65 24
internal_count=302 170 132 126 44 35 61 28 33 65 24
is_linear=0
shrinkage=0.000904557


Tree=54
num_leaves=12
num_cat=0
split_feature=22 182 79 143 182 91 133 179 132 181 20
split_gain=7.48524 5.06367 4.15144 3.54182 3.57322 3.37611 2.94381 2.33954 2.10108 1.82686 1.80976
threshold=28.500000000000004 75.500000000000014 1673326.5000000002 20.500000000000004 109.50000000000001 6.5000000000000009 48.500000000000007 1.7501000400160065 129.50000000000003 0.84371416289325551 227.50000000000003
decision_type=2 2 2 2 2 2 2 8 2 2 2
left_child=1 5 -2 6 -5 7 -3 -1 9 -4 -7
right_child=2 3 8 4 -6 10 -8 -9 -10 -11 -12
leaf_value=-0.00020953626934944712 -0.00034553243896391709 -0.00032210817748543877 0.00017657455305033928 -0.00052644414755489836 0.00018576432038294732 -0.00045676083421830637 0.00021055807630696431 -0.00073947393278043182 0.00026906234244742207 -0.00035346974352004287 -5.3744001822374831e-05
leaf_weight=11.000000000000002 11.999999999999998 9.9999999999999982 13.000000000000002 16.000000000000004 8.9999999999999982 11.999999999999998 56 18 98 8.9999999999999982 38
leaf_count=11 12 10 13 16 9 12 56 18 98 9 38
internal_value=0 -0.000125488 0.000161607 1.99445e-05 -0.000269957 -0.000293038 0.000129802 -0.000538594 0.00021235 -4.0167e-05 -0.000150541
internal_weight=0 170 132 91 25 79 66 29 120 22 50
internal_count=302 170 132 91 25 79 66 29 120 22 50
is_linear=0
shrinkage=0.000904557


end of trees

feature_importances:
78=47
22=46
132=45
183=39
151=37
120=30
181=27
133=21
38=20
158=18
110=17
79=16
171=16
182=16
60=15
141=13
24=12
143=10
107=9
91=7
154=7
174=7
96=6
100=6
111=6
150=6
153=6
70=5
80=5
102=5
106=5
139=5
146=5
170=5
99=4
113=4
155=3
162=3
178=3
5=2
7=2
20=2
27=2
41=2
61=2
101=2
117=2
131=2
164=2
175=2
179=2
0=1
6=1
25=1
40=1
51=1
53=1
56=1
73=1
85=1
92=1
94=1
97=1
108=1
115=1
127=1
129=1
142=1
145=1
152=1
159=1
165=1
177=1
187=1
190=1

parameters:
[boosting: gbdt]
[objective: regression]
[metric: rmse]
[tree_learner: serial]
[device_type: cpu]
[data: ]
[valid: ]
[num_iterations: 55]
[learning_rate: 0.000904557]
[num_leaves: 12]
[num_threads: -1]
[deterministic: 0]
[force_col_wise: 0]
[force_row_wise: 0]
[histogram_pool_size: -1]
[max_depth: 11]
[min_data_in_leaf: 9]
[min_sum_hessian_in_leaf: 0.001]
[bagging_fraction: 0.7]
[pos_bagging_fraction: 1]
[neg_bagging_fraction: 1]
[bagging_freq: 0]
[bagging_seed: 22420]
[feature_fraction: 0.7]
[feature_fraction_bynode: 1]
[feature_fraction_seed: 5992]
[extra_trees: 0]
[extra_seed: 8953]
[early_stopping_round: 0]
[first_metric_only: 0]
[max_delta_step: 0]
[lambda_l1: 0.00277843]
[lambda_l2: 0.00312879]
[linear_lambda: 0]
[min_gain_to_split: 0]
[drop_rate: 0.1]
[max_drop: 50]
[skip_drop: 0.5]
[xgboost_dart_mode: 0]
[uniform_drop: 0]
[drop_seed: 5]
[top_rate: 0.2]
[other_rate: 0.1]
[min_data_per_group: 100]
[max_cat_threshold: 32]
[cat_l2: 10]
[cat_smooth: 10]
[max_cat_to_onehot: 4]
[top_k: 20]
[monotone_constraints: ]
[monotone_constraints_method: basic]
[monotone_penalty: 0]
[feature_contri: ]
[forcedsplits_filename: ]
[refit_decay_rate: 0.9]
[cegb_tradeoff: 1]
[cegb_penalty_split: 0]
[cegb_penalty_feature_lazy: ]
[cegb_penalty_feature_coupled: ]
[path_smooth: 0]
[interaction_constraints: ]
[verbosity: -1]
[saved_feature_importance_type: 0]
[linear_tree: 0]
[max_bin: 255]
[max_bin_by_feature: ]
[min_data_in_bin: 3]
[bin_construct_sample_cnt: 200000]
[data_random_seed: 172]
[is_enable_sparse: 1]
[enable_bundle: 1]
[use_missing: 1]
[zero_as_missing: 0]
[feature_pre_filter: 1]
[pre_partition: 0]
[two_round: 0]
[header: 0]
[label_column: ]
[weight_column: ]
[group_column: ]
[ignore_column: ]
[categorical_feature: ]
[forcedbins_filename: ]
[precise_float_parser: 0]
[objective_seed: 5768]
[num_class: 1]
[is_unbalance: 0]
[scale_pos_weight: 1]
[sigmoid: 1]
[boost_from_average: 1]
[reg_sqrt: 0]
[alpha: 0.9]
[fair_c: 1]
[poisson_max_delta_step: 0.7]
[tweedie_variance_power: 1.5]
[lambdarank_truncation_level: 30]
[lambdarank_norm: 1]
[label_gain: ]
[eval_at: ]
[multi_error_top_k: 1]
[auc_mu_weights: ]
[num_machines: 1]
[local_listen_port: 12400]
[time_out: 120]
[machine_list_filename: ]
[machines: ]
[gpu_platform_id: -1]
[gpu_device_id: -1]
[gpu_use_dp: 0]
[num_gpu: 1]

end of parameters

pandas_categorical:[]
