tree
version=v3
num_class=1
num_tree_per_iteration=1
label_index=0
max_feature_idx=191
objective=regression
feature_names=0 1 2 3 4 5 6 7 8 9 10 11 12 13 14 15 16 17 18 19 20 21 22 23 24 25 26 27 28 29 30 31 32 33 34 35 36 37 38 39 40 41 42 43 44 45 46 47 48 49 50 51 52 53 54 55 56 57 58 59 60 61 62 63 64 65 66 67 68 69 70 71 72 73 74 75 76 77 78 79 80 81 82 83 84 85 86 87 88 89 90 91 92 93 94 95 96 97 98 99 100 101 102 103 104 105 106 107 108 109 110 111 112 113 114 115 116 117 118 119 120 121 122 123 124 125 126 127 128 129 130 131 132 133 134 135 136 137 138 139 140 141 142 143 144 145 146 147 148 149 150 151 152 153 154 155 156 157 158 159 160 161 162 163 164 165 166 167 168 169 170 171 172 173 174 175 176 177 178 179 180 181 182 183 184 185 186 187 188 189 190 191
feature_infos=[230:6129] [3:2702] [2:1621] [0:22] [0:6] [211:6406] [38:3999] [2:166] [0:59] [0:618] [0:36] [0:12] [0:20] [0:13] [0:31] [0:44] [0:6] [0:44] [0:17] [191:4559] [36:2483] [0:2704] [0:893] [0:947] [1:1328] [0:260] [2:91] [0:52] [0:394] [0:370] [0:313] [0:106] [0:29] [0:159] none [191:4559] [36:2483] [0:2704] [0:893] [0:947] [1:1328] [0:260] [2:91] [0:52] [0:394] [0:370] [0:313] [0:106] [0:29] [0:159] none [39:1575] [3.6898148148148149:9.4977578475336326] [10:919] [1.8302558051784696:56.191239243699421] [3:6] [0.49714616757051278:15.956396355488426] [13452:912113] [65797.576335877864:3157276.5539733577] [65864.526717557252:3157388.2604501606] [8.423293675641828:200.36603557085485] [113.70992366412214:2363.4580382436261] [19.251908396946565:440.99079320113322] [63626.783202252162:1081550.9494009293] [63631.924177016808:1081548.3283991446] [18.739641758516893:1774.8079589539925] [59.864916717840629:1359.0329670913291] [9.9268153508934542:248.99216137589943] [47035:3529205] [47118.5:3529271] [1:198] [126.5:2372] [21:445.5] [312:740531] [429:740669] [0:32] none none [229452:3986953] [229548:3987141] [183:85157] [207:4673] [35:855] [47083:3529205] [47162:3529271] [1:198] [127:2372] [21:446] [3:6] [6:24] [6:25] [4:33] [5.1689999999999996:732.37199999999996] [0.033000000000000002:0.40000000000000002] [0.104748750567923:1.6610000000000007] [0.2896640792049528:21.6840808628838] [78.659999999999982:2193.4560000000006] [8:423] [4:192] [1:105] [1:103] [0:51] [1:77] [9.8958333333333339:322.66666666666669] [9.2811327848656564:526.60466960404028] [4:144] [3:333] [37:2763] [1:1442] [1:530] [1.3076923076923077:41.569230769230771] [0.63042517195611525:157.24800964864878] [1:7] [2:1097] [1:125] [1:261] [0.88648244958924571:133.39731643682444] [3:683] [6:1323] [35:872] [3.774509803921569:5.5410628019323669] [1:2] [9:47] [1:14] [1:14] [2:3] [3:5] [4:8] [171:3713] [1:51] [38.600000000000001:1316] [1:1316] [63:1316] [3:1316] [6:1316] [13:1316] [21:1316] [48:1316] [204:4511] [7.4146341463414638:234] [1:234] [12:234] [1:234] [1:234] [2.5:234] [4:234] [9:234] [35:876] [1:20] [77.799999999999997:1396] [1:1396] [186:2002] [7:1396] [1:2002] [2:1396] [17.5:1396] [42.5:1396] [207:4655] [18.100000000000001:615.33333333333337] [1:277] [35:1703] [1:277] [1:1703] [1:277] [4:277] [17.75:893] [35:2216] [0.0277777777777777:1] [-1:0.94444444444444442] [0.0277777777777777:1] [0:277] [0:729] [0:283] [35:870] [0:1] [0:1] [0:1] [0:3.3809523809523809] [0:97] [0:113] [0.1575237515308755:4.895829868387497] [0.23927075076435281:1.0988106129917661] [11:182] [3:90] [0.084736497799066404:0.96637023560696755] [0.084736497799066404:0.96637023560696755] [3.0426406250000002:110.86385714285714] [2.6070000000000002:65.813999999999993] [15.727188065399501:597.25696126355683] [0:5467] [0:3419] [1:3089]
tree_sizes=1187 1265 1252 1305 1284 1333 1304 1302 1289 1272 1282 1318 1290 1286 1313 1260 1276 1265 1287 1313 1323 1248 1319 1341 1306 1305 1276 1292 1284 1277 1286 1339 1269 1318 1282

Tree=0
num_leaves=12
num_cat=0
split_feature=7 135 27 174 159 22 89 127 64 178 117
split_gain=9.69629 4.30009 3.30637 2.24161 1.98577 2.86898 1.45106 1.37293 2.8602 1.16138 1.03013
threshold=8.5000000000000018 40.250000000000007 3.5000000000000004 0.98622047244094502 71.500000000000014 27.500000000000004 9.5000000000000018 5.1250000000000009 404511.50082902226 0.53207236842105277 40.500000000000007
decision_type=2 2 2 2 2 2 2 2 2 10 2
left_child=6 2 -2 4 7 -6 -1 8 -3 -4 -9
right_child=1 3 9 -5 5 -7 -8 10 -10 -11 -12
leaf_value=2.0554838248309273 2.0557494696930236 2.0559119417701579 2.0560868154255547 2.0560828103842299 2.0558307430790168 2.0564799713967412 2.0559289572065889 2.0563953614195065 2.0564722097059192 2.0564986960982536 2.0565734176084418
leaf_weight=11.000000000000002 18 11.999999999999998 13.000000000000002 19 12.000000000000002 13.999999999999998 19 46 31 12.999999999999998 94
leaf_count=11 18 12 13 19 12 14 19 46 31 13 94
internal_value=2.05629 2.05635 2.05607 2.0564 2.05643 2.05618 2.05577 2.05647 2.05632 2.05629 2.05651
internal_weight=0 272 44 228 209 26 30 183 43 26 140
internal_count=302 272 44 228 209 26 30 183 43 26 140
is_linear=0
shrinkage=1


Tree=1
num_leaves=12
num_cat=0
split_feature=2 66 43 103 103 163 68 163 165 185 63
split_gain=8.7121 2.9668 2.7328 2.47067 3.19572 2.02256 1.97167 1.56939 1.62975 1.67569 2.30653
threshold=55.500000000000007 351.08169414791627 1.5000000000000002 32.079090909090915 52.883547008547019 73.625000000000014 543654.00000000012 100.25000000000001 84.625000000000014 0.65625902825139681 452663.9342182742
decision_type=2 2 2 2 2 2 2 2 2 2 2
left_child=1 6 3 -2 -5 -3 -1 8 9 10 -4
right_child=2 5 7 4 -6 -7 -8 -9 -10 -11 -12
leaf_value=-0.00080370371249750459 0.00015378700748661214 2.9037529738243078e-05 -0.00017658291690676126 -0.00054164223230211716 0.00010739659059950622 -0.00041163361116887496 -0.00031088729417749501 -0.00015900910473516032 0.00029006095628119846 0.0003009554479637659 0.00019635758290678797
leaf_weight=12.999999999999998 21 29 32 18.000000000000004 11.999999999999998 14.999999999999998 19 13.999999999999998 72 26 31
leaf_count=13 21 29 32 18 12 15 19 14 72 26 31
internal_value=0 -0.000285402 9.59763e-05 -0.000102484 -0.000281952 -0.000121142 -0.000511179 0.000153827 0.000181045 9.28249e-05 6.89041e-06
internal_weight=0 76 226 51 30 44 32 175 161 89 63
internal_count=302 76 226 51 30 44 32 175 161 89 63
is_linear=0
shrinkage=0.000974436


Tree=2
num_leaves=12
num_cat=0
split_feature=8 5 38 32 140 131 127 97 131 140 156
split_gain=6.7057 5.08801 2.18876 2.29309 1.88527 1.79523 2.82435 1.75278 1.86344 1.5336 1.41938
threshold=2.5000000000000004 1158.5000000000002 32.500000000000007 1.0000000180025095e-35 5.5000000000000009 25.500000000000004 5.8750000000000009 114.50000000000001 25.500000000000004 7.5000000000000009 247.00000000000003
decision_type=2 2 2 2 2 2 2 2 2 2 2
left_child=1 7 3 9 -5 -3 -7 8 -1 -2 -4
right_child=2 5 10 4 -6 6 -8 -9 -10 -11 -12
leaf_value=-0.00023124330783205678 -7.7591279076889731e-07 -0.00031671537150412766 -9.5363744291952237e-05 -5.4712289139307515e-05 0.00031442362003304637 -0.00023716653746535751 0.00026974120144770405 -0.00018261009870561471 -0.00072670915345228102 -0.00036221103529200638 0.00026359190986876641
leaf_weight=10.999999999999998 27 12.999999999999998 11.999999999999998 24 29 15.999999999999998 30 19 21 19 81
leaf_count=11 27 13 12 24 29 16 30 19 21 19 81
internal_value=0 -0.000191834 0.000109905 9.04169e-06 0.000147225 2.9729e-06 9.33737e-05 -0.000417241 -0.000556474 -0.000150118 0.00021725
internal_weight=0 110 192 99 53 59 46 51 32 46 93
internal_count=302 110 192 99 53 59 46 51 32 46 93
is_linear=0
shrinkage=0.000974436


Tree=3
num_leaves=12
num_cat=0
split_feature=27 64 38 151 111 122 177 131 99 143 26
split_gain=7.32357 4.02749 2.34955 2.45525 2.166 1.99824 1.92902 1.77503 1.72757 1.45676 1.37046
threshold=1.5000000000000002 363222.17072267755 1.5000000000000002 361.00000000000006 1.9331967206620313 13.500000000000002 1.0975996376811596 32.500000000000007 26.500000000000004 13.500000000000002 19.500000000000004
decision_type=2 2 2 2 2 2 8 2 2 2 2
left_child=1 4 5 -4 -1 8 -5 10 -2 -8 -3
right_child=2 7 3 6 -6 -7 9 -9 -10 -11 -12
leaf_value=-0.00020366594909399316 0.00031010430876134864 -5.4355111191094117e-05 -0.00018284305040669802 0.00024089696292958188 -0.00072016545677473223 -0.00042908926101941275 -0.00029798653329515725 5.3475222462410667e-05 -0.00019370752772782001 0.00014541066041165053 -0.00054102600548824344
leaf_weight=12.999999999999998 12.000000000000002 11.000000000000002 19 125 19 12.999999999999998 12.000000000000002 36 13.999999999999998 17 10.999999999999998
leaf_count=13 12 11 19 125 19 13 12 36 14 17 11
internal_value=0 -0.000232893 9.88699e-05 0.000147582 -0.000510419 -0.000117152 0.000188365 -7.97307e-05 3.87328e-05 -3.79857e-05 -0.000297806
internal_weight=0 90 212 173 32 39 154 58 26 29 22
internal_count=302 90 212 173 32 39 154 58 26 29 22
is_linear=0
shrinkage=0.000974436


Tree=4
num_leaves=12
num_cat=0
split_feature=42 0 103 132 2 175 94 33 99 54 2
split_gain=7.10602 5.55821 2.77467 2.75664 2.33415 2.13961 1.40645 1.82128 1.7759 2.49286 1.46083
threshold=7.5000000000000009 1233.5000000000002 39.20000000000001 125.00000000000001 58.500000000000007 0.34521691238773089 0.52334956349206407 1.5000000000000002 18.500000000000004 2.9609170090658798 158.50000000000003
decision_type=2 2 2 2 2 2 2 2 2 2 2
left_child=5 2 -2 -3 -5 -1 7 8 -6 10 -10
right_child=1 3 -4 4 6 -7 -8 -9 9 -11 -12
leaf_value=-0.00070247059883386418 -5.4286147033825004e-05 -0.00015511545034301301 -0.00063781321112100955 -6.6691232595716087e-05 0.00029530945182111942 -0.00019728907360320826 0.00031625655384958772 0.00043144461350334455 -0.00042004346881668604 0.00016097683233075362 1.9551211611300903e-05
leaf_weight=14.999999999999998 16.000000000000004 34 14.999999999999998 40 25 17 59 15.999999999999998 16.000000000000004 36 12.999999999999998
leaf_count=15 16 34 15 40 25 17 59 16 16 36 13
internal_value=0 5.14586e-05 -0.000336721 0.000101819 0.000144444 -0.000434175 0.000195643 0.000128485 7.45967e-05 -1.02588e-05 -0.000222907
internal_weight=0 270 31 239 205 32 165 106 90 65 29
internal_count=302 270 31 239 205 32 165 106 90 65 29
is_linear=0
shrinkage=0.000974436


Tree=5
num_leaves=12
num_cat=0
split_feature=118 94 142 135 38 70 78 151 23 62 38
split_gain=7.43784 4.15244 2.16569 2.14853 2.10684 2.07018 1.74874 1.71253 2.89897 1.3485 1.25983
threshold=53.500000000000007 0.94045076638282799 41.500000000000007 40.250000000000007 24.500000000000004 114.50000000000001 1791201.5000000002 395.00000000000006 4.5000000000000009 99.228012286640194 6.5000000000000009
decision_type=2 2 2 2 2 2 2 2 2 2 2
left_child=1 5 3 4 -2 9 -4 8 -5 -1 -11
right_child=2 -3 6 7 -6 -7 -8 -9 -10 10 -12
leaf_value=-0.00084973951575548115 -0.00040188301900207369 9.9077856895516715e-05 7.8146940978869795e-05 -0.0004528786755709485 9.0910015185044948e-05 -0.0001234426793219827 -0.00045957794098347888 0.00019124942485426039 0.00025448928545868934 -0.00067275784526436995 -0.00021581164746651063
leaf_weight=10.999999999999998 13.999999999999998 19 11.000000000000002 11.000000000000002 20 13.999999999999998 11.999999999999998 156 10.999999999999998 11.000000000000002 11.999999999999998
leaf_count=11 14 19 11 11 20 14 12 156 11 11 12
internal_value=0 -0.000286396 8.16538e-05 0.000112473 -0.00011194 -0.000439028 -0.000202308 0.000155351 -9.9091e-05 -0.000568901 -0.000434466
internal_weight=0 67 235 212 34 48 23 178 22 34 23
internal_count=302 67 235 212 34 48 23 178 22 34 23
is_linear=0
shrinkage=0.000974436


Tree=6
num_leaves=12
num_cat=0
split_feature=79 129 150 137 1 96 96 21 131 79 131
split_gain=5.68138 3.30735 3.15994 2.92131 2.14624 4.47437 1.37272 1.53913 1.24738 2.65546 1.18618
threshold=1609417.0000000002 7.5000000000000009 333.50000000000006 62.250000000000007 102.00000000000001 881.55350000000033 1058.3465000000017 165.50000000000003 79.000000000000014 1786929.0000000002 38.500000000000007
decision_type=2 2 2 2 2 2 2 2 2 2 2
left_child=2 8 -1 -3 5 -5 -6 -8 -2 -10 -7
right_child=1 3 -4 4 6 10 7 -9 9 -11 -12
leaf_value=-0.00015087812258351955 -0.00046531238044762556 -0.00037846177572802128 -0.00078356812542699984 -0.00041914923993821107 0.00023768272730935623 -5.4468385508830541e-05 -0.00022860996493192175 0.00013391239878469315 0.00018836840123305769 -0.00045134289769851673 0.00034551600687258044
leaf_weight=20 12.999999999999998 11.999999999999998 11.999999999999998 20 103 12.000000000000002 13.999999999999998 54 14.000000000000002 10.999999999999998 17
leaf_count=20 13 12 12 20 103 12 14 54 14 11 17
internal_value=0 4.6012e-05 -0.000388221 8.96668e-05 0.000115213 -6.45484e-05 0.000166737 5.92395e-05 -0.000220447 -9.30151e-05 0.000179927
internal_weight=0 270 32 232 220 49 171 68 38 25 29
internal_count=302 270 32 232 220 49 171 68 38 25 29
is_linear=0
shrinkage=0.000974436


Tree=7
num_leaves=12
num_cat=0
split_feature=42 54 149 2 171 103 66 2 154 91 139
split_gain=7.0698 4.90929 4.44522 3.74474 2.58569 2.53388 2.29529 2.03864 1.37745 1.87544 1.63433
threshold=7.5000000000000009 2.7053171885922338 240.18333333333334 55.500000000000007 64.500000000000014 36.572649572649574 376.42023567410575 44.500000000000007 397.25000000000006 10.500000000000002 10.836764705882356
decision_type=2 2 2 2 2 2 2 2 2 2 2
left_child=4 2 -2 7 -1 -4 -7 -3 10 -10 -5
right_child=1 3 5 8 -6 6 -8 -9 9 -11 -12
leaf_value=-0.00074719475372163877 -0.00069027967282217679 -5.4780179553987856e-06 0.00024267019686656526 -9.2208484133545423e-05 -0.0001885988323032906 -0.00047912417392849887 2.1678972546862611e-05 -0.00049595861354312138 -0.00018302630809606296 0.00030901752479527806 0.00027154341967523338
leaf_weight=13.999999999999998 12.999999999999998 30 18 12.999999999999998 18 15.999999999999998 19 10.999999999999998 19.000000000000004 11.999999999999998 119
leaf_count=14 13 30 18 13 18 16 19 11 19 12 119
internal_value=0 5.13273e-05 -0.000179663 0.000126071 -0.000433068 -5.43667e-05 -0.000207197 -0.000137133 0.000192291 7.3691e-06 0.000235701
internal_weight=0 270 66 204 32 53 35 41 163 31 132
internal_count=302 270 66 204 32 53 35 41 163 31 132
is_linear=0
shrinkage=0.000974436


Tree=8
num_leaves=12
num_cat=0
split_feature=138 97 139 163 56 154 150 38 2 177 108
split_gain=5.92383 4.92702 2.86075 2.78101 2.44118 2.0564 2.24391 3.27074 1.96301 1.60892 1.33126
threshold=1122.0000000000002 111.50000000000001 10.552631578947368 94.625000000000014 1.7402645680696136 39.250000000000007 269.50000000000006 30.500000000000004 84.500000000000014 0.40458644009016825 23.500000000000004
decision_type=2 2 2 2 2 2 2 2 2 10 2
left_child=1 9 -2 4 5 -4 10 -8 -3 -1 -7
right_child=2 8 3 -5 -6 6 7 -9 -10 -11 -12
leaf_value=-0.00083752395237419465 -0.00034567895310435616 -0.00031566523195450256 -0.00036417618425389211 -0.00018841585086959325 0.00025109341535924106 -1.0495634135119873e-05 -0.00040560804032358031 0.00022230599826657133 0.00017571585111178709 -0.00035225615257152752 0.00028411285902839583
leaf_weight=13.000000000000002 14.999999999999998 12.999999999999998 10.999999999999998 29 92 22 18 13.999999999999998 19 12.999999999999998 43
leaf_count=13 15 13 11 29 92 22 18 14 19 13 43
internal_value=0 -0.000279917 6.6538e-05 9.35502e-05 0.000134448 3.50599e-05 8.03603e-05 -0.000130823 -2.38368e-05 -0.000594995 0.000184364
internal_weight=0 58 244 229 200 108 97 32 32 26 65
internal_count=302 58 244 229 200 108 97 32 32 26 65
is_linear=0
shrinkage=0.000974436


Tree=9
num_leaves=12
num_cat=0
split_feature=27 63 105 105 153 79 52 26 53 10 120
split_gain=7.26017 3.99299 3.10192 2.21016 2.07668 2.01198 1.69988 1.53647 1.44107 1.52927 1.93007
threshold=1.5000000000000002 363226.28573936695 27.500000000000004 42.500000000000007 478.00000000000006 1787691.5000000002 4.8879692446856629 19.500000000000004 23.500000000000004 1.0000000180025095e-35 4.5504628649512124
decision_type=2 2 2 2 2 2 2 2 2 2 2
left_child=1 2 -1 -3 8 6 -6 -5 9 10 -2
right_child=4 3 -4 7 5 -7 -8 -9 -10 -11 -12
leaf_value=-0.00025707831696601707 -0.00024455068702832611 -0.00038757095762863753 -0.00087505688456794627 0.00014904758569659195 -5.4968904046434914e-05 0.00011750250897631955 -0.00054134750536166318 -0.00027481616489079865 0.00027654142517529004 0.00019753128201512187 0.00017509867567690169
leaf_weight=19 23 15.999999999999998 12.999999999999998 31 18.000000000000004 31 10.999999999999998 10.999999999999998 60 50 19
leaf_count=19 23 16 13 31 18 31 11 11 60 50 19
internal_value=0 -0.000231883 -0.000508218 -7.93778e-05 9.84409e-05 -5.50326e-05 -0.000239546 3.79774e-05 0.000159038 8.23783e-05 -5.46537e-05
internal_weight=0 90 32 58 212 60 29 42 152 92 42
internal_count=302 90 32 58 212 60 29 42 152 92 42
is_linear=0
shrinkage=0.000974436


Tree=10
num_leaves=12
num_cat=0
split_feature=157 182 183 38 99 99 95 174 57 30 109
split_gain=6.54735 5.63588 2.75255 3.80512 2.6731 3.65905 2.46449 1.685 1.50768 1.40502 1.369
threshold=1161.0000000000002 63.500000000000007 43.500000000000007 3.5000000000000004 18.500000000000004 26.500000000000004 1.7772114740695419 0.21852854886030237 137877.00000000003 5.5000000000000009 37.500000000000007
decision_type=2 2 2 2 2 2 2 2 2 2 2
left_child=1 8 3 6 -5 7 -2 -6 -1 -3 -8
right_child=2 9 -4 4 5 -7 10 -9 -10 -11 -12
leaf_value=-0.00083675544681256818 -0.00057491293614010609 -0.00016167302474640423 0.00023768043239770183 0.00028742492772844234 -1.7634427956039713e-05 0.00014252650588662762 6.1153102669106576e-05 -0.00048385808681598798 -0.00039547739661254742 0.0002687646030933841 -0.00036312224123403547
leaf_weight=13.000000000000002 13.999999999999998 18.000000000000004 68 44 13.000000000000002 54 21 17 17 11.999999999999998 10.999999999999998
leaf_count=13 14 18 68 44 13 54 21 17 17 12 11
internal_value=0 -0.000288146 7.14414e-05 6.46027e-06 9.28582e-05 -9.03127e-06 -0.000233898 -0.000281911 -0.00058679 1.04259e-05 -8.46226e-05
internal_weight=0 60 242 174 128 84 46 30 30 30 32
internal_count=302 60 242 174 128 84 46 30 30 30 32
is_linear=0
shrinkage=0.000974436


Tree=11
num_leaves=12
num_cat=0
split_feature=43 120 149 63 120 151 62 65 159 92 107
split_gain=7.23735 4.0326 2.56729 2.25967 2.18543 2.07875 2.3555 2.85277 1.77489 1.78611 1.15594
threshold=1.5000000000000002 4.4880585809051352 436.50000000000006 363226.28573936695 4.3422359042626963 361.00000000000006 102.56528281297938 74.930381863283188 75.500000000000014 51.979000000000006 124.50000000000001
decision_type=2 2 2 2 2 2 2 2 2 2 2
left_child=1 3 10 -1 -5 -2 7 -7 -8 -10 -3
right_child=5 2 -4 4 -6 6 8 -9 9 -11 -12
leaf_value=-0.00069077214225660101 -0.00020063024398432407 -9.3936807200079608e-05 -0.0003651548760938198 1.5054403014093072e-05 -0.00053962051108107372 -0.00046514691126536622 0.00021112981904996311 0.00020900079524748891 -0.00036406824942171592 0.0001693754937654354 0.00029637925599633024
leaf_weight=19 20 12.000000000000002 13.999999999999998 14.000000000000002 12.999999999999998 13.000000000000002 144 10.999999999999998 11.000000000000002 12.999999999999998 18
leaf_count=19 20 12 14 14 13 13 144 11 11 13 18
internal_value=0 -0.000231518 -2.05608e-05 -0.000433249 -0.000251931 9.8286e-05 0.000129436 -0.000156068 0.000170236 -7.50251e-05 0.000140176
internal_weight=0 90 44 46 27 212 192 24 168 24 30
internal_count=302 90 44 46 27 212 192 24 168 24 30
is_linear=0
shrinkage=0.000974436


Tree=12
num_leaves=12
num_cat=0
split_feature=42 135 39 163 71 108 181 108 170 116 120
split_gain=7.02453 4.06091 3.46075 3.35491 2.89547 2.81649 1.69884 2.28271 1.59458 1.36976 1.33613
threshold=7.5000000000000009 40.250000000000007 20.000000000000004 100.25000000000001 614.75000000000011 66.500000000000014 0.81836785315639349 22.500000000000004 48.500000000000007 2.4366474191332119 4.7970774708475075
decision_type=2 2 2 2 2 2 2 2 2 2 2
left_child=4 2 8 6 -1 -5 9 -8 -2 10 -3
right_child=1 3 -4 5 -6 -7 7 -9 -10 -11 -12
leaf_value=-0.00065872965359702604 -0.00066091132272796634 0.00018724616652748342 0.0002535444021937145 0.00011952132215218786 -5.3051470171412943e-05 -0.0004788366278759304 -0.00027043393179291831 0.00013216238049772378 -0.00021536762339445319 0.00031033610421579737 -0.00016824129541664993
leaf_weight=20 11.999999999999998 44 10.999999999999998 14.000000000000002 11.999999999999998 15.999999999999998 18 52 21 69 12.999999999999998
leaf_count=20 12 44 11 14 12 16 18 52 21 69 13
internal_value=0 5.11625e-05 -0.000219657 0.000103899 -0.000431679 -0.000199528 0.000150355 2.86026e-05 -0.000377464 0.000217976 0.000106128
internal_weight=0 270 44 226 32 30 196 70 33 126 57
internal_count=302 270 44 226 32 30 196 70 33 126 57
is_linear=0
shrinkage=0.000974436


Tree=13
num_leaves=12
num_cat=0
split_feature=0 137 54 132 148 186 40 118 159 52 180
split_gain=7.57641 3.33516 2.719 3.08536 2.43736 2.27638 1.64977 1.61646 1.52661 1.92208 1.48188
threshold=1233.5000000000002 203.50000000000003 2.9278018430445782 125.00000000000001 5.5000000000000009 21.522786240220896 11.500000000000002 98.500000000000014 49.500000000000007 5.119829059829061 0.75368219955342031
decision_type=2 2 2 2 2 2 2 2 2 2 2
left_child=5 2 4 -4 -2 10 -3 -6 -5 -10 -1
right_child=1 6 3 8 7 -7 -8 -9 9 -11 -12
leaf_value=2.7420528395395027e-05 6.0518955892523182e-05 -0.00053838226355712134 -0.00017692084069403718 0.00031595985759323291 -0.00058363530767700669 -0.00069864392300682178 -7.6045472534921763e-05 -5.511369385856661e-05 0.00026856191899492796 -0.00012445283467263366 -0.00045666499679852731
leaf_weight=12.000000000000002 59 10.999999999999998 20 81 11.000000000000002 14.999999999999998 22 10.999999999999998 27 21 11.999999999999998
leaf_count=12 59 11 20 81 11 15 22 11 27 21 12
internal_value=0 5.94341e-05 0.000101006 0.000179126 -4.26662e-05 -0.000400796 -0.000230236 -0.00031949 0.000234345 9.65698e-05 -0.00021453
internal_weight=0 263 230 149 81 39 33 22 129 48 24
internal_count=302 263 230 149 81 39 33 22 129 48 24
is_linear=0
shrinkage=0.000974436


Tree=14
num_leaves=12
num_cat=0
split_feature=118 7 131 132 144 118 79 170 184 169 87
split_gain=7.33113 5.01331 3.74907 3.19635 2.37694 1.96048 1.35307 1.29395 1.2638 0.997806 0.794401
threshold=53.500000000000007 11.500000000000002 38.500000000000007 119.50000000000001 23.250000000000004 44.500000000000007 1697387.0000000002 72.500000000000014 0.60300233988583796 0.057189542483660101 102.50000000000001
decision_type=2 2 2 2 2 2 2 2 2 2 2
left_child=1 7 5 8 6 -3 -5 -1 -2 -8 -11
right_child=3 2 -4 4 -6 -7 9 -9 -10 10 -12
leaf_value=-0.00081448646774028098 -2.0697478027836551e-05 -0.00058117025323345926 0.00039032944442906784 -7.8017456528269068e-05 -0.00021542507594879962 -5.3053579777947441e-05 -9.930708685857692e-05 -0.00038702779312757796 -0.00043491942706480564 3.230968454969293e-05 0.00023212199568014495
leaf_weight=14.000000000000002 14.000000000000002 11.000000000000002 11.999999999999998 21 18 17 10.999999999999998 12.999999999999998 13.999999999999998 22 135
leaf_count=14 14 11 12 21 18 17 11 13 14 22 135
internal_value=0 -0.000284335 -6.52736e-05 8.10658e-05 0.00012287 -0.00026062 0.000155101 -0.000608774 -0.000227897 0.000184255 0.000204138
internal_weight=0 67 40 235 207 28 189 27 28 168 157
internal_count=302 67 40 235 207 28 189 27 28 168 157
is_linear=0
shrinkage=0.000974436


Tree=15
num_leaves=12
num_cat=0
split_feature=175 86 27 25 103 110 132 115 95 52 96
split_gain=5.43148 4.44763 4.20314 3.39189 3.21867 1.77386 1.55143 1.25737 1.13156 1.51523 0.993285
threshold=0.33403068340306835 610.50000000000011 1.5000000000000002 1.0000000180025095e-35 35.703869047619058 2.2134103641456586 159.00000000000003 1.5000000000000002 3.1497004110435731 4.4544084525702186 701.42450000000042
decision_type=2 2 2 2 2 2 2 2 2 2 2
left_child=1 4 3 7 -1 -4 -3 -2 9 -7 -11
right_child=2 6 5 -5 -6 8 -8 -9 -10 10 -12
leaf_value=-0.00013404205205390729 -0.00020459873607035656 -0.00022701758741287343 -9.5287641890251046e-05 0.00010744255448358928 -0.000684384070143579 -0.00015857217329428628 0.00018790697497406063 -0.00061290894456969471 0.00033786201121259072 0.00035166329675279703 0.00012611529625917824
leaf_weight=18 16.000000000000004 13.999999999999998 24 24 23 13.999999999999998 22 12.999999999999998 37 25 72
leaf_count=18 16 14 24 24 23 14 22 13 37 25 72
internal_value=0 -0.000223385 7.64471e-05 -0.000163455 -0.000442833 0.000150384 2.64812e-05 -0.000387725 0.000190239 0.000141009 0.000184272
internal_weight=0 77 225 53 41 172 36 29 148 111 97
internal_count=302 77 225 53 41 172 36 29 148 111 97
is_linear=0
shrinkage=0.000974436


Tree=16
num_leaves=12
num_cat=0
split_feature=35 42 63 188 144 112 25 153 87 161 38
split_gain=6.4774 4.97851 2.66467 2.30799 2.02751 1.94807 1.45049 1.41387 1.69563 1.63558 1.74764
threshold=984.00000000000011 7.5000000000000009 269452.95604661835 90.218719913934066 7.8750000000000009 1.2500000000000002 1.0000000180025095e-35 547.50000000000011 151.50000000000003 90.000000000000014 3.5000000000000004
decision_type=2 2 2 2 2 2 2 2 2 2 2
left_child=2 -2 -1 -4 5 -3 -7 9 -9 10 -6
right_child=1 4 3 -5 7 6 -8 8 -10 -11 -12
leaf_value=-0.00075506884354421995 -0.00038265683794063408 -0.00045084596598064775 6.7474064887316194e-05 -0.0004347149183965339 -5.5271839475454116e-05 -0.00023038745845389627 0.0002354303506050433 0.00014722572343338412 -0.00025499208697412446 0.00043010024654032352 0.00020568394097514959
leaf_weight=10.999999999999998 22 10.999999999999998 15.999999999999998 19 32 11.000000000000002 14.999999999999998 24 17 22 102
leaf_count=11 22 11 16 19 32 11 15 24 17 22 102
internal_value=0 6.04934e-05 -0.000336658 -0.000205079 0.000102168 -0.00010709 3.82626e-05 0.000141482 -1.94917e-05 0.000183805 0.000143349
internal_weight=0 256 46 35 234 37 26 197 41 156 134
internal_count=302 256 46 35 234 37 26 197 41 156 134
is_linear=0
shrinkage=0.000974436


Tree=17
num_leaves=12
num_cat=0
split_feature=157 79 54 151 99 2 188 83 132 83 102
split_gain=6.46885 4.55877 4.31347 3.068 2.65797 3.35248 2.28043 2.20447 1.88088 1.73293 1.34441
threshold=1161.0000000000002 1697387.0000000002 2.7174517079434777 538.00000000000011 18.500000000000004 55.500000000000007 145.85025390990964 843252.00000000012 125.00000000000001 687729.00000000012 16.500000000000004
decision_type=2 2 2 2 2 2 2 2 2 2 2
left_child=1 -1 3 7 -4 -6 -3 -2 -7 10 -10
right_child=2 6 4 -5 5 8 -8 -9 9 -11 -12
leaf_value=-0.00069671808852734521 -0.0007592097948992784 4.997569180943213e-05 0.0003449786035612148 1.8994931116429363e-05 -0.00027421746316943818 -0.00012476150845481399 -0.0004316210561362741 -0.00014198378013406695 -0.00025842431952517991 0.00027439936229974461 0.00018602888011559304
leaf_weight=18 11.000000000000002 28 46 33 22 21 13.999999999999998 10.999999999999998 12.000000000000002 72 13.999999999999998
leaf_count=18 11 28 46 33 22 21 14 11 12 72 14
internal_value=0 -0.000286413 7.10116e-05 -0.00016885 0.000141572 7.51945e-05 -0.000110505 -0.000450716 0.000139813 0.000196531 -1.90145e-05
internal_weight=0 60 242 55 187 141 42 22 119 98 26
internal_count=302 60 242 55 187 141 42 22 119 98 26
is_linear=0
shrinkage=0.000974436


Tree=18
num_leaves=12
num_cat=0
split_feature=43 183 38 110 118 146 35 26 141 136 98
split_gain=7.16384 3.77114 4.27706 2.44239 2.86608 2.13223 2.12277 1.9079 1.28611 0.969299 1.32641
threshold=1.5000000000000002 28.500000000000004 6.5000000000000009 2.191576086956522 61.500000000000007 33.750000000000007 1031.5000000000002 16.500000000000004 47.500000000000007 57.500000000000007 67.500000000000014
decision_type=2 2 2 2 2 2 2 2 2 2 2
left_child=1 2 -1 4 -2 9 -4 8 -3 10 -5
right_child=3 7 6 5 -6 -7 -8 -9 -10 -11 -12
leaf_value=-0.00082070500077149205 -0.00042433823817488293 0.00032592815718498829 -0.00045985992365549374 -0.00019290417887595849 0.00013350519785367039 -0.00014713219252847926 0.00010835104753875521 -0.00028374298717849452 -8.4634256939688929e-05 0.00022103007083369914 0.00021777100219280121
leaf_weight=17 17 14.000000000000002 13.000000000000002 14.000000000000002 18 21 11.999999999999998 19 14.999999999999998 126 15.999999999999998
leaf_count=17 17 14 13 14 18 21 12 19 15 126 16
internal_value=0 -0.00023034 -0.000443581 9.77854e-05 -0.000137383 0.000144301 -0.000187029 -4.37007e-05 0.00011349 0.000183548 2.60444e-05
internal_weight=0 90 42 212 35 177 25 48 29 156 30
internal_count=302 90 42 212 35 177 25 48 29 156 30
is_linear=0
shrinkage=0.000974436


Tree=19
num_leaves=12
num_cat=0
split_feature=42 0 94 86 135 162 135 175 73 80 92
split_gain=6.95158 5.43287 3.6271 2.88016 2.45153 1.9133 2.33083 2.64372 1.71364 2.89539 1.69524
threshold=7.5000000000000009 1233.5000000000002 0.61026272197358733 614.00000000000011 40.250000000000007 72.500000000000014 83.500000000000014 0.41703179418042918 1953.0000000000002 602.50000000000011 66.129500000000021
decision_type=2 2 2 2 2 2 2 2 2 2 2
left_child=3 2 -2 -1 10 -6 8 -8 9 -7 -3
right_child=1 4 -4 -5 5 6 7 -9 -10 -11 -12
leaf_value=-0.00065588099339219507 -0.00065560344217841394 3.7460057472744802e-05 1.1211719795376572e-05 -5.1806702083568012e-05 0.000236873561434449 0.00025409983880190574 9.3501775920536777e-05 -0.0005406228187175093 0.00022163807133743148 -0.0004528311212702387 -0.00040019867660418278
leaf_weight=20 16.000000000000004 21 14.999999999999998 11.999999999999998 101 11.000000000000002 13.000000000000002 11.999999999999998 56 10.999999999999998 13.999999999999998
leaf_count=20 16 21 15 12 101 11 13 12 56 11 14
internal_value=0 5.0896e-05 -0.000332882 -0.000429432 0.000100685 0.000141569 4.80916e-05 -0.00021079 0.000131098 -9.9262e-05 -0.000137541
internal_weight=0 270 31 32 239 204 103 25 78 22 35
internal_count=302 270 31 32 239 204 103 25 78 22 35
is_linear=0
shrinkage=0.000974436


Tree=20
num_leaves=12
num_cat=0
split_feature=0 26 97 144 112 140 134 116 139 111 159
split_gain=7.48533 4.75125 3.95553 1.98572 1.94152 1.33621 1.24497 1.24064 1.23128 1.71216 2.90916
threshold=1233.5000000000002 7.5000000000000009 116.50000000000001 7.8750000000000009 1.2500000000000002 3.5000000000000004 73.500000000000014 1.4802481853408287 28.289682539682541 3.0526316625766055 58.500000000000007
decision_type=2 2 2 2 2 2 2 2 2 2 2
left_child=2 7 6 4 -3 -6 -1 -2 9 10 -5
right_child=1 3 -4 8 5 -7 -8 -9 -10 -11 -12
leaf_value=-0.00085712909293854346 -0.00057580400245736392 -0.00045008696786064188 1.6153220437805206e-05 0.00016275580864894419 0.00029622219729288132 -0.0001508666176151222 -0.00042129758438876194 -0.00013238965470707895 -0.00011227712433503108 0.00023481421223256008 -0.00028393066574752682
leaf_weight=12.000000000000002 12.000000000000002 10.999999999999998 13.999999999999998 51 11.000000000000002 14.999999999999998 12.999999999999998 11.999999999999998 17 115 19
leaf_count=12 12 11 14 51 11 15 13 12 17 115 19
internal_value=0 5.90756e-05 -0.00039838 0.000100587 -0.000106909 3.81988e-05 -0.000630607 -0.000354204 0.000138606 0.000161673 4.14774e-05
internal_weight=0 263 39 239 37 26 25 24 202 185 70
internal_count=302 263 39 239 37 26 25 24 202 185 70
is_linear=0
shrinkage=0.000974436


Tree=21
num_leaves=12
num_cat=0
split_feature=27 183 109 6 38 79 153 107 62 117 97
split_gain=7.12881 3.75362 3.18491 2.48622 2.30624 2.39493 3.18501 1.84714 1.35022 1.17852 1.1473
threshold=1.5000000000000002 28.500000000000004 27.500000000000004 347.50000000000006 1.5000000000000002 1786929.0000000002 501.50000000000006 189.50000000000003 106.83442682461047 34.500000000000007 142.50000000000003
decision_type=2 2 2 2 2 2 2 2 2 2 2
left_child=1 2 -1 -3 7 6 10 -2 -4 -7 -6
right_child=4 3 8 -5 5 9 -8 -9 -10 -11 -12
leaf_value=-0.00073779382946006057 4.2136549170414721e-05 0.00011318840852583998 -0.00044508308826503404 -0.00035722814928420844 0.0002800083056099501 2.1027861224577158e-05 -0.00032190704022668436 -0.00039986853089269488 2.7378967349943618e-05 0.00028989828208012187 -1.535173992132057e-05
leaf_weight=19 25 32 11.000000000000002 15.999999999999998 26 19 20 13.999999999999998 11.999999999999998 84 24
leaf_count=19 25 32 11 16 26 19 20 14 12 84 24
internal_value=0 -0.000229776 -0.000442521 -4.35709e-05 9.7546e-05 0.000145807 6.69864e-06 -0.000116476 -0.000198485 0.000240324 0.00013819
internal_weight=0 90 42 48 212 173 70 39 23 103 50
internal_count=302 90 42 48 212 173 70 39 23 103 50
is_linear=0
shrinkage=0.000974436


Tree=22
num_leaves=12
num_cat=0
split_feature=118 42 102 146 57 117 60 159 99 22 91
split_gain=7.2329 3.84524 2.55083 2.25187 2.31378 1.87973 1.69743 1.54694 1.6018 2.30706 1.25126
threshold=53.500000000000007 11.500000000000002 13.500000000000002 33.750000000000007 211287.50000000003 37.500000000000007 100.59451382983447 9.5000000000000018 15.500000000000002 27.500000000000004 11.500000000000002
decision_type=2 2 2 2 2 2 2 2 2 2 2
left_child=1 6 -3 5 -5 7 -1 -2 -9 -10 -7
right_child=3 2 -4 4 -6 10 -8 8 9 -11 -12
leaf_value=-0.00070314964633939501 -0.00036342068959659271 -0.00037266711691104045 0.00015341633472240018 4.3160384598135559e-05 -0.00049796996586951047 0.00011794016972419446 -0.00022620276908768246 0.00034835428886728772 -0.00029686821227486987 0.00024179059300094222 0.00031508423212324194
leaf_weight=20.000000000000004 10.999999999999998 14.999999999999998 21 20 11.999999999999998 106 10.999999999999998 11.999999999999998 18.000000000000004 12.999999999999998 43
leaf_count=20 11 15 21 20 12 106 11 12 18 13 43
internal_value=0 -0.000282424 -6.57227e-05 8.05207e-05 -0.000159696 0.000118399 -0.000533994 -3.73223e-05 4.60479e-05 -7.09031e-05 0.000174851
internal_weight=0 67 36 235 32 203 31 54 43 31 149
internal_count=302 67 36 235 32 203 31 54 43 31 149
is_linear=0
shrinkage=0.000974436


Tree=23
num_leaves=12
num_cat=0
split_feature=2 138 42 59 187 131 90 131 141 177 167
split_gain=8.46313 3.46142 2.79099 2.52126 3.9785 2.4061 1.95844 1.84833 1.60096 1.40098 0.861344
threshold=55.500000000000007 1179.5000000000002 7.5000000000000009 716796.02301635896 5.4457500000000012 52.500000000000007 10.500000000000002 27.500000000000004 26.500000000000004 0.42468834112480519 0.057189542483660101
decision_type=2 2 2 2 2 2 2 2 2 8 2
left_child=1 6 -2 4 8 7 -1 -3 -4 -10 -5
right_child=2 5 3 10 -6 -7 -8 -9 9 -11 -12
leaf_value=-0.00069463736683045404 -0.00032673881534369135 -0.00019183814793651536 -0.00050127692288358925 -5.5204556893437189e-05 0.00027385793098599708 -0.00045606152873673529 -0.00022381641955715123 0.00030041347253610012 7.7704811182808045e-05 -0.00036361874462991205 0.00021723015745948952
leaf_weight=21 13.999999999999998 14.000000000000002 12.999999999999998 11.999999999999998 25 11.999999999999998 13.999999999999998 14.999999999999998 18.000000000000004 10.999999999999998 133
leaf_count=21 14 14 13 12 25 12 14 15 18 11 133
internal_value=0 -0.000281295 9.45945e-05 0.00012243 -3.38691e-05 -8.90838e-05 -0.000506383 6.26949e-05 -0.000217097 -8.96173e-05 0.000194668
internal_weight=0 76 226 212 67 41 35 29 42 29 145
internal_count=302 76 226 212 67 41 35 29 42 29 145
is_linear=0
shrinkage=0.000974436


Tree=24
num_leaves=12
num_cat=0
split_feature=2 157 165 6 183 179 35 149 175 68 6
split_gain=8.44665 3.55757 2.72542 2.09135 2.82209 1.66404 1.47741 1.90527 1.81659 1.45726 1.24349
threshold=55.500000000000007 1190.5000000000002 206.00000000000003 257.50000000000006 29.500000000000004 1.2038109756097561 1239.0000000000002 212.8666666666667 0.33403068340306835 543654.00000000012 298.50000000000006
decision_type=2 2 2 2 2 10 2 2 2 2 2
left_child=1 9 3 4 -2 10 -5 -8 -9 -1 -3
right_child=2 5 -4 6 -6 -7 7 8 -10 -11 -12
leaf_value=-0.00079190758917801443 -0.00043164362084363133 -0.00049890124397508574 -0.00028064998810787975 0.00029518450030459418 0.00013872308898802424 7.1863680532132247e-05 -0.00020742388645582648 -0.00014668614807330501 0.00021114352602135693 -0.00035225144465956588 -5.3486957950215872e-05
leaf_weight=13.000000000000002 13.999999999999998 13.000000000000002 17 58 20 23 15.999999999999998 15.999999999999998 85 15.999999999999998 10.999999999999998
leaf_count=13 14 13 17 58 20 23 16 16 85 16 11
internal_value=0 -0.000281021 9.45023e-05 0.000125029 -9.60685e-05 -0.00011535 0.000167999 0.000104928 0.000154434 -0.000549433 -0.000294858
internal_weight=0 76 226 209 34 47 175 117 101 29 24
internal_count=302 76 226 209 34 47 175 117 101 29 24
is_linear=0
shrinkage=0.000974436


Tree=25
num_leaves=12
num_cat=0
split_feature=7 132 102 23 127 141 83 72 21 189 56
split_gain=9.37706 3.43832 4.02755 2.68392 2.08745 2.74549 2.22178 1.8475 1.68409 2.81887 1.29829
threshold=8.5000000000000018 153.50000000000003 14.500000000000002 1.0000000180025095e-35 5.1250000000000009 42.500000000000007 804918.50000000012 110.50000000000001 89.500000000000014 723.50000000000011 1.7120880047477141
decision_type=2 2 2 2 2 2 2 2 2 2 2
left_child=7 2 3 -2 5 -3 -7 -1 -4 -10 -6
right_child=1 4 8 -5 10 6 -8 -9 9 -11 -12
leaf_value=-0.00074328612854515327 -0.00055696286295693663 0.00025010116565127403 0.00036085484466289678 -2.2255097973117801e-05 0.00011573647974144403 -0.00050272805460989758 5.6553499791542711e-05 -0.00025822868802250165 -0.00037680671509136637 0.00012205065627597272 0.00031729496085328764
leaf_weight=16.000000000000004 22 19 13.999999999999998 14.999999999999998 65 14.000000000000002 12.999999999999998 13.999999999999998 14.999999999999998 38 57
leaf_count=16 22 19 14 15 65 14 13 14 15 38 57
internal_value=0 5.70241e-05 -8.22064e-05 -0.000340257 0.000143228 -3.36194e-05 -0.000233363 -0.000517014 6.0266e-05 -1.9094e-05 0.000209928
internal_weight=0 272 104 37 168 46 27 30 67 53 122
internal_count=302 272 104 37 168 46 27 30 67 53 122
is_linear=0
shrinkage=0.000974436


Tree=26
num_leaves=12
num_cat=0
split_feature=81 183 183 139 160 134 162 103 69 115 137
split_gain=5.82408 6.57258 2.89507 3.18526 2.3807 2.34097 1.97804 2.33564 2.18529 2.10652 1.50249
threshold=1159.5000000000002 27.500000000000004 43.500000000000007 28.289682539682541 72.500000000000014 75.500000000000014 55.000000000000007 58.692456479690527 620764.00000000012 4.5000000000000009 105.87500000000001
decision_type=2 2 2 2 2 2 2 2 2 2 2
left_child=1 5 3 4 -2 -1 -6 8 -8 10 -10
right_child=2 -3 -4 -5 6 -7 7 -9 9 -11 -12
leaf_value=-0.00084415439127542835 -0.00033104074209698716 5.0135967643738276e-05 0.00023559214712810496 -0.00032324095155923313 0.00025314027237455326 -0.00026684942335059454 -0.00049646980231159187 0.00022521219845375692 -7.9136821343056863e-05 -0.00035415873446213768 0.00031481326991631206
leaf_weight=17.000000000000004 13.999999999999998 28 68 25 47 10.999999999999998 10.999999999999998 31 20 12.999999999999998 17
leaf_count=17 14 28 68 25 47 11 11 31 20 13 17
internal_value=0 -0.000283619 6.45635e-05 -7.60741e-07 5.19179e-05 -0.000617451 9.05075e-05 7.39669e-06 -0.000103259 -1.67008e-05 0.000101806
internal_weight=0 56 246 178 153 28 139 92 61 50 37
internal_count=302 56 246 178 153 28 139 92 61 50 37
is_linear=0
shrinkage=0.000974436


Tree=27
num_leaves=12
num_cat=0
split_feature=138 97 181 96 139 109 163 129 22 177 161
split_gain=5.73644 4.79445 2.83747 2.30235 2.76978 2.73331 1.81681 1.90679 1.79793 1.58364 1.35291
threshold=1122.0000000000002 111.50000000000001 0.81836785315639349 889.70349999999951 20.590909090909097 20.500000000000004 94.625000000000014 17.500000000000004 28.500000000000004 0.40458644009016825 62.500000000000007
decision_type=2 2 2 2 2 2 2 2 2 10 2
left_child=1 9 6 5 -5 10 7 -2 -9 -1 -4
right_child=2 -3 3 4 -6 -7 -8 8 -10 -11 -12
leaf_value=-0.00082687971692407402 0.00026963961826112709 -2.2841904264034966e-05 -0.00022882693228193878 0.00019897157664140185 -0.0003347540838423489 9.5211888341922294e-06 -0.00022996644400429407 -0.0002270992085989984 0.00016294943033056493 -0.00034544003542408128 -0.00071254358882191142
leaf_weight=13.000000000000002 86 32 11.000000000000002 40 11.999999999999998 23 10.999999999999998 17 33 12.999999999999998 10.999999999999998
leaf_count=13 86 32 11 40 12 23 11 17 33 13 11
internal_value=0 -0.000275455 6.54767e-05 -6.38651e-05 7.57565e-05 -0.000225256 0.000150841 0.000181659 3.02848e-05 -0.000586264 -0.000470805
internal_weight=0 58 244 97 52 45 147 136 50 26 22
internal_count=302 58 244 97 52 45 147 136 50 26 22
is_linear=0
shrinkage=0.000974436


Tree=28
num_leaves=12
num_cat=0
split_feature=26 5 43 179 117 136 99 52 120 63 8
split_gain=6.85406 4.24597 4.40195 2.84834 2.56477 2.41337 2.45268 2.07857 2.01945 1.28853 1.17059
threshold=7.5000000000000009 1114.5000000000002 2.5000000000000004 0.890227576974565 40.500000000000007 61.250000000000007 18.500000000000004 5.0995783435112498 4.5804169202678038 363226.28573936695 17.500000000000004
decision_type=2 2 2 10 2 2 2 2 2 2 2
left_child=3 2 9 -1 5 -3 -7 8 -8 -2 -6
right_child=1 4 -4 -5 10 6 7 -9 -10 -11 -12
leaf_value=-0.00065160392874747406 -0.00058753262373343077 -0.00042606993603375057 0.00023577924965654393 -5.0875133559831526e-05 0.00021341493049518282 0.00039289861924700348 -0.00017740263178793613 -0.00034017777047617396 0.00038783137111366041 -0.00021315257481885572 -3.4308493804203945e-05
leaf_weight=20 17 12.999999999999998 14.999999999999998 11.999999999999998 131 13.999999999999998 12.000000000000002 17 11.999999999999998 18 21
leaf_count=20 17 13 15 12 131 14 12 17 12 18 21
internal_value=0 5.05376e-05 -0.000205767 -0.000426409 0.0001088 -4.84747e-05 4.07364e-05 -7.94612e-05 0.00010512 -0.000395069 0.000179175
internal_weight=0 270 50 32 220 68 55 41 24 35 152
internal_count=302 270 50 32 220 68 55 41 24 35 152
is_linear=0
shrinkage=0.000974436


Tree=29
num_leaves=12
num_cat=0
split_feature=7 2 86 19 108 21 96 7 22 132 100
split_gain=9.31969 4.89125 2.59471 2.3663 2.19236 2.01054 3.76231 2.00725 1.93857 1.8054 2.05162
threshold=8.5000000000000018 55.500000000000007 614.00000000000011 1049.5000000000002 88.500000000000014 104.50000000000001 889.70349999999951 21.500000000000004 3.5000000000000004 119.50000000000001 17.500000000000004
decision_type=2 2 2 2 2 2 2 2 2 2 2
left_child=2 3 -1 4 -2 6 -3 -7 -5 -9 -11
right_child=1 5 -4 8 -6 7 -8 9 -10 10 -12
leaf_value=-0.00073350402715537469 -0.00075213974017033689 -0.0004021540783669104 -0.00013852398185179579 -0.00024655094924512841 -0.00013661501837892886 0.00026587142284369375 0.00018714780827143213 -0.00024924215492488021 0.00020098210339531959 0.0004274947472845726 1.9971093541595547e-05
leaf_weight=19.000000000000004 11.000000000000002 18 10.999999999999998 20 10.999999999999998 96 24 14.999999999999998 17 15.999999999999998 44
leaf_count=19 11 18 11 20 11 96 24 15 17 16 44
internal_value=0 5.68493e-05 -0.00051543 -0.000191414 -0.000444497 0.000125628 -6.53566e-05 0.000172551 -4.08644e-05 5.30681e-05 0.000128687
internal_weight=0 272 30 59 22 213 42 171 37 75 60
internal_count=302 272 30 59 22 213 42 171 37 75 60
is_linear=0
shrinkage=0.000974436


Tree=30
num_leaves=12
num_cat=0
split_feature=43 51 99 173 110 67 67 146 168 99 83
split_gain=7.0386 4.34501 2.92873 3.08756 2.404 2.83717 2.35118 2.10014 1.33487 1.20159 1.1302
threshold=1.5000000000000002 254.50000000000003 32.500000000000007 211.50000000000003 2.191576086956522 62.346688320029209 78.929905440233668 33.750000000000007 -1.0000000180025095e-35 18.500000000000004 881786.50000000012
decision_type=2 2 2 2 2 2 2 2 2 2 2
left_child=1 2 3 8 5 -2 -3 9 -1 -6 -11
right_child=4 6 -4 -5 7 -7 -8 -9 -10 10 -12
leaf_value=-0.00060419826672807432 -0.00049731061869124314 0.00020726366006082323 3.4917259262261987e-05 -0.00097285621864140774 0.00033543811489504245 7.6789178820162385e-05 -0.00029519516784877285 -0.00014615559650846401 -0.00018911229754848456 5.7536350046882579e-05 0.00025185609048782167
leaf_weight=12.999999999999998 12.999999999999998 24 10.999999999999998 10.999999999999998 37 22 13.999999999999998 21 17.000000000000004 72 47
leaf_count=13 13 24 11 11 37 22 14 21 17 72 47
internal_value=0 -0.000228318 -0.000411346 -0.000531131 9.69267e-05 -0.000136386 2.20837e-05 0.000143076 -0.00036907 0.000182026 0.000134305
internal_weight=0 90 52 41 212 35 38 177 30 156 119
internal_count=302 90 52 41 212 35 38 177 30 156 119
is_linear=0
shrinkage=0.000974436


Tree=31
num_leaves=12
num_cat=0
split_feature=0 141 54 100 148 139 87 150 146 167 130
split_gain=7.35097 3.7174 3.9034 2.41021 2.21484 2.2954 1.54887 1.71566 1.43781 1.24374 1.11315
threshold=1233.5000000000002 97.000000000000014 2.7174517079434777 18.500000000000004 5.5000000000000009 19.301282051282055 102.50000000000001 429.00000000000006 13.625000000000002 0.18333333333333332 86.3888888888889
decision_type=2 2 2 2 2 2 2 2 2 2 2
left_child=3 2 4 10 5 -2 9 8 -8 -4 -1
right_child=1 -3 6 -5 -6 -7 7 -9 -10 -11 -12
leaf_value=-0.00037804712498653811 0.00013492767587581434 -0.00042999253163045691 0.00018429559426008058 -8.0869644084157232e-06 -0.00044685799538861717 -0.00037443245298611396 -5.4512939686524538e-05 -0.00011456537522650681 0.0002546736929360889 -0.00022538405468908523 -0.00077115594583706745
leaf_weight=16.000000000000004 28 13.999999999999998 12.000000000000002 10.999999999999998 15.999999999999998 11.999999999999998 15.999999999999998 15.999999999999998 132 17 11.999999999999998
leaf_count=16 28 14 12 11 16 12 16 16 132 17 12
internal_value=0 5.85428e-05 8.60211e-05 -0.000394789 -0.000140452 -1.78253e-05 0.000151746 0.000188457 0.000221232 -5.57803e-05 -0.00054662
internal_weight=0 263 249 39 56 40 193 164 148 29 28
internal_count=302 263 249 39 56 40 193 164 148 29 28
is_linear=0
shrinkage=0.000974436


Tree=32
num_leaves=12
num_cat=0
split_feature=6 38 143 40 96 132 187 143 102 132 107
split_gain=4.93533 4.04026 3.12167 2.3293 2.31723 2.18785 1.96078 1.9638 1.94967 1.56317 1.3612
threshold=222.50000000000003 28.500000000000004 53.500000000000007 19.500000000000004 1429.423500000001 125.00000000000001 4.5080000000000009 9.5000000000000018 14.500000000000002 265.00000000000006 242.50000000000003
decision_type=2 2 2 2 2 2 2 2 2 2 2
left_child=-1 2 3 4 -2 -3 7 -7 -5 -10 -9
right_child=1 5 -4 8 -6 6 -8 10 9 -11 -12
leaf_value=-0.00048074805869651697 -0.00024358646736710095 -0.00016832460781851034 -0.00057576340711947384 -0.00013141663208037505 0.0002267395377969202 -0.00024200170149812686 0.00035620666361786397 0.00028327356328442177 0.00031334884909865811 -9.5589469859651101e-05 -5.6778146274347111e-05
leaf_weight=19 58 17 10.999999999999998 25 11.999999999999998 12.999999999999998 48 37 34 11.999999999999998 15.999999999999998
leaf_count=19 58 17 11 25 12 13 48 37 34 12 16
internal_value=0 3.22766e-05 -7.58012e-05 -3.6778e-05 -0.000162924 0.000157698 0.000206336 9.73014e-05 8.75589e-05 0.000206618 0.000180573
internal_weight=0 283 152 141 70 131 114 66 71 46 53
internal_count=302 283 152 141 70 131 114 66 71 46 53
is_linear=0
shrinkage=0.000974436


Tree=33
num_leaves=12
num_cat=0
split_feature=2 54 71 107 187 132 92 179 42 187 0
split_gain=8.34327 3.50774 2.81756 2.09439 2.72418 2.12208 2.04486 2.47395 1.99102 1.36719 1.94562
threshold=55.500000000000007 2.7174517079434777 610.25000000000011 156.50000000000003 5.4665000000000008 171.00000000000003 117.49850000000002 1.2038109756097561 10.500000000000002 5.4457500000000012 1277.5000000000002
decision_type=2 2 2 2 2 2 2 10 2 2 2
left_child=2 3 8 -2 5 -5 7 -4 -1 10 -3
right_child=1 9 6 4 -6 -7 -8 -9 -10 -11 -12
leaf_value=-0.00072770230593468773 0.00022881504644167388 -0.0002228870156922616 -0.00061570491770967844 -0.0006750080608751381 0.00013107906552324236 -0.00012800524347856247 0.00014542423418270812 -2.1942663720839927e-05 -0.00024031510720552932 0.00035757274423888359 0.00015908549882083343
leaf_weight=17 11.999999999999998 13.999999999999998 12.000000000000002 14.000000000000002 12.999999999999998 12.999999999999998 17 14.999999999999998 14.999999999999998 28 132
leaf_count=17 12 14 12 14 13 13 17 15 15 28 132
internal_value=0 9.3922e-05 -0.000279296 -0.00012812 -0.000235261 -0.000411732 -0.000119219 -0.000285932 -0.000499322 0.000160293 0.000122441
internal_weight=0 226 76 52 40 27 44 27 32 174 146
internal_count=302 226 76 52 40 27 44 27 32 174 146
is_linear=0
shrinkage=0.000974436


Tree=34
num_leaves=12
num_cat=0
split_feature=81 98 2 140 99 100 63 62 189 187 51
split_gain=5.74522 3.61255 3.0118 2.98232 2.88496 2.58691 2.13278 2.41335 2.79002 1.96701 1.89071
threshold=1159.5000000000002 43.500000000000007 55.500000000000007 11.500000000000002 18.500000000000004 26.500000000000004 351214.98449472757 143.64002974637307 1905.0000000000002 4.1160000000000005 216.50000000000003
decision_type=2 2 2 2 2 2 2 2 2 2 2
left_child=1 10 3 -2 -4 6 -6 9 -9 -8 -1
right_child=2 -3 4 -5 5 -7 7 8 -10 -11 -12
leaf_value=-0.0008337300546893587 -1.5524602942951862e-05 -1.574542851401735e-05 0.00033832787754799003 -0.00057281087516211052 -0.00040002384387533111 0.00020813033735213925 -0.00016683994099459418 -0.00047914757733872199 0.0001163904207158371 0.00028058011793782861 -0.00032574215712422017
leaf_weight=11.000000000000002 38 26 44 11.999999999999998 13.999999999999998 62 12.999999999999998 16.000000000000004 13.999999999999998 33 19
leaf_count=11 38 26 44 12 14 62 13 16 14 33 19
internal_value=0 -0.000281692 6.41247e-05 -0.000149326 0.000118589 5.49633e-05 -5.05265e-05 1.38266e-05 -0.000201155 0.000154084 -0.000512096
internal_weight=0 56 246 50 196 152 90 76 30 46 30
internal_count=302 56 246 50 196 152 90 76 30 46 30
is_linear=0
shrinkage=0.000974436


end of trees

feature_importances:
2=12
38=10
99=10
132=10
42=8
131=8
0=6
54=6
63=6
79=6
96=6
103=6
118=6
139=6
183=6
7=5
26=5
27=5
43=5
97=5
120=5
135=5
159=5
163=5
187=5
6=4
22=4
52=4
62=4
83=4
102=4
107=4
108=4
117=4
140=4
141=4
146=4
151=4
175=4
177=4
21=3
35=3
86=3
87=3
92=3
94=3
100=3
109=3
110=3
127=3
137=3
138=3
143=3
144=3
149=3
150=3
153=3
157=3
179=3
5=2
8=2
23=2
25=2
40=2
51=2
56=2
57=2
64=2
66=2
67=2
68=2
71=2
81=2
91=2
95=2
98=2
105=2
111=2
112=2
115=2
116=2
129=2
134=2
136=2
148=2
154=2
161=2
162=2
165=2
167=2
170=2
174=2
181=2
188=2
189=2
1=1
10=1
19=1
30=1
32=1
33=1
39=1
53=1
59=1
60=1
65=1
69=1
70=1
72=1
73=1
78=1
80=1
89=1
90=1
122=1
130=1
142=1
156=1
160=1
168=1
169=1
171=1
173=1
178=1
180=1
182=1
184=1
185=1
186=1

parameters:
[boosting: gbdt]
[objective: regression]
[metric: rmse]
[tree_learner: serial]
[device_type: cpu]
[data: ]
[valid: ]
[num_iterations: 35]
[learning_rate: 0.000974436]
[num_leaves: 12]
[num_threads: -1]
[deterministic: 0]
[force_col_wise: 0]
[force_row_wise: 0]
[histogram_pool_size: -1]
[max_depth: 11]
[min_data_in_leaf: 11]
[min_sum_hessian_in_leaf: 0.001]
[bagging_fraction: 0.7]
[pos_bagging_fraction: 1]
[neg_bagging_fraction: 1]
[bagging_freq: 0]
[bagging_seed: 21897]
[feature_fraction: 0.4]
[feature_fraction_bynode: 0.4]
[feature_fraction_seed: 12646]
[extra_trees: 0]
[extra_seed: 20733]
[early_stopping_round: 0]
[first_metric_only: 0]
[max_delta_step: 0]
[lambda_l1: 0.00240534]
[lambda_l2: 0.000636083]
[linear_lambda: 0]
[min_gain_to_split: 0]
[drop_rate: 0.1]
[max_drop: 50]
[skip_drop: 0.5]
[xgboost_dart_mode: 0]
[uniform_drop: 0]
[drop_seed: 20829]
[top_rate: 0.2]
[other_rate: 0.1]
[min_data_per_group: 100]
[max_cat_threshold: 32]
[cat_l2: 10]
[cat_smooth: 10]
[max_cat_to_onehot: 4]
[top_k: 20]
[monotone_constraints: ]
[monotone_constraints_method: basic]
[monotone_penalty: 0]
[feature_contri: ]
[forcedsplits_filename: ]
[refit_decay_rate: 0.9]
[cegb_tradeoff: 1]
[cegb_penalty_split: 0]
[cegb_penalty_feature_lazy: ]
[cegb_penalty_feature_coupled: ]
[path_smooth: 0]
[interaction_constraints: ]
[verbosity: -1]
[saved_feature_importance_type: 0]
[linear_tree: 0]
[max_bin: 255]
[max_bin_by_feature: ]
[min_data_in_bin: 3]
[bin_construct_sample_cnt: 200000]
[data_random_seed: 182]
[is_enable_sparse: 1]
[enable_bundle: 1]
[use_missing: 1]
[zero_as_missing: 0]
[feature_pre_filter: 1]
[pre_partition: 0]
[two_round: 0]
[header: 0]
[label_column: ]
[weight_column: ]
[group_column: ]
[ignore_column: ]
[categorical_feature: ]
[forcedbins_filename: ]
[precise_float_parser: 0]
[objective_seed: 3944]
[num_class: 1]
[is_unbalance: 0]
[scale_pos_weight: 1]
[sigmoid: 1]
[boost_from_average: 1]
[reg_sqrt: 0]
[alpha: 0.9]
[fair_c: 1]
[poisson_max_delta_step: 0.7]
[tweedie_variance_power: 1.5]
[lambdarank_truncation_level: 30]
[lambdarank_norm: 1]
[label_gain: ]
[eval_at: ]
[multi_error_top_k: 1]
[auc_mu_weights: ]
[num_machines: 1]
[local_listen_port: 12400]
[time_out: 120]
[machine_list_filename: ]
[machines: ]
[gpu_platform_id: -1]
[gpu_device_id: -1]
[gpu_use_dp: 0]
[num_gpu: 1]

end of parameters

pandas_categorical:[]
