tree
version=v3
num_class=1
num_tree_per_iteration=1
label_index=0
max_feature_idx=191
objective=regression
feature_names=0 1 2 3 4 5 6 7 8 9 10 11 12 13 14 15 16 17 18 19 20 21 22 23 24 25 26 27 28 29 30 31 32 33 34 35 36 37 38 39 40 41 42 43 44 45 46 47 48 49 50 51 52 53 54 55 56 57 58 59 60 61 62 63 64 65 66 67 68 69 70 71 72 73 74 75 76 77 78 79 80 81 82 83 84 85 86 87 88 89 90 91 92 93 94 95 96 97 98 99 100 101 102 103 104 105 106 107 108 109 110 111 112 113 114 115 116 117 118 119 120 121 122 123 124 125 126 127 128 129 130 131 132 133 134 135 136 137 138 139 140 141 142 143 144 145 146 147 148 149 150 151 152 153 154 155 156 157 158 159 160 161 162 163 164 165 166 167 168 169 170 171 172 173 174 175 176 177 178 179 180 181 182 183 184 185 186 187 188 189 190 191
feature_infos=[230:6129] [12:2702] [2:3102] [0:17] [0:6] [211:6406] [38:3999] [1:92] [0:59] [0:618] [0:36] [0:16] [0:20] [0:13] [0:31] [0:44] [0:6] [0:44] [0:17] [191:4559] [36:2483] [0:2704] [0:1727] [0:2614] [1:1328] [0:301] [1:54] [0:52] [0:967] [0:920] [0:382] [0:88] [0:29] [0:159] none [191:4559] [36:2483] [0:2704] [0:1727] [0:2614] [1:1328] [0:301] [1:54] [0:52] [0:967] [0:920] [0:382] [0:88] [0:29] [0:159] none [39:1575] [3.8557692307692308:21.25454545454545] [11:1209] [1.8302558051784696:123.28333488820388] [3:6] [0.69450557454393547:16.343737567975346] [13452:912113] [65797.576335877864:3157276.5539733577] [65864.526717557252:3157388.2604501606] [8.423293675641828:200.36603557085485] [113.70992366412214:2363.4580382436261] [19.251908396946565:440.99079320113322] [63626.783202252162:1081550.9494009293] [63631.924177016808:1081548.3283991446] [22.354026693915944:1774.8079589539925] [59.864916717840629:1359.0329670913291] [9.9268153508934542:248.99216137589943] [47035:3529205] [47118.5:3529271] [1:167] [100.5:2372] [21:445.5] [312:703529] [429:703678] [0:32] none none [229452:3986953] [229548:3987141] [180:85157] [207:4673] [35:855] [47083:3529205] [47162:3529271] [1:167] [101:2372] [21:446] [3:6] [6:24] [6:25] [4:33] [5.1689999999999996:1139.1949999999999] [0.033000000000000002:0.40000000000000002] [0.104748750567923:1.6610000000000007] [0.2896640792049528:30.76267351292498] [78.659999999999982:2193.4560000000006] [8:357] [4:192] [1:105] [0:83] [0:51] [1:77] [9.8958333333333339:322.66666666666669] [8.7855232829262224:526.60466960404028] [4:144] [3:333] [37:2763] [1:853] [1:530] [1:41.569230769230771] [0:157.24800964864878] [1:25] [1:1095] [1:125] [1:261] [0.88648244958924571:133.39731643682444] [30:683] [6:1323] [35:872] [3.7640449438202248:5.7579908675799087] [1:2] [9:44] [1:14] [2:14] [2:3] [3:5] [4:8] [171:3713] [1:51] [37.878787878787882:1316] [1:1316] [76:1316] [3:1316] [8:1316] [13:1316] [21:1316] [43:1316] [204:4511] [7.5151515151515156:234] [1:234] [14:234] [1:234] [2:234] [2.5:234] [4:234] [8.75:234] [35:876] [1:20] [69.5:1396] [1:1396] [177:2002] [7:1396] [1:2002] [2:1396] [17.5:1396] [42.5:1396] [207:4655] [12.77777777777778:615.33333333333337] [1:277] [30:1703] [1:277] [2:1703] [1:277] [4:277] [13:893] [35:2216] [0.0026455026455025998:1] [-1:0.99470899470899476] [0.0026455026455025998:1] [0:277] [0:729] [0:283] [35:870] [0:1] [0:1] [0:1] [0:3.3809523809523809] [0:36.5] [0:118] [0.1575237515308755:4.895829868387497] [0.23927075076435281:1.059328649492584] [8:167] [3:90] [0.084736497799066404:0.96637023560696755] [0.084736497799066404:0.96637023560696755] [3.0426406250000002:182.96225000000001] [2.6070000000000002:65.813999999999993] [15.727188065399501:612.67551680223755] [0:5467] [0:3419] [1:3089]
tree_sizes=1562 1712 1731 1655 1713 1744 1723 1710 1585 1689 1729 1732 1484 1734 1740 1733 1745 1387 1689 1662 1724 1586 1708 1719 1470 1724 1722 1689 1611 1680 1749 1761 1727 1693 1698 1685 1722 1470 1734 1715 1726 1709 1716 1747 1675 1380 1705 1683 1725 1593 1698 1706 1412 1614 1710

Tree=0
num_leaves=16
num_cat=0
split_feature=6 78 163 102 38 144 159 71 85 150 140 59 171 63 99
split_gain=6.60128 3.45959 3.43175 3.23725 3.19068 3.62001 2.56048 2.08592 1.86186 1.85812 1.53117 1.44649 1.26525 1.07926 1.08224
threshold=257.50000000000006 1697318.5000000002 3.1250000000000004 12.500000000000002 3.5000000000000004 8.8750000000000018 109.00000000000001 1109.0000000000002 89.500000000000014 324.00000000000006 4.5000000000000009 793904.62644013984 51.000000000000007 405594.18692386011 7.5000000000000009
decision_type=2 2 2 2 2 2 2 2 2 2 2 2 2 2 2
left_child=1 9 11 13 5 -4 8 -7 -6 -1 -5 -2 -12 14 -3
right_child=2 3 4 10 6 7 -8 -9 -10 -11 12 -13 -14 -15 -16
leaf_value=2.0691742039333993 2.0694138688821111 2.0693908954953018 2.0690196364932403 2.0691782511630077 2.0696211658338681 2.0696603395903193 2.0692247125728618 2.0690304879661516 2.0698206667206334 2.0685002114569566 2.0693289266582311 2.0687601823223094 2.0698078499641883 2.0694796021523314 2.068868253651595
leaf_weight=8.9999999999999982 6.9999999999999982 5.0000000000000062 12.999999999999998 6.0000000000000027 77 34 8.9999999999999982 4.9999999999999991 83 5.9999999999999991 6.0000000000000027 5 19 5.9999999999999991 11.999999999999998
leaf_count=9 7 5 13 6 77 34 9 5 83 6 6 5 19 6 12
internal_value=2.06954 2.06929 2.06961 2.0694 2.06964 2.06944 2.0697 2.06958 2.06973 2.0689 2.06959 2.06913 2.06969 2.06914 2.06902
internal_weight=0 69 233 54 221 52 169 39 160 15 31 12 25 23 17
internal_count=302 69 233 54 221 52 169 39 160 15 31 12 25 23 17
is_linear=0
shrinkage=1


Tree=1
num_leaves=16
num_cat=0
split_feature=51 100 31 81 139 7 52 30 27 187 122 153 7 181 124
split_gain=6.59876 5.20058 3.37175 2.76684 2.71233 3.48107 2.28585 2.32888 2.16863 2.83755 1.52314 1.37901 1.23298 1.13304 0.891131
threshold=251.50000000000003 19.500000000000004 4.5000000000000009 1338.0000000000002 10.584928229665072 8.5000000000000018 4.3436141304347835 9.5000000000000018 2.5000000000000004 5.3695000000000013 11.500000000000002 585.50000000000011 31.500000000000004 0.84482970130286228 5.5000000000000009
decision_type=2 2 2 2 2 2 2 2 2 2 2 2 2 2 2
left_child=1 2 8 10 12 -6 7 -7 9 -1 -3 -8 -2 -10 -12
right_child=4 3 -4 -5 5 6 11 -9 13 -11 14 -13 -14 -15 -16
leaf_value=-0.00063315301666876014 0.00011031860147055196 -0.00021066614545411517 -0.00096364507760066315 -0.00059559720276545244 -0.00045571399441487738 0.00012334453614813945 0.00023379121558353934 -0.00051234529614627676 0.00038041537216629544 -0.00013365984655147869 9.4927975098023936e-06 -1.8329201127246067e-05 -0.00043254749260860514 -0.0001719329048088122 0.00032666178461529169
leaf_weight=20 4.9999999999999991 8.9999999999999982 6.9999999999999991 4.9999999999999991 7.9999999999999991 12.000000000000002 131 7.9999999999999991 4.9999999999999991 19 11.999999999999998 21 10.999999999999998 7.9999999999999991 21
leaf_count=20 5 9 7 5 8 12 131 8 5 19 12 21 11 8 21
internal_value=0 -0.000184728 -0.000366339 4.27713e-05 9.99448e-05 0.000132363 0.000160186 -0.000130416 -0.000283483 -0.000391744 0.000120912 0.000198727 -0.00026099 3.90115e-05 0.000212829
internal_weight=0 106 59 47 196 180 172 20 52 39 42 152 16 13 33
internal_count=302 106 59 47 196 180 172 20 52 39 42 152 16 13 33
is_linear=0
shrinkage=0.000919535


Tree=2
num_leaves=16
num_cat=0
split_feature=78 38 182 108 181 78 57 156 127 144 30 123 169 7 177
split_gain=6.60007 4.68223 3.65125 3.26601 3.20188 2.99409 2.77021 2.35644 2.23215 1.8183 1.59632 1.54046 1.53956 1.25667 1.24866
threshold=1377622.0000000002 3.5000000000000004 69.500000000000014 135.50000000000003 0.81864831768616264 1675149.5000000002 183653.50000000003 444.50000000000006 5.5000000000000009 23.250000000000004 3.5000000000000004 5.5000000000000009 0.22500000000000003 16.500000000000004 0.57913883587786275
decision_type=2 2 2 2 2 2 2 2 2 2 2 2 2 2 10
left_child=6 2 3 14 5 -3 -1 13 11 -7 -9 -6 -10 -4 -2
right_child=1 4 7 -5 8 9 -8 10 12 -11 -12 -13 -14 -15 -16
leaf_value=-0.0009165597119792252 -0.0009169707362709185 -0.00050591335241325958 0.00038956586907712285 6.1193422852246079e-05 -0.00041664794091665082 0.00023214169722511228 -5.5251981266815372e-05 -0.00043959027616177439 0.00020331894773481423 -0.00032567414998481995 -1.8234912155507484e-05 1.6382949178345175e-05 -0.00013757772528231045 -0.00014534165542246039 -0.00039844757819675525
leaf_weight=8.9999999999999982 9.0000000000000053 4.9999999999999991 13.000000000000002 6.9999999999999991 18.000000000000004 127 4.9999999999999991 11.999999999999998 29 4.9999999999999991 21 10.999999999999998 18 4.9999999999999991 7.9999999999999991
leaf_count=9 9 5 13 7 18 127 5 12 29 5 21 11 18 5 8
internal_value=0 3.0062e-05 -0.000167196 -0.000462223 9.97394e-05 0.000183721 -0.000614209 -2.69887e-05 -5.12083e-05 0.000210496 -0.000173458 -0.00025165 7.19645e-05 0.000238962 -0.000678976
internal_weight=0 288 75 24 213 137 14 51 76 132 33 29 47 18 17
internal_count=302 288 75 24 213 137 14 51 76 132 33 29 47 18 17
is_linear=0
shrinkage=0.000919535


Tree=3
num_leaves=16
num_cat=0
split_feature=79 22 172 63 40 120 82 42 132 73 30 152 163 184 163
split_gain=6.58809 4.6737 2.87057 2.773 3.76812 2.3282 3.43263 2.19053 2.38232 1.92893 1.64977 1.64441 1.38014 1.1746 0.662854
threshold=1377668.5000000002 3.5000000000000004 33.500000000000007 363113.34963299165 37.500000000000007 4.4872899573644807 202.50000000000003 25.500000000000004 594.00000000000011 1537.0000000000002 14.500000000000002 424.00000000000006 11.125000000000002 0.63090745395512893 51.125000000000007
decision_type=2 2 2 2 2 2 2 2 2 2 2 2 2 2 2
left_child=2 3 -1 4 13 6 14 8 -5 11 -8 -7 -11 -2 -3
right_child=1 5 -4 7 -6 9 10 -9 -10 12 -12 -13 -14 -15 -16
leaf_value=-0.0010270026984771634 -0.0004149932084239645 -0.00020709505028716332 -0.00018623313201192847 6.7888970149419483e-05 6.1370624179901901e-05 0.00015880730265179912 0.00012035571253324405 -0.00058304791438723244 -0.00059499709072547064 -0.0002356432142269134 -0.00023583274990993672 -0.00044565447707980234 0.0002521952811558346 -0.0010270165110578579 -0.00063933505074760056
leaf_weight=6.9999999999999982 5.0000000000000018 5.9999999999999982 7 45 6.9999999999999991 7.9999999999999982 67 5.9999999999999991 4.9999999999999991 4.9999999999999991 12.999999999999998 7 100 7 7
leaf_count=7 5 6 7 45 7 8 67 6 5 5 13 7 100 7 7
internal_value=0 3.0033e-05 -0.000613653 -0.000167045 -0.000469898 9.96469e-05 -9.19013e-06 -6.2962e-05 0 0.000184238 6.17864e-05 -0.000121946 0.000228406 -0.000780742 -0.000445843
internal_weight=0 288 14 75 19 213 93 56 50 120 80 15 105 12 13
internal_count=302 288 14 75 19 213 93 56 50 120 80 15 105 12 13
is_linear=0
shrinkage=0.000919535


Tree=4
num_leaves=16
num_cat=0
split_feature=36 183 164 25 130 27 7 116 92 120 190 109 104 167 60
split_gain=6.41693 6.82045 4.67696 3.74172 2.94869 2.37593 2.35919 1.8252 1.80207 1.73128 1.17938 1.10437 0.914744 1.51749 0.805821
threshold=245.00000000000003 28.500000000000004 25.250000000000004 1.0000000180025095e-35 49.010545905707204 9.5000000000000018 6.5000000000000009 9.5697859157167269 117.86750000000002 4.2977477409751783 1.5000000000000002 99.000000000000014 21.030410569295167 0.18333333333333332 113.19659557122738
decision_type=2 2 2 2 2 2 2 2 2 2 2 2 2 2 2
left_child=1 5 3 -2 -4 8 14 12 11 -8 -10 -1 13 -3 -6
right_child=2 7 4 -5 6 -7 9 -9 10 -11 -12 -13 -14 -15 -16
leaf_value=-0.00083870076247653314 -0.00089799061457405082 0.00025484753848314067 -0.00050761504831666198 8.1832943221505578e-05 6.5403911633661964e-06 0.00011047818693978767 -1.1932778887509006e-05 -0.00043233334862481513 6.7150955129240656e-06 0.00021220911773621578 -0.0005123407710202275 -0.00032408433977957387 0.00022053389960988254 -0.00031132858672356831 -0.00044514257338650742
leaf_weight=17.000000000000004 6.9999999999999982 6.9999999999999991 5.9999999999999991 6 5.9999999999999982 4.9999999999999991 36 5.9999999999999991 5.9999999999999991 146 8.9999999999999982 4.9999999999999991 24 8.9999999999999982 7
leaf_count=17 7 7 6 6 6 5 36 6 6 146 9 5 24 9 7
internal_value=0 -0.000208888 8.59461e-05 -0.000445854 0.000120735 -0.000476377 0.000140515 3.50596e-05 -0.000556763 0.000167689 -0.000303643 -0.000725461 0.000107016 -6.12907e-05 -0.000235443
internal_weight=0 88 214 13 201 42 195 46 37 182 15 22 40 16 13
internal_count=302 88 214 13 201 42 195 46 37 182 15 22 40 16 13
is_linear=0
shrinkage=0.000919535


Tree=5
num_leaves=16
num_cat=0
split_feature=5 100 130 136 178 99 78 132 175 40 127 160 92 53 130
split_gain=7.09971 5.33609 3.37907 2.96828 2.75124 2.70208 2.32593 2.30992 4.07222 1.6551 1.23282 1.14286 1.08956 0.972275 0.919845
threshold=1187.5000000000002 19.500000000000004 86.961538461538467 476.00000000000006 0.066448801742919367 15.500000000000002 1617350.5000000002 155.50000000000003 0.3433146001639153 4.5000000000000009 5.5000000000000009 96.500000000000014 150.25200000000004 20.500000000000004 110.29285714285716
decision_type=2 2 2 2 8 2 2 2 2 2 2 2 2 2 2
left_child=1 2 10 4 -2 6 -4 8 -6 -9 11 -1 13 -3 -7
right_child=3 12 5 -5 7 14 -8 9 -10 -11 -12 -13 -14 -15 -16
leaf_value=-0.00047209776557504687 -0.00044544647427593645 0.00027084058648944642 -0.00076698012611018079 -0.0005938104325046294 -0.00042573674013984494 -0.0012241340932160733 -9.7746157951382817e-05 -0.00015083751704329231 0.00012435725990692255 0.00023506328525172028 9.8989001250768935e-05 0 -0.00028225553173058412 -6.0563960995041494e-05 -0.00068025283808217506
leaf_weight=11.000000000000002 6.9999999999999991 19.000000000000004 7.0000000000000027 4.9999999999999991 14.999999999999998 4.9999999999999991 11.999999999999998 9.9999999999999982 46 121 11.000000000000002 6.9999999999999991 5.9999999999999991 11.999999999999998 7.9999999999999991
leaf_count=11 7 19 7 5 15 5 12 10 46 121 11 7 6 12 8
internal_value=0 -0.000203301 -0.000370291 9.77045e-05 0.000115562 -0.000576265 -0.000349036 0.000136435 -1.07967e-05 0.000205229 -0.000140511 -0.00028864 7.12755e-05 0.000141593 -0.000900212
internal_weight=0 98 61 204 199 32 19 192 61 131 29 18 37 31 13
internal_count=302 98 61 204 199 32 19 192 61 131 29 18 37 31 13
is_linear=0
shrinkage=0.000919535


Tree=6
num_leaves=16
num_cat=0
split_feature=20 183 164 41 135 57 7 63 150 166 162 40 95 162 143
split_gain=6.39459 6.79842 4.66557 3.732 2.94192 2.66303 2.35221 1.95941 1.63139 1.62039 1.50491 1.28469 1.20816 0.822588 0.847006
threshold=245.00000000000003 28.500000000000004 25.250000000000004 1.0000000180025095e-35 32.000000000000007 137508.00000000003 6.5000000000000009 313975.27661904151 573.00000000000011 264.50000000000006 62.500000000000007 93.500000000000014 4.047572179739265 142.50000000000003 10.500000000000002
decision_type=2 2 2 2 2 2 2 2 2 2 2 2 2 2 2
left_child=1 5 3 -2 -4 12 9 -7 -8 -6 -9 13 -1 14 -3
right_child=2 11 4 -5 6 7 8 10 -10 -11 -12 -13 -14 -15 -16
leaf_value=-0.0009657163377948157 -0.00089690796192835138 -0.000122307917277399 -0.00050708761119055046 8.1635686561360078e-05 6.1233480300826836e-05 0.00012696663934846924 0.00018742332447357823 -5.6387643471663073e-05 -0.00021058697778856224 -0.00058207916640888916 -0.00062777973127241011 -0.00035685384780218536 -0.00044392734215114844 -0.00018653007066619996 0.00023356754117305042
leaf_weight=10.000000000000002 6.9999999999999982 6.9999999999999991 5.9999999999999991 6 6.9999999999999982 7.0000000000000027 173 6.0000000000000027 8.9999999999999982 6 11.999999999999998 5.9999999999999991 6.9999999999999991 6.9999999999999991 26
leaf_count=10 7 7 6 6 7 7 173 6 9 6 12 6 7 7 26
internal_value=0 -0.000208527 8.5793e-05 -0.000445359 0.000120539 -0.000475585 0.000140297 -0.000280454 0.000167431 -0.000235102 -0.000440754 3.50246e-05 -0.000756976 9.54897e-05 0.000156819
internal_weight=0 88 214 13 201 42 195 25 182 13 18 46 17 40 33
internal_count=302 88 214 13 201 42 195 25 182 13 18 46 17 40 33
is_linear=0
shrinkage=0.000919535


Tree=7
num_leaves=16
num_cat=0
split_feature=35 183 38 116 163 94 183 26 74 163 179 72 188 30 58
split_gain=6.29928 4.12075 3.9668 3.43206 3.38875 2.68836 2.66806 2.73959 1.83567 1.81185 1.49954 1.43167 1.02059 0.845493 0.835144
threshold=1031.5000000000002 27.500000000000004 3.5000000000000004 1.0124722549481324 3.1250000000000004 0.85983570901639872 26.500000000000004 26.500000000000004 1918.0000000000002 101.25000000000001 2.071070234113713 102.50000000000001 146.52729053036549 4.5000000000000009 846762.63621979149
decision_type=2 2 2 2 2 2 2 2 2 2 8 2 2 2 2
left_child=1 5 3 -2 -4 10 -5 -8 9 -6 -1 -10 13 -3 -12
right_child=2 12 4 6 8 -7 7 -9 11 -11 14 -13 -14 -15 -16
leaf_value=-0.00037546203703353245 -0.00086337001585551137 -0.00015932618717410521 -0.00041138187041211749 -0.00047157914090619428 8.055655769462825e-05 -5.7847036530666713e-05 0.00012579059421102622 -0.00059362153221274134 7.3922297502676843e-06 -0.00044506542452884575 -0.0010887432905632005 0.00025154528596343787 -0.0003561439018731731 0.00019024520981619271 -0.00058127129996163275
leaf_weight=10.000000000000002 4.9999999999999991 9.0000000000000053 8.9999999999999982 10.999999999999998 25 8.9999999999999982 36 4.9999999999999991 25 6.9999999999999991 6.9999999999999982 116 5.9999999999999991 15.999999999999998 6
leaf_count=10 5 9 9 11 25 9 36 5 25 7 7 116 6 16 6
internal_value=0 -0.000258436 6.81886e-05 -0.000143005 0.000134578 -0.000489392 -7.14654e-05 3.58955e-05 0.000163421 -3.4331e-05 -0.000655653 0.000208554 -1.80143e-05 6.27934e-05 -0.000863735
internal_weight=0 63 239 57 182 32 52 41 173 32 23 141 31 25 13
internal_count=302 63 239 57 182 32 52 41 173 32 23 141 31 25 13
is_linear=0
shrinkage=0.000919535


Tree=8
num_leaves=15
num_cat=0
split_feature=78 1 22 116 132 159 100 95 20 60 187 95 42 105
split_gain=6.53704 4.37613 2.94478 2.76014 2.49099 2.44979 2.21912 1.90204 2.381 2.16048 2.13196 1.31773 1.31491 1.0652
threshold=1377622.0000000002 103.50000000000001 28.500000000000004 1.0378478664192952 594.00000000000011 1.5000000000000002 19.500000000000004 3.2369381703464795 245.00000000000003 148.39840049333523 4.3705000000000007 7.6835516305896103 16.500000000000004 44.500000000000007
decision_type=2 2 2 2 2 2 2 2 2 2 2 2 2 2
left_child=3 7 4 -1 6 -4 -3 8 12 11 -10 -9 -2 -7
right_child=1 2 5 -5 -6 13 -8 9 10 -11 -12 -13 -14 -15
leaf_value=-5.3379839003007143e-05 -0.00089478767291775068 -0.00014297807714841478 -0.00031515082833935001 -0.00091307187531856427 -0.00058162053465466855 0.00037839303015933963 0.0001371391437986023 0.00013323658788621953 -0.00050988777988342508 -0.00059284507205990301 0.00012352405171091454 -0.00028394660764038195 -0.0003147840049716356 0.00017417005175145015
leaf_weight=4.9999999999999991 6.9999999999999982 40 6.9999999999999991 8.9999999999999982 5.9999999999999991 33 59 30 7.0000000000000027 4.9999999999999991 11.999999999999998 7.9999999999999991 7 67
leaf_count=5 7 40 7 9 6 33 59 30 7 5 12 8 7 67
internal_value=0 2.99066e-05 9.78763e-05 -0.00061128 -1.12081e-05 0.000205174 2.35574e-05 -0.000159085 -0.000324891 -3.05109e-05 -0.000109395 4.39118e-05 -0.000611807 0.000242251
internal_weight=0 288 212 14 105 107 99 76 33 43 19 38 14 100
internal_count=302 288 212 14 105 107 99 76 33 43 19 38 14 100
is_linear=0
shrinkage=0.000919535


Tree=9
num_leaves=16
num_cat=0
split_feature=175 163 5 63 0 187 2 73 38 187 143 185 188 26 85
split_gain=6.06054 3.53903 4.0719 3.29644 2.9277 3.29036 2.88494 2.2332 1.82994 2.26343 1.81082 1.69325 1.8133 1.67468 1.2966
threshold=0.33512717463113856 3.1250000000000004 1187.5000000000002 402816.57123187248 1239.5000000000002 4.3705000000000007 56.500000000000007 72333.500000000015 28.500000000000004 5.713750000000001 16.500000000000004 0.55903445827298259 102.22988554989125 6.5000000000000009 87.500000000000014
decision_type=2 2 2 2 2 2 2 2 2 2 2 2 2 2 2
left_child=4 7 3 6 10 11 -3 -2 9 -7 -1 -6 -13 -4 -15
right_child=1 2 13 -5 5 8 -8 -9 -10 -11 -12 12 -14 14 -16
leaf_value=-0.00075921591927758747 -5.6612369539744975e-05 -0.00079248358015339719 -0.00028104127352218217 0.00012100513679517225 -0.00064916388965147989 -0.00046160569383566532 -0.00013293105383798291 -0.00086359764946784909 0.00027056039506882567 0.00018546079531988341 -0.00022361193368834528 0.00028907647491755562 -0.00036246264127278214 9.8303800567689856e-05 0.00027876243218610483
leaf_weight=11.000000000000002 6.9999999999999982 8.0000000000000018 5.9999999999999991 27 10.000000000000002 9.0000000000000018 19 5 19 8.9999999999999982 10.999999999999998 5.0000000000000027 11.999999999999998 56 88
leaf_count=11 7 8 6 27 10 9 19 5 19 9 11 5 12 56 88
internal_value=0 8.21794e-05 0.000110933 -0.000105005 -0.000206315 -0.000105743 -0.000331978 -0.000400381 7.15518e-05 -0.000136819 -0.000495367 -0.000349413 -0.000168092 0.000188935 0.00020896
internal_weight=0 216 204 54 86 64 27 12 37 18 22 27 17 150 144
internal_count=302 216 204 54 86 64 27 12 37 18 22 27 17 150 144
is_linear=0
shrinkage=0.000919535


Tree=10
num_leaves=16
num_cat=0
split_feature=51 78 135 175 188 8 24 151 142 149 56 191 42 132 2
split_gain=6.50651 4.30947 4.11601 3.05876 2.38347 3.24541 2.33723 2.12782 2.02433 1.76155 1.57698 1.55233 1.67354 1.43551 1.39148
threshold=251.50000000000003 1377622.0000000002 40.125000000000007 0.25137708813364062 144.54199575272321 4.5000000000000009 5.5000000000000009 529.50000000000011 78.500000000000014 468.66666666666669 1.3994719057058995 23.500000000000004 7.5000000000000009 136.50000000000003 60.000000000000007
decision_type=2 2 2 2 2 2 2 2 2 2 2 2 2 2 2
left_child=1 6 7 9 14 -6 -1 -2 11 -3 -11 -4 -13 -9 -5
right_child=2 3 8 4 5 -7 -8 13 -10 10 -12 12 -14 -15 -16
leaf_value=-0.00027914592857379063 -0.00051421537501671879 -0.0007347087038665495 -0.00032424732342670339 -0.00011202987259833363 -0.00059441758145081607 0.00028943900853932886 -0.0011042516083461509 -0.00026006794738921981 -0.00041375112808329795 0.00012685301447463738 -0.00040891926907702644 -0.00028106933340585669 0.0002083020440477248 0.00027190768726725244 0.00020599048801791948
leaf_weight=5.9999999999999982 12.000000000000002 8.0000000000000018 4.9999999999999991 18 10.999999999999998 4.9999999999999991 6 9.0000000000000018 4.9999999999999991 7.0000000000000027 12.999999999999998 5.9999999999999991 151 7.9999999999999991 32
leaf_count=6 12 8 5 18 11 5 6 9 5 7 13 6 151 8 32
internal_value=0 -0.000183448 9.92277e-05 -0.000116341 -7.57979e-06 -0.000315838 -0.000700618 -0.000219483 0.000154894 -0.000370431 -0.000219875 0.000172924 0.000189194 -7.44061e-06 9.07721e-05
internal_weight=0 106 196 94 66 16 12 29 167 28 20 162 157 17 50
internal_count=302 106 196 94 66 16 12 29 167 28 20 162 157 17 50
is_linear=0
shrinkage=0.000919535


Tree=11
num_leaves=16
num_cat=0
split_feature=6 135 152 106 142 153 23 118 86 168 48 108 19 133 80
split_gain=6.48382 3.3957 3.40377 3.25362 3.1179 1.98857 3.55209 1.89999 1.84816 1.64656 1.61039 1.83663 1.59355 1.16787 1.0852
threshold=257.50000000000006 40.125000000000007 275.50000000000006 19.750000000000004 100.50000000000001 539.00000000000011 10.500000000000002 69.500000000000014 612.00000000000011 0.63333333333333341 1.0000000180025095e-35 55.500000000000007 1141.0000000000002 101.50000000000001 1479.5000000000002
decision_type=2 2 2 2 2 2 2 2 2 2 2 2 2 2 2
left_child=3 2 14 10 5 7 -7 -3 13 12 11 -1 -4 -5 -2
right_child=1 4 9 8 -6 6 -8 -9 -10 -11 -12 -13 -14 -15 -16
leaf_value=-0.00047107464939452295 -0.0003234194032334407 3.0539969640821357e-05 0.00020000234441293379 -0.00039210305562657446 -0.00059162754694464122 0.00014682738615758576 -0.00041844715846820477 0.00025169405696907513 -5.7073317942191347e-05 0.00032763413376304533 0.00017660435999880718 8.4101381000754302e-05 -0.00045340943258328272 -0.00079954678754459924 -0.00095179405787774074
leaf_weight=11.000000000000002 5.0000000000000018 48 5.0000000000000027 15.000000000000002 4.9999999999999991 28 13.999999999999998 107 7.9999999999999991 7.9999999999999991 14.999999999999998 8.9999999999999982 7.9999999999999991 10.999999999999998 5
leaf_count=11 5 48 5 15 5 28 14 107 8 8 15 9 8 11 5
internal_value=0 7.33141e-05 -0.000209167 -0.000247397 0.000116932 0.000135402 -4.12829e-05 0.000183511 -0.000449677 6.80677e-08 -4.91045e-05 -0.000220258 -0.000199685 -0.000568365 -0.000647742
internal_weight=0 233 31 69 202 197 42 155 34 21 35 20 13 26 10
internal_count=302 233 31 69 202 197 42 155 34 21 35 20 13 26 10
is_linear=0
shrinkage=0.000919535


Tree=12
num_leaves=14
num_cat=0
split_feature=0 106 110 161 120 110 79 62 184 60 51 23 101
split_gain=6.74956 4.47521 3.35467 3.32938 3.04002 2.8307 2.72951 2.1367 1.84102 1.16391 0.5982 0.58121 0.291646
threshold=1239.5000000000002 19.250000000000004 1.6274774774774776 204.50000000000003 4.4872899573644807 2.4932432432432434 1675323.0000000002 97.277439501826805 0.66498751359864261 102.89046616445847 227.50000000000003 1.0000000180025095e-35 4.5000000000000009
decision_type=2 2 2 2 2 2 2 2 2 2 2 2 2
left_child=1 9 -2 4 5 -4 -6 -3 -5 11 12 -1 -9
right_child=2 7 3 8 6 -7 -8 10 -10 -11 -12 -13 -14
leaf_value=2.015090617085837e-05 -0.00068155519474309679 -0.0010206214713927551 -0.00029906946312734529 -0.00070028017226024585 -0.00030993416495740742 6.1280684941976396e-05 0.00020870107285592105 -0.00012888434217454362 2.0710107156473517e-05 0.00027234886814793001 -0.00065388591079741957 -0.0004140114773814274 -0.00042938934424780606
leaf_weight=5.0000000000000018 4.9999999999999991 7.0000000000000027 25 6.9999999999999982 8.9999999999999982 69 139 6.0000000000000018 5 7.9999999999999991 5.9999999999999991 5 6
leaf_count=5 5 7 25 7 9 69 139 6 5 8 6 5 6
internal_value=0 -0.00033695 5.60281e-05 7.09623e-05 9.45878e-05 -3.43871e-05 0.00017672 -0.000587879 -0.000399195 1.08825e-05 -0.000412714 -0.000195283 -0.000284554
internal_weight=0 43 259 254 242 94 148 25 12 18 18 10 12
internal_count=302 43 259 254 242 94 148 25 12 18 18 10 12
is_linear=0
shrinkage=0.000919535


Tree=13
num_leaves=16
num_cat=0
split_feature=118 179 135 29 113 156 125 128 58 73 73 179 137 61 137
split_gain=6.46679 4.45339 3.60034 2.94591 2.71806 2.63621 2.199 2.58747 2.27619 1.88539 1.59688 1.64628 1.49986 1.18029 2.57711
threshold=64.500000000000014 0.46443602693602698 40.125000000000007 1.0000000180025095e-35 5.5000000000000009 1201.5000000000002 2.8750000000000004 965.50000000000011 688650.33319231565 1725.0000000000002 88925.000000000015 0.46443602693602698 88.250000000000014 858.51400850943548 134.75000000000003
decision_type=2 10 2 2 2 2 2 2 2 2 2 10 2 2 2
left_child=1 6 10 4 -3 13 -1 -8 -9 -6 11 -2 -13 -4 -15
right_child=2 3 5 -5 9 -7 7 8 -10 -11 -12 12 -14 14 -16
leaf_value=-1.287285506145789e-05 0.00025424594754276675 -0.0005915509382396066 0.00020843409272687356 -0.00068455269107814865 -0.00023974111563293603 -0.00050280425996987997 -0.00070083306034693967 -0.00068104132472556877 8.4107295977734156e-05 0.00020488152654399367 -0.00068235536158383356 -0.00051041169976084519 0.00010923811650520827 0.00017965344548667055 -0.0003490689118372593
leaf_weight=9.9999999999999982 7.0000000000000062 4.9999999999999991 129 4.9999999999999991 9.9999999999999982 4.9999999999999991 22 4.9999999999999991 8.9999999999999982 39 4.9999999999999991 8.9999999999999982 4.9999999999999991 26 10.999999999999998
leaf_count=10 7 5 129 5 10 5 22 5 9 39 5 9 5 26 11
internal_value=0 -0.000184228 9.8202e-05 -1.62282e-05 4.61546e-05 0.000146816 -0.000398389 -0.000504114 -0.000189516 0.000113079 -0.000219437 -0.000104685 -0.00028731 0.000166904 2.09404e-05
internal_weight=0 105 197 59 54 171 46 36 14 49 26 21 14 166 37
internal_count=302 105 197 59 54 171 46 36 14 49 26 21 14 166 37
is_linear=0
shrinkage=0.000919535


Tree=14
num_leaves=16
num_cat=0
split_feature=79 175 187 154 56 177 73 65 24 184 111 160 32 70 142
split_gain=6.47833 4.70249 3.50897 2.83092 2.64014 2.57546 2.2263 2.66145 2.19517 2.18227 1.9121 1.36076 1.29147 1.1794 0.099325
threshold=1377668.5000000002 0.33512717463113856 4.3705000000000007 37.000000000000007 2.0719190398941101 1.1168154761904765 2322.5000000000005 91.182256426202784 8.5000000000000018 0.74892664841670042 2.8489491521318802 108.50000000000001 1.0000000180025095e-35 89.500000000000014 24.500000000000004
decision_type=2 2 2 2 2 10 2 2 2 2 2 2 2 2 2
left_child=8 2 6 4 11 12 -2 -8 -1 13 -11 -3 -4 -5 -7
right_child=1 3 5 9 -6 14 7 -9 -10 10 -12 -13 -14 -15 -16
leaf_value=-0.00028096198834080886 -0.00076066086669068225 -0.00066164654844522164 -0.0002879535827018485 9.1111510139894346e-05 0.00018420191601514291 0.00038623942734761885 -0.00039151033104610098 0.00025384222471454412 -0.0010271795421352853 -0.0004600259283468829 0.00013427256647290684 -5.4832701699296995e-05 0.00013497568254868152 0.00024701850068090141 0.00019896283360522089
leaf_weight=7.9999999999999982 8.9999999999999982 9.0000000000000018 18.000000000000004 79 8.9999999999999982 9.9999999999999982 22.000000000000004 6.9999999999999991 6 9.0000000000000018 8.9999999999999982 4.9999999999999991 8.9999999999999982 88 4.9999999999999991
leaf_count=8 9 9 18 79 9 10 22 7 6 9 9 5 9 88 5
internal_value=0 2.97623e-05 -0.00015939 0.000102733 -0.00020023 2.30416e-05 -0.000361512 -0.000234122 -0.000608538 0.000140688 -0.000161764 -0.000449521 -0.000145639 0.000173588 0.000328034
internal_weight=0 288 80 208 23 42 38 29 14 185 18 14 27 167 15
internal_count=302 288 80 208 23 42 38 29 14 185 18 14 27 167 15
is_linear=0
shrinkage=0.000919535


Tree=15
num_leaves=16
num_cat=0
split_feature=51 175 63 7 120 137 189 82 99 88 180 150 10 85 191
split_gain=6.45569 4.19136 3.39404 3.04297 3.00026 2.9653 2.61121 1.83424 1.89352 1.52922 1.46802 1.45688 1.39813 1.18857 1.10923
threshold=251.50000000000003 0.25137708813364062 369894.24364205927 8.5000000000000018 4.2977477409751783 62.250000000000007 868.00000000000011 234.50000000000003 18.500000000000004 3.5000000000000004 0.94896120283274243 319.50000000000006 1.0000000180025095e-35 72.500000000000014 348.50000000000006
decision_type=2 2 2 2 2 2 2 2 2 2 2 2 2 2 2
left_child=1 10 6 -2 7 -6 9 -5 -9 -3 11 -1 -13 -7 -4
right_child=3 2 14 4 5 13 -8 8 -10 -11 -12 12 -14 -15 -16
leaf_value=-0.00067545776847791246 -0.00045210755480200749 2.5496202436354597e-05 0.00034060447466939233 0.00022168508466877013 -0.00050309053933899435 2.5150619600434895e-05 -0.00094781591131137431 0.00013411652969628584 -0.00036589369632916761 -0.00058968509153334238 -0.0008260929895023408 -0.00037246287455518435 0.00015796560786007468 0.00024781305270139245 3.5141081574238392e-07
leaf_weight=8.0000000000000018 7.9999999999999991 10.000000000000002 9.9999999999999982 10.999999999999998 4.9999999999999991 25 4.9999999999999991 9.0000000000000018 21 4.9999999999999991 6.9999999999999991 13.000000000000002 5.9999999999999991 117 42
leaf_count=8 8 10 10 11 5 25 5 9 21 5 7 13 6 117 42
internal_value=0 -0.000182737 -5.62851e-05 9.88322e-05 0.000122707 0.000184115 -0.000377456 -9.64768e-05 -0.00021472 -0.000179739 -0.000448461 -0.000346435 -0.00020308 0.000208918 6.70352e-05
internal_weight=0 106 72 196 188 147 20 41 30 15 34 27 19 142 52
internal_count=302 106 72 196 188 147 20 41 30 15 34 27 19 142 52
is_linear=0
shrinkage=0.000919535


Tree=16
num_leaves=16
num_cat=0
split_feature=5 100 129 145 184 1 120 178 32 136 96 96 40 96 133
split_gain=6.97577 5.25871 3.13041 2.92148 2.68881 2.61921 2.38534 2.0291 1.95878 1.75028 1.26495 1.07794 1.38294 0.763992 0.682825
threshold=1187.5000000000002 19.500000000000004 14.500000000000002 86.000000000000014 0.68305903838981763 62.500000000000007 4.2977477409751783 1.0065789473684212 1.0000000180025095e-35 54.750000000000007 1181.3460000000005 910.19249999999988 14.500000000000002 1009.669000000001 63.500000000000007
decision_type=2 2 2 2 2 2 2 8 2 2 2 2 2 2 2
left_child=1 2 4 5 -1 -2 7 -7 -6 -8 13 12 -4 14 -3
right_child=3 10 11 -5 8 6 9 -9 -10 -11 -12 -13 -14 -15 -16
leaf_value=-0.0009208083086120533 -0.00039656344724201925 -0.00023484853468489319 6.2497841689655983e-05 -0.00058920276509204401 -0.00051335550829257801 -0.00035361525394167915 -0.00012558824458823692 0.00011080350033279459 8.2660041269771303e-05 0.00021258029478017474 0.0002552443592035912 0.00015940844229424264 -0.00046429810653006876 -0.00035625474374613192 0.00018451947855262121
leaf_weight=10.999999999999998 7.9999999999999991 5.0000000000000027 7.0000000000000062 4.9999999999999991 19.000000000000004 13.999999999999998 13.999999999999998 18 5.9999999999999991 145 17 7.9999999999999991 9.9999999999999982 5.9999999999999991 8.9999999999999982
leaf_count=11 8 5 7 5 19 14 14 18 6 145 17 8 10 6 9
internal_value=0 -0.000201537 -0.000367313 9.68301e-05 -0.000540833 0.000114548 0.00013635 -9.17124e-05 -0.00036909 0.000182511 7.10359e-05 -0.000114783 -0.000246154 -8.4211e-05 3.15104e-05
internal_weight=0 98 61 204 36 199 191 32 25 159 37 25 17 20 14
internal_count=302 98 61 204 36 199 191 32 25 159 37 25 17 20 14
is_linear=0
shrinkage=0.000919535


Tree=17
num_leaves=13
num_cat=0
split_feature=79 38 183 163 172 127 83 116 141 35 41 63
split_gain=6.44649 4.59004 5.36168 2.91323 2.83025 2.74126 2.42913 2.10364 2.10597 1.90795 1.50913 0.954528
threshold=1377668.5000000002 3.5000000000000004 37.500000000000007 3.1250000000000004 33.500000000000007 5.1250000000000009 648791.00000000012 1.0124722549481324 33.500000000000007 1072.0000000000002 18.500000000000004 484802.28011159151
decision_type=2 2 2 2 2 2 2 2 2 2 2 2
left_child=4 2 7 -3 -1 6 -5 -2 -9 -7 11 -4
right_child=1 3 10 5 -6 9 -8 8 -10 -11 -12 -13
leaf_value=-0.0010174677042599474 -0.0008771944020018813 -0.00040952295172803942 0.00036047436578797484 -0.00027900008576181194 -0.00018264657197010251 3.9037371856596387e-07 0.00010464341756141795 -0.00054224308929605967 -0.00010139921367501694 0.00024764871822193651 -0.00028193860491481461 -9.4174930371617664e-06
leaf_weight=6.9999999999999982 5.9999999999999991 8.9999999999999982 16.000000000000007 23 7 35 35 15.999999999999998 22 111 5.9999999999999991 8.9999999999999982
leaf_count=7 6 9 16 23 7 35 35 16 22 111 6 9
internal_value=0 2.96861e-05 -0.000165619 9.86753e-05 -0.000607044 0.000121471 -4.70807e-05 -0.000371856 -0.000288947 0.000188669 0.00012618 0.000226351
internal_weight=0 288 75 213 14 204 58 44 38 146 31 25
internal_count=302 288 75 213 14 204 58 44 38 146 31 25
is_linear=0
shrinkage=0.000919535


Tree=18
num_leaves=16
num_cat=0
split_feature=20 164 63 41 144 70 165 135 180 80 182 7 80 124 84
split_gain=6.27632 4.61068 4.05977 3.69323 2.65727 2.49497 2.29716 1.9728 2.5201 1.7893 1.65219 1.62106 1.45337 1.43045 1.06169
threshold=245.00000000000003 25.250000000000004 363113.34963299165 1.0000000180025095e-35 6.8750000000000009 94.500000000000014 92.875000000000014 97.125000000000014 1.4839955446744419 522.00000000000011 63.000000000000007 21.500000000000004 475.50000000000006 7.5000000000000009 677249.50000000012
decision_type=2 2 2 2 2 2 2 2 2 2 2 2 2 2 2
left_child=2 3 5 -2 -3 10 12 11 -9 -7 -1 -6 -4 -8 -14
right_child=1 4 6 -5 7 9 13 8 -10 -11 -12 -13 14 -15 -16
leaf_value=-0.00088549138569912744 -0.00089223785508843044 -0.00039538726674560382 -0.00035487208918922697 8.1184040870596404e-05 0.00026736040725362477 8.5923870531533073e-05 -0.00011942107344369022 8.039757211964064e-05 -0.00050881663459262643 -0.00050610784296901794 -0.00027830657937487308 8.0288264080046406e-05 -0.00018503503725063536 -0.00076941599448557426 0.00021112279724681691
leaf_weight=12.000000000000002 6.9999999999999982 7.9999999999999991 5.9999999999999991 6 88 9.0000000000000018 6.9999999999999982 25 7.9999999999999991 7.9999999999999991 5.9999999999999991 72 6.9999999999999991 5 28
leaf_count=12 7 8 6 6 88 9 7 25 8 8 6 72 7 5 28
internal_value=0 8.49777e-05 -0.000206608 -0.000443038 0.00011952 -0.000449279 -4.51001e-05 0.000141254 -6.24642e-05 -0.00019189 -0.000687862 0.000183514 5.78895e-05 -0.000397532 0.000130531
internal_weight=0 214 88 13 201 35 53 193 33 17 18 160 41 12 35
internal_count=302 214 88 13 201 35 53 193 33 17 18 160 41 12 35
is_linear=0
shrinkage=0.000919535


Tree=19
num_leaves=16
num_cat=0
split_feature=51 100 47 7 135 151 114 123 153 73 162 36 54 153 185
split_gain=6.41928 5.0731 3.29687 3.02952 4.73941 2.11242 2.05232 2.60384 1.60184 2.06409 1.39295 1.29637 1.26956 1.25172 1.57843
threshold=251.50000000000003 19.500000000000004 4.5000000000000009 8.5000000000000018 40.125000000000007 529.50000000000011 2.5000000000000004 5.5000000000000009 539.00000000000011 2033.5000000000002 117.50000000000001 438.00000000000006 3.2501354363627226 442.50000000000006 0.60200193405118052
decision_type=2 2 2 2 2 2 2 2 2 2 2 2 2 2 2
left_child=1 2 6 -2 5 12 7 -1 11 -10 -7 -6 -5 -3 -15
right_child=3 13 -4 4 8 10 -8 -9 9 -11 -12 -13 -14 14 -16
leaf_value=-0.00062580156883836697 -0.00045117096028750612 0.00013583023340304985 -0.00095225174340667768 -0.00076345020922399202 0.00028080890471337893 0.00016065801224121547 -3.6431347410671327e-05 -9.3187417015069558e-05 -0.00039905332087170726 0.00013468149234753063 -0.00041202789878138534 5.1533299970236153e-05 -0.00014452084441605981 -0.00045061348603959528 0.00019967848369359208
leaf_weight=20 7.9999999999999991 34 6.9999999999999991 7.0000000000000018 99 12.000000000000002 19 12.999999999999998 7.9999999999999991 25 4.9999999999999991 27 5 7.9999999999999982 5
leaf_count=20 8 34 7 7 99 12 19 13 8 25 5 27 5 8 5
internal_value=0 -0.000182227 -0.0003616 9.85477e-05 0.00012237 -0.000218364 -0.00027966 -0.000418038 0.000184849 3.34012e-06 -7.08623e-06 0.000232053 -0.000512027 4.24579e-05 -0.000198082
internal_weight=0 106 59 196 188 29 52 33 159 33 17 126 12 47 13
internal_count=302 106 59 196 188 29 52 33 159 33 17 126 12 47 13
is_linear=0
shrinkage=0.000919535


Tree=20
num_leaves=16
num_cat=0
split_feature=5 7 163 183 26 140 186 172 105 1 100 20 184 65 70
split_gain=6.93324 3.63726 3.623 3.52275 2.77158 2.95753 2.02179 2.00467 2.24781 1.67647 1.67073 2.59507 1.62951 1.26889 1.15308
threshold=1187.5000000000002 6.5000000000000009 3.1250000000000004 27.500000000000004 14.500000000000002 15.500000000000002 36.020569444444455 115.50000000000001 41.500000000000007 80.500000000000014 23.500000000000004 316.50000000000006 0.61990753607439708 39.106343212678745 143.50000000000003
decision_type=2 2 2 2 2 2 2 2 2 2 2 2 2 2 2
left_child=3 -2 12 4 5 6 -1 9 -9 -4 11 13 -3 -5 -6
right_child=1 2 7 10 14 -7 -8 8 -10 -11 -12 -13 -14 -15 -16
leaf_value=-0.00092901530208025496 -0.00050647046790842107 -5.5353718428852003e-05 -0.00025169005680785643 0.0002053792966969935 0.00013528289406460438 9.2373394627540743e-06 -0.0003565438629351648 0.00037787287453139171 -0.00033996123305108533 0.00020322309640653406 0.00017326140496921151 -0.00077096756814074626 -0.00077051429739593126 -0.00019013696419102629 -0.00040964771079704765
leaf_weight=14.000000000000005 7.9999999999999991 5.9999999999999982 6.9999999999999991 10.000000000000002 8.9999999999999982 5.9999999999999991 8.9999999999999982 5.0000000000000027 12.999999999999998 160 19 4.9999999999999991 5 21 4.9999999999999991
leaf_count=14 8 6 7 10 9 6 9 5 13 160 19 5 5 21 5
internal_value=0 9.65287e-05 0.000121581 -0.000200927 -0.00039788 -0.000559769 -0.000709183 0.000152271 -0.000137513 0.000183791 -4.58221e-05 -0.000162635 -0.000387871 -6.11084e-05 -5.82869e-05
internal_weight=0 204 196 98 43 29 23 185 18 167 55 36 11 31 14
internal_count=302 204 196 98 43 29 23 185 18 167 55 36 11 31 14
is_linear=0
shrinkage=0.000919535


Tree=21
num_leaves=15
num_cat=0
split_feature=78 175 154 40 78 97 6 92 32 120 57 96 67 120
split_gain=6.40478 4.65912 2.8093 2.17944 2.05674 2.90772 2.05139 2.79461 1.82262 2.80919 1.51113 0.968482 0.894544 0.795197
threshold=1377622.0000000002 0.33512717463113856 37.000000000000007 8.5000000000000018 1798421.0000000002 155.00000000000003 226.00000000000003 30.628500000000003 1.0000000180025095e-35 4.4872899573644807 324711.00000000006 693.67999999999847 49.28935450281913 4.4732953072336024
decision_type=2 2 2 2 2 2 2 2 2 2 2 2 2 2
left_child=3 6 4 -1 13 -6 -2 11 9 -4 -9 -8 -10 -3
right_child=1 2 8 -5 5 -7 7 10 12 -11 -12 -13 -14 -15
leaf_value=-0.00027869041970016091 -0.00063175023666485551 -0.00023376505701369206 -0.00014896820509112033 -0.0010222120929016497 -0.00050157217813998967 0.00038406081108328623 -0.00014187119475375659 2.1099787029317737e-05 -0.0001468809575067317 0.00018607886629343087 -0.00050202001797623871 -0.00065989043174494611 0.00024543550105390443 -0.00077090807384646307
leaf_weight=7.9999999999999982 6.9999999999999991 5.0000000000000018 37 6 4.9999999999999991 7.9999999999999991 4.9999999999999991 54 4.9999999999999991 49 4.9999999999999991 8.9999999999999982 94 5
leaf_count=8 7 5 37 6 5 8 5 54 5 49 5 9 94 5
internal_value=0 2.95837e-05 0.000102218 -0.000605084 -0.000199583 3.9356e-05 -0.000158694 -0.000112003 0.000140028 4.14966e-05 -2.34041e-05 -0.00047988 0.000225118 -0.000511096
internal_weight=0 288 208 14 23 13 80 73 185 86 59 14 99 10
internal_count=302 288 208 14 23 13 80 73 185 86 59 14 99 10
is_linear=0
shrinkage=0.000919535


Tree=22
num_leaves=16
num_cat=0
split_feature=5 96 22 141 135 79 164 144 138 135 142 57 120 41 70
split_gain=6.91323 4.5034 3.58181 2.59336 2.92973 2.35049 2.21445 3.23026 1.95431 1.79206 2.93522 1.82502 1.76971 1.09882 1.0643
threshold=1187.5000000000002 1160.1234999999997 3.5000000000000004 94.000000000000014 48.500000000000007 1282025.5000000002 26.500000000000004 7.8750000000000009 1321.5000000000002 83.125000000000014 23.500000000000004 205877.00000000003 4.1389855672110407 34.000000000000007 83.500000000000014
decision_type=2 2 2 2 2 2 2 2 2 2 2 2 2 2 2
left_child=1 5 3 4 -2 -1 7 -4 -6 11 -11 -7 -8 -3 -14
right_child=2 13 6 -5 8 9 12 -9 -10 10 -12 -13 14 -15 -16
leaf_value=-0.0007833317292880392 -0.00046486439541415926 0.0002456822661348822 -0.0007688501220080771 -0.00063187000389300753 0.00029270357852067576 -8.3175597686670002e-05 -0.00013692721054210435 0.00018828579918019734 -0.00015772691109066546 -0.0010254342184933484 -0.00022137302784096195 -0.00056293083005821845 0.00010717933208293718 -0.00023244232130336341 0.00028709952283514803
leaf_weight=7.9999999999999991 9.9999999999999982 19.000000000000004 4.9999999999999982 6.9999999999999991 19 41 11.999999999999998 7 13.999999999999998 6.0000000000000027 10.999999999999998 7.9999999999999991 42 4.9999999999999991 88
leaf_count=8 10 19 5 7 19 41 12 7 14 6 11 8 42 5 88
internal_value=0 -0.000200641 9.63857e-05 -0.000116845 -3.08414e-05 -0.000312951 0.000165887 -0.000210615 0.000100601 -0.000254248 -0.000511771 -0.000163268 0.000198093 0.000143977 0.000229385
internal_weight=0 98 204 50 43 74 154 12 33 66 17 49 142 24 130
internal_count=302 98 204 50 43 74 154 12 33 66 17 49 142 24 130
is_linear=0
shrinkage=0.000919535


Tree=23
num_leaves=16
num_cat=0
split_feature=5 141 132 175 174 103 93 20 184 22 22 40 177 181 113
split_gain=6.90066 3.17141 3.11767 3.45049 3.11846 3.01896 3.22734 2.35812 2.46056 1.49902 1.4632 1.93985 1.32646 1.09092 1.45798
threshold=1187.5000000000002 94.000000000000014 155.50000000000003 0.3433146001639153 0.015267857142857102 32.542706131078226 0.15050000000000002 245.00000000000003 0.75654927036273445 4.5000000000000009 14.500000000000002 16.500000000000004 0.45616012932868211 0.89778286716694289 72.500000000000014
decision_type=2 2 2 2 2 2 2 2 2 2 2 2 10 2 2
left_child=5 2 3 -2 -5 6 -1 8 12 -3 11 -8 -7 14 -4
right_child=1 9 13 4 -6 7 10 -9 -10 -11 -12 -13 -14 -15 -16
leaf_value=-0.00050920482920267069 -0.0004227173371500347 -0.00063129736053358601 0.00027134380145952522 -0.00040966026514515811 0.00018331188101673455 -0.00095466734367233275 0.00014033736982930722 -5.9492188446601448e-05 -0.00019930519580080189 1.8614467900671423e-05 0.00028751800782386716 -0.00050391755046322653 -0.00047019551635737734 -0.00011437500181074726 -3.3129312496742283e-05
leaf_weight=8.9999999999999982 14.999999999999998 6.9999999999999982 103 8.9999999999999982 42 9.0000000000000018 11.000000000000002 17 15.999999999999998 5 18 5.9999999999999991 11.999999999999998 7.9999999999999991 14.999999999999998
leaf_count=9 15 7 103 9 42 9 11 17 16 5 18 6 12 8 15
internal_value=0 9.62961e-05 0.000125158 -3.6236e-05 7.73348e-05 -0.00020046 -2.06466e-05 -0.000345976 -0.00047608 -0.000359595 0.000105055 -8.65518e-05 -0.000683211 0.000209951 0.000232332
internal_weight=0 204 192 66 51 98 44 54 37 12 35 17 21 126 118
internal_count=302 204 192 66 51 98 44 54 37 12 35 17 21 126 118
is_linear=0
shrinkage=0.000919535


Tree=24
num_leaves=14
num_cat=0
split_feature=0 94 110 164 139 26 116 56 56 136 131 78 180
split_gain=6.63307 3.92643 3.31206 2.96765 2.69247 3.19832 2.54397 1.67246 1.34705 0.807582 0.713904 0.693397 0.572817
threshold=1239.5000000000002 0.61040566029483712 1.6274774774774776 204.50000000000003 28.289682539682541 19.500000000000004 1.3040447623578633 1.7120880047477141 1.4027985005267218 68.750000000000014 28.500000000000004 1606034.5000000002 0.87292546798287329
decision_type=2 2 2 2 2 2 2 2 2 2 2 2 2
left_child=1 8 -2 4 5 -4 -6 10 11 -5 -3 -1 -10
right_child=2 7 3 9 6 -7 -8 -9 12 -11 -12 -13 -14
leaf_value=-0.0011189615856681231 -0.00067735600549891637 -0.00014231696426589941 0.00024027216052392996 -0.00014199736100293907 -0.00055757405709111268 1.0355627888449282e-05 0 -0.00039390513931826098 -0.0005753302081270169 -0.00067723522987962065 0.00028453628416644287 -0.00058576524969760247 -0.00013975325587857942
leaf_weight=5.0000000000000018 4.9999999999999991 5.0000000000000027 109 4.9999999999999982 8.9999999999999982 97 29 7.9999999999999991 5.9999999999999982 5 8.9999999999999982 5 5
leaf_count=5 5 5 109 5 9 97 29 8 6 5 9 5 5
internal_value=0 -0.000334048 5.55243e-05 7.03643e-05 9.06743e-05 0.000132249 -0.000133483 -6.00767e-05 -0.000617628 -0.000417433 0.000129548 -0.000864683 -0.000383788
internal_weight=0 43 259 254 244 206 38 22 21 10 14 10 11
internal_count=302 43 259 254 244 206 38 22 21 10 14 10 11
is_linear=0
shrinkage=0.000919535


Tree=25
num_leaves=16
num_cat=0
split_feature=118 26 57 110 135 185 161 118 191 186 6 167 180 190 110
split_gain=6.35732 3.98718 4.30139 4.16411 3.54926 2.56859 2.47367 2.26597 2.18676 1.982 1.61203 1.55792 1.51479 1.28351 1.09729
threshold=64.500000000000014 11.500000000000002 137508.00000000003 1.7962962962962965 40.125000000000007 0.75654927036273445 208.00000000000003 60.500000000000007 396.50000000000006 34.219029304029313 248.50000000000003 0.18333333333333332 1.4839955446744419 522.00000000000011 2.8775000000000004
decision_type=2 2 2 2 2 2 2 2 2 2 2 2 2 2 2
left_child=1 2 5 -3 8 -1 10 9 14 -5 -6 -10 -12 -4 -2
right_child=4 3 13 7 6 -7 -8 -9 11 -11 12 -13 -14 -15 -16
leaf_value=-0.0010448451252482785 -0.0002309224080325904 -0.00069562120518948996 -1.01505032574124e-05 0.00019591089463886899 -0.0002077724633013062 -0.00035504597159586703 -0.00042797905864801737 -0.00039597332731351455 0.00031628291690584366 -0.00040948308243718803 0.00023855593916880078 -0.00025824182939374843 2.2281040804526186e-05 -0.00050042551898905278 -0.00085671547324129313
leaf_weight=10.000000000000002 5.0000000000000018 6.9999999999999991 18.000000000000004 42 8.9999999999999982 8.9999999999999982 5.9999999999999991 7.9999999999999991 6.9999999999999991 4.9999999999999991 120 8.9999999999999982 36 5.9999999999999991 5
leaf_count=10 5 7 18 42 9 9 6 8 7 5 120 9 36 6 5
internal_value=0 -0.000182681 -0.000397563 -3.2644e-05 9.73485e-05 -0.000723696 0.000145618 5.22055e-05 -0.000218025 0.000129972 0.000166953 -4.18274e-06 0.00018893 -0.00013586 -0.000553
internal_weight=0 105 43 62 197 19 171 55 26 47 165 16 156 24 10
internal_count=302 105 43 62 197 19 171 55 26 47 165 16 156 24 10
is_linear=0
shrinkage=0.000919535


Tree=26
num_leaves=16
num_cat=0
split_feature=79 175 154 38 187 53 139 24 24 113 184 93 159 104 187
split_gain=6.35459 4.62503 2.79224 2.65138 2.68482 2.53169 2.32457 2.16921 1.53121 2.25918 1.49077 1.18478 1.043 0.980083 0.7288
threshold=1377668.5000000002 0.33512717463113856 37.000000000000007 27.500000000000004 4.3705000000000007 28.500000000000004 10.584928229665072 8.5000000000000018 16.500000000000004 15.500000000000002 0.74892664841670042 0.15350000000000003 63.500000000000007 37.479544432447526 5.3695000000000013
decision_type=2 2 2 2 2 2 2 2 2 2 2 2 2 2 2
left_child=7 3 5 8 -5 11 13 -1 12 -10 -8 -3 -2 -4 -6
right_child=1 2 6 4 14 -7 10 -9 9 -11 -12 -13 -14 -15 -16
leaf_value=-0.00027709888654386814 -0.00070531492082026809 -0.00069717267823733047 0 -0.00035916193831989882 0.00038549371930289404 0.00021386359107428832 0.00019258180875019246 -0.0010188584232039516 -0.0003808161055769631 0.00015962437704725697 -0.00012888430754426095 -0.00017028568037052015 -0.00029924598131839456 -0.00050227247116266705 3.4674184328624826e-05
leaf_weight=7.9999999999999982 9.0000000000000018 7.0000000000000027 6.9999999999999982 9.0000000000000018 12.000000000000002 7.9999999999999991 159 6 14.000000000000002 11.999999999999998 12.999999999999998 7.9999999999999991 14.999999999999998 6 8.9999999999999982
leaf_count=8 9 7 7 9 12 8 159 6 14 12 13 8 15 6 9
internal_value=0 2.94573e-05 0.000101826 -0.000158129 5.68653e-05 -0.000199056 0.000139522 -0.000602718 -0.000287714 -0.000130323 0.000168008 -0.000421679 -0.00045541 -0.000232926 0.000237791
internal_weight=0 288 208 80 30 23 185 14 50 26 172 15 24 13 21
internal_count=302 288 208 80 30 23 185 14 50 26 172 15 24 13 21
is_linear=0
shrinkage=0.000919535


Tree=27
num_leaves=16
num_cat=0
split_feature=0 106 38 163 62 5 159 116 92 128 107 70 178 51 40
split_gain=6.59975 4.39465 3.91616 3.16727 2.10457 2.08445 3.41689 2.08415 2.8826 2.58051 1.34755 1.28719 1.04898 0.586204 0.49786
threshold=1239.5000000000002 19.250000000000004 3.5000000000000004 3.1250000000000004 97.277439501826805 1157.5000000000002 71.500000000000014 1.0124722549481324 30.628500000000003 1064.5000000000002 184.50000000000003 77.500000000000014 2.2525000000000004 227.50000000000003 11.500000000000002
decision_type=2 2 2 2 2 2 2 2 2 2 2 2 8 2 2
left_child=1 12 7 -4 -3 6 -5 -2 10 -10 -9 -7 -1 14 -6
right_child=2 4 3 5 13 11 -8 8 9 -11 -12 -13 -14 -15 -16
leaf_value=0.00023402714570556647 -0.00065054853704976808 -0.0010113511231350423 -0.00040702088109160426 9.9863478617686529e-05 -4.9326606936987365e-05 2.1343678715950079e-06 -0.00063261495244463757 -0.000141538235080805 0.00018617618823480399 -0.00024213055222093474 -0.00079937883812191996 0.00022783967971123028 -0.00020719660465493833 -0.00064680042812469032 -0.00043838035732264775
leaf_weight=9.0000000000000018 5.9999999999999991 7.0000000000000027 8.9999999999999982 22.000000000000004 5.0000000000000018 26 6.9999999999999991 4.9999999999999982 29 20 6 129 8.9999999999999982 5.9999999999999991 7
leaf_count=9 6 7 9 22 5 26 7 5 29 20 6 129 9 6 7
internal_value=0 -0.000333214 5.53785e-05 0.00012159 -0.000581876 0.000147859 -7.72838e-05 -0.000137571 -8.46347e-05 1.04652e-05 -0.000507759 0.000190244 1.14542e-05 -0.000408028 -0.000281117
internal_weight=0 43 259 193 25 184 29 66 60 49 11 155 18 18 12
internal_count=302 43 259 193 25 184 29 66 60 49 11 155 18 18 12
is_linear=0
shrinkage=0.000919535


Tree=28
num_leaves=15
num_cat=0
split_feature=78 127 177 186 110 87 114 163 132 73 36 181 37 191
split_gain=6.33521 4.0139 3.56819 2.78708 2.90238 2.28884 2.75524 2.15123 1.95619 1.96644 1.87874 1.50544 1.41205 0.224887
threshold=1377622.0000000002 5.5000000000000009 0.0061045543675311001 7.1753144590495461 3.1458656330749357 102.50000000000001 16.500000000000004 71.250000000000014 139.50000000000003 2322.5000000000005 448.50000000000006 0.92521461859210208 227.00000000000003 617.00000000000011
decision_type=2 2 10 2 2 2 2 2 2 2 2 2 2 2
left_child=7 3 8 13 12 6 -4 -1 -3 -10 -6 -7 -5 -2
right_child=1 2 5 4 10 11 -8 -9 9 -11 -12 -13 -14 -15
leaf_value=-0.00027747173978677145 0.00038108026107205618 -0.00063216773349114531 4.4336330986453466e-05 -0.00041830064629760699 0.00019658494589604636 0.00022777870508861625 -0.00068100736711383821 -0.0010162464190597194 -0.00043814350050070164 0.00018065890937337631 -0.00031066584512611244 -0.00015749847960853824 -8.994173661622074e-06 0.00011036006971331294
leaf_weight=7.9999999999999982 6.9999999999999982 7.0000000000000027 33 38 19.000000000000004 129 4.9999999999999991 6 7.0000000000000027 10.999999999999998 8.9999999999999982 8.9999999999999982 8.9999999999999982 5
leaf_count=8 7 7 33 38 19 129 5 6 7 11 9 9 9 5
internal_value=0 2.94086e-05 0.000100922 -0.000135313 -0.000201454 0.000147238 -5.17149e-05 -0.000601802 -0.000222938 -5.90703e-05 3.1688e-05 0.000202286 -0.000340896 0.000273222
internal_weight=0 288 201 87 75 176 38 14 25 18 28 138 47 12
internal_count=302 288 201 87 75 176 38 14 25 18 28 138 47 12
is_linear=0
shrinkage=0.000919535


Tree=29
num_leaves=16
num_cat=0
split_feature=5 73 22 120 157 59 64 187 27 107 160 188 60 97 184
split_gain=6.83637 3.85312 3.55108 3.2568 2.63856 2.24652 2.27033 2.16047 2.10057 1.97145 2.57867 1.85972 1.7589 1.76258 1.34224
threshold=1187.5000000000002 3598.5000000000005 3.5000000000000004 4.1389855672110407 1300.5000000000002 1070262.5534256361 412989.91704962723 4.6025000000000009 3.5000000000000004 187.50000000000003 102.00000000000001 144.54199575272321 83.408378964237002 126.50000000000001 0.75654927036273445
decision_type=2 2 2 2 2 2 2 2 2 2 2 2 2 2 2
left_child=1 5 4 7 -2 6 14 -4 11 10 -6 -3 13 -5 -1
right_child=2 8 3 12 9 -7 -8 -9 -10 -11 -12 -13 -14 -15 -16
leaf_value=-0.00088717498739014698 0.00012034177566677856 -4.3149512333271476e-06 -0.00056623989550772208 0.00030129304512963517 -0.00050486675922229655 8.1511055548526322e-05 -0.00017985528660338198 0.00015577064464908399 0.00019765323777726419 -0.00058427631461894928 0.00023341532228314803 -0.00040273334194050391 0.00026128703237831804 -0.0001593062099828739 -0.00039013840992098984
leaf_weight=13.000000000000002 22 24 7.9999999999999982 11.000000000000002 7.0000000000000062 5.9999999999999991 10.999999999999998 6 19 11.999999999999998 8.9999999999999982 17 110 19 7.9999999999999991
leaf_count=13 22 24 8 11 7 6 11 6 19 12 9 17 110 19 8
internal_value=0 -0.000199535 9.58353e-05 0.000165039 -0.000116477 -0.000428367 -0.000525073 -0.000255311 -5.35105e-05 -0.000303621 -8.84534e-05 -0.000171004 0.000207494 8.80706e-06 -0.000702397
internal_weight=0 98 204 154 50 38 32 14 60 28 16 41 140 30 21
internal_count=302 98 204 154 50 38 32 14 60 28 16 41 140 30 21
is_linear=0
shrinkage=0.000919535


Tree=30
num_leaves=16
num_cat=0
split_feature=5 96 7 120 183 62 1 133 22 191 6 56 51 41 22
split_gain=6.82389 4.46076 3.59877 3.13693 2.55287 2.74306 2.43976 2.02841 2.02987 1.8287 1.82689 1.79758 1.60568 1.09181 0.987469
threshold=1187.5000000000002 1160.1234999999997 6.5000000000000009 4.2977477409751783 25.500000000000004 97.277439501826805 158.00000000000003 44.000000000000007 9.5000000000000018 23.500000000000004 275.00000000000006 1.3528874757764846 235.50000000000003 34.000000000000007 104.50000000000001
decision_type=2 2 2 2 2 2 2 2 2 2 2 2 2 2 2
left_child=1 4 -2 6 5 -1 -4 8 -5 -9 -7 -6 -13 -3 -8
right_child=2 13 3 7 11 10 14 9 -10 -11 -12 12 -14 -15 -16
leaf_value=-0.0010093771896058661 -0.00050404959241701791 0.00024500581954567911 -0.00050947114610614547 -0.00045039429916905125 6.1954496074223986e-05 -0.00048651166789106506 -8.7860174090036822e-05 -0.00032213045327914518 0.0001262054775798144 0.0002366956579272102 8.2278628923374358e-05 -0.0005986386662674007 -9.5728302558710117e-05 -0.0002315797950116367 0.00031627141349541301
leaf_weight=6.9999999999999991 7.9999999999999991 19.000000000000004 9.9999999999999982 8.0000000000000018 18 21.000000000000004 18.000000000000004 4.9999999999999991 13.999999999999998 134 5.9999999999999991 10.000000000000002 11.999999999999998 4.9999999999999991 6.9999999999999991
leaf_count=7 8 19 10 8 18 21 18 5 14 134 6 10 12 5 7
internal_value=0 -0.000199354 9.57469e-05 0.000120668 -0.000311132 -0.000496557 -0.000127944 0.00017499 -8.29178e-05 0.000216106 -0.00035892 -0.000151733 -0.000327713 0.000143623 2.4659e-05
internal_weight=0 98 204 196 74 34 35 161 22 139 27 40 22 24 25
internal_count=302 98 204 196 74 34 35 161 22 139 27 40 22 24 25
is_linear=0
shrinkage=0.000919535


Tree=31
num_leaves=16
num_cat=0
split_feature=5 100 7 130 137 154 56 120 187 184 109 96 23 102 56
split_gain=6.8114 5.15304 3.59222 3.2963 5.57065 2.6466 3.33283 2.75796 1.81656 1.69767 1.42192 1.24882 0.94537 1.90761 0.68165
threshold=1187.5000000000002 19.500000000000004 6.5000000000000009 86.961538461538467 141.87500000000003 45.500000000000007 1.8627812948661751 4.2977477409751783 2.9807500000000005 0.68305903838981763 79.500000000000014 1181.3460000000005 6.5000000000000009 8.5000000000000018 1.7767076607504311
decision_type=2 2 2 2 2 2 2 2 2 2 2 2 2 2 2
left_child=1 3 -2 12 -5 6 -4 10 -9 -6 -7 14 13 -1 -3
right_child=2 11 5 4 9 7 -8 8 -10 -11 -12 -13 -14 -15 -16
leaf_value=-0.00031699985190239004 -0.00050359197455030695 3.8750555527899147e-05 -0.00060756397136137608 -0.0011338762302669492 -0.00071762037954307121 -0.00018975421964777711 0.00015811935587614048 -0.00028060554433594889 0.00023006352662795543 -0.00014186182321221689 0.00030389609424119813 0.00025367147446050047 -0.00049680186542117911 0.00019864657300080476 -0.00031330543572785039
leaf_weight=12.000000000000005 7.9999999999999991 13.000000000000002 9.0000000000000018 9.9999999999999982 6.0000000000000027 25.000000000000004 9.9999999999999982 5.9999999999999991 140 15.999999999999998 5.9999999999999991 17 4.9999999999999991 11.999999999999998 6.9999999999999991
leaf_count=12 8 13 9 10 6 25 10 6 140 16 6 17 5 12 7
internal_value=0 -0.000199173 9.56578e-05 -0.000363276 -0.000566707 0.000120556 -0.000203959 0.000155697 0.000208642 -0.000303162 -9.2335e-05 7.06386e-05 -0.000136326 -5.78989e-05 -8.36062e-05
internal_weight=0 98 204 61 32 196 19 177 146 22 31 37 29 24 20
internal_count=302 98 204 61 32 196 19 177 146 22 31 37 29 24 20
is_linear=0
shrinkage=0.000919535


Tree=32
num_leaves=16
num_cat=0
split_feature=6 183 135 170 139 160 131 122 97 70 165 5 159 24 54
split_gain=6.28063 4.54485 3.31255 3.33113 2.74432 3.24063 1.90046 1.81656 1.81057 1.52952 1.3884 1.38185 2.75103 1.22673 1.21248
threshold=257.50000000000006 28.500000000000004 40.125000000000007 48.500000000000007 28.289682539682541 158.50000000000003 59.500000000000007 14.500000000000002 153.00000000000003 86.500000000000014 92.875000000000014 1132.5000000000002 67.500000000000014 51.500000000000007 2.6201928018192695
decision_type=2 2 2 2 2 2 2 2 2 2 2 2 2 2 2
left_child=1 7 3 -2 11 6 -6 9 -5 -1 13 12 -4 -3 -13
right_child=2 10 4 8 5 -7 -8 -9 -10 -11 -12 14 -14 -15 -16
leaf_value=-0.00075170982140069435 -0.00064074370954610941 0.00019309637175690501 0.00020366345486638645 0.00023485276238187686 -0.00050290515403316914 -0.00072286897994242917 0.00011053573849389303 -0.00094334609809891502 -0.00030797398569083198 -0.00025033806518176565 -0.00037377483199485512 -3.5407160007106524e-05 -0.00057728775856507784 -0.00024756720306467339 0.00022346688592451251
leaf_weight=7.0000000000000027 10.000000000000002 21.000000000000004 9.9999999999999982 12.000000000000002 5.0000000000000027 5.9999999999999991 26 5.9999999999999991 8.9999999999999982 21 6.9999999999999991 17 5.9999999999999991 6.9999999999999991 132
leaf_count=7 10 21 10 12 5 6 26 6 9 21 7 17 6 7 132
internal_value=0 -0.000243522 7.21235e-05 -0.000206873 0.000115206 -0.000110299 9.0734e-06 -0.000482448 9.83458e-08 -0.000379283 -9.63953e-06 0.000166034 -8.8718e-05 8.11158e-05 0.00019368
internal_weight=0 69 233 31 202 37 31 34 21 28 35 165 16 28 149
internal_count=302 69 233 31 202 37 31 34 21 28 35 165 16 28 149
is_linear=0
shrinkage=0.000919535


Tree=33
num_leaves=16
num_cat=0
split_feature=20 164 98 64 171 137 175 95 60 114 144 82 131 146 80
split_gain=6.13206 4.53758 4.00777 3.96852 3.0306 2.21925 1.99101 2.43274 1.66602 1.63752 1.58679 2.12782 1.46612 1.38847 1.33365
threshold=245.00000000000003 25.250000000000004 62.500000000000007 363112.46924590442 43.500000000000007 59.125000000000007 0.33512717463113856 1.0255352002919362 117.22757288673674 18.500000000000004 9.6250000000000018 210.50000000000003 79.000000000000014 14.625000000000002 749.50000000000011
decision_type=2 2 2 2 2 2 2 2 2 2 2 2 2 2 2
left_child=3 2 -2 10 14 -3 7 -7 -6 -8 13 12 -12 -1 -5
right_child=1 5 -4 4 8 6 9 -9 -10 -11 11 -13 -14 -15 -16
leaf_value=-0.00057082990347408333 -0.00084046634522926499 -0.00042661222180509424 0.00019795059146326171 -0.00069238397515200675 0.00016849491237646606 -0.00057849083211170547 0.00020180647801837053 4.8791376308993346e-05 -0.00035332119769584074 -0.00032606107771728133 -0.0006689919310189262 -0.00094932892830213475 2.4369854792384898e-05 -1.0246513477376834e-05 -0.00011723134052616724
leaf_weight=5.9999999999999991 7.9999999999999982 5.9999999999999991 5 6.9999999999999982 33 5.9999999999999991 148 36 5.9999999999999991 4.9999999999999991 5.0000000000000018 8.9999999999999982 5 9.9999999999999982 7
leaf_count=6 8 6 5 7 33 6 148 36 6 5 5 9 5 10 7
internal_value=0 8.39697e-05 -0.00043984 -0.000204246 -4.45544e-05 0.000118239 0.000135408 -4.11376e-05 8.65549e-05 0.000184108 -0.000444175 -0.000624562 -0.000321939 -0.000225057 -0.000410372
internal_weight=0 214 13 88 53 201 195 42 39 153 35 19 10 16 14
internal_count=302 214 13 88 53 201 195 42 39 153 35 19 10 16 14
is_linear=0
shrinkage=0.000919535


Tree=34
num_leaves=16
num_cat=0
split_feature=0 38 183 94 159 120 26 151 20 124 60 143 83 99 137
split_gain=6.52253 3.88356 4.57964 3.87376 2.87553 2.43622 2.31633 2.14135 1.80391 1.55345 1.552 1.22938 1.03603 1.11509 0.817583
threshold=1239.5000000000002 3.5000000000000004 25.500000000000004 0.61040566029483712 204.50000000000003 4.1389855672110407 26.500000000000004 408.50000000000006 451.00000000000006 3.5000000000000004 102.89046616445847 14.500000000000002 629684.00000000012 31.500000000000004 91.250000000000014
decision_type=2 2 2 2 2 2 2 2 2 2 2 2 2 2 2
left_child=3 2 12 11 5 8 9 -7 -3 -4 -5 14 -2 -14 -1
right_child=1 4 6 10 -6 7 -8 -9 -10 -11 -12 -13 13 -15 -16
leaf_value=-0.00056927732019255127 -0.00086920879373566075 0.00012413103710252817 -0.00040970093638623931 -0.00028228632409774509 -0.00049909466772609312 -3.7058630822309899e-05 -0.00058695622713546638 0.0002224628490429242 -0.0005083838793583387 0.00012805070395364881 0.00020514428182238283 -0.00036700319791254309 -5.180996808654061e-05 -0.00067271248871930483 -0.0011129474525697091
leaf_weight=6.0000000000000018 5.9999999999999991 6.9999999999999991 4.9999999999999991 12.000000000000002 5.9999999999999991 33 4.9999999999999991 139 7.9999999999999991 40 9.9999999999999982 9.9999999999999982 4.9999999999999982 5 5
leaf_count=6 6 7 5 12 6 33 5 139 8 40 10 10 5 5 5
internal_value=0 5.50421e-05 -0.000137101 -0.000331271 0.000120978 0.000141334 0 0.000172464 -0.000211932 6.66856e-05 -5.91348e-05 -0.000612942 -0.000563592 -0.000369596 -0.000827735
internal_weight=0 259 66 43 193 187 50 172 15 45 22 21 16 10 11
internal_count=302 259 66 43 193 187 50 172 15 45 22 21 16 10 11
is_linear=0
shrinkage=0.000919535


Tree=35
num_leaves=16
num_cat=0
split_feature=5 106 38 163 140 7 87 96 65 114 52 60 110 82 78
split_gain=6.76927 4.49067 3.52401 3.14969 2.90571 3.22259 2.83767 1.65614 1.58317 1.56428 1.43556 2.07839 1.13819 1.62463 0.959849
threshold=1187.5000000000002 19.250000000000004 3.5000000000000004 3.1250000000000004 4.5000000000000009 8.5000000000000018 97.500000000000014 1123.1805000000011 31.977582493753861 2.5000000000000004 4.3436141304347835 82.381869160918384 2.324837662337663 210.50000000000003 1789829.5000000002
decision_type=2 2 2 2 2 2 2 2 2 2 2 2 2 2 2
left_child=1 12 4 -4 -2 -6 -3 -7 -8 -10 14 -12 13 -1 -5
right_child=2 6 3 10 5 7 8 -9 9 -11 11 -13 -14 -15 -16
leaf_value=6.888755287372264e-05 -0.00050858279353195937 -0.00084704081630997076 -0.0003926374283152068 -0.00031699978116281509 -0.00067133273451083569 0.00035279433315929911 -0.00071803470036836583 -6.1607722580310929e-05 -0.00034662005237898853 3.451922982012645e-05 0 0.00028682367134043226 0.00013666817960222854 -0.00050305125174960111 0.00013284013877818614
leaf_weight=10.000000000000002 11.999999999999998 8.9999999999999982 7.9999999999999991 6.9999999999999991 4.9999999999999991 13.999999999999998 5.9999999999999991 19 25 13.999999999999998 27 103 27 6.9999999999999991 8.9999999999999982
leaf_count=10 12 9 8 7 5 14 6 19 25 14 27 103 27 7 9
internal_value=0 -0.000198564 9.53531e-05 0.000164293 -0.000116147 7.84962e-06 -0.000376017 0.000113635 -0.00027928 -0.000209127 0.000195317 0.000227349 1.87514e-05 -0.000166068 -6.24416e-05
internal_weight=0 98 204 154 50 38 54 33 45 39 146 130 44 17 16
internal_count=302 98 204 154 50 38 54 33 45 39 146 130 44 17 16
is_linear=0
shrinkage=0.000919535


Tree=36
num_leaves=16
num_cat=0
split_feature=0 106 38 163 99 107 161 78 190 6 127 60 163 57 25
split_gain=6.50093 4.33819 3.86924 3.1378 2.42729 2.42033 2.37642 2.13625 1.73019 1.39697 1.3066 1.13848 1.09566 0.667622 0.570928
threshold=1239.5000000000002 19.250000000000004 3.5000000000000004 3.1250000000000004 26.500000000000004 142.50000000000003 204.50000000000003 1810127.5000000002 1.0000000180025095e-35 252.50000000000003 5.1250000000000009 102.89046616445847 62.750000000000007 300623.50000000006 6.5000000000000009
decision_type=2 2 2 2 2 2 2 2 2 2 2 2 2 2 2
left_child=1 11 4 -4 7 9 10 13 -3 -6 -5 14 -7 -2 -1
right_child=2 8 3 6 5 12 -8 -9 -10 -11 -12 -13 -14 -15 -16
leaf_value=2.1288154536041763e-05 0.00032623930610728148 -0.0010112156899891973 -0.00040538100396248248 2.2922840101637746e-05 -0.0004253549593972953 -0.00082090189468944684 -0.00037338173048173846 -0.00030688373553831356 -0.00043427941569936331 0.00010634156436659476 0.00021128291170201811 0.00027030847506223768 -0.0003417236297810075 -5.452856813435803e-05 -0.00040897987687126425
leaf_weight=5.0000000000000018 15.000000000000005 6.0000000000000027 8.9999999999999982 41 6.0000000000000027 7.0000000000000027 6.9999999999999991 8.9999999999999982 19 12.999999999999998 136 7.9999999999999991 10.999999999999998 4.9999999999999991 5
leaf_count=5 15 6 9 41 6 7 7 9 19 13 136 8 11 5 5
internal_value=0 -0.000330726 5.4947e-05 0.000120761 -0.000136841 -0.000292811 0.000146909 6.12183e-05 -0.000577786 -6.10169e-05 0.000167898 1.1708e-05 -0.00053371 0.000229421 -0.000192167
internal_weight=0 43 259 193 66 37 184 29 25 19 177 18 18 20 10
internal_count=302 43 259 193 66 37 184 29 25 19 177 18 18 20 10
is_linear=0
shrinkage=0.000919535


Tree=37
num_leaves=13
num_cat=0
split_feature=0 93 110 7 116 130 156 70 160 180 180 52
split_gain=6.48905 3.60989 3.26459 2.82697 2.94378 2.58777 2.37914 1.52267 1.44568 1.40827 1.15797 0.644144
threshold=1239.5000000000002 0.22250000000000003 1.6274774774774776 8.5000000000000018 1.3040447623578633 55.683436532507748 1226.5000000000002 122.50000000000001 94.500000000000014 0.89375104460089927 0.94896120283274243 4.7899188031910178
decision_type=2 2 2 2 2 2 2 2 2 2 2 2
left_child=1 7 -2 4 -4 8 -7 10 -5 -6 11 -1
right_child=2 -3 3 5 9 6 -8 -9 -10 -11 -12 -13
leaf_value=-0.00034370970033992482 -0.00067271102794587618 0.00018286076592103118 -0.00079402471369993211 -0.00067479728092682421 0.00030532747274574228 0.00013748459692398558 -0.0004966120870540865 -0.00010922856499601905 -5.6208949173177225e-05 -0.00027907591268093511 -0.00093602336374920764 -0.00071908179935536271
leaf_weight=14.000000000000005 4.9999999999999991 8.9999999999999982 6.0000000000000027 4.9999999999999991 5.9999999999999991 215 4.9999999999999991 7.9999999999999991 8.9999999999999982 7.9999999999999991 5.9999999999999991 5.9999999999999991
leaf_count=14 5 9 6 5 6 215 5 8 9 8 6 6
internal_value=0 -0.000330425 5.48952e-05 6.96295e-05 -0.000260844 9.81347e-05 0.000122681 -0.000467518 -0.000283055 -2.56026e-05 -0.000575484 -0.000461256
internal_weight=0 43 259 254 20 234 220 34 14 14 26 20
internal_count=302 43 259 254 20 234 220 34 14 14 26 20
is_linear=0
shrinkage=0.000919535


Tree=38
num_leaves=16
num_cat=0
split_feature=5 93 7 132 175 170 100 129 131 116 10 118 146 183 16
split_gain=6.73938 4.12502 3.56088 2.90287 3.40448 3.02755 2.66549 3.08204 2.01735 1.32386 1.21337 1.00765 0.961574 0.737253 0.621637
threshold=1187.5000000000002 0.22250000000000003 6.5000000000000009 155.50000000000003 0.3433146001639153 9.0000000000000018 20.500000000000004 14.500000000000002 86.000000000000014 1.0190649046791633 1.5000000000000002 72.500000000000014 29.875000000000004 46.500000000000007 1.0000000180025095e-35
decision_type=2 2 2 2 2 2 2 2 2 2 2 2 2 2 2
left_child=1 6 -2 4 14 -6 7 8 -1 -5 13 -9 -11 -8 -4
right_child=2 -3 3 9 5 -7 10 11 -10 12 -12 -13 -14 -15 -16
leaf_value=-0.00064255259857679448 -0.00050148927733962331 0.00028126250455045464 -0.00055338168052837284 -0.00018438617005204965 -0.00037380128044326626 0.0001874915179052598 -1.7933734285703543e-05 -3.6208717768588275e-05 -5.0881047064042106e-05 0.00026723154115922116 -0.00035661489591741268 -0.0004944814885900668 7.3478289262724386e-05 0.00037754306518769578 -0.00014177654120048301
leaf_weight=30 7.9999999999999991 12.999999999999998 9.9999999999999982 6.9999999999999991 9.9999999999999982 41 11.000000000000005 21.000000000000004 5.9999999999999991 94 5.9999999999999991 4.9999999999999991 29 5.9999999999999991 4.9999999999999991
leaf_count=30 8 13 10 7 10 41 11 21 6 94 6 5 29 6 5
internal_value=0 -0.000198131 9.51373e-05 0.000119927 -3.6625e-05 7.61821e-05 -0.000272134 -0.000371176 -0.000545388 0.000199658 -3.0903e-06 -0.000127351 0.000221949 0.00012092 -0.00042052
internal_weight=0 98 204 196 66 51 85 62 36 130 23 26 123 17 15
internal_count=302 98 204 196 66 51 85 62 36 130 23 26 123 17 15
is_linear=0
shrinkage=0.000919535


Tree=39
num_leaves=16
num_cat=0
split_feature=5 100 129 187 144 191 175 98 137 183 96 27 181 123 187
split_gain=6.72703 5.09133 3.05085 4.45897 2.83342 2.65356 2.37464 2.37396 2.32251 1.30413 1.24095 1.15069 1.11376 0.665403 0.60404
threshold=1187.5000000000002 19.500000000000004 14.500000000000002 5.6570000000000009 60.000000000000007 23.500000000000004 0.33512717463113856 53.500000000000007 155.37500000000003 17.500000000000004 1181.3460000000005 1.5000000000000002 0.92750525052505262 4.5000000000000009 3.7317500000000003
decision_type=2 2 2 2 2 2 2 2 2 2 2 2 2 2 2
left_child=1 2 3 8 5 -2 7 -7 -1 -5 14 13 -8 -4 -3
right_child=4 10 11 9 -6 6 12 -9 -10 -11 -12 -13 -14 -15 -16
leaf_value=-0.001128695453579884 -0.00043844317176957589 0.00015546863183830005 -0.00049805000709655196 -0.00043290910151111184 -0.00058054996834105207 0.00018588012153893566 0.00020110941276496448 -0.00025836279828450213 -0.00050024189051355776 0.00010474852790053501 0.00025269487834322707 7.5379819089936513e-05 -0.00023355780978347182 -5.0093067236426621e-05 -0.00018894273130145277
leaf_weight=10.000000000000002 6.9999999999999991 6.0000000000000027 7.0000000000000018 6.9999999999999991 4.9999999999999991 18 146 23 10.999999999999998 7.9999999999999991 17 12.999999999999998 4.9999999999999991 5 13.999999999999998
leaf_count=10 7 6 7 7 5 18 146 23 11 8 17 13 5 5 14
internal_value=0 -0.00019795 -0.000361069 -0.000532368 9.50487e-05 0.0001125 0.000133002 -6.2455e-05 -0.000805292 -0.000144955 7.02361e-05 -0.000111759 0.000186323 -0.000316458 -8.35183e-05
internal_weight=0 98 61 36 204 199 192 41 21 15 37 25 151 12 20
internal_count=302 98 61 36 204 199 192 41 21 15 37 25 151 12 20
is_linear=0
shrinkage=0.000919535


Tree=40
num_leaves=16
num_cat=0
split_feature=5 7 163 83 165 164 175 99 175 87 64 82 38 74 94
split_gain=6.71473 3.55127 3.54179 2.72497 3.07675 2.72423 2.46574 2.86614 1.9572 2.03154 1.6348 1.91301 1.19303 0.846534 0.700237
threshold=1187.5000000000002 6.5000000000000009 3.1250000000000004 605950.00000000012 204.50000000000003 25.250000000000004 0.33512717463113856 21.500000000000004 0.62155685723967669 95.500000000000014 402813.91234352911 215.50000000000003 27.500000000000004 1329.5000000000002 0.55632190880134014
decision_type=2 2 2 2 2 2 2 2 2 2 2 2 2 2 2
left_child=3 -2 5 8 10 -3 7 -4 9 -1 11 -5 -11 -8 -12
right_child=1 2 6 4 -6 -7 13 -9 -10 12 14 -13 -14 -15 -16
leaf_value=-0.00078678597320765977 -0.0005008600307892725 -0.00079715233378303515 0.00026428934009049766 -3.4565566631646943e-05 -0.00054758467068951027 0.00011065887440900633 -6.3475589838369944e-05 -0.00024229817940495265 -0.00093507477559765483 -0.00031886215299119762 -0.00012814934273787121 -0.00067520820401105095 0.00012719761231970024 0.00022396740667874105 0.00021798217155421476
leaf_weight=6.0000000000000027 7.9999999999999991 5.9999999999999982 14.999999999999998 18.000000000000004 9.9999999999999982 5 8.9999999999999982 25 4.9999999999999991 17.000000000000004 6.0000000000000027 4.9999999999999991 6.9999999999999991 136 24
leaf_count=6 8 6 15 18 10 5 9 25 5 17 6 5 7 136 24
internal_value=0 9.49603e-05 0.000119717 -0.000197771 -8.24864e-05 -0.000383984 0.000150063 -5.12178e-05 -0.000403383 -0.000310654 5.46334e-06 -0.000177816 -0.000187244 0.00020584 0.00014733
internal_weight=0 204 196 98 63 11 185 40 35 30 53 23 24 145 30
internal_count=302 204 196 98 63 11 185 40 35 30 53 23 24 145 30
is_linear=0
shrinkage=0.000919535


Tree=41
num_leaves=16
num_cat=0
split_feature=38 182 181 78 187 110 57 135 141 149 144 70 10 142 110
split_gain=5.81584 4.80895 3.7685 4.23024 2.96892 3.18901 3.09198 2.68254 2.60169 2.38568 1.76341 1.71352 1.45914 1.4115 1.28025
threshold=3.5000000000000004 55.500000000000007 0.81864831768616264 1675149.5000000002 3.9245000000000005 2.6742424242424243 243355.50000000003 47.375000000000007 66.000000000000014 438.62500000000006 23.250000000000004 89.500000000000014 1.0000000180025095e-35 18.500000000000004 2.0398493259318005
decision_type=2 2 2 2 2 2 2 2 2 2 2 2 2 2 2
left_child=1 8 3 -2 -4 13 -7 -3 -1 14 11 -5 -11 -6 -9
right_child=2 7 4 10 5 6 -8 9 -10 12 -12 -13 -14 -15 -16
leaf_value=-0.0009056121978141627 -0.00057668916866892531 -0.00044399006243211819 0.00017064875694847937 0.00011607064708735343 -0.0002548364494033491 0.00022062476109610432 -0.00058458206752676808 -0.00016953443993031084 -0.00017914165132151266 -0.00055656842873033976 -0.00032265969364061959 0.00033118932199913679 0 -0.00068060326196652356 0.00024719815893174717
leaf_weight=11.000000000000002 5.9999999999999991 13.999999999999998 27 62 21.000000000000004 19.000000000000004 4.9999999999999991 7.9999999999999991 6.9999999999999991 7.9999999999999991 4.9999999999999991 65 7.9999999999999991 9.9999999999999982 26
leaf_count=11 6 14 27 62 21 19 5 8 7 8 5 65 8 10 26
internal_value=0 -0.00020893 7.78406e-05 0.000170648 -7.79158e-05 -0.000200698 4.95663e-05 -8.97428e-05 -0.000627753 9.41755e-06 0.000205319 0.00022664 -0.00028152 -0.000395161 0.000147847
internal_weight=0 82 220 138 82 55 24 64 18 50 132 127 16 31 34
internal_count=302 82 220 138 82 55 24 64 18 50 132 127 16 31 34
is_linear=0
shrinkage=0.000919535


Tree=42
num_leaves=16
num_cat=0
split_feature=0 38 183 94 163 164 42 151 156 30 153 134 70 57 158
split_gain=6.43914 3.83945 4.53323 3.82923 3.11714 3.09756 2.30107 1.9744 1.77455 1.56137 1.37011 1.31374 0.828657 0.448209 0.24677
threshold=1239.5000000000002 3.5000000000000004 25.500000000000004 0.61040566029483712 3.1250000000000004 204.50000000000003 26.500000000000004 395.00000000000006 438.00000000000006 3.5000000000000004 437.50000000000006 65.500000000000014 96.500000000000014 137508.00000000003 78.166666666666671
decision_type=2 2 2 2 2 2 2 2 2 2 2 2 2 2 2
left_child=3 2 10 11 -3 7 8 -6 -4 12 -2 -1 -5 -13 -12
right_child=1 4 6 9 5 -7 -8 -9 -10 -11 14 13 -14 -15 -16
leaf_value=-0.00093879916177727889 -0.00020016722610387131 -0.0004041676404018388 0.00032399049961256911 -0.00044482962603493618 -4.9891794276995684e-05 -0.00049669411577027477 -0.00058498899496602769 0.00021120194583203886 -6.1690856929139871e-05 0.00023212186681827841 -0.00093618312669582608 -0.00066284406800670497 2.4059514954307218e-05 -0.00030010951350798522 -0.0005793578959944277
leaf_weight=7.0000000000000027 5.9999999999999991 8.9999999999999982 14.999999999999998 8.0000000000000018 29 5.9999999999999991 4.9999999999999991 149 30 8.9999999999999982 4.9999999999999982 4.9999999999999991 4.9999999999999991 8.9999999999999982 5
leaf_count=7 6 9 15 8 29 6 5 149 30 9 5 5 5 9 5
internal_value=0 5.4675e-05 -0.000136373 -0.00032916 0.000120236 0.000146298 0 0.000168453 6.64972e-05 -5.85841e-05 -0.000560697 -0.000609208 -0.000262899 -0.000436158 -0.000769128
internal_weight=0 259 66 43 193 184 50 178 45 22 16 21 13 14 10
internal_count=302 259 66 43 193 184 50 178 45 22 16 21 13 14 10
is_linear=0
shrinkage=0.000919535


Tree=43
num_leaves=16
num_cat=0
split_feature=5 93 22 0 135 116 159 82 79 60 120 177 79 160 111
split_gain=6.68203 4.09921 3.48662 3.08909 2.57412 3.02801 2.52007 2.2604 3.16136 1.75454 1.73224 1.57761 1.69568 1.50771 1.33479
threshold=1187.5000000000002 0.22250000000000003 3.5000000000000004 1239.5000000000002 48.500000000000007 1.4938245422631906 1.5000000000000002 212.50000000000003 1796650.0000000002 75.475154827058262 4.2977477409751783 0.62401908801696726 1685321.5000000002 199.50000000000003 3.1015488488025129
decision_type=2 2 2 2 2 2 2 2 2 2 2 10 2 2 2
left_child=1 3 4 11 -2 -6 -4 13 -9 14 -11 12 -1 -5 -8
right_child=2 -3 6 7 5 -7 9 8 -10 10 -12 -13 -14 -15 -16
leaf_value=-0.00099353803013977368 -0.0005063093618282511 0.00028059245362209234 -0.00030487501567810803 0.00017069274879885708 -0.00034533531167699606 0.00018711991513438125 -0.00038324721384165497 -5.7975889074461201e-05 -0.00072684852832020973 8.210754009920401e-06 0.00028438828894130735 -0.00026410969326943622 -0.00041023070146290109 -0.00034750583367367237 0.000117908312670693
leaf_weight=8.0000000000000018 10.999999999999998 12.999999999999998 8.9999999999999982 21.000000000000004 13.999999999999998 25 7.0000000000000027 15.000000000000002 9.9999999999999982 24 102 14.999999999999998 9.9999999999999982 5.9999999999999991 11.999999999999998
leaf_count=8 11 13 9 21 14 25 7 15 10 24 102 15 10 6 12
internal_value=0 -0.000197295 9.47227e-05 -0.000271067 -0.00011565 -3.47994e-06 0.000163296 -0.000130018 -0.000328874 0.000192805 0.000232125 -0.000491119 -0.000675683 5.32959e-05 -6.58657e-05
internal_weight=0 98 204 85 50 39 154 52 25 145 126 33 18 27 19
internal_count=302 98 204 85 50 39 154 52 25 145 126 33 18 27 19
is_linear=0
shrinkage=0.000919535


Tree=44
num_leaves=16
num_cat=0
split_feature=51 100 163 8 22 135 162 42 137 129 108 153 69 98 172
split_gain=6.18099 4.88995 3.19861 2.77483 2.52183 3.49746 2.44204 2.42333 2.3504 3.0681 1.33628 2.40516 1.28572 2.37155 1.09318
threshold=251.50000000000003 19.500000000000004 3.1250000000000004 4.5000000000000009 3.5000000000000004 48.500000000000007 68.500000000000014 8.5000000000000018 84.125000000000014 10.500000000000002 31.000000000000004 442.50000000000006 657476.00000000012 51.500000000000007 65.500000000000014
decision_type=2 2 2 2 2 2 2 2 2 2 2 2 2 2 2
left_child=1 3 6 8 5 -4 -2 -7 -1 -10 11 -3 13 -6 -5
right_child=2 10 4 14 12 7 -8 -9 9 -11 -12 -13 -14 -15 -16
leaf_value=-0.00014395983146806159 9.4400374614140988e-06 8.3807840849819926e-05 -0.00054912830180432802 -0.00020107771235615166 0.00019377189227105468 -0.0004906332259949636 -0.00084978091324993874 0.00020863090172668165 -0.00041032759650113244 -0.0010463391207858098 0.00018739731737450041 -0.00056382092262131955 0.00024010787590887783 -0.00024552822041768368 0.00037438295254756728
leaf_weight=14.999999999999998 5.9999999999999982 15.000000000000002 9.9999999999999982 5.9999999999999982 33 5.0000000000000027 5 23 24 8.9999999999999982 25 6.9999999999999991 99 14.999999999999998 5
leaf_count=15 6 15 10 6 33 5 5 23 24 9 25 7 99 15 5
internal_value=0 -0.000178857 9.66572e-05 -0.000354963 0.000125516 -8.48059e-05 -0.000382043 8.11127e-05 -0.000450339 -0.000587609 4.17223e-05 -0.000122251 0.000180157 5.54927e-05 5.82178e-05
internal_weight=0 106 196 59 185 38 11 28 48 33 47 22 147 48 11
internal_count=302 106 196 59 185 38 11 28 48 33 47 22 147 48 11
is_linear=0
shrinkage=0.000919535


Tree=45
num_leaves=13
num_cat=0
split_feature=79 127 174 60 38 110 98 21 139 170 32 57
split_gain=6.17993 3.92895 3.06897 2.62744 2.443 2.78183 2.40665 2.1914 1.75222 1.29486 1.25374 0.947172
threshold=1377668.5000000002 5.5000000000000009 0.98622047244094502 117.22757288673674 8.0000000000000018 1.7962962962962965 100.00000000000001 142.50000000000003 28.289682539682541 99.000000000000014 1.0000000180025095e-35 183653.50000000003
decision_type=2 2 2 2 2 2 2 2 2 2 2 2
left_child=3 6 4 -1 5 -3 7 9 -9 -2 -4 -6
right_child=1 2 10 -5 11 -7 -8 8 -10 -11 -12 -13
leaf_value=-0.0008888522069131744 -0.0004314792836408838 -0.0006699042081924608 -0.00055353096418246021 -4.9958726429319833e-05 0.00010982862048317235 3.8512733955668431e-05 0.00037776508351651902 8.9935570492052062e-05 -0.00039337485712131868 -8.6741541837816018e-05 2.4726318417216764e-05 0.00027271554276191737
leaf_weight=8.9999999999999982 29 4.9999999999999991 7.9999999999999982 4.9999999999999991 54 57 6.9999999999999991 29 7.9999999999999991 13.999999999999998 5 72
leaf_count=9 29 5 8 5 54 57 7 29 8 14 5 72
internal_value=0 2.90176e-05 9.97715e-05 -0.000594409 0.00012984 -1.90377e-05 -0.00013395 -0.000179612 -1.437e-05 -0.000320569 -0.00032986 0.000203346
internal_weight=0 288 201 14 188 62 87 80 37 43 13 126
internal_count=302 288 201 14 188 62 87 80 37 43 13 126
is_linear=0
shrinkage=0.000919535


Tree=46
num_leaves=16
num_cat=0
split_feature=5 96 132 120 37 154 78 93 147 130 136 123 172 92 22
split_gain=6.64645 4.37238 3.23842 3.02531 2.40808 2.40034 3.13417 2.30522 2.17252 1.71195 1.47573 1.44211 1.39932 1.1536 1.05416
threshold=1187.5000000000002 1160.1234999999997 564.00000000000011 4.2977477409751783 159.50000000000003 45.500000000000007 1798421.0000000002 0.23875000000000002 225.50000000000003 86.961538461538467 54.750000000000007 4.5000000000000009 33.500000000000007 197.91550000000004 21.500000000000004
decision_type=2 2 2 2 2 2 2 2 2 2 2 2 2 2 2
left_child=1 7 3 4 -2 6 -5 8 9 -1 -7 -4 -10 -3 -6
right_child=2 13 11 5 14 10 -8 -9 12 -11 -12 -13 -14 -15 -16
leaf_value=-0.00024498951304149116 -0.00050614091748170213 0.00025974552872598858 -0.0007569424031846953 -0.00076533511580552849 -0.00021116250753240552 -9.831840594497386e-05 0.0001331825135113757 0.00028692178980343146 -0.00027763120899015697 -0.00057720322832635856 0.00023538181108925433 -5.2346582802847733e-05 0.00030492128754665293 -0.00020053923257967946 0.00018973475057570182
leaf_weight=24 9.9999999999999982 18.000000000000004 4.9999999999999982 4.9999999999999991 9.0000000000000018 11.999999999999998 8.9999999999999982 4.9999999999999991 7.9999999999999982 31 135 5 6 5.9999999999999991 13.999999999999998
leaf_count=24 10 18 5 5 9 12 9 5 8 31 135 5 6 6 14
internal_value=0 -0.000196772 9.44667e-05 0.000120989 -0.000131705 0.000173063 -0.00018834 -0.00030744 -0.000351406 -0.000433634 0.000207841 -0.00041241 -2.49483e-05 0.00014278 3.10242e-05
internal_weight=0 98 204 194 33 161 14 74 69 55 147 10 14 24 23
internal_count=302 98 204 194 33 161 14 74 69 55 147 10 14 24 23
is_linear=0
shrinkage=0.000919535


Tree=47
num_leaves=16
num_cat=0
split_feature=5 94 22 163 99 62 107 118 132 96 114 147 113 127 6
split_gain=6.63418 4.31645 3.46559 3.10249 3.06252 2.72152 1.8906 2.20503 1.74333 1.7925 1.55193 2.19598 1.53073 1.32117 1.304
threshold=1187.5000000000002 0.59826032766674653 3.5000000000000004 3.1250000000000004 26.500000000000004 98.66056711933139 142.50000000000003 69.500000000000014 198.00000000000003 1160.1234999999997 2.5000000000000004 228.50000000000003 13.500000000000002 5.1250000000000009 546.50000000000011
decision_type=2 2 2 2 2 2 2 2 2 2 2 2 2 2 2
left_child=1 5 4 -4 -2 -1 7 -6 -3 -10 11 -7 -12 14 -5
right_child=2 8 3 13 6 10 -8 -9 9 -11 12 -13 -14 -15 -16
leaf_value=-0.00088242433346382625 0.00013987432902690656 0.00013852396907725387 -0.00038998583046969749 0.0001417104385804117 -0.00058421432855703173 -0.00060169015258721629 -0.00057278474671844663 0.00015618771458182594 -0.00046338049852312512 6.9974659040731769e-05 0.0002154588589099694 0 -0.00036845083498051261 0.0002426786295087641 -0.00026200470608655509
leaf_weight=7.9999999999999991 22 29 7.9999999999999991 26 5.0000000000000027 18.000000000000004 12.999999999999998 9.9999999999999982 11.000000000000002 9.9999999999999982 7.9999999999999982 6.9999999999999991 7 111 8.9999999999999982
leaf_count=8 22 29 8 26 5 18 13 10 11 10 8 7 7 111 9
internal_value=0 -0.000196592 9.43783e-05 0.000162745 -0.000115358 -0.000393255 -0.000316988 -9.04668e-05 -6.63989e-06 -0.00020855 -0.000292491 -0.000432561 -5.52434e-05 0.000193537 3.63843e-05
internal_weight=0 98 204 154 50 48 28 15 50 21 40 25 15 146 35
internal_count=302 98 204 154 50 48 28 15 50 21 40 25 15 146 35
is_linear=0
shrinkage=0.000919535


Tree=48
num_leaves=16
num_cat=0
split_feature=5 106 62 141 164 177 120 98 128 109 148 91 139 131 159
split_gain=6.62202 4.39706 3.74047 3.07807 3.01144 2.76958 2.216 2.19366 2.01408 1.72795 1.62669 1.4648 1.38427 1.25016 1.6646
threshold=1187.5000000000002 19.250000000000004 97.277439501826805 94.000000000000014 25.250000000000004 0.024954072259644803 4.2977477409751783 37.500000000000007 965.50000000000011 79.500000000000014 3.5000000000000004 7.5000000000000009 10.584928229665072 34.500000000000007 70.500000000000014
decision_type=2 2 2 2 2 10 2 2 2 2 2 2 2 2 2
left_child=1 13 -3 4 5 -2 9 8 -4 -6 -9 -5 -8 14 -1
right_child=3 2 7 11 6 -7 12 10 -10 -11 -12 -13 -14 -15 -16
leaf_value=2.358827572150263e-06 -0.00069105059137146245 -0.00099673611638360416 -0.00026746847943128957 -0.00062342297129105442 -0.00020658291475083145 0.0001945150591224549 -0.0001705549298699756 -0.00072294047693709804 0.00027070869284300008 0.00031383603849163063 -0.0001266383267023014 1.8949756352586598e-05 0.00021836011684059435 0.00019656080813395871 -0.00058422757352934456
leaf_weight=20.000000000000004 6.9999999999999982 6.9999999999999991 21.000000000000004 6.9999999999999982 22.000000000000004 5 7.9999999999999991 12.000000000000002 7.9999999999999991 6.9999999999999991 5.9999999999999991 5 143 19 4.9999999999999991
leaf_count=20 7 7 21 7 22 5 8 12 8 7 6 5 143 19 5
internal_value=0 -0.000196412 -0.000372007 9.42908e-05 0.000122728 -0.000320499 0.000152647 -0.000276207 -0.000117307 -7.90328e-05 -0.000528057 -0.000354832 0.000197409 1.86179e-05 -0.000115401
internal_weight=0 98 54 204 192 12 180 47 29 29 18 12 151 44 25
internal_count=302 98 54 204 192 12 180 47 29 29 18 12 151 44 25
is_linear=0
shrinkage=0.000919535


Tree=49
num_leaves=15
num_cat=0
split_feature=5 78 163 130 97 175 132 133 160 115 28 52 59 104
split_gain=6.60993 3.38723 3.15566 3.03271 2.91311 2.57791 4.08945 2.00869 3.60687 1.61165 1.11927 1.01718 0.5011 0.244298
threshold=1187.5000000000002 1281919.0000000002 3.1250000000000004 468.00000000000006 149.50000000000003 0.33512717463113856 159.00000000000003 85.500000000000014 108.50000000000001 1.5000000000000002 1.5000000000000002 5.289933913604127 1043543.6159677802 21.55150906829369
decision_type=2 2 2 2 2 2 2 2 2 2 2 2 2 2
left_child=1 -1 9 5 7 6 -4 10 -9 -2 -3 -7 13 -6
right_child=2 4 3 -5 12 11 -8 8 -10 -11 -12 -13 -14 -15
leaf_value=-0.00076695600062110165 -5.1216436486209358e-05 -3.3738752673030389e-05 -0.00042450093999412401 -0.00057661136134002852 0.00010669685811099849 0.00023890974841954036 0.00016883781225405354 -0.00082512364552283113 -0.00016719221547867723 -0.00076233629564455643 -0.00049567214648374306 5.3860006243158398e-05 -5.5840243319404597e-05 0.0003806092537062489
leaf_weight=7.9999999999999991 5.9999999999999982 36 15.999999999999998 4.9999999999999991 5.0000000000000027 114 25 11.000000000000002 20 5 4.9999999999999991 33 4.9999999999999991 7.9999999999999991
leaf_count=8 6 36 16 5 5 114 25 11 20 5 5 33 5 8
internal_value=0 -0.000196234 9.42035e-05 0.000121715 -0.000144277 0.000140789 -6.22942e-05 -0.000227178 -0.000403792 -0.000381838 -9.20676e-05 0.000197685 0.000184695 0.000279736
internal_weight=0 98 204 193 90 188 41 72 31 11 41 147 18 13
internal_count=302 98 204 193 90 188 41 72 31 11 41 147 18 13
is_linear=0
shrinkage=0.000919535


Tree=50
num_leaves=16
num_cat=0
split_feature=51 73 138 120 163 178 187 164 42 135 63 153 187 108 132
split_gain=6.11775 3.2885 3.22218 3.29634 3.17087 2.91961 2.8114 2.7158 2.54406 2.40164 1.7673 1.51766 1.47234 1.47091 0.80087
threshold=251.50000000000003 3598.5000000000005 1312.0000000000002 4.5240274599542341 3.1250000000000004 0.45022488755622192 5.9145000000000012 25.250000000000004 7.5000000000000009 32.000000000000007 392947.34246609308 601.00000000000011 3.8725000000000001 71.500000000000014 365.00000000000006
decision_type=2 2 2 2 2 10 2 2 2 2 2 2 2 2 2
left_child=1 5 3 13 7 6 14 -2 12 -10 -7 -11 -6 -3 -1
right_child=4 2 -4 -5 8 10 -8 -9 9 11 -12 -13 -14 -15 -16
leaf_value=-0.00094245294017839389 -0.00079301744751119718 -0.00039340256010460012 -0.00075595584407115585 0.00022999110361059528 2.4197870874409441e-05 -0.00042966798957900522 -5.0348775936766262e-05 0.00011337620567843196 -0.0003716312926105561 0.00021297732094435035 0.00018119706179849698 -1.7058531050714225e-05 -0.00067064660063851224 -3.3511818164249394e-06 -0.00049211734947793046
leaf_weight=11.000000000000005 5.9999999999999982 15.999999999999998 4.9999999999999991 29 4.9999999999999982 6.9999999999999991 5.9999999999999991 5 6.9999999999999991 139 8.9999999999999982 29 5 17 5.9999999999999991
leaf_count=11 6 16 5 29 5 7 6 5 7 139 9 29 5 17 6
internal_value=0 -0.000177946 -5.35468e-05 3.6623e-06 9.61546e-05 -0.000390012 -0.000599414 -0.000380462 0.000124889 0.00015086 -8.48026e-05 0.000173063 -0.000322861 -0.000194215 -0.000789579
internal_weight=0 106 67 62 196 39 23 11 185 175 16 168 10 33 17
internal_count=302 106 67 62 196 39 23 11 185 175 16 168 10 33 17
is_linear=0
shrinkage=0.000919535


Tree=51
num_leaves=16
num_cat=0
split_feature=0 106 38 158 154 117 147 183 135 62 147 156 9 79 89
split_gain=6.34531 4.2426 3.79089 2.68927 2.57068 2.86207 2.27942 2.83745 3.1006 2.04553 1.657 1.26328 1.10659 0.586163 0.569822
threshold=1239.5000000000002 19.250000000000004 3.5000000000000004 205.50000000000003 45.500000000000007 39.500000000000007 211.50000000000003 26.500000000000004 48.500000000000007 97.277439501826805 228.50000000000003 361.37500000000006 5.5000000000000009 1806748.0000000002 9.5000000000000018
decision_type=2 2 2 2 2 2 2 2 2 2 2 2 2 2 2
left_child=1 12 6 4 5 -4 13 10 -9 -3 -8 -6 14 -2 -1
right_child=2 9 3 -5 11 -7 7 8 -10 -11 -12 -13 -14 -15 -16
leaf_value=2.4117490071076642e-05 0.00033093566666674799 -0.00099450018366317966 -0.00055228581327969426 -0.00043488088116510064 3.3573019208575125e-05 0.00015716966544598119 -0.00093493095750814899 -0.0005526351570584808 6.4200431849844325e-05 -0.00039968303627059548 -0.00029970948374278585 0.00022218288923495175 0.00026682559778619613 -5.4298815863499204e-05 -0.00040577175258219239
leaf_weight=5.0000000000000018 8.9999999999999982 7.0000000000000027 9.0000000000000018 6.9999999999999991 40 9.9999999999999982 5.9999999999999991 8.9999999999999982 28 18 8.9999999999999982 127 7.9999999999999991 4.9999999999999991 5
leaf_count=5 9 7 9 7 40 10 6 9 28 18 9 127 8 5 5
internal_value=0 -0.000326766 5.42625e-05 0.000119408 0.000140696 -0.000178121 -0.000135572 -0.000224499 -8.59617e-05 -0.00057109 -0.000560872 0.000177276 1.18509e-05 0.000191344 -0.000189118
internal_weight=0 43 259 193 186 19 66 52 37 25 15 167 18 14 10
internal_count=302 43 259 193 186 19 66 52 37 25 15 167 18 14 10
is_linear=0
shrinkage=0.000919535


Tree=52
num_leaves=13
num_cat=0
split_feature=78 6 163 22 57 54 94 73 159 21 5 97
split_gain=6.11359 3.85494 3.2522 3.71677 2.60572 2.54168 2.43223 2.1807 1.97792 1.61988 1.10369 0.88236
threshold=1377622.0000000002 248.50000000000003 3.1250000000000004 3.5000000000000004 183653.50000000003 2.6503041825477101 0.87670315229917162 72333.500000000015 109.00000000000001 67.500000000000014 1102.5000000000002 119.50000000000001
decision_type=2 2 2 2 2 2 2 2 2 2 2 2
left_child=4 6 7 5 -1 -4 9 -3 -5 -2 -11 -8
right_child=1 2 3 8 -6 -7 11 -9 -10 10 -12 -13
leaf_value=-0.00088443913960345856 -0.00071638423437601038 -5.1657024227384181e-05 -0.00062338787460382229 0.00018466360570964713 -4.901457069520808e-05 -3.3618807713446307e-05 -0.00013854850716032969 -0.00084903253539217222 -0.00025413554911248666 -0.00042343235390105674 -1.7185498571334722e-05 0.00037667456604120904
leaf_weight=8.9999999999999982 8.0000000000000018 6.9999999999999982 6.9999999999999991 169 4.9999999999999991 49 4.9999999999999982 5 8.9999999999999982 12.000000000000002 10.999999999999998 6
leaf_count=9 8 7 7 169 5 49 5 5 9 12 11 6
internal_value=0 2.88525e-05 7.29433e-05 9.70711e-05 -0.000591219 -0.000109004 -0.000228065 -0.000391332 0.000162136 -0.000359902 -0.000231677 0.000140046
internal_weight=0 288 246 234 14 56 42 12 178 31 23 11
internal_count=302 288 246 234 14 56 42 12 178 31 23 11
is_linear=0
shrinkage=0.000919535


Tree=53
num_leaves=15
num_cat=0
split_feature=78 111 177 27 172 182 69 108 128 6 27 113 111 17
split_gain=6.10249 3.94111 3.28545 2.89375 2.74866 2.15225 1.99758 2.07569 1.74797 1.96169 1.58976 1.67287 1.41443 1.09248
threshold=1377622.0000000002 2.961807548915973 0.024954072259644803 2.5000000000000004 33.500000000000007 100.50000000000001 1029283.5000000001 71.500000000000014 1437.5000000000002 248.50000000000003 21.500000000000004 49.500000000000007 5.826294785312097 1.0000000180025095e-35
decision_type=2 2 10 2 2 2 2 2 2 2 2 2 2 2
left_child=4 3 5 6 -1 12 7 -2 9 -5 11 -4 -3 -8
right_child=1 2 10 8 -6 -7 13 -9 -10 -11 -12 -13 -14 -15
leaf_value=-0.00099509400888517598 -0.00052282012535216236 -0.00016783971312605783 0.00026202978669868552 -0.00030426828685795141 -0.00017253711232887475 0.00021179479937491805 -0.00013829824909227781 -8.6527137206575373e-05 -0.0004312936173920314 0.00016045805661071982 -0.00028346235033710124 4.0459971737413599e-05 -0.00071959038432598118 0.00037528785872282546
leaf_weight=6.9999999999999982 25 12.000000000000005 95 8.9999999999999982 7 7.9999999999999991 10.999999999999998 14.999999999999998 5.9999999999999991 48 5.9999999999999991 42 5.9999999999999991 4.9999999999999991
leaf_count=7 25 12 95 9 7 8 11 15 6 48 6 42 6 5
internal_value=0 2.88242e-05 0.000119157 -9.91459e-05 -0.000590684 -0.000180314 -0.000251118 -0.000360771 3.55446e-05 8.60189e-05 0.000173954 0.000194453 -0.000356834 2.12778e-05
internal_weight=0 288 169 119 14 26 56 40 63 57 143 137 18 16
internal_count=302 288 169 119 14 26 56 40 63 57 143 137 18 16
is_linear=0
shrinkage=0.000919535


Tree=54
num_leaves=16
num_cat=0
split_feature=78 175 187 65 154 117 114 130 150 6 173 187 98 93 2
split_gain=6.09145 4.44127 3.3925 3.76552 2.69893 2.59144 2.39863 2.51821 2.09568 1.62625 1.38174 1.07897 0.934163 0.897966 0.89187
threshold=1377622.0000000002 0.33512717463113856 4.3705000000000007 91.182256426202784 37.000000000000007 39.500000000000007 18.500000000000004 49.010545905707204 324.00000000000006 277.50000000000006 206.50000000000003 5.0745000000000013 53.500000000000007 0.15050000000000002 266.00000000000006
decision_type=2 2 2 2 2 2 2 2 2 2 2 2 2 2 2
left_child=8 2 3 13 5 11 7 -6 -1 10 -4 -3 -11 -2 -7
right_child=1 4 9 -5 6 14 -8 -9 -10 12 -12 -13 -14 -15 -16
leaf_value=-0.00027004506728791104 -0.00072294244226875793 -0.00084705930975528245 1.3951380284144104e-05 0.00024905644522782932 -0.00042300802488913388 -0.00011442817681340318 -0.00042886269632346391 0.00017671885992169589 -0.0009991836388124327 0.00032418893014592566 -0.00049482531207250603 -0.00022655189074159276 -6.0299948186432819e-05 -0.00037647923492008863 0.0003747564486831699
leaf_weight=7.9999999999999982 10.000000000000002 5.0000000000000018 12.000000000000002 6.9999999999999991 5.9999999999999991 7.9999999999999982 5.9999999999999991 173 6 15.000000000000002 6.9999999999999991 5 7.9999999999999991 21 5
leaf_count=8 10 5 12 7 6 8 6 173 6 15 7 5 8 21 5
internal_value=0 2.87967e-05 -0.000155022 -0.000353766 9.97151e-05 -0.000196087 0.000136778 0.000156179 -0.000590151 2.43428e-05 -0.000173216 -0.000545916 0.000189184 -0.000491446 7.23686e-05
internal_weight=0 288 80 38 208 23 185 179 14 42 19 10 23 31 13
internal_count=302 288 80 38 208 23 185 179 14 42 19 10 23 31 13
is_linear=0
shrinkage=0.000919535


end of trees

feature_importances:
5=21
163=20
78=18
120=16
187=16
7=15
38=15
135=15
175=15
22=13
183=13
6=11
96=11
110=11
132=11
0=10
57=10
60=10
73=10
79=10
100=10
164=10
51=9
70=9
116=9
159=9
184=9
63=8
130=8
137=8
20=7
40=7
56=7
93=7
94=7
99=7
106=7
127=7
144=7
153=7
154=7
160=7
177=7
26=6
27=6
42=6
62=6
82=6
98=6
114=6
118=6
139=6
172=6
180=6
181=6
191=6
24=5
30=5
41=5
92=5
97=5
108=5
113=5
131=5
141=5
142=5
156=5
1=4
32=4
52=4
65=4
80=4
95=4
107=4
111=4
123=4
128=4
129=4
133=4
136=4
147=4
150=4
151=4
162=4
178=4
182=4
188=4
2=3
10=3
23=3
36=3
54=3
59=3
64=3
83=3
85=3
87=3
104=3
109=3
124=3
140=3
143=3
161=3
165=3
170=3
179=3
185=3
186=3
190=3
8=2
21=2
25=2
35=2
37=2
53=2
58=2
69=2
74=2
102=2
105=2
117=2
122=2
138=2
146=2
149=2
152=2
158=2
167=2
171=2
174=2
9=1
16=1
17=1
19=1
28=1
29=1
31=1
47=1
48=1
61=1
67=1
71=1
72=1
81=1
84=1
86=1
88=1
89=1
91=1
101=1
103=1
115=1
125=1
134=1
145=1
148=1
157=1
166=1
168=1
169=1
173=1
189=1

parameters:
[boosting: gbdt]
[objective: regression]
[metric: rmse]
[tree_learner: serial]
[device_type: cpu]
[data: ]
[valid: ]
[num_iterations: 55]
[learning_rate: 0.000919535]
[num_leaves: 16]
[num_threads: -1]
[deterministic: 0]
[force_col_wise: 0]
[force_row_wise: 0]
[histogram_pool_size: -1]
[max_depth: 5]
[min_data_in_leaf: 5]
[min_sum_hessian_in_leaf: 0.001]
[bagging_fraction: 0.4]
[pos_bagging_fraction: 1]
[neg_bagging_fraction: 1]
[bagging_freq: 0]
[bagging_seed: 11149]
[feature_fraction: 0.7]
[feature_fraction_bynode: 0.4]
[feature_fraction_seed: 21351]
[extra_trees: 0]
[extra_seed: 16806]
[early_stopping_round: 0]
[first_metric_only: 0]
[max_delta_step: 0]
[lambda_l1: 0.0401055]
[lambda_l2: 0.102753]
[linear_lambda: 0]
[min_gain_to_split: 0]
[drop_rate: 0.1]
[max_drop: 50]
[skip_drop: 0.5]
[xgboost_dart_mode: 0]
[uniform_drop: 0]
[drop_seed: 2965]
[top_rate: 0.2]
[other_rate: 0.1]
[min_data_per_group: 100]
[max_cat_threshold: 32]
[cat_l2: 10]
[cat_smooth: 10]
[max_cat_to_onehot: 4]
[top_k: 20]
[monotone_constraints: ]
[monotone_constraints_method: basic]
[monotone_penalty: 0]
[feature_contri: ]
[forcedsplits_filename: ]
[refit_decay_rate: 0.9]
[cegb_tradeoff: 1]
[cegb_penalty_split: 0]
[cegb_penalty_feature_lazy: ]
[cegb_penalty_feature_coupled: ]
[path_smooth: 0]
[interaction_constraints: ]
[verbosity: -1]
[saved_feature_importance_type: 0]
[linear_tree: 0]
[max_bin: 255]
[max_bin_by_feature: ]
[min_data_in_bin: 3]
[bin_construct_sample_cnt: 200000]
[data_random_seed: 179]
[is_enable_sparse: 1]
[enable_bundle: 1]
[use_missing: 1]
[zero_as_missing: 0]
[feature_pre_filter: 1]
[pre_partition: 0]
[two_round: 0]
[header: 0]
[label_column: ]
[weight_column: ]
[group_column: ]
[ignore_column: ]
[categorical_feature: ]
[forcedbins_filename: ]
[precise_float_parser: 0]
[objective_seed: 26397]
[num_class: 1]
[is_unbalance: 0]
[scale_pos_weight: 1]
[sigmoid: 1]
[boost_from_average: 1]
[reg_sqrt: 0]
[alpha: 0.9]
[fair_c: 1]
[poisson_max_delta_step: 0.7]
[tweedie_variance_power: 1.5]
[lambdarank_truncation_level: 30]
[lambdarank_norm: 1]
[label_gain: ]
[eval_at: ]
[multi_error_top_k: 1]
[auc_mu_weights: ]
[num_machines: 1]
[local_listen_port: 12400]
[time_out: 120]
[machine_list_filename: ]
[machines: ]
[gpu_platform_id: -1]
[gpu_device_id: -1]
[gpu_use_dp: 0]
[num_gpu: 1]

end of parameters

pandas_categorical:[]
