tree
version=v3
num_class=1
num_tree_per_iteration=1
label_index=0
max_feature_idx=191
objective=regression
feature_names=0 1 2 3 4 5 6 7 8 9 10 11 12 13 14 15 16 17 18 19 20 21 22 23 24 25 26 27 28 29 30 31 32 33 34 35 36 37 38 39 40 41 42 43 44 45 46 47 48 49 50 51 52 53 54 55 56 57 58 59 60 61 62 63 64 65 66 67 68 69 70 71 72 73 74 75 76 77 78 79 80 81 82 83 84 85 86 87 88 89 90 91 92 93 94 95 96 97 98 99 100 101 102 103 104 105 106 107 108 109 110 111 112 113 114 115 116 117 118 119 120 121 122 123 124 125 126 127 128 129 130 131 132 133 134 135 136 137 138 139 140 141 142 143 144 145 146 147 148 149 150 151 152 153 154 155 156 157 158 159 160 161 162 163 164 165 166 167 168 169 170 171 172 173 174 175 176 177 178 179 180 181 182 183 184 185 186 187 188 189 190 191
feature_infos=[230:6129] [12:2702] [2:3102] [0:17] [0:6] [211:6406] [38:3999] [1:92] [0:59] [0:618] [0:36] [0:16] [0:20] [0:13] [0:31] [0:44] [0:6] [0:44] [0:17] [191:4559] [36:2483] [0:2704] [0:1727] [0:2614] [1:1328] [0:301] [1:54] [0:52] [0:967] [0:920] [0:382] [0:88] [0:29] [0:159] none [191:4559] [36:2483] [0:2704] [0:1727] [0:2614] [1:1328] [0:301] [1:54] [0:52] [0:967] [0:920] [0:382] [0:88] [0:29] [0:159] none [39:1575] [3.8557692307692308:21.25454545454545] [11:1209] [1.8302558051784696:123.28333488820388] [3:6] [0.69450557454393547:16.343737567975346] [13452:912113] [65797.576335877864:3157276.5539733577] [65864.526717557252:3157388.2604501606] [8.423293675641828:200.36603557085485] [113.70992366412214:2363.4580382436261] [19.251908396946565:440.99079320113322] [63626.783202252162:1081550.9494009293] [63631.924177016808:1081548.3283991446] [22.354026693915944:1774.8079589539925] [59.864916717840629:1359.0329670913291] [9.9268153508934542:248.99216137589943] [47035:3529205] [47118.5:3529271] [1:167] [100.5:2372] [21:445.5] [312:703529] [429:703678] [0:32] none none [229452:3986953] [229548:3987141] [180:85157] [207:4673] [35:855] [47083:3529205] [47162:3529271] [1:167] [101:2372] [21:446] [3:6] [6:24] [6:25] [4:33] [5.1689999999999996:1139.1949999999999] [0.033000000000000002:0.40000000000000002] [0.104748750567923:1.6610000000000007] [0.2896640792049528:30.76267351292498] [78.659999999999982:2193.4560000000006] [8:357] [4:192] [1:105] [0:83] [0:51] [1:77] [9.8958333333333339:322.66666666666669] [8.7855232829262224:526.60466960404028] [4:144] [3:333] [37:2763] [1:853] [1:530] [1:41.569230769230771] [0:157.24800964864878] [1:25] [1:1095] [1:125] [1:261] [0.88648244958924571:133.39731643682444] [30:683] [6:1323] [35:872] [3.7640449438202248:5.7579908675799087] [1:2] [9:44] [1:14] [2:14] [2:3] [3:5] [4:8] [171:3713] [1:51] [37.878787878787882:1316] [1:1316] [76:1316] [3:1316] [8:1316] [13:1316] [21:1316] [43:1316] [204:4511] [7.5151515151515156:234] [1:234] [14:234] [1:234] [2:234] [2.5:234] [4:234] [8.75:234] [35:876] [1:20] [69.5:1396] [1:1396] [177:2002] [7:1396] [1:2002] [2:1396] [17.5:1396] [42.5:1396] [207:4655] [12.77777777777778:615.33333333333337] [1:277] [30:1703] [1:277] [2:1703] [1:277] [4:277] [13:893] [35:2216] [0.0026455026455025998:1] [-1:0.99470899470899476] [0.0026455026455025998:1] [0:277] [0:729] [0:283] [35:870] [0:1] [0:1] [0:1] [0:3.3809523809523809] [0:36.5] [0:118] [0.1575237515308755:4.895829868387497] [0.23927075076435281:1.059328649492584] [8:167] [3:90] [0.084736497799066404:0.96637023560696755] [0.084736497799066404:0.96637023560696755] [3.0426406250000002:182.96225000000001] [2.6070000000000002:65.813999999999993] [15.727188065399501:612.67551680223755] [0:5467] [0:3419] [1:3089]
tree_sizes=823 893 871 892 888 888 855 859 856 910 873 876 857 893 893 857 878 901 873 906 857 875 860 860 894 858 892 860 872 859 872 891 874 857 886 891 858 891 841 874 890 890 904 889 893

Tree=0
num_leaves=8
num_cat=0
split_feature=0 94 38 183 135 150 156
split_gain=6.9331 4.11719 4.07911 4.84893 2.6516 2.6493 2.65547
threshold=1239.5000000000002 0.61040566029483712 3.5000000000000004 25.500000000000004 53.125000000000007 573.00000000000011 361.37500000000006
decision_type=2 2 2 2 2 2 2
left_child=1 -1 3 -2 -5 6 -4
right_child=2 -3 5 4 -6 -7 -8
leaf_value=2.0691484557568676 2.0691803190752367 2.0694972496575645 2.0695279794290098 2.0692923700064227 2.0696055949198273 2.0693765166409599 2.0696767260388813
leaf_weight=21 15.999999999999998 22 55 10.999999999999998 39 13.999999999999998 124
leaf_count=21 16 22 55 11 39 14 124
internal_value=2.06954 2.06933 2.06957 2.06945 2.06954 2.06961 2.06963
internal_weight=0 43 259 66 50 193 179
internal_count=302 43 259 66 50 193 179
is_linear=0
shrinkage=1


Tree=1
num_leaves=8
num_cat=0
split_feature=0 106 22 183 177 132 142
split_gain=6.92528 4.60147 4.07452 4.84347 2.79891 3.29176 2.64931
threshold=1239.5000000000002 19.250000000000004 3.5000000000000004 25.500000000000004 0.024954072259644803 165.50000000000003 9.5000000000000018
decision_type=2 2 2 2 10 2 2
left_child=1 -1 3 -2 5 -4 -5
right_child=2 -3 4 6 -6 -7 -8
leaf_value=7.8112274889060631e-06 -0.00035590412187663263 -0.00036579697238084202 -0.00028062014545516791 -0.00024394840909700943 0.00010690741236020554 7.9438132825073891e-05 6.9141158533746549e-05
leaf_weight=18 15.999999999999998 25 13.999999999999998 10.999999999999998 160 19 39
leaf_count=18 16 25 14 11 160 19 39
internal_value=0 -0.000209401 3.47654e-05 -8.60825e-05 7.60923e-05 -7.33108e-05 2.58761e-07
internal_weight=0 43 259 66 193 33 50
internal_count=302 43 259 66 193 33 50
is_linear=0
shrinkage=0.00056344


Tree=2
num_leaves=8
num_cat=0
split_feature=5 106 147 187 22 99 52
split_gain=7.17729 4.74361 3.73318 3.90223 3.69588 3.23941 2.70414
threshold=1187.5000000000002 19.250000000000004 225.50000000000003 6.4207500000000008 3.5000000000000004 26.500000000000004 4.3436141304347835
decision_type=2 2 2 2 2 2 2
left_child=1 -1 3 -3 5 -2 -6
right_child=4 2 -4 -5 6 -7 -8
leaf_value=1.2004081668097551e-05 8.889903111204281e-05 -0.00044580724320813494 2.5866867148859377e-05 -7.9231639767377734e-05 -0.00010180612199899296 -0.00020001659699241873 0.0001305797888215157
leaf_weight=44 22 27 12.999999999999998 13.999999999999998 18 28 136
leaf_count=44 22 27 13 14 18 28 136
internal_value=0 -0.000125322 -0.000237219 -0.000320638 6.02035e-05 -7.28915e-05 0.000103417
internal_weight=0 98 54 41 204 50 154
internal_count=302 98 54 41 204 50 154
is_linear=0
shrinkage=0.00056344


Tree=3
num_leaves=8
num_cat=0
split_feature=0 106 22 183 177 132 135
split_gain=6.91076 4.59139 4.06573 4.83625 2.79462 3.28706 2.64605
threshold=1239.5000000000002 19.250000000000004 3.5000000000000004 25.500000000000004 0.024954072259644803 165.50000000000003 53.125000000000007
decision_type=2 2 2 2 10 2 2
left_child=1 -1 3 -2 5 -4 -5
right_child=2 -3 4 6 -6 -7 -8
leaf_value=7.7926381364145167e-06 -0.00035560912435508493 -0.00036540577763321007 -0.00028043860704486662 -0.00024376830465305138 0.00010680273777407614 7.9362448378323053e-05 6.9128272468818171e-05
leaf_weight=18 15.999999999999998 25 13.999999999999998 10.999999999999998 160 19 39
leaf_count=18 16 25 14 11 160 19 39
internal_value=0 -0.000209181 3.4729e-05 -8.59886e-05 7.60112e-05 -7.32774e-05 2.88333e-07
internal_weight=0 43 259 66 193 33 50
internal_count=302 43 259 66 193 33 50
is_linear=0
shrinkage=0.00056344


Tree=4
num_leaves=8
num_cat=0
split_feature=5 100 22 133 120 140 141
split_gain=7.16365 5.39266 3.68797 3.37383 3.36057 3.04865 3.68076
threshold=1187.5000000000002 19.500000000000004 3.5000000000000004 60.500000000000007 4.1389855672110407 4.5000000000000009 76.000000000000014
decision_type=2 2 2 2 2 2 2
left_child=1 3 5 -1 -4 -2 -7
right_child=2 -3 4 -5 -6 6 -8
leaf_value=-2.3327003780418902e-05 -0.0003203858500134462 4.4501886914669887e-05 -0.00015988645008531985 -0.0003138723266597016 0.00012963446347417202 0.00011730545431197515 -0.00026935316793588976
leaf_weight=18 11.999999999999998 37 13.999999999999998 43 140 27 10.999999999999998
leaf_count=18 12 37 14 43 140 27 11
internal_value=0 -0.000125203 6.01463e-05 -0.00022814 0.000103314 -7.28063e-05 5.37447e-06
internal_weight=0 98 204 61 154 50 38
internal_count=302 98 204 61 154 50 38
is_linear=0
shrinkage=0.00056344


Tree=5
num_leaves=8
num_cat=0
split_feature=5 96 38 120 140 132 73
split_gain=7.15558 4.62723 3.68382 3.35678 3.04521 3.67661 2.64609
threshold=1187.5000000000002 1160.1234999999997 3.5000000000000004 4.1389855672110407 4.5000000000000009 417.00000000000006 3598.5000000000005
decision_type=2 2 2 2 2 2 2
left_child=1 6 4 -4 -2 -6 -1
right_child=2 -3 3 -5 5 -7 -8
leaf_value=-0.00032034197294938287 -0.0003202053446387719 8.9848139254246451e-05 -0.00015979636574067966 0.00012956142088055202 0.00011723936154587499 -0.00026920141426552477 -0.00010438749190310855
leaf_weight=31 11.999999999999998 24 13.999999999999998 140 27 10.999999999999998 43
leaf_count=31 12 24 14 140 27 11 43
internal_value=0 -0.000125132 6.01124e-05 0.000103255 -7.27653e-05 5.37144e-06 -0.000194857
internal_weight=0 98 204 154 50 38 74
internal_count=302 98 204 154 50 38 74
is_linear=0
shrinkage=0.00056344


Tree=6
num_leaves=8
num_cat=0
split_feature=5 100 38 187 120 99 110
split_gain=7.14752 5.38308 3.67967 3.49181 3.353 3.23009 2.28845
threshold=1187.5000000000002 19.500000000000004 3.5000000000000004 4.6330000000000009 4.1389855672110407 26.500000000000004 2.4932432432432434
decision_type=2 2 2 2 2 2 2
left_child=1 3 5 -1 -4 -2 -5
right_child=2 -3 4 6 -6 -7 -8
leaf_value=-0.0004139587022181452 8.8833257156022491e-05 4.4492254569910122e-05 -0.00015970633626883867 -0.0002869834185895738 0.00012948841741782459 -0.00019966623782519482 -1.4356877893300243e-05
leaf_weight=21 22 37 13.999999999999998 17 140 28 23
leaf_count=21 22 37 14 17 140 28 23
internal_value=0 -0.000125061 6.00786e-05 -0.000227907 0.000103197 -7.27243e-05 -0.000130227
internal_weight=0 98 204 61 154 50 40
internal_count=302 98 204 61 154 50 40
is_linear=0
shrinkage=0.00056344


Tree=7
num_leaves=8
num_cat=0
split_feature=5 100 22 187 120 99 110
split_gain=7.13947 5.37702 3.67552 3.48788 3.34922 3.22645 2.28587
threshold=1187.5000000000002 19.500000000000004 3.5000000000000004 4.6330000000000009 4.1389855672110407 26.500000000000004 2.4932432432432434
decision_type=2 2 2 2 2 2 2
left_child=1 3 5 -1 -4 -2 -5
right_child=2 -3 4 6 -6 -7 -8
leaf_value=-0.00041372545679915442 8.8783213613075586e-05 4.4467187078525542e-05 -0.00015961635147485062 -0.00028682171624086857 0.00012941545737389597 -0.00019955374542524163 -1.4348786469502684e-05
leaf_weight=21 22 37 13.999999999999998 17 140 28 23
leaf_count=21 22 37 14 17 140 28 23
internal_value=0 -0.000124991 6.00447e-05 -0.000227779 0.000103139 -7.26833e-05 -0.000130153
internal_weight=0 98 204 61 154 50 40
internal_count=302 98 204 61 154 50 40
is_linear=0
shrinkage=0.00056344


Tree=8
num_leaves=8
num_cat=0
split_feature=5 100 22 130 146 99 52
split_gain=7.13142 5.37096 3.67138 3.4391 3.90454 3.22282 2.69126
threshold=1187.5000000000002 19.500000000000004 3.5000000000000004 86.961538461538467 24.500000000000004 26.500000000000004 4.3436141304347835
decision_type=2 2 2 2 2 2 2
left_child=1 3 5 -1 -5 -2 -4
right_child=2 -3 6 4 -6 -7 -8
leaf_value=-8.7110845729311112e-05 8.8733179610882379e-05 4.4442131613673328e-05 -0.00010165309054427782 -0.00062695276420779683 -0.00021255610614197027 -0.00019944130804823974 0.00013017893308350903
leaf_weight=29 22 37 18 10.999999999999998 21 28 136
leaf_count=29 22 37 18 11 21 28 136
internal_value=0 -0.000124921 6.00109e-05 -0.000227651 -0.00035501 -7.26423e-05 0.000103081
internal_weight=0 98 204 61 32 50 154
internal_count=302 98 204 61 32 50 154
is_linear=0
shrinkage=0.00056344


Tree=9
num_leaves=8
num_cat=0
split_feature=78 175 187 114 139 177 127
split_gain=6.68131 4.78416 3.57437 2.90575 2.7275 2.65451 2.03312
threshold=1377622.0000000002 0.33512717463113856 4.3705000000000007 12.500000000000002 10.584928229665072 1.1168154761904765 5.5000000000000009
decision_type=2 2 2 2 2 10 2
left_child=-1 2 -2 4 -3 -4 -6
right_child=1 3 5 -5 6 -7 -8
leaf_value=-0.0003801064362932067 -0.00022382615743541531 -0.00015167793186583893 -9.0912147733695489e-05 -0.00021830767201844103 -7.177077917312283e-06 0.00020470856228822301 0.00013191137499868883
leaf_weight=13.999999999999998 38 14.999999999999998 27 10.999999999999998 44 14.999999999999998 138
leaf_count=14 38 15 27 11 44 15 138
internal_value=0 1.84775e-05 -9.86174e-05 6.35146e-05 7.92516e-05 1.46642e-05 9.8285e-05
internal_weight=0 288 80 208 197 42 182
internal_count=302 288 80 208 197 42 182
is_linear=0
shrinkage=0.00056344


Tree=10
num_leaves=8
num_cat=0
split_feature=5 100 22 130 187 120 99
split_gain=7.118 5.3625 3.66564 3.43449 4.46477 3.34169 3.21737
threshold=1187.5000000000002 19.500000000000004 3.5000000000000004 86.961538461538467 5.6570000000000009 4.1389855672110407 26.500000000000004
decision_type=2 2 2 2 2 2 2
left_child=1 3 6 -1 -5 -4 -2
right_child=2 -3 5 4 -6 -7 -8
leaf_value=-8.7006524390846149e-05 8.8644049698984945e-05 4.4426337713318984e-05 -0.00015946915893908956 -0.00050704704864819956 -6.3919345475898143e-05 0.00012923758497821128 -0.00019928688875909162
leaf_weight=29 22 37 13.999999999999998 21 10.999999999999998 140 28
leaf_count=29 22 37 14 21 11 140 28
internal_value=0 -0.000124803 5.99544e-05 -0.000227452 -0.000354726 0.000102991 -7.25951e-05
internal_weight=0 98 204 61 32 154 50
internal_count=302 98 204 61 32 154 50
is_linear=0
shrinkage=0.00056344


Tree=11
num_leaves=8
num_cat=0
split_feature=5 100 22 130 187 120 99
split_gain=7.10998 5.35646 3.66151 3.43062 4.45974 3.33793 3.21375
threshold=1187.5000000000002 19.500000000000004 3.5000000000000004 86.961538461538467 5.6570000000000009 4.1389855672110407 26.500000000000004
decision_type=2 2 2 2 2 2 2
left_child=1 3 6 -1 -5 -4 -2
right_child=2 -3 5 4 -6 -7 -8
leaf_value=-8.6957502620389917e-05 8.8594099082979085e-05 4.4401305053495123e-05 -0.00015937931057747115 -0.00050676135188570124 -6.3883331227436319e-05 0.00012916476451612545 -0.00019917460265772425
leaf_weight=29 22 37 13.999999999999998 21 10.999999999999998 140 28
leaf_count=29 22 37 14 21 11 140 28
internal_value=0 -0.000124733 5.99206e-05 -0.000227324 -0.000354526 0.000102933 -7.25542e-05
internal_weight=0 98 204 61 32 154 50
internal_count=302 98 204 61 32 154 50
is_linear=0
shrinkage=0.00056344


Tree=12
num_leaves=8
num_cat=0
split_feature=5 100 22 130 187 99 52
split_gain=7.10197 5.35043 3.65739 3.42676 4.45472 3.21013 2.68322
threshold=1187.5000000000002 19.500000000000004 3.5000000000000004 86.961538461538467 5.6570000000000009 26.500000000000004 4.3436141304347835
decision_type=2 2 2 2 2 2 2
left_child=1 3 5 -1 -5 -2 -4
right_child=2 -3 6 4 -6 -7 -8
leaf_value=-8.6908507774632632e-05 8.8544186820803129e-05 4.4376288958517721e-05 -0.00010155293034436632 -0.0005064758254392437 -6.3847337205266423e-05 -0.0001990623828237805 0.00012993214161874074
leaf_weight=29 22 37 18 21 10.999999999999998 28 136
leaf_count=29 22 37 18 21 11 28 136
internal_value=0 -0.000124662 5.98868e-05 -0.000227196 -0.000354327 -7.25133e-05 0.000102875
internal_weight=0 98 204 61 32 50 154
internal_count=302 98 204 61 32 50 154
is_linear=0
shrinkage=0.00056344


Tree=13
num_leaves=8
num_cat=0
split_feature=0 106 38 183 177 117 133
split_gain=6.84906 4.55802 4.02399 4.80874 2.77959 2.80664 2.63559
threshold=1239.5000000000002 19.250000000000004 3.5000000000000004 25.500000000000004 0.024954072259644803 41.500000000000007 57.500000000000007
decision_type=2 2 2 2 10 2 2
left_child=1 -1 3 -2 5 -4 -5
right_child=2 -3 4 6 -6 -7 -8
leaf_value=7.9385662326438526e-06 -0.0003543752715010599 -0.00036390117015329203 -0.00027705423746303241 -0.00024306525744569675 0.00010635197031421713 5.9229119171613622e-05 6.9212228709711747e-05
leaf_weight=18 15.999999999999998 25 12.999999999999998 10.999999999999998 160 20 39
leaf_count=18 16 25 13 11 160 20 39
internal_value=0 -0.000208245 3.45736e-05 -8.55227e-05 7.56434e-05 -7.32432e-05 5.08491e-07
internal_weight=0 43 259 66 193 33 50
internal_count=302 43 259 66 193 33 50
is_linear=0
shrinkage=0.00056344


Tree=14
num_leaves=8
num_cat=0
split_feature=0 22 97 157 183 150 156
split_gain=6.84135 4.01946 3.10649 2.81819 2.75411 2.62059 2.64457
threshold=1239.5000000000002 3.5000000000000004 114.50000000000001 1300.5000000000002 39.500000000000007 573.00000000000011 361.37500000000006
decision_type=2 2 2 2 2 2 2
left_child=2 3 -1 -2 -5 6 -3
right_child=1 5 -4 4 -6 -7 -8
leaf_value=-0.00031897203103800267 2.7475123824311336e-05 -8.8674318505940726e-06 -1.2098718866723107e-06 -0.00033352431499967681 7.9009631560349918e-06 -0.00015915884606307738 0.00013957354096850785
leaf_weight=28 34 55 14.999999999999998 20 11.999999999999998 13.999999999999998 124
leaf_count=28 34 55 15 20 12 14 124
internal_value=0 3.45541e-05 -0.000208128 -8.54745e-05 -0.000205487 7.56008e-05 9.39626e-05
internal_weight=0 259 43 66 32 193 179
internal_count=302 259 43 66 32 193 179
is_linear=0
shrinkage=0.00056344


Tree=15
num_leaves=8
num_cat=0
split_feature=5 100 38 187 120 99 110
split_gain=7.08355 5.33621 3.64534 3.47083 3.33027 3.203 2.27788
threshold=1187.5000000000002 19.500000000000004 3.5000000000000004 4.6330000000000009 4.1389855672110407 26.500000000000004 2.4932432432432434
decision_type=2 2 2 2 2 2 2
left_child=1 3 5 -1 -4 -2 -5
right_child=2 -3 4 6 -6 -7 -8
leaf_value=-0.00041238925689425027 8.8505759336303234e-05 4.4313238841485178e-05 -0.0001592846783872258 -0.00028590521262559826 0.00012892808957346808 -0.00019878119695171311 -1.3909006306443029e-05
leaf_weight=21 22 37 13.999999999999998 17 140 28 23
leaf_count=21 22 37 14 17 140 28 23
internal_value=0 -0.000124501 5.98091e-05 -0.000226898 0.000102726 -7.23727e-05 -0.000129511
internal_weight=0 98 204 61 154 50 40
internal_count=302 98 204 61 154 50 40
is_linear=0
shrinkage=0.00056344


Tree=16
num_leaves=8
num_cat=0
split_feature=5 100 187 163 141 120 110
split_gain=7.07557 5.33019 3.46692 3.38256 3.70951 2.40555 2.27532
threshold=1187.5000000000002 19.500000000000004 4.6330000000000009 3.1250000000000004 94.000000000000014 4.2977477409751783 2.4932432432432434
decision_type=2 2 2 2 2 2 2
left_child=1 2 -1 -2 5 -5 -4
right_child=3 -3 6 4 -6 -7 -8
leaf_value=-0.00041215690423516326 -0.00024412514910720216 4.4288271760300048e-05 -0.00028574412910044935 -4.8514597585814163e-05 -0.00022627095194790035 0.00012616323713632787 -1.3901169861420285e-05
leaf_weight=21 10.999999999999998 37 17 30 11.999999999999998 151 23
leaf_count=21 11 37 17 30 12 151 23
internal_value=0 -0.00012443 -0.00022677 5.97754e-05 7.70969e-05 9.72105e-05 -0.000129438
internal_weight=0 98 61 204 193 181 40
internal_count=302 98 61 204 193 181 40
is_linear=0
shrinkage=0.00056344


Tree=17
num_leaves=8
num_cat=0
split_feature=5 106 147 187 22 140 132
split_gain=7.0676 4.68154 3.69934 3.87518 3.64053 3.02618 3.65909
threshold=1187.5000000000002 19.250000000000004 225.50000000000003 6.4207500000000008 3.5000000000000004 4.5000000000000009 417.00000000000006
decision_type=2 2 2 2 2 2 2
left_child=1 -1 3 -3 5 -2 -7
right_child=4 2 -4 -5 -6 6 -8
leaf_value=1.2063895767315398e-05 -0.0003190185266803628 -0.00044329791346122105 2.636746480555541e-05 -7.7995026963896774e-05 0.00010263038023999543 0.0001171402061491588 -0.00026837831180352505
leaf_weight=44 11.999999999999998 27 12.999999999999998 13.999999999999998 154 27 10.999999999999998
leaf_count=44 12 27 13 14 154 27 11
internal_value=0 -0.00012436 -0.000235523 -0.000318564 5.97417e-05 -7.23529e-05 5.53925e-06
internal_weight=0 98 54 41 204 50 38
internal_count=302 98 54 41 204 50 38
is_linear=0
shrinkage=0.00056344


Tree=18
num_leaves=8
num_cat=0
split_feature=0 106 22 157 177 117 183
split_gain=6.814 4.53831 4.00504 2.8128 2.76963 2.80151 2.74763
threshold=1239.5000000000002 19.250000000000004 3.5000000000000004 1300.5000000000002 0.024954072259644803 41.500000000000007 39.500000000000007
decision_type=2 2 2 2 10 2 2
left_child=1 -1 3 -2 5 -4 -5
right_child=2 -3 4 6 -6 -7 -8
leaf_value=8.0044160776286176e-06 2.7513271734220739e-05 -0.00036303049138369786 -0.00027678628962535376 -0.00033311234573772777 0.00010611149651302552 5.918945272653041e-05 7.9106267524697837e-06
leaf_weight=18 34 25 12.999999999999998 20 160 20 11.999999999999998
leaf_count=18 34 25 13 20 160 20 12
internal_value=0 -0.000207711 3.44849e-05 -8.53282e-05 7.5458e-05 -7.31617e-05 -0.000205226
internal_weight=0 43 259 66 193 33 32
internal_count=302 43 259 66 193 33 32
is_linear=0
shrinkage=0.00056344


Tree=19
num_leaves=8
num_cat=0
split_feature=5 106 147 187 22 120 140
split_gain=7.05483 4.67148 3.69289 3.87002 3.63243 3.32364 3.02106
threshold=1187.5000000000002 19.250000000000004 225.50000000000003 6.4207500000000008 3.5000000000000004 4.1389855672110407 4.5000000000000009
decision_type=2 2 2 2 2 2 2
left_child=1 -1 3 -3 6 -6 -2
right_child=4 2 -4 -5 5 -7 -8
leaf_value=1.202967709670703e-05 -0.00031871698217162954 -0.00044291045503511508 2.6370896440760913e-05 -7.785099426178687e-05 -0.00015922134828034654 0.00012870459877305156 5.5663103781527181e-06
leaf_weight=44 11.999999999999998 27 12.999999999999998 13.999999999999998 13.999999999999998 140 38
leaf_count=44 12 27 13 14 14 140 38
internal_value=0 -0.000124248 -0.000235291 -0.000318259 5.96877e-05 0.000102529 -7.22599e-05
internal_weight=0 98 54 41 204 154 50
internal_count=302 98 54 41 204 154 50
is_linear=0
shrinkage=0.00056344


Tree=20
num_leaves=8
num_cat=0
split_feature=5 100 22 133 187 120 99
split_gain=7.04688 5.31105 3.62834 3.34605 3.82605 3.3199 3.19301
threshold=1187.5000000000002 19.500000000000004 3.5000000000000004 60.500000000000007 5.4570000000000016 4.1389855672110407 26.500000000000004
decision_type=2 2 2 2 2 2 2
left_child=1 3 6 -1 -5 -4 -2
right_child=2 -3 5 4 -6 -7 -8
leaf_value=-2.2365427613491678e-05 8.8408328205424939e-05 4.423752558007959e-05 -0.00015913163545154367 -0.00044761540147102467 -0.0001038519924247071 0.00012863207900413854 -0.00019843052533808451
leaf_weight=18 22 37 13.999999999999998 26 17 140 28
leaf_count=18 22 37 14 26 17 140 28
internal_value=0 -0.000124178 5.96541e-05 -0.000226333 -0.000311712 0.000102471 -7.22192e-05
internal_weight=0 98 204 61 43 154 50
internal_count=302 98 204 61 43 154 50
is_linear=0
shrinkage=0.00056344


Tree=21
num_leaves=8
num_cat=0
split_feature=5 100 22 187 157 52 183
split_gain=7.03894 5.30507 3.62425 3.45463 2.72052 2.66945 2.55811
threshold=1187.5000000000002 19.500000000000004 3.5000000000000004 4.6330000000000009 1300.5000000000002 4.3436141304347835 39.500000000000007
decision_type=2 2 2 2 2 2 2
left_child=1 3 4 -1 -2 -4 -6
right_child=2 -3 5 -5 6 -7 -8
leaf_value=-0.00041126392983715295 7.6088417827396224e-05 4.4212599570637058e-05 -0.00010148941361377817 -0.00012904647220662191 -0.00033616587495595234 0.00012940117338195678 7.9644821321229711e-06
leaf_weight=21 22 37 18 40 16.000000000000004 136 11.999999999999998
leaf_count=21 22 37 18 40 16 136 12
internal_value=0 -0.000124108 5.96205e-05 -0.000226206 -7.21785e-05 0.000102413 -0.000188678
internal_weight=0 98 204 61 50 154 28
internal_count=302 98 204 61 50 154 28
is_linear=0
shrinkage=0.00056344


Tree=22
num_leaves=8
num_cat=0
split_feature=5 100 22 133 187 120 99
split_gain=7.03101 5.29909 3.62017 3.34193 3.81957 3.31395 3.18693
threshold=1187.5000000000002 19.500000000000004 3.5000000000000004 60.500000000000007 5.4570000000000016 4.1389855672110407 26.500000000000004
decision_type=2 2 2 2 2 2 2
left_child=1 3 6 -1 -5 -4 -2
right_child=2 -3 5 4 -6 -7 -8
leaf_value=-2.2235948626769303e-05 8.8336667222740467e-05 4.4187690352956694e-05 -0.00015901266882402753 -0.00044719263381368525 -0.00010372077491465899 0.00012849319779922541 -0.00019822893833607377
leaf_weight=18 22 37 13.999999999999998 26 17 140 28
leaf_count=18 22 37 14 26 17 140 28
internal_value=0 -0.000124038 5.95869e-05 -0.000226078 -0.000311405 0.000102355 -7.21379e-05
internal_weight=0 98 204 61 43 154 50
internal_count=302 98 204 61 43 154 50
is_linear=0
shrinkage=0.00056344


Tree=23
num_leaves=8
num_cat=0
split_feature=5 100 22 187 120 99 110
split_gain=7.02309 5.29312 3.61609 3.44822 3.31022 3.18334 2.26744
threshold=1187.5000000000002 19.500000000000004 3.5000000000000004 4.6330000000000009 4.1389855672110407 26.500000000000004 2.4932432432432434
decision_type=2 2 2 2 2 2 2
left_child=1 3 5 -1 -4 -2 -5
right_child=2 -3 4 6 -6 -7 -8
leaf_value=-0.00041083725717034643 8.8286895400458979e-05 4.4162790779193783e-05 -0.00015892307503621533 -0.00028491746651626728 0.00012842080456852435 -0.00019811724339409884 -1.3545376640469393e-05
leaf_weight=21 22 37 13.999999999999998 17 140 28 23
leaf_count=21 22 37 14 17 140 28 23
internal_value=0 -0.000123968 5.95533e-05 -0.000225951 0.000102298 -7.20972e-05 -0.000128882
internal_weight=0 98 204 61 154 50 40
internal_count=302 98 204 61 154 50 40
is_linear=0
shrinkage=0.00056344


Tree=24
num_leaves=8
num_cat=0
split_feature=0 106 22 183 177 132 142
split_gain=6.77598 4.51518 3.97882 4.78059 2.76002 3.26339 2.62449
threshold=1239.5000000000002 19.250000000000004 3.5000000000000004 25.500000000000004 0.024954072259644803 165.50000000000003 9.5000000000000018
decision_type=2 2 2 2 10 2 2
left_child=1 -1 3 -2 5 -4 -5
right_child=2 -3 4 6 -6 -7 -8
leaf_value=8.0342710329718749e-06 -0.00035309628808458056 -0.00036205391686762277 -0.00027954832196461812 -0.00024231318132510025 0.00010582754445885037 7.8955050276877475e-05 6.9306370017102018e-05
leaf_weight=18 15.999999999999998 25 13.999999999999998 10.999999999999998 160 19 39
leaf_count=18 16 25 14 11 160 19 39
internal_value=0 -0.000207131 3.43886e-05 -8.50316e-05 7.52272e-05 -7.31343e-05 7.47379e-07
internal_weight=0 43 259 66 193 33 50
internal_count=302 43 259 66 193 33 50
is_linear=0
shrinkage=0.00056344


Tree=25
num_leaves=8
num_cat=0
split_feature=5 100 22 187 120 99 110
split_gain=7.00994 5.28245 3.60821 3.4428 3.30529 3.17846 2.26366
threshold=1187.5000000000002 19.500000000000004 3.5000000000000004 4.6330000000000009 4.1389855672110407 26.500000000000004 2.4932432432432434
decision_type=2 2 2 2 2 2 2
left_child=1 3 5 -1 -4 -2 -5
right_child=2 -3 4 6 -6 -7 -8
leaf_value=-0.00041047308539300843 8.8251661015408011e-05 4.4109368695522613e-05 -0.0001588311250164017 -0.00028464481004227373 0.00012829897708635274 -0.00019793276987928294 -1.3498806419044272e-05
leaf_weight=21 22 37 13.999999999999998 17 140 28 23
leaf_count=21 22 37 14 17 140 28 23
internal_value=0 -0.000123852 5.94976e-05 -0.000225732 0.000102195 -7.20094e-05 -0.000128739
internal_weight=0 98 204 61 154 50 40
internal_count=302 98 204 61 154 50 40
is_linear=0
shrinkage=0.00056344


Tree=26
num_leaves=8
num_cat=0
split_feature=5 100 163 141 133 132 175
split_gain=7.00205 5.2765 3.37311 3.69058 3.33468 2.26643 4.60268
threshold=1187.5000000000002 19.500000000000004 3.1250000000000004 94.000000000000014 60.500000000000007 155.50000000000003 0.3433146001639153
decision_type=2 2 2 2 2 2 2
left_child=1 4 -2 5 -1 6 -4
right_child=2 -3 3 -5 -6 -7 -8
leaf_value=-2.1983714449267348e-05 -0.00024401190973130589 4.4084514845274256e-05 -0.00026300593312625505 -0.00022583165431327274 -0.00031083864499777049 0.00014122142670161552 9.7385856910077012e-05
leaf_weight=18 10.999999999999998 37 14.999999999999998 11.999999999999998 43 121 45
leaf_count=18 11 37 15 12 43 121 45
internal_value=0 -0.000123782 5.9464e-05 7.67613e-05 -0.000225605 9.68235e-05 7.28567e-06
internal_weight=0 98 204 193 61 181 60
internal_count=302 98 204 193 61 181 60
is_linear=0
shrinkage=0.00056344


Tree=27
num_leaves=8
num_cat=0
split_feature=5 100 38 187 120 99 110
split_gain=6.99416 5.27056 3.60196 3.43858 3.30067 3.17317 2.26041
threshold=1187.5000000000002 19.500000000000004 3.5000000000000004 4.6330000000000009 4.1389855672110407 26.500000000000004 2.4932432432432434
decision_type=2 2 2 2 2 2 2
left_child=1 3 5 -1 -4 -2 -5
right_child=2 -3 4 6 -6 -7 -8
leaf_value=-0.00041010542583501186 8.8165222168499723e-05 4.4059675404173168e-05 -0.00015875236575784717 -0.00028433800900315995 0.00012817667025824368 -0.00019778102992300378 -1.3386822186896648e-05
leaf_weight=21 22 37 13.999999999999998 17 140 28 23
leaf_count=21 22 37 14 17 140 28 23
internal_value=0 -0.000123713 5.94305e-05 -0.000225478 0.000102091 -7.19625e-05 -0.000128544
internal_weight=0 98 204 61 154 50 40
internal_count=302 98 204 61 154 50 40
is_linear=0
shrinkage=0.00056344


Tree=28
num_leaves=8
num_cat=0
split_feature=5 96 22 120 99 183 57
split_gain=6.98628 4.55963 3.5979 3.29695 3.1696 2.65213 2.30097
threshold=1187.5000000000002 1160.1234999999997 3.5000000000000004 4.1389855672110407 26.500000000000004 25.500000000000004 121536.50000000001
decision_type=2 2 2 2 2 2 2
left_child=1 5 4 -4 -2 6 -1
right_child=2 -3 3 -5 -6 -7 -8
leaf_value=-0.00052050916403436297 8.8115547280275859e-05 8.9760974063519969e-05 -0.00015866291349987774 0.00012810445007304524 -0.00019766959165485077 -9.4510015122566761e-05 -0.00020717704817794106
leaf_weight=10.999999999999998 22 24 13.999999999999998 140 28 40 23
leaf_count=11 22 24 14 140 28 40 23
internal_value=0 -0.000123643 5.93971e-05 0.000102034 -7.19219e-05 -0.000192856 -0.000308554
internal_weight=0 98 204 154 50 74 34
internal_count=302 98 204 154 50 74 34
is_linear=0
shrinkage=0.00056344


Tree=29
num_leaves=8
num_cat=0
split_feature=5 100 38 187 120 99 110
split_gain=6.97841 5.26053 3.59385 3.43316 3.29323 3.16603 2.25687
threshold=1187.5000000000002 19.500000000000004 3.5000000000000004 4.6330000000000009 4.1389855672110407 26.500000000000004 2.4932432432432434
decision_type=2 2 2 2 2 2 2
left_child=1 3 5 -1 -4 -2 -5
right_child=2 -3 4 6 -6 -7 -8
leaf_value=-0.00040972377647344979 8.8065899869422634e-05 4.4039306769749011e-05 -0.0001585735188133698 -0.00028405606079222421 0.00012803227066793409 -0.00019755822115338439 -1.3317092245180081e-05
leaf_weight=21 22 37 13.999999999999998 17 140 28 23
leaf_count=21 22 37 14 17 140 28 23
internal_value=0 -0.000123573 5.93636e-05 -0.000225241 0.000101976 -7.18814e-05 -0.000128385
internal_weight=0 98 204 61 154 50 40
internal_count=302 98 204 61 154 50 40
is_linear=0
shrinkage=0.00056344


Tree=30
num_leaves=8
num_cat=0
split_feature=5 100 22 187 120 99 159
split_gain=6.97055 5.2546 3.5898 3.42929 3.28953 3.16246 1.98988
threshold=1187.5000000000002 19.500000000000004 3.5000000000000004 4.6330000000000009 4.1389855672110407 26.500000000000004 62.500000000000007
decision_type=2 2 2 2 2 2 2
left_child=1 3 5 -1 -4 -2 -5
right_child=2 -3 4 6 -6 -7 -8
leaf_value=-0.00040949292387489072 8.801627955430995e-05 4.4014494331616815e-05 -0.00015848417810010701 -2.569771415128714e-05 0.00012796012817479897 -0.00019744690762391119 -0.00028222539726293483
leaf_weight=21 22 37 13.999999999999998 24 140 28 15.999999999999998
leaf_count=21 22 37 14 24 140 28 16
internal_value=0 -0.000123504 5.93301e-05 -0.000225115 0.000101919 -7.18409e-05 -0.000128312
internal_weight=0 98 204 61 154 50 40
internal_count=302 98 204 61 154 50 40
is_linear=0
shrinkage=0.00056344


Tree=31
num_leaves=8
num_cat=0
split_feature=5 100 187 163 22 135 116
split_gain=6.9627 5.24868 3.42543 3.36829 3.75383 2.96998 2.69404
threshold=1187.5000000000002 19.500000000000004 4.6330000000000009 3.1250000000000004 3.5000000000000004 48.500000000000007 1.4938245422631906
decision_type=2 2 2 2 2 2 2
left_child=1 2 -1 -2 5 -5 -7
right_child=3 -3 -4 4 -6 6 -8
leaf_value=-0.00040926220141217966 -0.00024396245797407448 4.3989692558522739e-05 -0.00012823987253358132 -0.00031814062886388963 0.00012116586533654367 -0.00021598251493437168 0.00011862204441339377
leaf_weight=21 10.999999999999998 37 40 10.999999999999998 146 10.999999999999998 25
leaf_count=21 11 37 40 11 146 11 25
internal_value=0 -0.000123434 -0.000224988 5.92967e-05 7.65816e-05 -6.19116e-05 1.63782e-05
internal_weight=0 98 61 204 193 47 36
internal_count=302 98 61 204 193 47 36
is_linear=0
shrinkage=0.00056344


Tree=32
num_leaves=8
num_cat=0
split_feature=5 100 22 130 137 120 99
split_gain=6.95485 5.24277 3.58168 3.39362 4.37851 3.28535 3.15771
threshold=1187.5000000000002 19.500000000000004 3.5000000000000004 86.961538461538467 148.87500000000003 4.1389855672110407 26.500000000000004
decision_type=2 2 2 2 2 2 2
left_child=1 3 6 -1 -5 -4 -2
right_child=2 -3 5 4 -6 -7 -8
leaf_value=-8.525380024156391e-05 8.7977691403517733e-05 4.3964907123359428e-05 -0.00015843375929301763 -0.00062044524861287894 -0.00018992547504515216 0.0001278285802190922 -0.00019727102323677305
leaf_weight=29 22 37 13.999999999999998 11.999999999999998 20 140 28
leaf_count=29 22 37 14 12 20 140 28
internal_value=0 -0.000123364 5.92633e-05 -0.000224861 -0.000351376 0.000101804 -7.17594e-05
internal_weight=0 98 204 61 32 154 50
internal_count=302 98 204 61 32 154 50
is_linear=0
shrinkage=0.00056344


Tree=33
num_leaves=8
num_cat=0
split_feature=5 100 22 187 120 99 110
split_gain=6.94702 5.23686 3.57765 3.42013 3.28165 3.15415 2.25264
threshold=1187.5000000000002 19.500000000000004 3.5000000000000004 4.6330000000000009 4.1389855672110407 26.500000000000004 2.4932432432432434
decision_type=2 2 2 2 2 2 2
left_child=1 3 5 -1 -4 -2 -5
right_child=2 -3 4 6 -6 -7 -8
leaf_value=-0.00040886620222452914 8.7928121081954429e-05 4.3940139160705403e-05 -0.00015834449384244663 -0.00028358674806912764 0.00012775655802721453 -0.00019715987350178027 -1.31017881312208e-05
leaf_weight=21 22 37 13.999999999999998 17 140 28 23
leaf_count=21 22 37 14 17 140 28 23
internal_value=0 -0.000123295 5.92299e-05 -0.000224734 0.000101747 -7.1719e-05 -0.000128061
internal_weight=0 98 204 61 154 50 40
internal_count=302 98 204 61 154 50 40
is_linear=0
shrinkage=0.00056344


Tree=34
num_leaves=8
num_cat=0
split_feature=5 106 147 187 22 120 99
split_gain=6.93919 4.6077 3.65968 3.8427 3.57362 3.27795 3.1506
threshold=1187.5000000000002 19.250000000000004 225.50000000000003 6.4207500000000008 3.5000000000000004 4.1389855672110407 26.500000000000004
decision_type=2 2 2 2 2 2 2
left_child=1 -1 3 -3 6 -6 -2
right_child=4 2 -4 -5 5 -7 -8
leaf_value=1.211872013468876e-05 8.7878577474501514e-05 -0.00044031280779536949 2.6975004221295847e-05 -7.654401204085592e-05 -0.00015825527696779629 0.00012768457373682967 -0.00019704878628605367
leaf_weight=44 22 27 12.999999999999998 13.999999999999998 13.999999999999998 140 28
leaf_count=44 22 27 13 14 14 140 28
internal_value=0 -0.000123225 -0.000233508 -0.000316102 5.91965e-05 0.000101689 -7.16785e-05
internal_weight=0 98 54 41 204 154 50
internal_count=302 98 54 41 204 154 50
is_linear=0
shrinkage=0.00056344


Tree=35
num_leaves=8
num_cat=0
split_feature=5 100 22 187 99 154 107
split_gain=6.93137 5.22658 3.56959 3.41394 3.14705 2.39285 2.03782
threshold=1187.5000000000002 19.500000000000004 3.5000000000000004 4.6330000000000009 26.500000000000004 45.500000000000007 142.50000000000003
decision_type=2 2 2 2 2 2 2
left_child=1 3 4 -1 -2 -4 -6
right_child=2 -3 5 -5 6 -7 -8
leaf_value=-0.00040846098737984274 8.7829064397460416e-05 4.3914763517793491e-05 -0.00012046112885783465 -0.0001279102197826604 -5.5420989142520415e-05 0.00012384210827596197 -0.00036021560573116547
leaf_weight=21 22 37 13.999999999999998 40 15.000000000000002 140 12.999999999999998
leaf_count=21 22 37 14 40 15 140 13
internal_value=0 -0.000123156 5.91632e-05 -0.000224496 -7.16382e-05 0.000101632 -0.000196938
internal_weight=0 98 204 61 50 154 28
internal_count=302 98 204 61 50 154 28
is_linear=0
shrinkage=0.00056344


Tree=36
num_leaves=8
num_cat=0
split_feature=5 100 22 187 120 99 110
split_gain=6.92356 5.22069 3.56557 3.4101 3.27408 3.1435 2.24844
threshold=1187.5000000000002 19.500000000000004 3.5000000000000004 4.6330000000000009 4.1389855672110407 26.500000000000004 2.4932432432432434
decision_type=2 2 2 2 2 2 2
left_child=1 3 5 -1 -4 -2 -5
right_child=2 -3 4 6 -6 -7 -8
leaf_value=-0.00040823083003854857 8.7779579179420137e-05 4.3890020062035598e-05 -0.00015821622282717227 -0.00028321875449226083 0.00012755465170719032 -0.00019682680233596193 -1.2985795786048852e-05
leaf_weight=21 22 37 13.999999999999998 17 140 28 23
leaf_count=21 22 37 14 17 140 28 23
internal_value=0 -0.000123087 5.91298e-05 -0.000224369 0.000101575 -7.15978e-05 -0.000127838
internal_weight=0 98 204 61 154 50 40
internal_count=302 98 204 61 154 50 40
is_linear=0
shrinkage=0.00056344


Tree=37
num_leaves=8
num_cat=0
split_feature=5 106 38 119 187 120 99
split_gain=6.91576 4.59484 3.56155 3.41783 3.57791 3.27039 3.13996
threshold=1187.5000000000002 19.250000000000004 3.5000000000000004 223.50000000000003 6.4207500000000008 4.1389855672110407 26.500000000000004
decision_type=2 2 2 2 2 2 2
left_child=1 -1 6 4 -3 -4 -2
right_child=2 3 5 -5 -6 -7 -8
leaf_value=1.2137902538089521e-05 8.7730118385709332e-05 -0.00042519982855200719 -0.00015812707761699742 3.2037108149312942e-05 -7.6334493900277791e-05 0.00012748278250061056 -0.00019671590387744436
leaf_weight=44 22 28 13.999999999999998 11.999999999999998 13.999999999999998 140 28
leaf_count=44 22 28 14 12 14 140 28
internal_value=0 -0.000123017 5.90965e-05 -0.000233146 -0.000308915 0.000101517 -7.15575e-05
internal_weight=0 98 204 54 42 154 50
internal_count=302 98 204 54 42 154 50
is_linear=0
shrinkage=0.00056344


Tree=38
num_leaves=8
num_cat=0
split_feature=5 100 22 187 99 52 60
split_gain=6.90797 5.21041 3.55754 3.4037 3.13642 2.63813 2.43064
threshold=1187.5000000000002 19.500000000000004 3.5000000000000004 4.6330000000000009 26.500000000000004 4.3436141304347835 83.408378964237002
decision_type=2 2 2 2 2 2 2
left_child=1 3 4 -1 -2 -4 -7
right_child=2 -3 5 -5 -6 6 -8
leaf_value=-0.00040781992559861345 8.7680686214259638e-05 4.3864202160414723e-05 -0.00010124244235371237 -0.00012769027241475475 -0.00019660506426499868 -1.3296411698931249e-05 0.00016836191810886924
leaf_weight=21 22 37 18 40 28 30 106
leaf_count=21 22 37 18 40 28 30 106
internal_value=0 -0.000122948 5.90632e-05 -0.000224131 -7.15171e-05 0.00010146 0.000128289
internal_weight=0 98 204 61 50 154 136
internal_count=302 98 204 61 50 154 136
is_linear=0
shrinkage=0.00056344


Tree=39
num_leaves=8
num_cat=0
split_feature=5 93 38 120 99 94 106
split_gain=6.90019 4.24322 3.55353 3.26446 3.13289 2.83729 2.50135
threshold=1187.5000000000002 0.22250000000000003 3.5000000000000004 4.1389855672110407 26.500000000000004 0.5615467768148944 33.750000000000007
decision_type=2 2 2 2 2 2 2
left_child=1 5 4 -4 -2 6 -1
right_child=2 -3 3 -5 -6 -7 -8
leaf_value=-0.00040956226539219301 8.7631284954851939e-05 0.00017690790275047552 -0.00015800618114611637 0.00012734488808385309 -0.00019649429151968184 -6.4566324206850011e-05 -0.00013768939062198859
leaf_weight=21 22 12.999999999999998 13.999999999999998 140 28 42 22
leaf_count=21 22 13 14 140 28 42 22
internal_value=0 -0.000122879 5.90299e-05 0.000101403 -7.14768e-05 -0.00016873 -0.000270468
internal_weight=0 98 204 154 50 85 43
internal_count=302 98 204 154 50 85 43
is_linear=0
shrinkage=0.00056344


Tree=40
num_leaves=8
num_cat=0
split_feature=0 106 22 183 177 117 133
split_gain=6.67881 4.45596 3.91292 4.74413 2.73495 2.78027 2.6115
threshold=1239.5000000000002 19.250000000000004 3.5000000000000004 25.500000000000004 0.024954072259644803 41.500000000000007 57.500000000000007
decision_type=2 2 2 2 10 2 2
left_child=1 -1 3 -2 5 -4 -5
right_child=2 -3 4 6 -6 -7 -8
leaf_value=8.1090598965200014e-06 -0.0003513264540805363 -0.00035954414316113041 -0.00027589761558628777 -0.00024129281679917218 0.00010510121504757916 5.880250711201881e-05 6.9554276260016821e-05
leaf_weight=18 15.999999999999998 25 12.999999999999998 10.999999999999998 160 20 39
leaf_count=18 16 25 13 11 160 20 39
internal_value=0 -0.000205641 3.41411e-05 -8.4286e-05 7.46402e-05 -7.30461e-05 1.16523e-06
internal_weight=0 43 259 66 193 33 50
internal_count=302 43 259 66 193 33 50
is_linear=0
shrinkage=0.00056344


Tree=41
num_leaves=8
num_cat=0
split_feature=5 100 187 163 22 135 116
split_gain=6.88744 5.19586 3.39758 3.35913 3.71213 2.95939 2.68164
threshold=1187.5000000000002 19.500000000000004 4.6330000000000009 3.1250000000000004 3.5000000000000004 48.500000000000007 1.4938245422631906
decision_type=2 2 2 2 2 2 2
left_child=1 2 -1 -2 5 -5 -7
right_child=3 -3 -4 4 -6 6 -8
leaf_value=-0.00040733033404839351 -0.00024387081608003895 4.381395632932371e-05 -0.00012745277938293743 -0.00031725691850896612 0.00012057264967287371 -0.00021516003147323032 0.00011867327214108898
leaf_weight=21 10.999999999999998 37 40 10.999999999999998 146 10.999999999999998 25
leaf_count=21 11 37 40 11 146 11 25
internal_value=0 -0.000122765 -0.000223807 5.89754e-05 7.62368e-05 -6.1485e-05 1.66651e-05
internal_weight=0 98 61 204 193 47 36
internal_count=302 98 61 204 193 47 36
is_linear=0
shrinkage=0.00056344


Tree=42
num_leaves=8
num_cat=0
split_feature=5 106 22 119 187 120 140
split_gain=6.87968 4.57365 3.5418 3.40746 3.56777 3.25951 2.98122
threshold=1187.5000000000002 19.250000000000004 3.5000000000000004 223.50000000000003 6.4207500000000008 4.1389855672110407 4.5000000000000009
decision_type=2 2 2 2 2 2 2
left_child=1 -1 6 4 -3 -4 -2
right_child=2 3 5 -5 -6 -7 -8
leaf_value=1.2147186479012349e-05 -0.00031617545718384474 -0.00042434429369868517 -0.0001579671099139648 3.2210218200043129e-05 -7.5973574960000725e-05 0.00012716737530257027 5.9623579855649433e-06
leaf_weight=44 11.999999999999998 28 13.999999999999998 11.999999999999998 13.999999999999998 140 38
leaf_count=44 12 28 14 12 14 140 38
internal_value=0 -0.000122696 5.89421e-05 -0.00023257 -0.000308224 0.000101245 -7.1349e-05
internal_weight=0 98 204 54 42 154 50
internal_count=302 98 204 54 42 154 50
is_linear=0
shrinkage=0.00056344


Tree=43
num_leaves=8
num_cat=0
split_feature=0 106 38 183 133 150 154
split_gain=6.65914 4.4434 3.90017 4.73427 2.60455 2.56165 2.85271
threshold=1239.5000000000002 19.250000000000004 3.5000000000000004 25.500000000000004 57.500000000000007 573.00000000000011 45.500000000000007
decision_type=2 2 2 2 2 2 2
left_child=1 -1 3 -2 -5 6 -4
right_child=2 -3 5 4 -6 -7 -8
leaf_value=8.1106408823751252e-06 -0.00035090606078312924 -0.00035902408518093186 -0.0001137295680539956 -0.00024091585977829011 6.9517146976949049e-05 -0.00015758084168948272 0.00011718967350270069
leaf_weight=18 15.999999999999998 25 19 10.999999999999998 39 13.999999999999998 160
leaf_count=18 16 25 19 11 39 14 160
internal_value=0 -0.000205338 3.40908e-05 -8.41432e-05 1.2192e-06 7.45238e-05 9.2678e-05
internal_weight=0 43 259 66 50 193 179
internal_count=302 43 259 66 50 193 179
is_linear=0
shrinkage=0.00056344


Tree=44
num_leaves=8
num_cat=0
split_feature=5 100 130 187 163 22 140
split_gain=6.86643 5.18086 3.37429 4.38894 3.35382 3.69956 3.28772
threshold=1187.5000000000002 19.500000000000004 86.961538461538467 5.6570000000000009 3.1250000000000004 3.5000000000000004 4.5000000000000009
decision_type=2 2 2 2 2 2 2
left_child=1 2 -1 -4 -2 6 -6
right_child=4 -3 3 -5 5 -7 -8
leaf_value=-8.4264174607570147e-05 -0.00024372130294853927 4.3760771145648511e-05 -0.00050064897475223956 -6.1300373833652144e-05 -0.00031585549590469061 0.00012039384976855782 2.5899509516638865e-05
leaf_weight=29 10.999999999999998 37 21 10.999999999999998 11.999999999999998 146 35
leaf_count=29 11 37 21 11 12 146 35
internal_value=0 -0.000122578 -0.000223473 -0.000349627 5.88854e-05 7.61331e-05 -6.13552e-05
internal_weight=0 98 61 32 204 193 47
internal_count=302 98 61 32 204 193 47
is_linear=0
shrinkage=0.00056344


end of trees

feature_importances:
5=35
22=32
187=29
100=26
99=24
120=24
106=14
183=11
38=10
110=10
0=9
133=7
177=7
130=6
132=6
140=6
52=5
163=5
135=4
147=4
117=3
141=3
150=3
157=3
94=2
96=2
116=2
119=2
142=2
154=2
156=2
175=2
57=1
60=1
73=1
78=1
93=1
97=1
107=1
114=1
127=1
137=1
139=1
146=1
159=1

parameters:
[boosting: gbdt]
[objective: regression]
[metric: rmse]
[tree_learner: serial]
[device_type: cpu]
[data: ]
[valid: ]
[num_iterations: 45]
[learning_rate: 0.00056344]
[num_leaves: 8]
[num_threads: -1]
[deterministic: 0]
[force_col_wise: 0]
[force_row_wise: 0]
[histogram_pool_size: -1]
[max_depth: 11]
[min_data_in_leaf: 11]
[min_sum_hessian_in_leaf: 0.001]
[bagging_fraction: 1]
[pos_bagging_fraction: 1]
[neg_bagging_fraction: 1]
[bagging_freq: 0]
[bagging_seed: 11149]
[feature_fraction: 1]
[feature_fraction_bynode: 0.7]
[feature_fraction_seed: 21351]
[extra_trees: 0]
[extra_seed: 16806]
[early_stopping_round: 0]
[first_metric_only: 0]
[max_delta_step: 0]
[lambda_l1: 0.000203143]
[lambda_l2: 0.000115218]
[linear_lambda: 0]
[min_gain_to_split: 0]
[drop_rate: 0.1]
[max_drop: 50]
[skip_drop: 0.5]
[xgboost_dart_mode: 0]
[uniform_drop: 0]
[drop_seed: 2965]
[top_rate: 0.2]
[other_rate: 0.1]
[min_data_per_group: 100]
[max_cat_threshold: 32]
[cat_l2: 10]
[cat_smooth: 10]
[max_cat_to_onehot: 4]
[top_k: 20]
[monotone_constraints: ]
[monotone_constraints_method: basic]
[monotone_penalty: 0]
[feature_contri: ]
[forcedsplits_filename: ]
[refit_decay_rate: 0.9]
[cegb_tradeoff: 1]
[cegb_penalty_split: 0]
[cegb_penalty_feature_lazy: ]
[cegb_penalty_feature_coupled: ]
[path_smooth: 0]
[interaction_constraints: ]
[verbosity: -1]
[saved_feature_importance_type: 0]
[linear_tree: 0]
[max_bin: 255]
[max_bin_by_feature: ]
[min_data_in_bin: 3]
[bin_construct_sample_cnt: 200000]
[data_random_seed: 179]
[is_enable_sparse: 1]
[enable_bundle: 1]
[use_missing: 1]
[zero_as_missing: 0]
[feature_pre_filter: 1]
[pre_partition: 0]
[two_round: 0]
[header: 0]
[label_column: ]
[weight_column: ]
[group_column: ]
[ignore_column: ]
[categorical_feature: ]
[forcedbins_filename: ]
[precise_float_parser: 0]
[objective_seed: 26397]
[num_class: 1]
[is_unbalance: 0]
[scale_pos_weight: 1]
[sigmoid: 1]
[boost_from_average: 1]
[reg_sqrt: 0]
[alpha: 0.9]
[fair_c: 1]
[poisson_max_delta_step: 0.7]
[tweedie_variance_power: 1.5]
[lambdarank_truncation_level: 30]
[lambdarank_norm: 1]
[label_gain: ]
[eval_at: ]
[multi_error_top_k: 1]
[auc_mu_weights: ]
[num_machines: 1]
[local_listen_port: 12400]
[time_out: 120]
[machine_list_filename: ]
[machines: ]
[gpu_platform_id: -1]
[gpu_device_id: -1]
[gpu_use_dp: 0]
[num_gpu: 1]

end of parameters

pandas_categorical:[]
