tree
version=v3
num_class=1
num_tree_per_iteration=1
label_index=0
max_feature_idx=191
objective=regression
feature_names=0 1 2 3 4 5 6 7 8 9 10 11 12 13 14 15 16 17 18 19 20 21 22 23 24 25 26 27 28 29 30 31 32 33 34 35 36 37 38 39 40 41 42 43 44 45 46 47 48 49 50 51 52 53 54 55 56 57 58 59 60 61 62 63 64 65 66 67 68 69 70 71 72 73 74 75 76 77 78 79 80 81 82 83 84 85 86 87 88 89 90 91 92 93 94 95 96 97 98 99 100 101 102 103 104 105 106 107 108 109 110 111 112 113 114 115 116 117 118 119 120 121 122 123 124 125 126 127 128 129 130 131 132 133 134 135 136 137 138 139 140 141 142 143 144 145 146 147 148 149 150 151 152 153 154 155 156 157 158 159 160 161 162 163 164 165 166 167 168 169 170 171 172 173 174 175 176 177 178 179 180 181 182 183 184 185 186 187 188 189 190 191
feature_infos=[230:5706] [12:2246] [2:3102] [0:17] [0:6] [211:5228] [38:3999] [2:166] [0:59] [0:618] [0:36] [0:16] [0:20] [0:12] [0:14] [0:22] [0:6] [0:22] [0:17] [191:4559] [36:2483] [0:2248] [0:1727] [0:2614] [1:1328] [0:301] [2:91] [0:52] [0:967] [0:920] [0:382] [0:90] [0:29] [0:128] none [191:4559] [36:2483] [0:2248] [0:1727] [0:2614] [1:1328] [0:301] [2:91] [0:52] [0:967] [0:920] [0:382] [0:90] [0:29] [0:128] none [39:1575] [3.6898148148148149:9.4977578475336326] [10:846] [1.8302558051784696:50.766244527944693] [3:6] [0.49714616757051278:16.343737567975346] [13452:660855] [65797.576335877864:3157276.5539733577] [65864.526717557252:3157388.2604501606] [8.423293675641828:197.21342031686859] [113.70992366412214:1945.1542266841263] [19.251908396946565:397.08075076385859] [94310.180358227517:928493.38359598315] [94306.217793890944:928485.72590452002] [22.354026693915944:1376.3863991523131] [59.864916717840629:1256.2651139210766] [9.9268153508934542:220.58749217270969] [47035:3529205] [47118.5:3529271] [1:198] [100.5:1873] [21:436] [312:740531] [429:740669] [0:32] none none [399968:3986953] [400006:3987141] [180:85157] [207:4449] [35:749] [47083:3529205] [47162:3529271] [1:198] [101:1873] [21:436] [3:6] [6:24] [6:25] [4:33] [5.1689999999999996:866.04399999999998] [0.036999999999999998:0.40000000000000002] [0.104748750567923:1.6610000000000007] [0.2896640792049528:26.916984606200248] [78.659999999999982:2193.4560000000006] [8:458] [4:192] [1:105] [0:87] [0:66] [1:77] [10.335877862595421:322.66666666666669] [8.8279370244720621:304.83479132146317] [4:131] [2.5:333] [37:1442] [1:1442] [1:530] [1:14.32967032967033] [0:114.77776158444004] [1:4] [1:1097] [1:94] [1:261] [0.88648244958924571:133.39731643682444] [3:683] [6:1323] [35:753] [3.7640449438202248:5.7579908675799087] [1:2] [9:47] [1:19] [1:14] [2:3] [3:5] [4:8] [171:3612] [2:49] [37.878787878787882:581.5] [1:574] [76:854] [3:786] [6:854] [23.5:574.75] [32.5:579] [43:706.5] [204:4318] [7.5999999999999996:108.5] [1:103] [14:153] [1:149] [1:153] [5:107.5] [6.5:110] [8.75:127] [35:752] [1:19] [69.5:1396] [1:1396] [177:2002] [7:1396] [1:2002] [2:1396] [26:1396] [71:1396] [207:4403] [12.77777777777778:615.33333333333337] [1:277] [30:1703] [1:277] [1:1703] [1:277] [4:277] [13:893] [35:2216] [0.0026455026455025998:1] [-1:0.99470899470899476] [0.0026455026455025998:1] [0:277] [0:634] [0:283] [35:749] [0:1] [0:1] [0:1] [0:2.8571428571428572] [0:97] [0:252] [0.1575237515308755:3.6895688518361234] [0.24028210595374769:1.0988106129917661] [8:214] [2:90] [0.10835578584918359:0.96637023560696755] [0.10835578584918359:0.96637023560696755] [3.0426406250000002:182.96225000000001] [2.6070000000000002:65.813999999999993] [28.539446385660671:612.67551680223755] [0:5467] [0:2454] [1:2331]
tree_sizes=1594 1724 1781 1696 1723 1706 1688 1667 1713 1708 1678 1728 1709 1750 1723 1706 1727 1745 1710 1696 1659 1724 1659 1716 1728 1725 1730 1747 1780 1711 1730 1686 1725 1732 1752

Tree=0
num_leaves=16
num_cat=0
split_feature=118 74 22 136 94 20 159 22 115 179 117 183 118 143 21
split_gain=7.71539 4.50716 3.78018 3.25151 2.75095 2.89017 2.43961 3.58011 3.57423 2.10847 2.06193 1.75005 1.47862 1.21139 2.27335
threshold=54.500000000000007 3690.0000000000005 5.5000000000000009 49.250000000000007 1.0256882459404895 239.50000000000003 55.500000000000007 27.500000000000004 3.5000000000000004 11.65649350649351 49.500000000000007 37.500000000000007 78.500000000000014 31.000000000000004 93.500000000000014
decision_type=2 2 2 2 2 2 2 2 2 10 2 2 2 2 2
left_child=1 2 -1 -2 5 10 9 8 11 13 -3 12 -8 14 -5
right_child=3 4 -4 6 -6 -7 7 -9 -10 -11 -12 -13 -14 -15 -16
leaf_value=2.0556054955452612 2.0561657381851473 2.0562939399947853 2.0562245529980467 2.056407283220731 2.0567697448582059 2.0565907385040383 2.0564833591431579 2.056659032062691 2.0558537693053802 2.0562257898016676 2.0557262713349966 2.0566543586120387 2.0559614876028243 2.0564316817659787 2.0567343580746953
leaf_weight=11.000000000000002 13.999999999999998 12.000000000000002 18 17 10.999999999999998 12.999999999999998 8.0000000000000018 31 9.9999999999999982 7.9999999999999991 6.9999999999999991 12.999999999999998 6.9999999999999991 13.999999999999998 107
leaf_count=11 14 12 18 17 11 13 8 31 10 8 7 13 7 14 107
internal_value=2.05648 2.05624 2.05599 2.05655 2.05641 2.05629 2.05658 2.05645 2.05628 2.05664 2.05608 2.05643 2.05624 2.05666 2.05669
internal_weight=0 72 29 229 43 32 215 69 38 146 19 28 15 138 124
internal_count=301 72 29 229 43 32 215 69 38 146 19 28 15 138 124
is_linear=0
shrinkage=1


Tree=1
num_leaves=16
num_cat=0
split_feature=38 183 91 133 133 141 150 141 83 177 96 52 117 57 52
split_gain=7.03975 9.65 5.4903 2.75115 2.74071 2.4824 1.85447 2.16816 1.76933 1.75085 2.06813 1.46942 1.80973 1.43422 1.61697
threshold=3.5000000000000004 25.500000000000004 5.5000000000000009 303.50000000000006 47.500000000000007 44.500000000000007 576.50000000000011 24.500000000000004 968118.50000000012 0.94088526499708791 1181.3460000000005 5.2642560673904617 84.500000000000014 280369.00000000006 4.8145221651413612
decision_type=2 2 2 2 2 2 2 2 2 10 2 2 2 2 2
left_child=1 8 -2 6 -3 -6 7 13 -1 10 -7 -9 -13 14 -4
right_child=2 4 3 -5 5 9 -8 11 -10 -11 -12 12 -14 -15 -16
leaf_value=-0.00084402215773429832 -0.00055063545837767192 -0.0004588844860160506 -0.0002429251753075039 -0.00039910430355425997 0.0001864060464815446 -4.6715815499779727e-05 -0.00017380121782171586 0.0002449139910872795 -0.00036717399741869418 0.00018866526206423671 -0.00061294590063355487 -0.00027575805877239182 0.00020766926434885214 0.00028344800168063697 9.1326411474635261e-05
leaf_weight=14.000000000000002 8.9999999999999982 8.9999999999999982 19 6.9999999999999991 32 10.000000000000005 12.999999999999998 111 8.9999999999999982 6.9999999999999991 7.9999999999999991 9.0000000000000018 12.999999999999998 9.9999999999999982 21
leaf_count=14 9 9 19 7 32 10 13 111 9 7 8 9 13 10 21
internal_value=0 -0.00019618 8.23955e-05 0.000110643 -3.43183e-05 3.32009e-05 0.000128985 0.000150554 -0.000659124 -0.000162871 -0.000299787 0.000206025 9.65098e-06 2.91684e-06 -6.75891e-05
internal_weight=0 89 212 203 66 57 196 183 23 25 18 133 22 50 40
internal_count=301 89 212 203 66 57 196 183 23 25 18 133 22 50 40
is_linear=0
shrinkage=0.000831545


Tree=2
num_leaves=16
num_cat=0
split_feature=118 100 22 136 189 113 1 79 160 120 176 7 118 93 191
split_gain=7.69033 4.11819 5.13712 3.24327 2.47885 2.04677 2.79426 2.11389 2.69532 1.84261 1.92021 1.8724 1.66526 1.37393 1.31983
threshold=54.500000000000007 19.500000000000004 8.0000000000000018 49.250000000000007 343.50000000000006 6.5000000000000009 930.00000000000011 1693322.5000000002 103.50000000000001 4.2956251939187107 0.14443420896232023 42.500000000000007 47.500000000000007 0.20350000000000004 450.50000000000006
decision_type=2 2 2 2 2 2 2 2 2 2 2 2 2 2 2
left_child=1 2 14 -2 -4 -5 7 8 -7 10 -9 -11 -3 -14 -1
right_child=3 12 4 5 -6 6 -8 9 -10 11 -12 -13 13 -15 -16
leaf_value=-0.00096204688806805414 -0.00031229821120588706 0.00028337461191411088 -0.00037732847325294152 -0.00034030684110436678 0.00014116671963311007 -0.00045882094761208204 -0.00039921357354338692 0.00017364361663877774 0.00018245607464730464 0.00021574320330992777 -0.00025353147553430435 -0.00022279104805124754 9.0934913390459439e-05 -0.00036707121804123324 -0.00050418558189666484
leaf_weight=9.0000000000000018 13.999999999999998 10.000000000000002 15.000000000000002 6.9999999999999991 10.999999999999998 9.0000000000000018 6.9999999999999991 15.000000000000002 8.9999999999999982 147 13.999999999999998 6.9999999999999991 9.0000000000000018 8.9999999999999982 8.9999999999999982
leaf_count=9 14 10 15 7 11 9 7 15 9 147 14 7 9 9 9
internal_value=0 -0.000236909 -0.000395349 7.45351e-05 -0.000158173 9.98187e-05 0.000114741 0.000132774 -0.000138717 0.000159522 -3.26908e-05 0.000195717 1.2434e-05 -0.000138602 -0.000735979
internal_weight=0 72 44 229 26 215 208 201 18 183 29 154 28 18 18
internal_count=301 72 44 229 26 215 208 201 18 183 29 154 28 18 18
is_linear=0
shrinkage=0.000831545


Tree=3
num_leaves=16
num_cat=0
split_feature=118 74 22 130 166 78 22 150 183 78 62 48 171 120 52
split_gain=7.67759 4.49066 3.76208 3.08248 2.80653 2.72737 2.53829 3.11014 4.4886 2.45574 2.12483 1.82471 1.561 1.46922 2.14614
threshold=54.500000000000007 3690.0000000000005 5.5000000000000009 56.825854700854713 217.50000000000003 1693212.5000000002 28.500000000000004 245.00000000000003 38.500000000000007 1772488.5000000002 102.62847760752518 1.0000000180025095e-35 148.50000000000003 4.2445628343418411 4.3436141304347835
decision_type=2 2 2 2 2 2 2 2 2 2 2 2 2 2 2
left_child=1 2 -1 -2 10 12 7 -7 9 -9 -3 -11 -5 14 -8
right_child=3 4 -4 5 -6 6 13 8 -10 11 -12 -13 -14 -15 -16
leaf_value=-0.00087094905619786731 -0.00026551978507690179 -0.00053387753848677382 -0.00025337432490130595 -0.00051605296072369106 0.0001414278600949626 0.00018151921992752405 -0.00027580384907224928 7.099215955282481e-05 0.00016009105192895333 -0.00074773862338874055 -5.0209928879384032e-06 -0.00022990813910985888 -5.5169338871717244e-06 0.00027062468828395247 0.00031367391101047392
leaf_weight=11.000000000000002 17 11.000000000000002 18 7.0000000000000027 22 49 9.0000000000000018 7.0000000000000027 22 10.000000000000002 9.9999999999999982 8.9999999999999982 9.9999999999999982 81 7.9999999999999991
leaf_count=11 17 11 18 7 22 49 9 7 22 10 10 9 10 81 8
internal_value=0 -0.000236713 -0.000489173 7.44728e-05 -6.59259e-05 0.000101816 0.000129679 3.42742e-05 -0.000116083 -0.000349572 -0.000282904 -0.000504211 -0.000217005 0.000224017 1.74261e-06
internal_weight=0 72 29 229 43 212 195 97 48 26 21 19 17 98 17
internal_count=301 72 29 229 43 212 195 97 48 26 21 19 17 98 17
is_linear=0
shrinkage=0.000831545


Tree=4
num_leaves=16
num_cat=0
split_feature=118 73 22 176 137 153 1 124 184 78 73 22 122 22 159
split_gain=7.66488 4.87171 3.33384 3.02896 2.65513 2.24049 2.83517 2.53109 2.22926 3.06104 2.12992 2.0999 2.57507 1.76605 3.38992
threshold=54.500000000000007 3096.0000000000005 5.5000000000000009 0.39276755852842815 62.250000000000007 535.00000000000011 86.500000000000014 4.5000000000000009 0.5973030355929525 1804939.0000000002 6163.5000000000009 6.5000000000000009 13.500000000000002 25.500000000000004 64.500000000000014
decision_type=2 2 2 2 2 2 2 2 2 2 2 2 2 2 2
left_child=1 2 -1 11 -2 6 7 -6 9 -7 -10 12 -3 14 -8
right_child=4 3 -4 -5 5 8 13 -9 10 -11 -12 -13 -14 -15 -16
leaf_value=-0.00087022942924185076 -0.00036656086544704133 4.8743001626130868e-05 -0.00026671480849632011 -0.00057439713655572477 0.00012955575906011812 -0.00057176833702916245 0.00014153243072716727 -0.00057474896801018626 -0.00019665556375600518 0.00012965997221689877 0.0002837930576997565 0.000214680622707899 -0.00057455589708217984 0.00024713214443859347 -0.00037642603868033532
leaf_weight=11.000000000000002 8.9999999999999982 13.000000000000002 14.999999999999998 6.9999999999999991 6.9999999999999982 11.000000000000002 66 7 11.000000000000002 6.9999999999999991 14.999999999999998 19 6.9999999999999991 86 9.9999999999999982
leaf_count=11 9 13 15 7 7 11 66 7 11 7 15 19 7 86 10
internal_value=0 -0.000236517 -0.000523713 -7.36351e-05 7.44106e-05 9.25623e-05 0.000134511 -0.000223706 -7.5177e-05 -0.000299544 8.05412e-05 1.71171e-05 -0.000170659 0.000165552 7.30934e-05
internal_weight=0 72 26 46 229 220 176 14 44 18 26 39 20 162 76
internal_count=301 72 26 46 229 220 176 14 44 18 26 39 20 162 76
is_linear=0
shrinkage=0.000831545


Tree=5
num_leaves=16
num_cat=0
split_feature=118 73 22 1 166 1 132 114 159 166 164 131 102 74 72
split_gain=7.6522 4.86364 3.32833 2.98199 2.88454 2.6789 3.17362 2.54611 2.53994 2.67327 2.52761 2.49689 1.8634 1.4799 1.46835
threshold=54.500000000000007 3096.0000000000005 5.5000000000000009 84.500000000000014 217.50000000000003 930.00000000000011 139.50000000000003 1.5000000000000002 57.500000000000007 302.50000000000006 107.25000000000001 25.500000000000004 14.500000000000002 1710.5000000000002 131.50000000000003
decision_type=2 2 2 2 2 2 2 2 2 2 2 2 2 2 2
left_child=1 2 -1 12 7 6 11 -3 -8 -10 -11 14 -2 -4 -5
right_child=3 4 13 5 -6 -7 8 -9 9 10 -12 -13 -14 -15 -16
leaf_value=-0.00086951040222120663 -0.0004588330137734872 -7.5761743387060116e-05 1.3158679537201666e-05 -0.00042811030799291572 0.00012564162460370967 -0.00039869954359994888 0.00025307925449935618 -0.00066264861106779982 0.00014806084172122404 -0.00063350444630887084 7.0736443839147979e-05 0.00015977203888752721 3.6136834596913234e-05 -0.0005091781862465375 -4.6584316377635929e-05
leaf_weight=11.000000000000002 11.000000000000002 14.000000000000002 6.9999999999999991 13.000000000000002 24 6.9999999999999991 105 7.9999999999999991 34 6.9999999999999982 7 20 9.9999999999999982 7.9999999999999991 14.999999999999998
leaf_count=11 11 14 7 13 24 7 105 8 34 7 7 20 10 8 15
internal_value=0 -0.000236322 -0.00052328 7.43484e-05 -7.3575e-05 0.000104516 0.000122174 -0.000290613 0.00018068 2.21647e-05 -0.000282788 -6.43004e-05 -0.000223797 -0.000266494 -0.000224354
internal_weight=0 72 26 229 46 208 201 22 153 48 14 48 21 15 28
internal_count=301 72 26 229 46 208 201 22 153 48 14 48 21 15 28
is_linear=0
shrinkage=0.000831545


Tree=6
num_leaves=16
num_cat=0
split_feature=0 182 22 22 116 63 149 132 131 154 52 132 98 131 191
split_gain=7.00673 3.78832 4.30074 3.64279 3.16045 2.62665 3.12954 3.0391 2.51569 2.13264 1.84051 1.45512 1.34352 1.3239 1.27869
threshold=1312.0000000000002 75.500000000000014 8.0000000000000018 3.5000000000000004 1.3040447623578633 402525.29047562653 249.38333333333335 198.00000000000003 20.500000000000004 372.00000000000006 4.4642483080889468 127.50000000000001 62.500000000000007 24.500000000000004 644.00000000000011
decision_type=2 2 2 2 2 2 2 2 2 2 2 2 2 2 2
left_child=1 2 -1 4 12 6 -5 14 -6 -10 -4 13 -2 -7 -8
right_child=3 -3 10 5 8 11 7 -9 9 -11 -12 -13 -14 -15 -16
leaf_value=-0.0007013752001054285 -0.00016303277694056524 4.2988829512696558e-05 0.00013685863344572945 -0.00045867491713492677 -0.00045685452020969788 -0.00028132148372866244 0.00027823739163096092 -0.00028745377040640963 0.0001934478569585772 -0.00021847427417953674 -0.00031486626738844777 0.00025564172943979386 -0.00066301822545490521 0.00015973981257380067 -9.7893346487979739e-05
leaf_weight=17 6.9999999999999991 23 9.0000000000000018 8.9999999999999982 6.9999999999999991 7.0000000000000027 28 11.999999999999998 31 11.999999999999998 20 89 7.9999999999999991 13.999999999999998 7.9999999999999991
leaf_count=17 7 23 9 9 7 7 28 12 31 12 20 89 8 14 8
internal_value=0 -0.000232503 -0.000370106 6.91947e-05 -9.77477e-05 0.000134187 -1.0688e-05 7.38572e-05 2.85791e-06 7.83217e-05 -0.000174681 0.000209217 -0.00043155 1.22665e-05 0.000194623
internal_weight=0 69 46 232 65 167 57 48 50 43 29 110 15 21 36
internal_count=301 69 46 232 65 167 57 48 50 43 29 110 15 21 36
is_linear=0
shrinkage=0.000831545


Tree=7
num_leaves=16
num_cat=0
split_feature=118 38 182 189 130 1 79 160 110 186 93 52 38 159 132
split_gain=7.62818 4.43018 5.42025 3.53732 3.06488 2.64024 3.02749 2.83454 1.99792 2.18515 2.6404 1.62772 1.3198 1.43313 1.5821
threshold=54.500000000000007 6.5000000000000009 75.500000000000014 343.50000000000006 56.825854700854713 930.00000000000011 1693322.5000000002 103.50000000000001 2.3236279849183084 14.85684183232498 0.096250000000000016 4.3436141304347835 33.500000000000007 63.500000000000007 124.50000000000001
decision_type=2 2 2 2 2 2 2 2 2 2 2 2 2 2 2
left_child=1 2 -1 -3 -2 6 7 -6 9 -8 -11 -10 13 14 -13
right_child=4 3 -4 -5 5 -7 8 -9 11 10 -12 12 -14 -15 -16
leaf_value=-0.00071419480206694674 -0.00026478970485781033 -0.00031336266886043923 -4.6420515481869686e-05 0.00020157530472347641 -0.00049942113185705414 -0.00039823508217999023 0.00014277506921587835 0.00018805258139197405 -0.00012957557284681427 0.00012929834342359397 -0.00054939737818871241 -0.00016419355217000357 0.00030329158601631769 -7.1073479583699551e-05 0.00025709940610159896
leaf_weight=21 17 17 13.999999999999998 20 10.000000000000002 6.9999999999999991 24 6.9999999999999991 9.9999999999999982 6.9999999999999991 8.9999999999999982 6.9999999999999991 65 17 49
leaf_count=21 17 17 14 20 10 7 24 7 10 7 9 7 65 17 49
internal_value=0 -0.000235952 -0.000447717 -3.51616e-05 7.42304e-05 0.000101495 0.000118691 -0.000216731 0.000149092 -1.5779e-05 -0.000253198 0.000193638 0.000217114 0.000140161 0.000204296
internal_weight=0 72 35 37 229 212 205 17 188 40 16 148 138 73 56
internal_count=301 72 35 37 229 212 205 17 188 40 16 148 138 73 56
is_linear=0
shrinkage=0.000831545


Tree=8
num_leaves=16
num_cat=0
split_feature=118 166 74 136 1 38 110 182 93 52 161 89 99 52 38
split_gain=7.61552 3.66946 3.23442 3.2175 2.61297 2.20773 2.04023 3.36378 2.98981 2.24551 1.84743 1.65171 1.64198 1.70361 1.82898
threshold=54.500000000000007 217.50000000000003 3254.5000000000005 49.250000000000007 930.00000000000011 1.5000000000000002 2.4890059551076504 75.500000000000014 0.096250000000000016 4.8067976920302931 81.500000000000014 10.500000000000002 18.500000000000004 4.3436141304347835 3.5000000000000004
decision_type=2 2 2 2 2 2 2 2 2 2 2 2 2 2 2
left_child=1 5 -3 -2 6 10 7 8 -5 -10 -1 -7 -8 -14 -15
right_child=3 2 -4 4 -6 11 12 -9 9 -11 -12 -13 13 14 -16
leaf_value=-0.00091762104363090193 -0.00031112473831402946 -0.00051416508862313001 0.00012554883767867768 0.00010298321558875071 -0.00039790724022952472 -0.00040361493973525928 0.00031363558777434204 0.00017363456855965184 -0.00010413317892001047 -0.00073224494968498685 -0.00036479546356658069 4.6249866061106854e-05 -0.00025276570594458611 -4.692678406777556e-05 0.00020759806551087521
leaf_weight=8.0000000000000018 13.999999999999998 7.0000000000000027 24 11.000000000000002 6.9999999999999991 15.000000000000002 39 30 6.9999999999999991 8.9999999999999982 8.9999999999999982 8.9999999999999982 7.9999999999999991 26 78
leaf_count=8 14 7 24 11 7 15 39 30 7 9 9 9 8 26 78
internal_value=0 -0.000235757 -1.97387e-05 7.41684e-05 9.93514e-05 -0.000398772 0.000116216 -1.7814e-05 -0.000230436 -0.000459113 -0.000627667 -0.000235271 0.000166795 0.000115497 0.000143977
internal_weight=0 72 31 229 215 41 208 57 27 16 17 24 151 112 104
internal_count=301 72 31 229 215 41 208 57 27 16 17 24 151 112 104
is_linear=0
shrinkage=0.000831545


Tree=9
num_leaves=16
num_cat=0
split_feature=118 38 182 1 100 22 159 183 181 118 102 182 164 73 117
split_gain=7.60292 4.41849 5.4069 2.96662 2.55841 2.3249 4.09126 2.5704 2.99867 2.29475 1.85535 1.76295 1.7358 1.44853 1.42458
threshold=54.500000000000007 6.5000000000000009 75.500000000000014 84.500000000000014 7.5000000000000009 28.500000000000004 55.500000000000007 42.500000000000007 0.83965797186705726 120.50000000000001 14.500000000000002 88.500000000000014 35.500000000000007 3900.0000000000005 67.500000000000014
decision_type=2 2 2 2 2 2 2 2 2 2 2 2 2 2 2
left_child=1 2 -1 10 -3 6 9 8 -8 -5 -2 -4 14 -6 -7
right_child=3 4 11 5 13 12 7 -9 -10 -11 -12 -13 -14 -15 -16
leaf_value=-0.00071319701846003628 -0.00045779732496961499 -0.00033114935728928755 0.00024760310177698955 0.00021619460727758042 -0.00013720924900468431 -0.00034039269640876981 -0.00050096496631900052 0.00011189183148977275 0.00012997882341562461 -0.00018432436375268569 3.6101999966111941e-05 -0.00033964499454498988 0.00023834186872194688 0.0002836002782848663 0.00018757636158815545
leaf_weight=21 11.000000000000002 12.999999999999998 6.9999999999999982 55 9.0000000000000018 6.9999999999999982 20.000000000000004 12.999999999999998 6.9999999999999991 11.999999999999998 9.9999999999999982 7 87 14.999999999999998 7
leaf_count=21 11 13 7 55 9 7 20 13 7 12 10 7 87 15 7
internal_value=0 -0.000235562 -0.000447048 7.41065e-05 -3.50371e-05 0.000104196 1.87535e-05 -0.000191487 -0.000337472 0.00014434 -0.000223269 -4.62459e-05 0.000194637 0.000125854 -7.67853e-05
internal_weight=0 72 35 229 37 208 107 40 27 67 21 14 101 24 14
internal_count=301 72 35 229 37 208 107 40 27 67 21 14 101 24 14
is_linear=0
shrinkage=0.000831545


Tree=10
num_leaves=16
num_cat=0
split_feature=118 73 38 166 132 1 135 186 114 137 136 161 156 107 89
split_gain=7.59032 4.83387 3.3086 2.86592 2.63504 3.25724 2.70888 2.68097 2.53365 2.14704 2.03492 1.84594 1.8668 2.28692 1.47591
threshold=54.500000000000007 3096.0000000000005 5.5000000000000009 217.50000000000003 139.50000000000003 84.500000000000014 40.125000000000007 5.581911705288177 1.5000000000000002 81.375000000000014 66.250000000000014 74.500000000000014 421.87500000000006 236.50000000000003 9.5000000000000018
decision_type=2 2 2 2 2 2 2 2 2 2 2 2 2 2 2
left_child=1 2 -1 8 6 -6 -2 -7 -3 -8 -11 -9 -13 -14 -4
right_child=4 3 14 -5 5 7 9 11 -10 10 -12 12 13 -15 -16
leaf_value=-0.00086664653461107286 -0.00034408746538098963 -7.5133342554726135e-05 -0.00050778075402021844 0.00012545308356527043 -0.00030833376301334006 -0.00021832922731409351 0.0002687418603386944 0.00026197377772655805 -0.00066057993106982433 -0.00045760542267833209 4.47552804833001e-05 -0.0002060144055619347 0.00028098013074668194 -0.00014983246141689788 1.3845294147713789e-05
leaf_weight=11.000000000000002 18 14.000000000000002 7.9999999999999982 24 10.999999999999998 11.999999999999998 17 91 7.9999999999999991 8.0000000000000018 18 12.999999999999998 29 11.999999999999998 7
leaf_count=11 18 14 8 24 11 12 17 91 8 8 18 13 29 12 7
internal_value=0 -0.000235367 -0.000521445 -7.31192e-05 7.40447e-05 0.00012778 -7.39234e-05 0.000158461 -0.000289456 3.95447e-05 -0.000110633 0.000189735 6.78155e-05 0.000154846 -0.000265424
internal_weight=0 72 26 46 229 168 61 157 22 43 26 145 54 41 15
internal_count=301 72 26 46 229 168 61 157 22 43 26 145 54 41 15
is_linear=0
shrinkage=0.000831545


Tree=11
num_leaves=16
num_cat=0
split_feature=118 73 38 136 166 1 110 182 3 53 74 159 78 132 72
split_gain=7.57777 4.82588 3.30313 3.20387 2.86119 2.60579 2.03307 3.3522 2.01359 2.45602 1.47519 1.38849 2.20735 1.60998 1.35878
threshold=54.500000000000007 3096.0000000000005 5.5000000000000009 49.250000000000007 217.50000000000003 930.00000000000011 2.4890059551076504 75.500000000000014 1.0000000180025095e-35 17.500000000000004 1710.5000000000002 55.500000000000007 1766673.5000000002 136.50000000000003 104.25000000000001
decision_type=2 2 2 2 2 2 2 2 2 2 2 2 2 2 2
left_child=1 2 -1 -2 14 6 7 8 9 -5 -4 -8 -13 -14 -3
right_child=3 4 10 5 -6 -7 11 -9 -10 -11 -12 12 13 -15 -16
leaf_value=-0.00086593046249599289 -0.00031049337743923651 -0.00042983605466438013 1.3993615921137926e-05 -4.5801615986960167e-05 0.00012534906917315629 -0.00039746234544728797 0.00022420666635594282 0.00017327815044874164 9.0610865686013273e-05 -0.00066342937824082895 -0.00050750211516400882 -0.00029348296078703562 -0.00022248183033282242 0.00021274668660131252 1.337854571815122e-05
leaf_weight=11.000000000000002 13.999999999999998 15.000000000000002 6.9999999999999991 8.0000000000000053 24 6.9999999999999991 99 30 8.9999999999999982 9.9999999999999982 7.9999999999999991 9.9999999999999982 6.9999999999999991 35 6.9999999999999991
leaf_count=11 14 15 7 8 24 7 99 30 9 10 8 10 7 35 7
internal_value=0 -0.000235173 -0.000521015 7.3983e-05 -7.30592e-05 9.91125e-05 0.000115953 -1.78406e-05 -0.000230096 -0.000390182 -0.000265205 0.000166444 5.63161e-05 0.000139956 -0.000289217
internal_weight=0 72 26 229 46 215 208 57 27 18 15 151 52 42 22
internal_count=301 72 26 229 46 215 208 57 27 18 15 151 52 42 22
is_linear=0
shrinkage=0.000831545


Tree=12
num_leaves=16
num_cat=0
split_feature=118 73 22 136 166 1 114 159 1 153 179 78 65 89 2
split_gain=7.56522 4.81792 3.29766 3.19856 2.85645 2.60149 2.52854 2.26183 2.52363 2.28256 2.03109 2.01263 2.21077 1.47301 1.41581
threshold=54.500000000000007 3096.0000000000005 5.5000000000000009 49.250000000000007 217.50000000000003 930.00000000000011 1.5000000000000002 55.500000000000007 84.500000000000014 330.00000000000006 11.65649350649351 1775513.5000000002 55.811471610013093 9.5000000000000018 57.500000000000007
decision_type=2 2 2 2 2 2 2 2 2 2 10 2 2 2 2
left_child=1 2 -1 -2 6 7 14 8 -5 -9 -10 12 -11 -4 -3
right_child=3 4 13 5 -6 -7 -8 9 10 11 -12 -13 -14 -15 -16
leaf_value=-0.00086521498583915543 -0.0003102364794381756 -0.00033767343278915822 -0.00050710506563730819 -0.00017275242691752897 0.00012524514113528405 -0.00039713513790101917 -0.00065972678597356815 -0.0004568249809833546 0.00023627419923144376 0.00011813105238662695 -0.00022274447104147986 0.00015434295950749138 -0.00042060760631405629 1.4006367094990596e-05 0.00018866321076558434
leaf_weight=11.000000000000002 13.999999999999998 7.0000000000000018 7.9999999999999982 12.999999999999998 24 6.9999999999999991 7.9999999999999991 6.9999999999999991 121 10.000000000000002 6.9999999999999991 39 10.999999999999998 7 7
leaf_count=11 14 7 8 13 24 7 8 7 121 10 7 39 11 7 7
internal_value=0 -0.000234979 -0.000520584 7.39211e-05 -7.29988e-05 9.90298e-05 -0.000288978 0.000115857 0.000175606 -9.9347e-06 0.000211062 4.26759e-05 -0.000164525 -0.000264986 -7.48727e-05
internal_weight=0 72 26 229 46 215 22 208 141 67 128 60 21 15 14
internal_count=301 72 26 229 46 215 22 208 141 67 128 60 21 15 14
is_linear=0
shrinkage=0.000831545


Tree=13
num_leaves=16
num_cat=0
split_feature=118 22 106 136 100 113 1 159 38 115 107 179 137 66 153
split_gain=7.55271 4.39752 4.49668 3.19326 2.54546 2.02202 2.75777 2.26787 2.70092 3.70168 2.23504 1.85552 1.597 1.20184 1.18784
threshold=54.500000000000007 6.5000000000000009 16.750000000000004 49.250000000000007 7.5000000000000009 6.5000000000000009 930.00000000000011 55.500000000000007 27.500000000000004 4.5000000000000009 236.50000000000003 11.65649350649351 129.62500000000003 325.51666547411082 543.00000000000011
decision_type=2 2 2 2 2 2 2 2 2 2 2 10 2 2 2
left_child=1 2 12 -2 -3 -5 7 11 9 10 -9 -7 -1 -6 -10
right_child=3 4 -4 5 13 6 -8 8 14 -11 -12 -13 -14 -15 -16
leaf_value=0.00018825851828243784 -0.00030997980247710202 -0.00033009863812561579 -0.00070320999981074851 -0.00033850849666730814 -0.00016309762198719925 0.00021537658851206816 -0.00039680820724939968 0.00017168660594670863 0.00030343886046015078 -0.00069049248590698437 -0.00030804100434545482 -0.00022256110369368536 -0.00035321652822922284 0.00024486825452275257 -4.7053398336294313e-05
leaf_weight=6.9999999999999991 13.999999999999998 12.999999999999998 20 6.9999999999999991 7.0000000000000027 129 6.9999999999999991 17.000000000000004 20.000000000000004 6.9999999999999991 10.999999999999998 6.9999999999999991 7.9999999999999991 17 9.9999999999999982
leaf_count=7 14 13 20 7 7 129 7 17 20 7 11 7 8 17 10
internal_value=0 -0.000234785 -0.000445768 7.38593e-05 -3.47367e-05 9.89472e-05 0.000113779 0.000131694 3.91362e-06 -0.000152878 -1.70752e-05 0.000192732 -0.000100824 0.000125746 0.000186769
internal_weight=0 72 35 229 37 215 208 201 65 35 28 136 15 24 30
internal_count=301 72 35 229 37 215 208 201 65 35 28 136 15 24 30
is_linear=0
shrinkage=0.000831545


Tree=14
num_leaves=16
num_cat=0
split_feature=118 74 130 114 1 1 131 101 179 60 95 163 191 66 63
split_gain=7.54018 4.42636 3.03677 2.69235 2.61587 2.57952 1.93292 1.78098 1.75562 1.65719 1.65314 1.56813 2.2675 2.54579 1.41423
threshold=54.500000000000007 3690.0000000000005 56.825854700854713 2.5000000000000004 930.00000000000011 84.500000000000014 24.500000000000004 10.500000000000002 0.9373385012919897 104.49392359049467 6.280558042147363 60.375000000000007 655.00000000000011 400.9527369900149 387017.82514791383
decision_type=2 2 2 2 2 2 2 2 10 2 2 2 2 2 2
left_child=1 6 -2 8 5 7 -1 -4 10 -8 -3 -7 13 -13 -14
right_child=2 3 4 -5 -6 11 9 -9 -10 -11 -12 12 14 -15 -16
leaf_value=-0.00010333930399720136 -0.0002636647190562652 -0.00036517745455512049 -0.00041561711159089669 -0.00041852497012436298 -0.00039648152194746947 0.00020934040412504311 -0.0007783252555143593 0.00012942695134948254 0.0002772723592476966 -0.00030033530395216584 0.00013706332986300346 7.6481491615915269e-05 -0.00016316460770987259 -0.00039520895913983133 0.00024310916357379528
leaf_weight=7.0000000000000027 17 9.0000000000000018 10.000000000000002 10.999999999999998 6.9999999999999991 111 14.000000000000002 6.9999999999999991 13.999999999999998 7.9999999999999991 8.9999999999999982 20 6.9999999999999991 12.999999999999998 37
leaf_count=7 17 9 10 11 7 111 14 7 14 8 9 20 7 13 37
internal_value=0 -0.000234591 7.37974e-05 -6.50316e-05 0.000100937 0.000118053 -0.000485237 -0.000191575 5.7132e-05 -0.000606028 -0.000114498 0.000146113 5.48575e-05 -0.00010978 0.000178315
internal_weight=0 72 229 43 212 205 29 17 32 22 18 188 77 33 44
internal_count=301 72 229 43 212 205 29 17 32 22 18 188 77 33 44
is_linear=0
shrinkage=0.000831545


Tree=15
num_leaves=16
num_cat=0
split_feature=118 73 22 130 176 1 1 159 38 115 102 52 103 100 90
split_gain=7.52769 4.79954 3.28402 3.03174 2.99971 2.61155 2.57524 2.51483 2.81559 3.87638 2.2051 2.1344 1.72935 1.50192 1.46884
threshold=54.500000000000007 3096.0000000000005 5.5000000000000009 56.825854700854713 0.39276755852842815 930.00000000000011 84.500000000000014 55.500000000000007 27.500000000000004 3.5000000000000004 14.500000000000002 5.0616209725020873 32.38484136310224 19.500000000000004 9.5000000000000018
decision_type=2 2 2 2 2 2 2 2 2 2 2 2 2 2 2
left_child=1 2 -1 -2 11 6 10 -8 9 12 -5 13 -9 -3 -4
right_child=3 4 14 5 -6 -7 7 8 -10 -11 -12 -13 -14 -15 -16
leaf_value=-0.00086337407519547201 -0.00026344637593137725 -0.00010871608173447956 -0.00050616421376678479 -0.00050708727517218531 -0.00057106517211012622 -0.0003961551131020642 0.00021261409244613974 0.00022747481970420363 0.00019461803159888521 -0.00066124538328531145 9.0930769729991902e-05 -0.00039600450256653845 -0.00021764849433426187 0.00025736882738809538 1.420633760675984e-05
leaf_weight=11.000000000000002 17 12.999999999999998 7.9999999999999982 8.0000000000000018 6.9999999999999991 6.9999999999999991 127 12.000000000000002 29 7.9999999999999991 8.9999999999999982 6.9999999999999991 11.999999999999998 19 7
leaf_count=11 17 13 8 8 7 7 127 12 29 8 9 7 12 19 7
internal_value=0 -0.000234397 -0.000519457 7.37358e-05 -7.27264e-05 0.000100853 0.000117955 0.000145991 7.19836e-06 -0.000162703 -0.000191416 1.75857e-05 4.9243e-06 0.000108732 -0.000264389
internal_weight=0 72 26 229 46 212 205 188 61 32 17 39 24 32 15
internal_count=301 72 26 229 46 212 205 188 61 32 17 39 24 32 15
is_linear=0
shrinkage=0.000831545


Tree=16
num_leaves=16
num_cat=0
split_feature=118 166 130 79 160 8 38 159 52 20 8 70 62 179 14
split_gain=7.51525 3.62645 3.02671 2.69893 2.81315 2.53329 2.50939 3.43168 2.74605 2.47095 2.35656 2.15883 2.11147 1.69981 1.66788
threshold=54.500000000000007 217.50000000000003 56.825854700854713 1693322.5000000002 103.50000000000001 2.5000000000000004 28.500000000000004 47.500000000000007 4.3436141304347835 336.50000000000006 9.5000000000000018 72.500000000000014 115.31087256110831 1.050291747707697 1.0000000180025095e-35
decision_type=2 2 2 2 2 2 2 2 2 2 2 2 2 10 2
left_child=1 11 -2 4 -4 -3 7 -5 -8 10 12 -1 13 -9 -13
right_child=2 5 3 6 -6 -7 8 9 -10 -11 -12 14 -14 -15 -16
leaf_value=-0.00067576614855946373 -0.00026322822044448846 -0.00029828604581937773 -0.00049800435066274821 0.00018829690048265208 0.00018687300799509062 0.00018229457374894638 -0.0001496415586668329 0.00027259404085278082 0.00027426414261873136 -0.0004032886752909317 0.00036430047082811523 -0.00011299766520645046 -0.00051492995182142801 -0.00025202802595301936 -0.00053621575049095816
leaf_weight=12.999999999999998 17 13.000000000000002 10.000000000000002 49 6.9999999999999991 18 11.999999999999998 9.0000000000000053 86 14.999999999999998 8.9999999999999982 18.000000000000004 6.9999999999999991 7.9999999999999991 9.9999999999999982
leaf_count=13 17 13 10 49 7 18 12 9 86 15 9 18 7 8 10
internal_value=0 -0.000234204 7.36742e-05 0.000100769 -0.000216384 -1.94562e-05 0.000128487 3.36265e-05 0.000222286 -0.000124309 3.08654e-06 -0.00039626 -0.000133035 2.56872e-05 -0.000265116
internal_weight=0 72 229 212 17 31 195 97 98 48 33 41 24 17 28
internal_count=301 72 229 212 17 31 195 97 98 48 33 41 24 17 28
is_linear=0
shrinkage=0.000831545


Tree=17
num_leaves=16
num_cat=0
split_feature=38 183 91 133 101 124 132 162 23 151 58 95 60 57 169
split_gain=6.90416 9.44068 5.40393 2.70911 2.68123 2.85198 2.54822 1.81212 2.30822 1.88738 1.73681 1.64891 1.63313 1.61453 1.41673
threshold=3.5000000000000004 25.500000000000004 5.5000000000000009 303.50000000000006 23.500000000000004 4.5000000000000009 124.50000000000001 97.500000000000014 6.5000000000000009 407.00000000000006 935217.11906847579 2.6006057798805839 100.22173028991212 280369.00000000006 0.22500000000000003
decision_type=2 2 2 2 2 2 2 2 2 2 2 2 2 2 2
left_child=1 10 -2 6 5 14 13 9 -9 12 -1 -6 -8 -4 -3
right_child=2 4 3 -5 11 -7 7 8 -10 -11 -12 -13 -14 -15 -16
leaf_value=-0.00083537303387609847 -0.00054644272150615025 -0.00041520093827874171 -0.00015986358993899227 -0.00039622378735634924 -0.00063028724724731506 0.00020310373363874651 -0.00011295871019115636 0.00014968562017692838 -0.0003342956890557798 0.0002730393473201287 -0.00036294289215692364 -9.2801081388803203e-05 0.00028857879167133504 0.00026059352364899167 7.1218774164603579e-05
leaf_weight=14.000000000000002 8.9999999999999982 10.000000000000002 29 6.9999999999999991 6.9999999999999991 33 19.000000000000004 21.000000000000004 9.9999999999999982 98 8.9999999999999982 8.9999999999999982 10.999999999999998 7.9999999999999991 6.9999999999999991
leaf_count=14 9 10 29 7 7 33 19 21 10 98 9 9 11 8 7
internal_value=0 -0.00019429 8.15895e-05 0.000109614 -3.41932e-05 6.06948e-05 0.000127816 0.00017354 -6.83897e-06 0.000217206 -0.000652186 -0.000329689 3.46004e-05 -6.86293e-05 -0.000215439
internal_weight=0 89 212 203 66 50 196 159 31 128 23 16 30 37 17
internal_count=301 89 212 203 66 50 196 159 31 128 23 16 30 37 17
is_linear=0
shrinkage=0.000831545


Tree=18
num_leaves=16
num_cat=0
split_feature=22 182 153 74 1 104 131 67 107 132 63 94 105 99 151
split_gain=6.89274 6.77119 4.21835 3.79525 3.65808 3.48935 3.19085 2.98875 2.44683 2.17636 2.17252 1.77129 1.71705 1.64599 1.62775
threshold=3.5000000000000004 68.500000000000014 543.00000000000011 15246.000000000002 92.000000000000014 52.654870164760176 20.500000000000004 64.82098351463965 227.50000000000003 119.50000000000001 456878.36134340399 0.67478863210803552 26.500000000000004 30.500000000000004 390.50000000000006
decision_type=2 2 2 2 2 2 2 2 2 2 2 2 2 2 2
left_child=1 7 4 12 8 6 -3 -1 -2 13 -8 -12 -4 -6 -11
right_child=2 5 3 -5 9 -7 10 -9 -10 14 11 -13 -14 -15 -16
leaf_value=-0.00083167797621722822 1.9917202005965086e-05 -0.00045482863157874926 -0.00019344033688773203 8.4019551321234281e-05 -0.00031982591140983094 -0.00055718755446470928 0.0002517125991037065 -0.00026643429889604037 -0.0005066368385127965 1.7214268260890445e-05 0.0001175877682313998 -0.00040546852529966913 -0.00068394162647892015 0.00018120210900355343 0.00028277730917501703
leaf_weight=13.000000000000002 25 7.9999999999999991 11.000000000000002 22 9.0000000000000018 7.9999999999999991 29 12.999999999999998 7.9999999999999991 19 10.000000000000002 7.9999999999999991 8.9999999999999982 8.9999999999999982 100
leaf_count=13 25 8 11 22 9 8 29 13 8 19 10 8 9 9 100
internal_value=0 -0.000194129 8.15215e-05 -0.000154284 0.00013982 -4.6586e-05 2.82999e-05 -0.000550543 -0.000108537 0.000199668 0.000111094 -0.000115552 -0.000415796 -6.95779e-05 0.000240412
internal_weight=0 89 212 42 170 63 55 26 33 137 47 18 20 18 119
internal_count=301 89 212 42 170 63 55 26 33 137 47 18 20 18 119
is_linear=0
shrinkage=0.000831545


Tree=19
num_leaves=16
num_cat=0
split_feature=118 38 106 189 1 1 159 38 132 144 166 102 123 178 186
split_gain=7.48058 4.3695 4.45993 3.49793 2.9275 2.63135 2.89633 3.00558 2.23421 2.904 2.2213 1.83802 1.75129 2.20298 1.68213
threshold=54.500000000000007 6.5000000000000009 16.750000000000004 343.50000000000006 84.500000000000014 930.00000000000011 55.500000000000007 27.500000000000004 139.50000000000003 7.8750000000000009 279.50000000000006 14.500000000000002 2.5000000000000004 1.2290509687769964 12.227872664835166
decision_type=2 2 2 2 2 2 2 2 2 2 2 2 2 8 2
left_child=1 2 14 -3 11 6 8 10 9 -6 12 -2 -8 -14 -1
right_child=4 3 -4 -5 5 -7 7 -9 -10 -11 -12 -13 13 -15 -16
leaf_value=-0.00039618559341971578 -0.00045533634530178356 -0.00031090441345277742 -0.00070036181704830514 0.0002011584283290273 -0.00034499607271894266 -0.00039533541468633152 0.00030478311655387201 0.00017231129781970325 0.0002514682177151645 0.00017689190552576544 -0.00049379758024856136 3.6249088951661004e-05 -0.00050662285302471215 7.6928249709425479e-05 0.00015952259220773415
leaf_weight=6.9999999999999991 11.000000000000002 17 20 20 10.999999999999998 6.9999999999999991 7.0000000000000027 30 102 22 10.999999999999998 9.9999999999999982 8.0000000000000018 9.9999999999999982 7.9999999999999991
leaf_count=7 11 17 20 20 11 7 7 30 102 22 11 10 8 10 8
internal_value=0 -0.000233665 -0.000443974 -3.42554e-05 7.35024e-05 0.000103393 0.000120894 -2.18548e-05 0.000190658 2.56243e-06 -0.000183682 -0.000221906 -4.62243e-05 -0.000183388 -0.000100443
internal_weight=0 72 35 37 229 208 201 66 135 33 36 21 25 18 15
internal_count=301 72 35 37 229 208 201 66 135 33 36 21 25 18 15
is_linear=0
shrinkage=0.000831545


Tree=20
num_leaves=16
num_cat=0
split_feature=118 22 182 189 136 38 190 163 79 182 142 120 182 134 52
split_gain=7.46817 4.36226 5.33179 3.49214 3.16223 1.98515 3.09988 2.62263 2.32261 1.9048 2.49552 1.9961 1.75176 1.67186 1.66046
threshold=54.500000000000007 6.5000000000000009 75.500000000000014 343.50000000000006 49.250000000000007 28.500000000000004 1284.0000000000002 59.625000000000007 1701315.0000000002 77.500000000000014 14.500000000000002 4.4886342501704872 88.500000000000014 30.500000000000004 4.3436141304347835
decision_type=2 2 2 2 2 2 2 2 2 2 2 2 2 2 2
left_child=1 2 -1 -3 -2 6 7 -6 -7 10 -9 -11 -4 -10 -15
right_child=4 3 12 -5 5 8 -8 9 13 11 -12 -13 -14 14 -16
leaf_value=-0.00070790060040074368 -0.00030852860847255411 -0.00031064695016415095 0.00024731171703785683 0.00020099174543541351 0.00018560429403279417 -0.00028058478974156794 -0.00051233393304637163 -0.00068760061615220122 -0.00014998886469336892 -0.00029284280415789519 1.2664619744099578e-05 0.00014305202889266594 -0.000338068911953347 -9.2598802932141656e-05 0.00028324697116477926
leaf_weight=21 13.999999999999998 17 6.9999999999999982 20 53 6.9999999999999991 6.9999999999999991 6.9999999999999982 7.9999999999999991 9.9999999999999982 7 26 7 8.9999999999999982 81
leaf_count=21 14 17 7 20 53 7 7 7 8 10 7 26 7 9 81
internal_value=0 -0.000233471 -0.000443607 -3.4227e-05 7.3441e-05 9.84068e-05 2.03128e-05 5.68384e-05 0.00018015 -7.9721e-05 -0.000339153 2.16324e-05 -4.56003e-05 0.000213239 0.000245618
internal_weight=0 72 35 37 229 215 110 103 105 50 14 36 14 98 90
internal_count=301 72 35 37 229 215 110 103 105 50 14 36 14 98 90
is_linear=0
shrinkage=0.000831545


Tree=21
num_leaves=16
num_cat=0
split_feature=22 183 189 63 178 59 53 7 51 65 182 124 80 85 132
split_gain=6.86237 9.38683 3.87909 2.90622 2.2252 2.11989 1.94789 1.94174 3.85602 2.43291 2.19614 1.91639 1.63756 1.38347 1.35243
threshold=3.5000000000000004 25.500000000000004 343.50000000000006 441928.15894271055 0.84658454647256443 804792.29356417584 19.500000000000004 21.500000000000004 375.00000000000006 64.757106084505267 75.500000000000014 4.5000000000000009 559.50000000000011 135.50000000000003 136.50000000000003
decision_type=2 2 2 2 8 2 2 2 2 2 2 2 2 2 2
left_child=1 6 5 11 -5 -2 -1 13 9 10 -9 -3 -6 -4 -12
right_child=2 3 7 4 12 -7 -8 8 -10 -11 14 -13 -14 -15 -16
leaf_value=-0.00086240452376927274 1.8543356666415832e-05 -0.00015668348587402584 0.00022615397955177925 -0.00062930636722944287 0.00018141074416937858 -0.00045559583411130199 -0.00037043083642605465 -0.00063757293165939502 0.0002312982553511492 8.9835480128519661e-05 -0.00039689596094702359 0.00026153234975415237 -0.00026590013711207523 -8.4381510310016443e-05 8.8523794445415085e-05
leaf_weight=13.000000000000002 13.000000000000002 10.999999999999998 98 7.0000000000000027 9.0000000000000018 12.999999999999998 9.9999999999999982 9.0000000000000018 34 18 6.9999999999999991 24 14.999999999999998 10.999999999999998 8.9999999999999982
leaf_count=13 13 11 98 7 9 13 10 9 34 18 7 24 15 11 9
internal_value=0 -0.000193703 8.13401e-05 -3.40637e-05 -0.000219219 -0.000219114 -0.000650291 0.000123407 2.2284e-05 -0.000143089 -0.00031058 0.00013004 -9.81153e-05 0.000194781 -0.000124652
internal_weight=0 89 212 66 31 26 23 186 77 43 25 35 24 109 16
internal_count=301 89 212 66 31 26 23 186 77 43 25 35 24 109 16
is_linear=0
shrinkage=0.000831545


Tree=22
num_leaves=16
num_cat=0
split_feature=118 22 182 139 1 78 171 22 159 182 120 139 178 182 26
split_gain=7.4451 4.34901 5.31798 2.58848 2.569 2.56176 2.40657 2.03405 2.83933 2.86944 2.95831 2.49072 1.94811 1.74787 1.66326
threshold=54.500000000000007 6.5000000000000009 75.500000000000014 10.464285714285717 930.00000000000011 1693212.5000000002 56.500000000000007 28.500000000000004 41.500000000000007 77.500000000000014 4.4886342501704872 18.525641025641029 0.45022488755622192 88.500000000000014 28.500000000000004
decision_type=2 2 2 2 2 2 2 2 2 2 2 2 10 2 2
left_child=1 2 -1 14 5 12 -3 8 -7 11 -11 -10 -5 -4 -2
right_child=3 6 13 4 -6 7 -8 -9 9 10 -12 -13 -14 -15 -16
leaf_value=-0.00070687888206158933 7.2401149805438413e-05 -0.00022932199637646755 0.00024714925085484439 8.9687690031794409e-05 -0.00039455658890009016 0.00020851294883412292 0.00019541489919800776 0.00023134147660676247 -0.0007458724953170367 -0.00028684334761012667 0.00022124478884505275 -4.5641944427328408e-05 -0.00045578077572252769 -0.0003375821026816883 -0.00045467974725762306
leaf_weight=21 7.0000000000000027 20 6.9999999999999982 9.0000000000000018 6.9999999999999991 45 17 93 6.9999999999999982 11.999999999999998 23 7 8.9999999999999982 7 9.9999999999999982
leaf_count=21 7 20 7 9 7 45 17 93 7 12 23 7 9 7 10
internal_value=0 -0.000233111 -0.000442927 7.33265e-05 9.83817e-05 0.000115344 -3.417e-05 0.000144193 5.78623e-05 -8.05896e-05 4.68146e-05 -0.000397745 -0.000183756 -4.54373e-05 -0.000238239
internal_weight=0 72 35 229 212 205 37 187 94 49 35 14 18 14 17
internal_count=301 72 35 229 212 205 37 187 94 49 35 14 18 14 17
is_linear=0
shrinkage=0.000831545


Tree=23
num_leaves=16
num_cat=0
split_feature=38 183 91 153 64 174 73 21 107 98 53 124 132 179 109
split_gain=6.84239 9.35991 5.37288 3.28704 2.89957 3.34457 2.87192 2.23861 2.73494 2.01393 1.94338 1.91105 1.83657 1.72112 1.34795
threshold=3.5000000000000004 25.500000000000004 5.5000000000000009 543.00000000000011 441921.69900262397 0.31017241379310351 15121.000000000002 104.50000000000001 227.50000000000003 40.500000000000007 19.500000000000004 4.5000000000000009 119.50000000000001 1.2951388888888891 20.500000000000004
decision_type=2 2 2 2 2 2 2 2 2 2 2 2 2 10 2
left_child=1 10 -2 7 11 -6 9 8 -4 -5 -1 -3 -9 -7 -8
right_child=2 4 3 6 5 13 14 12 -10 -11 -12 -13 -14 -15 -16
leaf_value=-0.00086122173660613895 -0.00054500424087824224 -0.00015641952970041559 0.00010188277666215257 -4.2880422828729999e-05 -0.00048255278196908982 -0.00019958294808062067 -0.00012170785920981028 -4.659706800426267e-05 -0.00045468686557305512 -0.00063703996840131839 -0.00036982101260137784 0.00026121358664771803 0.00024603357406199607 0.00036242662581006295 0.00028874761807411425
leaf_weight=13.000000000000002 8.9999999999999982 10.999999999999998 25 6.9999999999999991 16.000000000000004 7.9999999999999982 11.000000000000002 17 7.9999999999999991 8.9999999999999982 9.9999999999999982 24 115 7 10.999999999999998
leaf_count=13 9 11 25 7 16 8 11 17 8 9 10 24 115 7 11
internal_value=0 -0.000193422 8.12206e-05 0.000109164 -3.40115e-05 -0.000218956 -0.00011117 0.000159934 -3.37222e-05 -0.000378428 -0.000649355 0.000129905 0.000208341 6.31513e-05 8.3783e-05
internal_weight=0 89 212 203 66 31 38 165 33 16 23 35 132 15 22
internal_count=301 89 212 203 66 31 38 165 33 16 23 35 132 15 22
is_linear=0
shrinkage=0.000831545


Tree=24
num_leaves=16
num_cat=0
split_feature=118 73 1 159 2 68 172 188 132 96 107 124 98 122 178
split_gain=7.42088 4.75721 2.90922 3.01805 2.68005 2.60868 2.37181 2.37117 2.1264 2.61291 1.81959 1.77939 1.4921 1.4552 1.40338
threshold=54.500000000000007 3096.0000000000005 84.500000000000014 55.500000000000007 61.500000000000007 732245.50000000012 79.500000000000014 182.65802508495736 139.50000000000003 753.29499999999973 242.50000000000003 5.5000000000000009 35.500000000000007 13.500000000000002 0.73205321285140579
decision_type=2 2 2 2 2 2 2 2 2 2 2 2 2 2 10
left_child=1 7 11 8 5 -5 13 12 9 -4 14 -2 -1 -3 -6
right_child=2 6 3 4 10 -7 -8 -9 -10 -11 -12 -13 -14 -15 -16
leaf_value=-0.00048565714819691352 -1.1114378647514304e-05 0.00012195168919769182 -0.00045477686223822033 5.611255180373505e-05 -4.7311373559008103e-05 -0.00056665446609099955 -0.00045284811530962133 -0.0001014780597860453 0.00023304308515793013 0.00010885701353674669 -0.00020377265388760198 -0.0004992252941655211 -0.00097397988470541551 -0.00024830820549895079 0.00028904626195480154
leaf_weight=12.000000000000005 12.000000000000002 27 6.9999999999999991 8.0000000000000018 13.999999999999998 10.999999999999998 8.9999999999999982 6.9999999999999991 104 29 12.999999999999998 8.9999999999999982 6.9999999999999991 9.9999999999999982 22
leaf_count=12 12 27 7 8 14 11 9 7 104 29 13 9 7 10 22
internal_value=0 -0.000232733 7.32061e-05 0.000103003 -4.06929e-05 -0.000305194 -7.17778e-05 -0.000516533 0.000172784 -1.41066e-06 6.21582e-05 -0.000221278 -0.000668504 2.15975e-05 0.000158401
internal_weight=0 72 229 208 68 19 46 26 140 36 49 21 19 37 36
internal_count=301 72 229 208 68 19 46 26 140 36 49 21 19 37 36
is_linear=0
shrinkage=0.000831545


Tree=25
num_leaves=16
num_cat=0
split_feature=118 74 22 136 176 1 22 159 22 115 37 52 96 120 153
split_gain=7.40861 4.37612 3.64876 3.14098 3.10295 2.5585 2.34795 2.22272 2.95031 4.0274 1.8615 1.80021 1.58424 1.53977 1.25115
threshold=54.500000000000007 3690.0000000000005 5.5000000000000009 49.250000000000007 0.39276755852842815 930.00000000000011 1.5000000000000002 55.500000000000007 27.500000000000004 3.5000000000000004 93.500000000000014 4.8979662276975366 853.73149999999907 4.4886342501704872 543.00000000000011
decision_type=2 2 2 2 2 2 2 2 2 2 2 2 2 2 2
left_child=1 2 -1 -2 6 7 11 10 9 13 12 -3 -5 -9 -10
right_child=3 4 -4 5 -6 -7 -8 8 14 -11 -12 -13 -14 -15 -16
leaf_value=-0.00085774278630197111 -0.00030753927730124648 3.7605486920133313e-05 -0.00024953959231308043 -0.0002508242910263447 -0.00056758728987993422 -0.00039402044374903245 0.00023536286702427464 -0.00030082279125400423 0.00030138379355558969 -0.00061821719611896732 0.00021163443196301759 -0.0005103530699085688 0.00024491473381700368 0.00013603495953229652 -4.7270597810610666e-05
leaf_weight=11.000000000000002 13.999999999999998 10.000000000000002 18 12.000000000000002 6.9999999999999991 6.9999999999999991 19 8.0000000000000018 20.000000000000004 9.9999999999999982 122 6.9999999999999991 6.9999999999999991 18 10.999999999999998
leaf_count=11 14 10 18 12 7 7 19 8 20 10 122 7 7 18 11
internal_value=0 -0.000232541 -0.00048176 7.31449e-05 -6.39482e-05 9.80267e-05 3.4897e-05 0.000114714 -9.98496e-06 -0.000171756 0.000173944 -0.000189195 -6.79494e-05 1.1644e-06 0.000177839
internal_weight=0 72 29 229 43 215 36 208 67 36 141 17 19 26 31
internal_count=301 72 29 229 43 215 36 208 67 36 141 17 19 26 31
is_linear=0
shrinkage=0.000831545


Tree=26
num_leaves=16
num_cat=0
split_feature=38 183 153 1 64 122 177 143 132 109 188 53 124 188 184
split_gain=6.81759 9.32037 4.17314 3.62556 2.89108 2.76366 2.30967 2.24358 2.15471 1.98724 2.49488 1.93519 1.90225 1.7549 1.63696
threshold=3.5000000000000004 25.500000000000004 543.00000000000011 92.000000000000014 441921.69900262397 11.500000000000002 0.90781440781440792 9.5000000000000018 119.50000000000001 13.500000000000002 163.55254311258656 19.500000000000004 4.5000000000000009 156.08193458017686 0.54398497627205578
decision_type=2 2 2 2 2 2 8 2 2 2 2 2 2 2 2
left_child=1 11 3 5 12 -2 -6 -4 14 10 -9 -1 -3 -7 -5
right_child=2 4 7 8 6 13 -8 9 -10 -11 -12 -13 -14 -15 -16
leaf_value=-0.00085946149924418316 -0.00056916416941994285 -0.00015598800044050554 -0.00049579242358687033 0.00018082536990742841 -0.00041098029161625092 0.00014825950988842481 4.83747170997011e-05 7.134961827766039e-05 0.00023917947626926232 0.00013692714925355115 -0.00062830908383234348 -0.00036909720567142258 0.00026068255644968378 -0.00033677297839944018 -0.00031882625818868866
leaf_weight=13.000000000000002 6.9999999999999991 10.999999999999998 9.9999999999999982 9.0000000000000018 18.000000000000004 19.000000000000004 12.999999999999998 6.9999999999999982 119 18 7 9.9999999999999982 24 6.9999999999999991 8.9999999999999982
leaf_count=13 7 11 10 9 18 19 13 7 119 18 7 10 24 7 9
internal_value=0 -0.000193073 8.10716e-05 0.000139056 -3.39994e-05 -0.000108194 -0.000218672 -0.000153467 0.000198639 -4.5633e-05 -0.000279869 -0.000648042 0.000129676 1.71135e-05 -6.92652e-05
internal_weight=0 89 212 170 66 33 31 42 137 32 14 23 35 26 18
internal_count=301 89 212 170 66 33 31 42 137 32 14 23 35 26 18
is_linear=0
shrinkage=0.000831545


Tree=27
num_leaves=16
num_cat=0
split_feature=118 73 38 136 94 36 159 91 143 143 172 93 37 182 62
split_gain=7.38343 4.73703 3.23157 3.13143 2.62004 2.89537 2.36099 2.41592 2.20194 2.60509 2.50759 1.97118 1.61272 1.58081 1.55619
threshold=54.500000000000007 3096.0000000000005 5.5000000000000009 49.250000000000007 1.0256882459404895 239.50000000000003 55.500000000000007 10.500000000000002 23.500000000000004 7.5000000000000009 63.500000000000007 0.13050000000000003 86.500000000000014 66.500000000000014 102.62847760752518
decision_type=2 2 2 2 2 2 2 2 2 2 2 2 2 2 2
left_child=1 2 -1 -2 5 14 12 8 9 -8 -10 -11 13 -5 -3
right_child=3 4 -4 6 -6 -7 7 -9 10 11 -12 -13 -14 -15 -16
leaf_value=-0.00085650330191460301 -0.00030708554363184084 -0.00060077312369135021 -0.00026232024758321453 -0.00035125358421730511 0.00026151360264370686 0.00010040609304307982 0.0001864619811087155 0.00024263559424903114 -0.00021072625481283088 -0.0006257951427183603 0.00036277854498064846 -0.00014871271285821545 0.00018731269093284593 0.00018746877136815131 -0.00013386033428171258
leaf_weight=11.000000000000002 13.999999999999998 11.000000000000002 14.999999999999998 7.9999999999999982 11.999999999999998 13.999999999999998 7.0000000000000027 17 10.000000000000002 12.000000000000002 10.999999999999998 11.999999999999998 131 7 8.9999999999999982
leaf_count=11 14 11 15 8 12 14 7 17 10 12 11 12 131 7 9
internal_value=0 -0.000232147 -0.000515344 7.30194e-05 -7.15336e-05 -0.00018938 9.78632e-05 -2.88734e-05 -0.000117846 -0.000258454 8.98859e-05 -0.000388391 0.000157745 -0.000100144 -0.000391874
internal_weight=0 72 26 229 46 34 215 69 52 31 21 24 146 15 20
internal_count=301 72 26 229 46 34 215 69 52 31 21 24 146 15 20
is_linear=0
shrinkage=0.000831545


Tree=28
num_leaves=16
num_cat=0
split_feature=2 183 54 63 58 135 10 7 157 162 74 179 135 133 179
split_gain=6.79341 4.04635 4.82101 3.76085 2.93043 2.35157 2.07875 2.44011 1.96465 1.91495 2.18636 1.86344 1.67712 1.67707 1.60428
threshold=58.500000000000007 42.500000000000007 2.6313777328319277 381093.85356596723 773512.26136826712 55.125000000000007 1.0000000180025095e-35 19.500000000000004 1215.0000000000002 115.00000000000001 56751.000000000007 11.031250000000002 41.875000000000007 69.500000000000014 0.98850574712643691
decision_type=2 2 2 2 2 2 2 2 2 2 2 10 2 2 8
left_child=1 2 -1 6 8 12 13 -8 -4 11 14 -5 -6 -2 -11
right_child=3 -3 4 9 5 -7 7 -9 -10 10 -12 -13 -14 -15 -16
leaf_value=-0.00069668508755394429 -0.00011431520133945829 0.00018335868786924266 -0.00020090506066469004 0.00020627001074371092 -0.00045146896265402204 -0.00061133719637829838 0.00025463870995830721 -0.00023633268327360947 0.00024686039713222148 -0.00050446916424335027 0.00027170551102233151 -0.00018409349264307889 7.7213775622484798e-05 -0.0005889828953585134 -6.037799039519612e-06
leaf_weight=14.999999999999998 12.000000000000002 15.999999999999998 13.000000000000002 128 7.0000000000000062 12.999999999999998 15.000000000000002 12.999999999999998 13.999999999999998 8.0000000000000053 8.9999999999999982 8.9999999999999982 9.9999999999999982 8.9999999999999982 9.9999999999999982
leaf_count=15 12 16 13 128 7 13 15 13 14 8 9 9 10 9 10
internal_value=0 -0.000194278 -0.000278296 8.0282e-05 -0.000167468 -0.00034602 -0.000121738 2.66639e-05 3.1305e-05 0.000140668 -6.16025e-05 0.000180544 -0.00014144 -0.000319037 -0.000228671
internal_weight=0 88 72 213 57 30 49 28 27 164 27 137 17 21 18
internal_count=301 88 72 213 57 30 49 28 27 164 27 137 17 21 18
is_linear=0
shrinkage=0.000831545


Tree=29
num_leaves=16
num_cat=0
split_feature=118 74 22 136 14 90 150 91 93 68 183 22 132 178 170
split_gain=7.36023 4.35444 3.62966 3.1221 2.40632 1.95478 1.93137 2.85816 2.46212 3.07524 1.95774 1.9225 1.69774 2.14649 2.01228
threshold=54.500000000000007 3690.0000000000005 5.5000000000000009 49.250000000000007 1.0000000180025095e-35 10.500000000000002 264.00000000000006 10.500000000000002 0.12550000000000003 478441.00000000006 38.500000000000007 22.500000000000004 148.50000000000003 2.2341216216216222 8.5000000000000018
decision_type=2 2 2 2 2 2 2 2 2 2 2 2 2 10 2
left_child=1 2 -1 -2 -3 -4 12 8 9 -8 -11 -10 13 14 -5
right_child=3 4 5 6 -6 -7 7 -9 11 10 -12 -13 -14 -15 -16
leaf_value=-0.00085538041093739434 -0.0003066344626624418 2.3450505027343642e-05 -0.00049255832200455977 -0.00028063145875746907 -0.00050712007952763536 5.7590949089734127e-05 0.00018686629987171028 0.00025589756560426914 -9.5730577186125195e-05 -0.00065899732953248141 -0.00010501036539669372 0.0002800988236106455 0.00023581576594987764 -0.00035434740517465303 0.00021255874965591859
leaf_weight=11.000000000000002 13.999999999999998 36 10.000000000000002 6.9999999999999991 6.9999999999999991 7.9999999999999991 7.0000000000000027 23 25 12.000000000000002 6.9999999999999991 14.999999999999998 81 7.9999999999999991 30
leaf_count=11 14 36 10 7 7 8 7 23 25 12 7 15 81 8 30
internal_value=0 -0.000231783 -0.000480383 7.29037e-05 -6.3608e-05 -0.000248772 9.77105e-05 3.92006e-06 -8.40684e-05 -0.000282912 -0.000456043 4.54482e-05 0.00016392 3.43382e-05 0.000118894
internal_weight=0 72 29 229 43 18 215 89 66 26 19 40 126 45 37
internal_count=301 72 29 229 43 18 215 89 66 26 19 40 126 45 37
is_linear=0
shrinkage=0.000831545


Tree=30
num_leaves=16
num_cat=0
split_feature=38 91 128 68 100 81 31 141 141 51 150 146 119 151 60
split_gain=6.78196 5.33361 4.71361 2.89577 2.72845 2.37425 2.47941 2.21706 2.26419 2.15091 1.97492 1.92522 1.76353 1.55834 1.77798
threshold=3.5000000000000004 5.5000000000000009 925.50000000000011 914830.25000000012 9.5000000000000018 1324.5000000000002 11.500000000000002 30.500000000000004 46.500000000000007 352.50000000000006 576.50000000000011 22.125000000000004 215.50000000000003 428.50000000000006 94.96989464749872
decision_type=2 2 2 2 2 2 2 2 2 2 2 2 2 2 2
left_child=2 -2 3 -1 9 6 12 -7 -9 11 13 -3 -4 14 -6
right_child=1 4 5 -5 10 7 -8 8 -10 -11 -12 -13 -14 -15 -16
leaf_value=-0.00085504682723009653 -0.00054307445934156072 -0.00038229924597321739 0.00013428062262437021 -0.00024819254425435745 -0.00016246176834319373 -0.00043197790336914788 0.00036344038073095574 0.00031002213294906383 -0.00026913561855066267 0.0003026562672840625 -0.00027857679881436817 7.6690248132798203e-05 -0.0004002842020544663 0.00022198228597601684 0.00017196588106989594
leaf_weight=10.000000000000002 8.9999999999999982 17.000000000000004 9.0000000000000053 11.999999999999998 18 18 12.999999999999998 8.0000000000000018 10.999999999999998 6.9999999999999991 6.9999999999999991 9.9999999999999982 7.9999999999999991 116 28
leaf_count=10 9 17 9 12 18 18 13 8 11 7 7 10 8 116 28
internal_value=0 8.08576e-05 -0.000192569 -0.000525888 0.000108699 -8.26825e-05 9.10476e-05 -0.000223452 -2.50311e-05 -0.000106064 0.000151932 -0.000212543 -0.000117889 0.000170648 4.10529e-05
internal_weight=0 212 89 22 203 67 30 37 19 34 169 27 17 162 46
internal_count=301 212 89 22 203 67 30 37 19 34 169 27 17 162 46
is_linear=0
shrinkage=0.000831545


Tree=31
num_leaves=16
num_cat=0
split_feature=38 118 106 185 64 58 135 117 148 191 0 136 9 132 95
split_gain=6.77072 4.8712 4.35527 3.92104 3.7143 2.82748 2.64413 2.29617 2.00355 2.61187 1.97011 1.72134 1.56424 1.4474 1.39624
threshold=3.5000000000000004 54.500000000000007 16.750000000000004 0.40304852745160308 403462.8528566226 808445.69382034207 40.625000000000007 44.500000000000007 5.5000000000000009 696.50000000000011 1279.5000000000002 86.750000000000014 4.5000000000000009 127.50000000000001 2.7440223397823345
decision_type=2 2 2 2 2 2 2 2 2 2 2 2 2 2 2
left_child=1 2 11 -3 5 8 -5 -7 9 -2 12 -1 -6 -12 -8
right_child=4 3 -4 6 10 7 14 -9 -10 -11 13 -13 -14 -15 -16
leaf_value=0.00018776342626814291 0.00019358102773541061 -0.00062611004961706949 -0.00072142612250405546 -0.00040061077410220186 -0.00039389484792870429 -0.00063535024868802592 0.00031170582315294068 -8.0394748956011145e-05 -0.00035352979763505127 -0.00023327520081106682 1.2224229210475551e-05 -0.00039265640068325032 0.0001165254953256464 0.0002544445345170664 -7.4794886470069179e-08
leaf_weight=6.9999999999999982 41 6.9999999999999991 18 7.9999999999999991 7.0000000000000027 9.0000000000000018 15.999999999999998 11.999999999999998 7.9999999999999991 12.999999999999998 21 7 9.9999999999999982 91 26
leaf_count=7 41 7 18 8 7 9 16 12 8 13 21 7 10 91 26
internal_value=0 -0.00019241 -0.000451668 -4.64825e-05 8.07902e-05 -5.64002e-05 3.54308e-05 -0.000319566 3.2997e-05 9.06478e-05 0.000169043 -0.000102954 -9.44014e-05 0.000209065 0.00011902
internal_weight=0 89 32 57 212 83 50 21 62 54 129 14 17 112 42
internal_count=301 89 32 57 212 83 50 21 62 54 129 14 17 112 42
is_linear=0
shrinkage=0.000831545


Tree=32
num_leaves=16
num_cat=0
split_feature=118 73 38 130 166 1 78 160 114 113 120 172 74 92 2
split_gain=7.32232 4.70936 3.20961 2.95924 2.79905 2.56692 2.96427 2.778 2.48554 2.46904 1.99165 1.89237 1.45737 1.43125 1.38413
threshold=54.500000000000007 3096.0000000000005 5.5000000000000009 56.825854700854713 217.50000000000003 930.00000000000011 1693212.5000000002 103.50000000000001 1.5000000000000002 6.5000000000000009 4.2956251939187107 34.500000000000007 1710.5000000000002 183.72900000000001 57.500000000000007
decision_type=2 2 2 2 2 2 2 2 2 2 2 2 2 2 2
left_child=1 2 -1 -2 8 6 7 -5 14 -8 11 -11 -4 -12 -3
right_child=3 4 12 5 -6 -7 9 -9 -10 10 13 -13 -14 -15 -16
leaf_value=-0.00085355369727180838 -0.00026041170021967597 -0.00033242373499518802 1.6093069707514612e-05 -0.00049529424720861422 0.00012519620813736691 -0.000393236606695387 -0.00033579010622971603 0.00018529398208342503 -0.00065242407966605779 0.00018508349400149542 0.0002211432290517305 -0.00023898413361357523 -0.00050222263908889756 -0.00016255003872125119 0.00018798639174141769
leaf_weight=11.000000000000002 17 7.0000000000000018 6.9999999999999991 10.000000000000002 24 6.9999999999999991 6.9999999999999991 6.9999999999999991 7.9999999999999991 14.000000000000002 145 14.999999999999998 7.9999999999999991 6.9999999999999991 7
leaf_count=11 17 7 7 10 24 7 7 7 8 14 145 15 8 7 7
internal_value=0 -0.000231186 -0.000513555 7.27143e-05 -7.10433e-05 9.95053e-05 0.00011646 -0.000215439 -0.000284843 0.000146542 0.00016532 -3.43067e-05 -0.000261393 0.000203405 -7.25748e-05
internal_weight=0 72 26 229 46 212 205 17 22 188 181 29 15 152 14
internal_count=301 72 26 229 46 212 205 17 22 188 181 29 15 152 14
is_linear=0
shrinkage=0.000831545


Tree=33
num_leaves=16
num_cat=0
split_feature=38 183 91 63 174 100 165 132 150 53 124 99 145 179 156
split_gain=6.75246 9.23604 5.31653 2.87457 3.31688 2.71715 2.40216 2.33991 2.38652 1.92312 1.88485 1.79532 1.76061 1.70994 1.41641
threshold=3.5000000000000004 25.500000000000004 5.5000000000000009 441928.15894271055 0.31017241379310351 9.5000000000000018 79.250000000000014 119.50000000000001 576.50000000000011 19.500000000000004 4.5000000000000009 30.500000000000004 16.250000000000004 1.2951388888888891 353.25000000000006
decision_type=2 2 2 2 2 2 2 2 2 2 2 2 2 10 2
left_child=1 9 -2 10 -5 6 -4 11 14 -1 -3 -7 -8 -6 -9
right_child=2 3 5 4 13 7 12 8 -10 -11 -12 -13 -14 -15 -16
leaf_value=-0.00085581350532664714 -0.00054225197193869684 -0.00015494775140027146 0.00021286488207106349 -0.00048044864002430668 -0.00019888800527793999 -0.00027933988538933723 -0.0004258365621781947 8.1248871271052286e-05 -0.00027816267307379238 -0.00036699632620859613 0.00025981320796332675 0.00015785314964041332 5.6358400225318203e-05 0.00036129203771683777 0.00027055205211738188
leaf_weight=13.000000000000002 8.9999999999999982 10.999999999999998 10.999999999999998 16.000000000000004 7.9999999999999982 14.000000000000002 15.000000000000002 38 6.9999999999999991 9.9999999999999982 24 11.999999999999998 7.9999999999999991 7 98
leaf_count=13 9 11 11 16 8 14 15 38 7 10 24 12 8 7 98
internal_value=0 -0.000192152 8.068e-05 -3.37998e-05 -0.000217945 0.000108477 -0.000105841 0.00015162 0.000193329 -0.000645058 0.000129408 -7.76742e-05 -0.000258453 6.29912e-05 0.000217729
internal_weight=0 89 212 66 31 203 34 169 143 23 35 26 23 15 136
internal_count=301 89 212 66 31 203 34 169 143 23 35 26 23 15 136
is_linear=0
shrinkage=0.000831545


Tree=34
num_leaves=16
num_cat=0
split_feature=118 74 22 130 94 78 1 160 113 114 120 89 54 162 133
split_gain=7.29797 4.33037 3.60276 2.94951 2.66907 2.65512 2.86308 2.77146 2.46181 1.99147 1.98732 1.94435 1.82389 1.75077 1.32367
threshold=54.500000000000007 3690.0000000000005 5.5000000000000009 56.825854700854713 1.0256882459404895 1693212.5000000002 930.00000000000011 103.50000000000001 6.5000000000000009 2.5000000000000004 4.2956251939187107 10.500000000000002 3.2020094380472082 35.500000000000007 35.500000000000007
decision_type=2 2 2 2 2 2 2 2 2 2 2 2 2 2 2
left_child=1 2 -1 -2 9 7 8 -5 -7 12 13 -4 -3 -10 -12
right_child=3 4 11 5 -6 6 -8 -9 10 -11 14 -13 -14 -15 -16
leaf_value=-0.00085232004210723529 -0.00025998563602274577 0.00011944374728758477 -0.00049109856198033296 -0.00049475332055233143 0.00028907116288452679 -0.00033530434100861016 -0.00039283520014557938 0.00018503322092863745 0.00026893992144214675 -0.00049080999014418575 -8.8761989431010389e-05 5.7580032762993816e-05 -0.0003924946578436969 -0.00017128281072283457 0.00022370404418597202
leaf_weight=11.000000000000002 17 15.000000000000002 10.000000000000002 10.000000000000002 10.999999999999998 6.9999999999999991 6.9999999999999991 6.9999999999999991 9.0000000000000018 9.9999999999999982 9.9999999999999982 7.9999999999999991 6.9999999999999991 20 142
leaf_count=11 17 15 10 10 11 7 7 7 9 10 10 8 7 20 142
internal_value=0 -0.000230803 -0.000478715 7.25923e-05 -6.30944e-05 9.93391e-05 0.000126831 -0.000215228 0.000146321 -0.000184523 0.000165071 -0.000247964 -4.41753e-05 -3.43385e-05 0.000203115
internal_weight=0 72 29 229 43 212 195 17 188 32 181 18 22 29 152
internal_count=301 72 29 229 43 212 195 17 188 32 181 18 22 29 152
is_linear=0
shrinkage=0.000831545


end of trees

feature_importances:
118=28
22=26
1=25
38=22
132=16
159=15
182=15
73=12
74=12
136=12
52=11
183=11
166=10
179=9
78=8
91=7
120=7
124=7
130=7
153=7
63=6
100=6
114=6
53=5
93=5
107=5
131=5
133=5
150=5
160=5
178=5
189=5
2=4
79=4
89=4
94=4
102=4
113=4
115=4
117=4
135=4
141=4
143=4
176=4
191=4
7=3
58=3
60=3
62=3
64=3
68=3
95=3
96=3
98=3
99=3
106=3
110=3
122=3
137=3
151=3
162=3
172=3
186=3
188=3
0=2
8=2
14=2
20=2
21=2
37=2
51=2
54=2
57=2
65=2
66=2
72=2
90=2
101=2
109=2
139=2
156=2
161=2
163=2
164=2
171=2
174=2
177=2
184=2
3=1
9=1
10=1
23=1
26=1
31=1
36=1
48=1
59=1
67=1
70=1
80=1
81=1
83=1
85=1
92=1
103=1
104=1
105=1
116=1
119=1
123=1
128=1
134=1
142=1
144=1
145=1
146=1
148=1
149=1
154=1
157=1
165=1
169=1
170=1
181=1
185=1
190=1

parameters:
[boosting: gbdt]
[objective: regression]
[metric: rmse]
[tree_learner: serial]
[device_type: cpu]
[data: ]
[valid: ]
[num_iterations: 35]
[learning_rate: 0.000831545]
[num_leaves: 16]
[num_threads: -1]
[deterministic: 0]
[force_col_wise: 0]
[force_row_wise: 0]
[histogram_pool_size: -1]
[max_depth: 11]
[min_data_in_leaf: 7]
[min_sum_hessian_in_leaf: 0.001]
[bagging_fraction: 0.7]
[pos_bagging_fraction: 1]
[neg_bagging_fraction: 1]
[bagging_freq: 0]
[bagging_seed: 400]
[feature_fraction: 0.7]
[feature_fraction_bynode: 0.7]
[feature_fraction_seed: 30056]
[extra_trees: 0]
[extra_seed: 12879]
[early_stopping_round: 0]
[first_metric_only: 0]
[max_delta_step: 0]
[lambda_l1: 9.39592e-05]
[lambda_l2: 0.070469]
[linear_lambda: 0]
[min_gain_to_split: 0]
[drop_rate: 0.1]
[max_drop: 50]
[skip_drop: 0.5]
[xgboost_dart_mode: 0]
[uniform_drop: 0]
[drop_seed: 17869]
[top_rate: 0.2]
[other_rate: 0.1]
[min_data_per_group: 100]
[max_cat_threshold: 32]
[cat_l2: 10]
[cat_smooth: 10]
[max_cat_to_onehot: 4]
[top_k: 20]
[monotone_constraints: ]
[monotone_constraints_method: basic]
[monotone_penalty: 0]
[feature_contri: ]
[forcedsplits_filename: ]
[refit_decay_rate: 0.9]
[cegb_tradeoff: 1]
[cegb_penalty_split: 0]
[cegb_penalty_feature_lazy: ]
[cegb_penalty_feature_coupled: ]
[path_smooth: 0]
[interaction_constraints: ]
[verbosity: -1]
[saved_feature_importance_type: 0]
[linear_tree: 0]
[max_bin: 255]
[max_bin_by_feature: ]
[min_data_in_bin: 3]
[bin_construct_sample_cnt: 200000]
[data_random_seed: 175]
[is_enable_sparse: 1]
[enable_bundle: 1]
[use_missing: 1]
[zero_as_missing: 0]
[feature_pre_filter: 1]
[pre_partition: 0]
[two_round: 0]
[header: 0]
[label_column: ]
[weight_column: ]
[group_column: ]
[ignore_column: ]
[categorical_feature: ]
[forcedbins_filename: ]
[precise_float_parser: 0]
[objective_seed: 16083]
[num_class: 1]
[is_unbalance: 0]
[scale_pos_weight: 1]
[sigmoid: 1]
[boost_from_average: 1]
[reg_sqrt: 0]
[alpha: 0.9]
[fair_c: 1]
[poisson_max_delta_step: 0.7]
[tweedie_variance_power: 1.5]
[lambdarank_truncation_level: 30]
[lambdarank_norm: 1]
[label_gain: ]
[eval_at: ]
[multi_error_top_k: 1]
[auc_mu_weights: ]
[num_machines: 1]
[local_listen_port: 12400]
[time_out: 120]
[machine_list_filename: ]
[machines: ]
[gpu_platform_id: -1]
[gpu_device_id: -1]
[gpu_use_dp: 0]
[num_gpu: 1]

end of parameters

pandas_categorical:[]
